svm_type epsilon_svr
kernel_type rbf
gamma 0.25
nr_class 2
total_sv 3
rho -39.4997
SV
0.4720027086281846 1:40.51 2:40.4 3:40 4:39.69 
-1 1:40.4 2:40 3:39.69 4:39.43 
0.5279972913718154 1:39.69 2:39.43 3:39.06 4:39.42 
