svm_type epsilon_svr
kernel_type rbf
gamma 0.25
nr_class 2
total_sv 4
rho -110.565
SV
-1 1:109.4 2:108.6 3:108.86 4:108.7 
-1 1:108.6 2:108.86 3:108.7 4:109.01 
1 1:108.7 2:109.01 3:108.83 4:109.7 
1 1:109.01 2:108.83 3:109.7 4:111.25 
