svm_type epsilon_svr
kernel_type rbf
gamma 0.25
nr_class 2
total_sv 4
rho -45.2725
SV
-0.1973782606655018 1:44.13 2:44.15 3:43.67 4:43.61 
0.4176580236991269 1:44.15 2:43.67 3:43.61 4:45.17 
-0.6592848330474882 1:43.61 2:45.17 3:45.63 4:45.18 
0.439005070013863 1:45.17 2:45.63 3:45.18 4:44.77 
