svm_type epsilon_svr
kernel_type rbf
gamma 0.25
nr_class 2
total_sv 5
rho -76.5208
SV
1 1:77.89 2:76.67 3:77.43 4:77.92 
-1 1:76.67 2:77.43 3:77.92 4:77.48 
-0.2891611664560924 1:77.43 2:77.92 3:77.48 4:74.58 
-0.01439452479836126 1:77.92 2:77.48 3:74.58 4:76.08 
0.3035556912544538 1:77.48 2:74.58 3:76.08 4:76.43 
