svm_type epsilon_svr
kernel_type rbf
gamma 0.25
nr_class 2
total_sv 5
rho -548.515
SV
-1 1:520.84003 2:526.53998 3:532.71002 4:543.97998 
-1 1:526.53998 2:532.71002 3:543.97998 4:539.78003 
0.2850000003026594 1:532.71002 2:543.97998 3:539.78003 4:540.77002 
0.7149999996973406 1:543.97998 2:539.78003 3:540.77002 4:548.90002 
1 1:539.78003 2:540.77002 3:548.90002 4:549.33002 
