svm_type epsilon_svr
kernel_type rbf
gamma 0.25
nr_class 2
total_sv 5
rho -54.0725
SV
-0.4529668277570079 1:51.58 2:50.06 3:51.85 4:53.94 
-0.5470331722429922 1:50.06 2:51.85 3:53.94 4:53.49 
1 1:51.85 2:53.94 3:53.49 4:53.53 
1 1:53.94 2:53.49 3:53.53 4:55.42 
-1 1:53.49 2:53.53 3:55.42 4:55.29 
