svm_type epsilon_svr
kernel_type rbf
gamma 0.25
nr_class 2
total_sv 5
rho -79.392
SV
1 1:79.88 2:81.45 3:80.61 4:80.77 
1 1:81.45 2:80.61 3:80.77 4:80.78 
-0.6768753066814031 1:80.61 2:80.77 3:80.78 4:80.02 
-1 1:80.77 2:80.78 3:80.02 4:79.22 
-0.323124693318597 1:80.78 2:80.02 3:79.22 4:78.02 
