svm_type epsilon_svr
kernel_type rbf
gamma 0.25
nr_class 2
total_sv 5
rho -101.312
SV
0.5732895020171899 1:101.43 2:101.66 3:101.63 4:100.86 
0.3082805165745756 1:101.66 2:101.63 3:100.86 4:101.58 
-0.8815700185917655 1:101.63 2:100.86 3:101.58 4:101.79 
-1 1:100.86 2:101.58 3:101.79 4:100.96 
1 1:101.58 2:101.79 3:100.96 4:101.06 
