svm_type epsilon_svr
kernel_type rbf
gamma 0.25
nr_class 2
total_sv 5
rho -112.181
SV
-1 1:111.62 2:109.73 3:108.23 4:106.75 
0.3928983171402843 1:109.73 2:108.23 3:106.75 4:109.41 
-0.3067092443719631 1:108.23 2:106.75 3:109.41 4:112.65 
0.6592866176987127 1:106.75 2:109.41 3:112.65 4:111.78 
0.2545243095329661 1:109.41 2:112.65 3:111.78 4:112.94 
