svm_type epsilon_svr
kernel_type rbf
gamma 0.25
nr_class 2
total_sv 3
rho -75.5947
SV
-1 1:76.16 2:75.73 3:75.28 4:75.34 
0.3870536956855397 1:75.73 2:75.28 3:75.34 4:74.99 
0.6129463043144603 1:75.28 2:75.34 3:74.99 4:75.7 
