svm_type epsilon_svr
kernel_type rbf
gamma 0.25
nr_class 2
total_sv 4
rho -330.54
SV
-1 1:311.51001 2:316.48001 3:327.82001 4:323.04999 
-1 1:316.48001 2:327.82001 3:323.04999 4:324.92999 
1 1:323.04999 2:324.92999 3:326.54001 4:330.54001 
1 1:324.92999 2:326.54001 3:330.54001 4:332.63 
