svm_type epsilon_svr
kernel_type rbf
gamma 0.25
nr_class 2
total_sv 4
rho -32.2148
SV
-0.5167444614756431 1:31.58 2:31.53 3:31.32 4:31.95 
0.193535398800145 1:31.53 2:31.32 3:31.95 4:31.99 
0.1006081337906094 1:31.32 2:31.95 3:31.99 4:32.29 
0.2226009288848886 1:31.99 2:32.29 3:32.35 4:32.32 
