svm_type epsilon_svr
kernel_type rbf
gamma 0.25
nr_class 2
total_sv 5
rho -58.442
SV
-0.6572122444768801 1:57.24 2:59.83 3:59.83 4:59.23 
-0.9338709306270961 1:59.83 2:59.83 3:59.23 4:57.92 
1 1:59.83 2:59.23 3:57.92 4:58.02 
-0.4089168248960237 1:59.23 2:57.92 3:58.02 4:59.21 
1 1:57.92 2:58.02 3:59.21 4:58.56 
