svm_type epsilon_svr
kernel_type rbf
gamma 0.25
nr_class 2
total_sv 5
rho -40.5591
SV
1 1:39.59 2:39.59 3:42.54 4:40.04 
0.2857944710240126 1:39.59 2:42.54 3:40.04 4:41.85 
0.2446708850523026 1:42.54 2:40.04 3:41.85 4:40.47 
-0.8524634060438095 1:40.04 2:41.85 3:40.47 4:40.61 
-0.6780019500325056 1:41.85 2:40.47 3:40.61 4:39.71 
