svm_type epsilon_svr
kernel_type rbf
gamma 0.25
nr_class 2
total_sv 4
rho -17.965
SV
-1 1:16.89 2:17.33 3:17.68 4:17.71 
-1 1:17.33 2:17.68 3:17.71 4:17.47 
1 1:17.68 2:17.71 3:17.47 4:17.53 
1 1:17.47 2:17.53 3:18.43 4:18.02 
