svm_type epsilon_svr
kernel_type rbf
gamma 0.25
nr_class 2
total_sv 5
rho -592.695
SV
-1 1:600.96002 2:594.40997 3:592.32996 4:587.98999 
0.0350050083241983 1:594.40997 2:592.32996 3:587.98999 4:585.53998 
0.9649949916758017 1:592.32996 2:587.98999 3:585.53998 4:592.83002 
1 1:587.98999 2:585.53998 3:592.83002 4:593.76001 
-1 1:585.53998 2:592.83002 3:593.76001 4:593.87 
