svm_type epsilon_svr
kernel_type rbf
gamma 0.25
nr_class 2
total_sv 5
rho -373.195
SV
0.9450016028254993 1:380.09 2:378.56 3:369.51001 4:366.37 
-1 1:378.56 2:369.51001 3:366.37 4:374.23999 
0.05499839717450072 1:369.51001 2:366.37 3:374.23999 4:370.57999 
-1 1:366.37 2:374.23999 3:370.57999 4:373.35001 
1 1:374.23999 2:370.57999 3:373.35001 4:371.92001 
