svm_type epsilon_svr
kernel_type rbf
gamma 0.25
nr_class 2
total_sv 5
rho -324.954
SV
-0.6938643262459764 1:334.38 2:327 3:324.20001 4:327.23999 
1 1:327 2:324.20001 3:327.23999 4:324.16 
0.6441923276834275 1:324.20001 2:327.23999 3:324.16 4:327.44 
-0.8271173236089774 1:327.23999 2:324.16 3:327.44 4:325.69 
-0.1232106778284738 1:324.16 2:327.44 3:325.69 4:324.57001 
