svm_type epsilon_svr
kernel_type rbf
gamma 0.25
nr_class 2
total_sv 4
rho -543.87
SV
-1 1:542.84003 2:539.70001 3:542.87 4:538.95001 
-1 1:539.70001 2:542.87 3:538.95001 4:531.90997 
1 1:538.95001 2:531.90997 3:536.09003 4:543.87 
1 1:531.90997 2:536.09003 3:543.87 4:555.47998 
