svm_type epsilon_svr
kernel_type rbf
gamma 0.25
nr_class 2
total_sv 4
rho -84.2047
SV
0.3016981317653904 1:85.96 2:86.29 3:83.52 4:84.3 
0.3095005048444784 1:86.29 2:83.52 3:84.3 4:84.6 
-0.5555171000431666 1:83.52 2:84.3 3:84.6 4:84.57 
-0.0556815365667022 1:84.3 2:84.6 3:84.57 4:83.57 
