svm_type epsilon_svr
kernel_type rbf
gamma 0.25
nr_class 2
total_sv 5
rho -42.2821
SV
-1 1:39.59 2:41.81 3:40.78 4:41.14 
0.6228588807166024 1:41.81 2:40.78 3:41.14 4:41.26 
0.09303764357895555 1:40.78 2:41.14 3:41.26 4:42.88 
0.1603912924268111 1:41.14 2:41.26 3:42.88 4:42.55 
0.1237121832776309 1:41.26 2:42.88 3:42.55 4:42.71 
