svm_type epsilon_svr
kernel_type rbf
gamma 0.25
nr_class 2
total_sv 4
rho -40.4862
SV
-1 1:40.1 2:40.12 3:40.19 4:40.01 
1 1:40.12 2:40.19 3:40.01 4:40.34 
0.9748453774460745 1:40.19 2:40.01 3:40.34 4:40.94 
-0.9748453774460745 1:40.01 2:40.34 3:40.94 4:40.79 
