svm_type epsilon_svr
kernel_type rbf
gamma 0.25
nr_class 2
total_sv 5
rho -44.7774
SV
-1 1:43 2:43.13 3:43.27 4:43.81 
1 1:43.13 2:43.27 3:43.81 4:44.15 
-0.2831125315558748 1:43.27 2:43.81 3:44.15 4:45.33 
0.1045642812007263 1:43.81 2:44.15 3:45.33 4:44.76 
0.1785482503551485 1:44.15 2:45.33 3:44.76 4:45.12 
