svm_type epsilon_svr
kernel_type rbf
gamma 0.25
nr_class 2
total_sv 5
rho -546.8
SV
0.5899948726435582 1:554.10999 2:545.91998 3:542.03998 4:541.01001 
1 1:545.91998 2:542.03998 3:541.01001 4:547.48999 
0.4100051273564418 1:542.03998 2:541.01001 3:547.48999 4:550.28998 
-1 1:541.01001 2:547.48999 3:550.28998 4:547.31 
-1 1:547.48999 2:550.28998 3:547.31 4:545.38 
