svm_type epsilon_svr
kernel_type rbf
gamma 0.25
nr_class 2
total_sv 4
rho -581.13
SV
1 1:579.95001 2:584.77002 3:589.27002 4:596.08002 
1 1:589.27002 2:596.08002 3:587.37 4:581.13 
-1 1:596.08002 2:587.37 3:581.13 4:587.98999 
-1 1:587.37 2:581.13 3:587.98999 4:575.06 
