svm_type epsilon_svr
kernel_type rbf
gamma 0.25
nr_class 2
total_sv 4
rho -46.6499
SV
-0.1682051088812762 1:48.84 2:48.42 3:47.7 4:47.59 
0.5030875789118004 1:48.42 2:47.7 3:47.59 4:46.9 
0.6651175299694757 1:47.7 2:47.59 3:46.9 4:47.17 
-1 1:46.9 2:47.17 3:46.95 4:46.67 
