svm_type epsilon_svr
kernel_type rbf
gamma 0.25
nr_class 2
total_sv 5
rho -49.4707
SV
1 1:50.65 2:50.86 3:50.53 4:51.22 
0.6816649420326425 1:50.86 2:50.53 3:51.22 4:50.51 
-1 1:50.53 2:51.22 3:50.51 4:50.17 
0.181011487866314 1:51.22 2:50.51 3:50.17 4:49.13 
-0.8626764298989565 1:50.51 2:50.17 3:49.13 4:49.21 
