svm_type epsilon_svr
kernel_type rbf
gamma 0.25
nr_class 2
total_sv 5
rho -79.026
SV
-1 1:73.59 2:73.21 3:72.63 4:75.95 
-0.179465723365729 1:73.21 2:72.63 3:75.95 4:76.95 
-0.5698161961456237 1:72.63 2:75.95 3:76.95 4:78.69 
0.7492819195113527 1:75.95 2:76.95 3:78.69 4:78.37 
1 1:76.95 2:78.69 3:78.37 4:80.04 
