svm_type epsilon_svr
kernel_type rbf
gamma 0.25
nr_class 2
total_sv 4
rho -42.8514
SV
-0.5921542083424705 1:44.16 2:43.44 3:42.98 4:42.68 
0.4646158024985667 1:43.44 2:42.98 3:42.68 4:42.5 
-0.8724615941560964 1:42.98 2:42.68 3:42.5 4:42.95 
1 1:42.68 2:42.5 3:42.95 4:42.87 
