svm_type epsilon_svr
kernel_type rbf
gamma 0.25
nr_class 2
total_sv 5
rho -93.2172
SV
-1 1:90.83 2:90.28 3:90.36 4:90.9 
0.05614840671683981 1:90.28 2:90.36 3:90.9 4:91.98 
0.3935128540460793 1:90.36 2:90.9 3:91.98 4:92.93 
-0.2776983383904043 1:90.9 2:91.98 3:92.93 4:93.52 
0.8280370776274851 1:91.98 2:92.93 3:93.52 4:93.48 
