svm_type epsilon_svr
kernel_type rbf
gamma 0.25
nr_class 2
total_sv 4
rho -39.7119
SV
-0.6382852867718094 1:40 2:39.69 3:39.43 4:39.06 
-1 1:39.43 2:39.06 3:39.42 4:39.64 
0.6382852867718094 1:39.06 2:39.42 3:39.64 4:39.54 
1 1:39.42 2:39.64 3:39.54 4:39.97 
