svm_type epsilon_svr
kernel_type rbf
gamma 0.25
nr_class 2
total_sv 5
rho -41.2241
SV
-1 1:38.9 2:39.24 3:39.52 4:38.48 
0.7190473032217596 1:39.24 2:39.52 3:38.48 4:39.46 
-0.2555937715870488 1:39.52 2:38.48 3:39.46 4:41.44 
-0.2833164899137471 1:38.48 2:39.46 3:41.44 4:40.93 
0.8198629582790362 1:39.46 2:41.44 3:40.93 4:40.97 
