svm_type epsilon_svr
kernel_type rbf
gamma 0.25
nr_class 2
total_sv 4
rho -74.6486
SV
0.2268977059478843 1:68.42 2:69.4 3:69.27 4:71.29 
0.4372028954190245 1:69.4 2:69.27 3:71.29 4:74.98 
0.1760256860056862 1:69.27 2:71.29 3:74.98 4:75.19 
-0.840126287372595 1:71.29 2:74.98 3:75.19 4:74.92 
