svm_type epsilon_svr
kernel_type rbf
gamma 0.25
nr_class 2
total_sv 3
rho -32.4159
SV
0.3673113232540712 1:31.96 2:32.05 3:33.94 4:33.39 
0.4225476483227816 1:32.05 2:33.94 3:33.39 4:32.85 
-0.7898589715768526 1:32.85 2:32.77 3:32.26 4:32.07 
