svm_type epsilon_svr
kernel_type rbf
gamma 0.25
nr_class 2
total_sv 4
rho -27.2462
SV
0.9702106642499734 1:28.11 2:27.83 3:27.89 4:28.06 
-1 1:27.89 2:28.06 3:27.51 4:27.27 
-0.09748303409354345 1:28.06 2:27.51 3:27.27 4:26.57 
0.1272723698435701 1:27.51 2:27.27 3:26.57 4:26.84 
