svm_type epsilon_svr
kernel_type rbf
gamma 0.25
nr_class 2
total_sv 5
rho -33.9598
SV
1 1:34.07 2:33.92 3:33.76 4:34.45 
0.0109288274102322 1:33.92 2:33.76 3:34.45 4:34.4 
-0.07121183703162984 1:33.76 2:34.45 3:34.4 4:34.17 
-1 1:34.45 2:34.4 3:34.17 4:33.8 
0.06028300962139765 1:34.4 2:34.17 3:33.8 4:33.41 
