svm_type epsilon_svr
kernel_type rbf
gamma 0.25
nr_class 2
total_sv 4
rho -23.4673
SV
0.2935047163949028 1:22.6 2:23.37 3:23.06 4:23.46 
-1 1:23.37 2:23.06 3:23.46 4:23.57 
-0.2935047163949028 1:23.06 2:23.46 3:23.57 4:23.29 
1 1:23.57 2:23.29 3:23.33 4:23.39 
