svm_type epsilon_svr
kernel_type rbf
gamma 0.25
nr_class 2
total_sv 5
rho -40.2432
SV
0.5100526724746046 1:39.59 2:42.54 3:40.04 4:41.85 
0.5774214041349219 1:42.54 2:40.04 3:41.85 4:40.47 
-0.7201185311125795 1:40.04 2:41.85 3:40.47 4:40.61 
-0.5859588485518649 1:41.85 2:40.47 3:40.61 4:39.71 
0.2186033030549179 1:40.47 2:40.61 3:39.71 4:39.81 
