svm_type epsilon_svr
kernel_type rbf
gamma 0.25
nr_class 2
total_sv 4
rho -36.4109
SV
-0.2507062158193863 1:34.73 2:34.94 3:35.92 4:36.04 
0.2507062158193863 1:35.92 2:36.04 3:36.31 4:36.63 
1 1:36.04 2:36.31 3:36.63 4:36.78 
-1 1:36.31 2:36.63 3:36.78 4:36.94 
