svm_type epsilon_svr
kernel_type rbf
gamma 0.25
nr_class 2
total_sv 4
rho -51.4635
SV
-1 1:51.62 2:51.2 3:51.3 4:52.03 
-0.1506531384567664 1:51.2 2:51.3 3:52.03 4:50.66 
0.9275769285131 1:52.03 2:50.66 3:51.4 4:51.32 
0.2230762099436663 1:50.66 2:51.4 3:51.32 4:51.73 
