svm_type epsilon_svr
kernel_type rbf
gamma 0.25
nr_class 2
total_sv 4
rho -32.9715
SV
-1 1:31.62 2:31.74 3:32.19 4:32.27 
1 1:31.74 2:32.19 3:32.27 4:32.62 
-0.07709070478561438 1:32.27 2:32.62 3:33.28 4:33.15 
0.07709070478561438 1:32.62 2:33.28 3:33.15 4:33.05 
