svm_type epsilon_svr
kernel_type rbf
gamma 0.25
nr_class 2
total_sv 4
rho -326.945
SV
-0.575005000030867 1:327.5 2:332.41 3:335.20001 4:325.91 
0.575005000030867 1:332.41 2:335.20001 3:325.91 4:326.26999 
-1 1:335.20001 2:325.91 3:326.26999 4:327.62 
1 1:325.91 2:326.26999 3:327.62 4:325.62 
