svm_type epsilon_svr
kernel_type rbf
gamma 0.25
nr_class 2
total_sv 5
rho -81.3908
SV
-0.2244133268484353 1:83.31 2:83.05 3:81.32 4:81.89 
1 1:83.05 2:81.32 3:81.89 4:81.35 
1 1:81.32 2:81.89 3:81.35 4:82.53 
-1 1:81.89 2:81.35 3:82.53 4:82.25 
-0.7755866731515647 1:81.35 2:82.53 3:82.25 4:80.71 
