svm_type epsilon_svr
kernel_type rbf
gamma 0.25
nr_class 2
total_sv 5
rho -53.725
SV
-1 1:51.89 2:51.74 3:51.58 4:50.06 
0.370480195754862 1:51.74 2:51.58 3:50.06 4:51.85 
-0.1481064227686062 1:51.58 2:50.06 3:51.85 4:53.94 
-0.2223737729862557 1:50.06 2:51.85 3:53.94 4:53.49 
1 1:51.85 2:53.94 3:53.49 4:53.53 
