svm_type epsilon_svr
kernel_type rbf
gamma 0.25
nr_class 2
total_sv 4
rho -340.02
SV
-1 1:334.53 2:335.13 3:335.78 4:332.91 
-1 1:335.13 2:335.78 3:332.91 4:331.59 
1 1:335.78 2:332.91 3:331.59 4:334.01999 
1 1:332.91 2:331.59 3:334.01999 4:341.82999 
