svm_type epsilon_svr
kernel_type rbf
gamma 0.25
nr_class 2
total_sv 5
rho -35.4093
SV
0.4612883402544633 1:33.35 2:34.31 3:33.94 4:34.84 
-0.1713995675629234 1:34.31 2:33.94 3:34.84 4:35.73 
-0.3181379923378162 1:33.94 2:34.84 3:35.73 4:35.2 
-0.4903559609301081 1:34.84 2:35.73 3:35.2 4:34.95 
0.5186051805763844 1:35.73 2:35.2 3:34.95 4:35.06 
