svm_type epsilon_svr
kernel_type rbf
gamma 0.25
nr_class 2
total_sv 4
rho -64.4588
SV
-0.3577201604294349 1:65.77 2:65.78 3:64.29 4:64.5 
-0.0852059769238786 1:65.78 2:64.29 3:64.5 4:64.19 
1 1:64.29 2:64.5 3:64.19 4:64.4 
-0.5570738626466866 1:64.5 2:64.19 3:64.4 4:65.6 
