svm_type epsilon_svr
kernel_type rbf
gamma 0.25
nr_class 2
total_sv 5
rho -77.7273
SV
1 1:78.29 2:78.54 3:77.22 4:78.79 
1 1:78.54 2:77.22 3:78.79 4:79 
-1 1:77.22 2:78.79 3:79 4:79.04 
-0.5561082104976122 1:78.79 2:79 3:79.04 4:76.55 
-0.4438917895023878 1:79 2:79.04 3:76.55 4:77.08 
