svm_type epsilon_svr
kernel_type rbf
gamma 0.25
nr_class 2
total_sv 4
rho -101.819
SV
-0.3921251932886174 1:99.16 2:100.53 3:100.57 4:100.58 
-1 1:100.57 2:100.58 3:101.32 4:101.54 
0.8633005786161591 1:100.58 2:101.32 3:101.54 4:100.89 
0.5288246146724583 1:101.32 2:101.54 3:100.89 4:102.13 
