svm_type epsilon_svr
kernel_type rbf
gamma 0.25
nr_class 2
total_sv 5
rho -73.4234
SV
1 1:77.44 2:77.56 3:76.29 4:77.52 
-0.644153394450705 1:77.56 2:76.29 3:77.52 4:75.91 
-0.3230275187358369 1:76.29 2:77.52 3:75.91 4:72.91 
0.08477286871773318 1:77.52 2:75.91 3:72.91 4:72.99 
-0.1175919555311913 1:75.91 2:72.91 3:72.99 4:73.59 
