svm_type epsilon_svr
kernel_type rbf
gamma 0.25
nr_class 2
total_sv 3
rho -32.8254
SV
0.5558151646179662 1:33.71 2:33.47 3:33.47 4:33.13 
-1 1:33.47 2:33.47 3:33.13 4:32.84 
0.4441848353820337 1:33.13 2:32.84 3:32.61 4:32.75 
