svm_type epsilon_svr
kernel_type rbf
gamma 0.25
nr_class 2
total_sv 4
rho -36.7094
SV
-0.404931353677265 1:38.91 2:39.06 3:38.79 4:38.49 
0.4387064725535926 1:39.06 2:38.79 3:38.49 4:36.29 
-0.3611498685210601 1:38.79 2:38.49 3:36.29 4:37.05 
0.3273747496447325 1:36.29 2:37.05 3:36.35 4:36.7 
