svm_type epsilon_svr
kernel_type rbf
gamma 0.25
nr_class 2
total_sv 5
rho -42.3169
SV
1 1:43.85 2:43.88 3:43.28 4:43.06 
-0.8112380226680607 1:43.88 2:43.28 3:43.06 4:43.11 
1 1:43.28 2:43.06 3:43.11 4:42.36 
-0.5554506406370436 1:43.06 2:43.11 3:42.36 4:42.85 
-0.6333113366948958 1:43.11 2:42.36 3:42.85 4:42.03 
