svm_type epsilon_svr
kernel_type rbf
gamma 0.25
nr_class 2
total_sv 5
rho -42.9943
SV
0.4332832641428736 1:44.5 2:43.97 3:43.89 4:43.58 
-1 1:43.97 2:43.89 3:43.58 4:43.16 
1 1:43.89 2:43.58 3:43.16 4:42.86 
0.0549843882109057 1:43.58 2:43.16 3:42.86 4:43.37 
-0.4882676523537793 1:43.16 2:42.86 3:43.37 4:43.08 
