svm_type epsilon_svr
kernel_type rbf
gamma 0.25
nr_class 2
total_sv 4
rho -18.0279
SV
1 1:19.5 2:19.8 3:19.82 4:19.87 
0.2574463028912479 1:19.8 2:19.82 3:19.87 4:20.25 
-0.681807483339294 1:19.82 2:19.87 3:20.25 4:18.88 
-0.575638819551954 1:20.25 2:18.88 3:18.04 4:17.69 
