svm_type epsilon_svr
kernel_type rbf
gamma 0.25
nr_class 2
total_sv 5
rho -533.175
SV
0.5249949747739895 1:539.27002 2:541.08002 3:540.37 4:541.83002 
0.4750050252260106 1:541.08002 2:540.37 3:541.83002 4:533.79999 
-1 1:540.37 2:541.83002 3:533.79999 4:533.75 
1 1:541.83002 2:533.79999 3:533.75 4:531.32001 
-1 1:533.79999 2:533.75 3:531.32001 4:537.31 
