svm_type epsilon_svr
kernel_type rbf
gamma 0.25
nr_class 2
total_sv 4
rho -76.3623
SV
1 1:76.22 2:76.84 3:76.31 4:75.6 
-0.1342344336728312 1:76.84 2:76.31 3:75.6 4:77.08 
-0.8250037258057105 1:75.6 2:77.08 3:76.12 4:76.49 
-0.04076184052145841 1:77.08 2:76.12 3:76.49 4:76.08 
