svm_type epsilon_svr
kernel_type rbf
gamma 0.25
nr_class 2
total_sv 4
rho -45.8711
SV
0.02131408932012149 1:42 2:42.6 3:43.5 4:44.7 
-0.3215005782597508 1:42.6 2:43.5 3:44.7 4:45.87 
-0.09356818536248433 1:43.5 2:44.7 3:45.87 4:45.43 
0.3937546743021136 1:45.87 2:45.43 3:45.63 4:46.05 
