svm_type epsilon_svr
kernel_type rbf
gamma 0.25
nr_class 2
total_sv 5
rho -83.1298
SV
-1 1:83.01 2:83.52 3:82.71 4:82.31 
0.1980989521698041 1:83.52 2:82.71 3:82.31 4:80.78 
0.4816844853678844 1:82.71 2:82.31 3:80.78 4:83.09 
1 1:82.31 2:80.78 3:83.09 4:83.62 
-0.6797834375376884 1:80.78 2:83.09 3:83.62 4:84.63 
