svm_type epsilon_svr
kernel_type rbf
gamma 0.25
nr_class 2
total_sv 4
rho -77.7159
SV
-1 1:76.12 2:76.23 3:77.32 4:77.35 
1 1:76.23 2:77.32 3:77.35 4:77.3 
1 1:77.35 2:77.3 3:78.24 4:77.86 
-1 1:77.3 2:78.24 3:77.86 4:78.29 
