svm_type epsilon_svr
kernel_type rbf
gamma 0.25
nr_class 2
total_sv 5
rho -97.8601
SV
-0.4934108017849974 1:93.09 2:94.43 3:93.94 4:94.72 
-0.6689170167551285 1:94.43 2:93.94 3:94.72 4:97.19 
-0.1349101787314499 1:93.94 2:94.72 3:97.19 4:97.03 
1 1:94.72 2:97.19 3:97.03 4:97.67 
0.2972379972715757 1:97.19 2:97.03 3:97.67 4:99.02 
