svm_type epsilon_svr
kernel_type rbf
gamma 0.25
nr_class 2
total_sv 5
rho -534.417
SV
-0.5168326117975531 1:540.01001 2:539.16998 3:530.39001 4:532.53003 
-1 1:539.16998 2:530.39001 3:532.53003 4:533.79999 
0.8636852243558906 1:530.39001 2:532.53003 3:533.79999 4:524.04999 
-0.3468526125583374 1:532.53003 2:533.79999 3:524.04999 4:535.38 
1 1:533.79999 2:524.04999 3:535.38 4:533.96997 
