svm_type epsilon_svr
kernel_type rbf
gamma 0.25
nr_class 2
total_sv 3
rho -28.0896
SV
0.6643050318990854 1:27.03 2:27.74 3:27.69 4:28.13 
-0.7571589424670302 1:27.69 2:28.13 3:28.32 4:28.11 
0.09285391056794476 1:28.32 2:28.11 3:27.83 4:27.89 
