svm_type epsilon_svr
kernel_type rbf
gamma 0.25
nr_class 2
total_sv 5
rho -51.9415
SV
-1 1:49.33 2:50.24 3:50.7 4:52 
1 1:50.24 2:50.7 3:52 4:50.61 
0.9743132104160765 1:50.7 2:52 3:50.61 4:52.91 
0.02568678958392349 1:52 2:50.61 3:52.91 4:52.64 
-1 1:50.61 2:52.91 3:52.64 4:52.11 
