svm_type epsilon_svr
kernel_type rbf
gamma 0.25
nr_class 2
total_sv 5
rho -112.05
SV
-1 1:110.22 2:109.8 3:106.82 4:105.99 
-1 1:109.8 2:106.82 3:105.99 4:108.72 
0.2501025768776515 1:106.82 2:105.99 3:108.72 4:109.55 
0.812165878076701 1:105.99 2:108.72 3:109.55 4:112.4 
0.9377315450456475 1:108.72 2:109.55 3:112.4 4:112.98 
