svm_type epsilon_svr
kernel_type rbf
gamma 0.25
nr_class 2
total_sv 3
rho -40.5366
SV
0.003131888994959716 1:38.65 2:39.05 3:39.88 4:38.95 
0.1838875143754867 1:39.88 2:38.95 3:40.66 4:40.52 
-0.1870194033704464 1:38.95 2:40.66 3:40.52 4:40.75 
