svm_type epsilon_svr
kernel_type rbf
gamma 0.25
nr_class 2
total_sv 3
rho -16.3296
SV
1 1:16.01 2:16.05 3:16.18 4:16.11 
-0.4603414564790794 1:16.18 2:16.11 3:16.64 4:16.33 
-0.5396585435209206 1:16.11 2:16.64 3:16.33 4:16.21 
