svm_type epsilon_svr
kernel_type rbf
gamma 0.25
nr_class 2
total_sv 5
rho -32.7859
SV
-1 1:32.5 2:32.61 3:32.52 4:32.55 
-1 1:32.61 2:32.52 3:32.55 4:32.47 
0.4545342404329351 1:32.52 2:32.55 3:32.47 4:32.46 
1 1:32.55 2:32.47 3:32.46 4:32.8 
0.5454657595670649 1:32.47 2:32.46 3:32.8 4:33.07 
