svm_type epsilon_svr
kernel_type rbf
gamma 0.25
nr_class 2
total_sv 5
rho -326.655
SV
1 1:323.57001 2:329.67001 3:327.5 4:332.41 
-0.644997507264257 1:329.67001 2:327.5 3:332.41 4:335.20001 
-0.28500749758046 1:327.5 2:332.41 3:335.20001 4:325.91 
0.8650025024559592 1:332.41 2:335.20001 3:325.91 4:326.26999 
-0.9349974976112424 1:335.20001 2:325.91 3:326.26999 4:327.62 
