svm_type epsilon_svr
kernel_type rbf
gamma 0.25
nr_class 2
total_sv 5
rho -357.817
SV
1 1:355.89999 2:352.45001 3:358.66 4:359.76001 
0.2227914500278571 1:352.45001 2:358.66 3:359.76001 4:360.84 
0.7772085499721428 1:358.66 2:359.76001 3:360.84 4:358.14001 
-1 1:359.76001 2:360.84 3:358.14001 4:358.60999 
-1 1:360.84 2:358.14001 3:358.60999 4:324.01001 
