svm_type epsilon_svr
kernel_type rbf
gamma 0.25
nr_class 2
total_sv 5
rho -306.898
SV
1 1:316.5 2:316.92999 3:312.63 4:306.64001 
-0.9575549125682981 1:316.92999 2:312.63 3:306.64001 4:312.5 
0.3629021949374071 1:312.63 2:306.64001 3:312.5 4:305.84 
0.3224550887637395 1:306.64001 2:312.5 3:305.84 4:307.35999 
-0.7278023711328484 1:312.5 2:305.84 3:307.35999 4:307.32001 
