svm_type epsilon_svr
kernel_type rbf
gamma 0.25
nr_class 2
total_sv 4
rho -526.65
SV
1 1:509.95999 2:511 3:518.72998 4:529.91998 
-1 1:518.72998 2:529.91998 3:533.09003 4:526.65002 
-1 1:529.91998 2:533.09003 3:526.65002 4:519.97998 
1 1:533.09003 2:526.65002 3:519.97998 4:520.63 
