svm_type epsilon_svr
kernel_type rbf
gamma 0.25
nr_class 2
total_sv 5
rho -74.5827
SV
1 1:77.3 2:78.24 3:77.86 4:78.29 
1 1:78.24 2:77.86 3:78.29 4:77.56 
-0.8377062383498176 1:77.86 2:78.29 3:77.56 4:77.98 
-0.8427642709709792 1:78.29 2:77.56 3:77.98 4:75.2 
-0.3195294906792031 1:77.56 2:77.98 3:75.2 4:73.82 
