svm_type epsilon_svr
kernel_type rbf
gamma 0.25
nr_class 2
total_sv 5
rho -371.603
SV
-0.9436269399912149 1:375.10999 2:374.09 3:370.95999 4:367.35001 
1 1:374.09 2:370.95999 3:367.35001 4:370.56 
0.3968368406867136 1:370.95999 2:367.35001 3:370.56 4:374.59 
-1 1:367.35001 2:370.56 3:374.59 4:372.10001 
0.5467900993045013 1:370.56 2:374.59 3:372.10001 4:370.26001 
