svm_type epsilon_svr
kernel_type rbf
gamma 0.25
nr_class 2
total_sv 4
rho -557.99
SV
-1 1:555.01001 2:551.17999 3:555.51001 4:547.32001 
-1 1:551.17999 2:555.51001 3:547.32001 4:554.51001 
1 1:555.51001 2:547.32001 3:554.51001 4:550.84003 
1 1:554.51001 2:550.84003 3:559.5 4:557.98999 
