svm_type epsilon_svr
kernel_type rbf
gamma 0.25
nr_class 2
total_sv 4
rho -37.6519
SV
-0.6067329432496879 1:35.52 2:36.19 3:36.36 4:36.47 
0.941354257500936 1:36.19 2:36.36 3:36.47 4:37.38 
-0.7100664794893073 1:36.36 2:36.47 3:37.38 4:37.83 
0.3754451652380592 1:37.38 2:37.83 3:37.5 4:37.64 
