svm_type epsilon_svr
kernel_type rbf
gamma 0.25
nr_class 2
total_sv 5
rho -44.3715
SV
1 1:45.18 2:44.77 3:45.53 4:45.73 
-0.6520806387311637 1:44.77 2:45.53 3:45.73 4:45.78 
0.3362282410822047 1:45.53 2:45.73 3:45.78 4:44.45 
0.2242952196949219 1:45.73 2:45.78 3:44.45 4:44.66 
-0.908442822045963 1:45.78 2:44.45 3:44.66 4:44.49 
