svm_type epsilon_svr
kernel_type rbf
gamma 0.25
nr_class 2
total_sv 5
rho -109.156
SV
0.5240703297791623 1:112.4 2:114.12 3:111.95 4:111.62 
-0.786753784937026 1:114.12 2:111.95 3:111.62 4:109.73 
-1 1:111.95 2:111.62 3:109.73 4:108.23 
0.2626834551578636 1:111.62 2:109.73 3:108.23 4:106.75 
1 1:109.73 2:108.23 3:106.75 4:109.41 
