svm_type epsilon_svr
kernel_type rbf
gamma 0.25
nr_class 2
total_sv 5
rho -330.247
SV
0.9835904687499806 1:345.95001 2:346.38 3:342.34 4:329.75 
0.1728090624999936 1:346.38 2:342.34 3:329.75 4:331.32999 
0.8436004687500258 1:342.34 2:329.75 3:331.32999 4:330.51999 
-1 1:329.75 2:331.32999 3:330.51999 4:331.19 
-1 1:331.32999 2:330.51999 3:331.19 4:323.89001 
