svm_type epsilon_svr
kernel_type rbf
gamma 0.25
nr_class 2
total_sv 4
rho -43.9824
SV
-0.004810961785917818 1:43.07 2:42.96 3:43.93 4:44.42 
0.8283996894856506 1:43.93 2:44.42 3:43.53 4:43.65 
0.1764112723002672 1:44.42 2:43.53 3:43.65 4:44.37 
-1 1:43.53 2:43.65 3:44.37 4:44.11 
