svm_type epsilon_svr
kernel_type rbf
gamma 0.25
nr_class 2
total_sv 3
rho -31.5927
SV
-0.1373828688933276 1:33.27 2:33 3:31.78 4:31.8 
0.3293209532835513 1:33 2:31.78 3:31.8 4:31.51 
-0.1919380843902236 1:31.8 2:31.51 3:31.8 4:31.62 
