svm_type epsilon_svr
kernel_type rbf
gamma 0.25
nr_class 2
total_sv 5
rho -100.317
SV
0.4958989764433401 1:99.9 2:99.62 3:99.62 4:98.75 
0.5595025710027017 1:99.62 2:99.62 3:98.75 4:100.8 
0.3133009354338764 1:99.62 2:98.75 3:100.8 4:101.02 
-0.3687024828799183 1:98.75 2:100.8 3:101.02 4:100.73 
-1 1:100.8 2:101.02 3:100.73 4:99.81 
