svm_type epsilon_svr
kernel_type rbf
gamma 0.25
nr_class 2
total_sv 5
rho -44.479
SV
-1 1:43.46 2:43 3:43.13 4:43.27 
-0.2550129423988055 1:43 2:43.13 3:43.27 4:43.81 
1 1:43.13 2:43.27 3:43.81 4:44.15 
-0.1836731849576727 1:43.27 2:43.81 3:44.15 4:45.33 
0.4386861273564782 1:43.81 2:44.15 3:45.33 4:44.76 
