svm_type epsilon_svr
kernel_type rbf
gamma 0.25
nr_class 2
total_sv 4
rho -573.15
SV
1 1:595.97998 2:593.34998 3:589.02002 4:590.59998 
1 1:593.34998 2:589.02002 3:590.59998 4:585.60999 
-1 1:589.02002 2:590.59998 3:585.60999 4:587.41998 
-1 1:590.59998 2:585.60999 3:587.41998 4:571.59998 
