svm_type epsilon_svr
kernel_type rbf
gamma 0.25
nr_class 2
total_sv 5
rho -59.6928
SV
-1 1:59.83 2:59.83 3:59.23 4:57.92 
0.1861304957468426 1:59.83 2:59.23 3:57.92 4:58.02 
-1 1:59.23 2:57.92 3:58.02 4:59.21 
1 1:57.92 2:58.02 3:59.21 4:58.56 
0.8138695042531574 1:58.02 2:59.21 3:58.56 4:60.49 
