svm_type epsilon_svr
kernel_type rbf
gamma 0.25
nr_class 2
total_sv 5
rho -124.322
SV
1 1:127.04 2:128.47 3:127.5 4:125.9 
1 1:128.47 2:127.5 3:125.9 4:127.21 
-1 1:127.5 2:125.9 3:127.21 4:126.69 
-0.01738764223278595 1:125.9 2:127.21 3:126.69 4:123.38 
-0.982612357767214 1:127.21 2:126.69 3:123.38 4:124.24 
