svm_type epsilon_svr
kernel_type rbf
gamma 0.25
nr_class 2
total_sv 4
rho -50.2332
SV
-0.5258271162379298 1:46.1 2:48.17 3:48.06 4:49.43 
1 1:48.17 2:48.06 3:49.43 4:49.75 
-1 1:48.06 2:49.43 3:49.75 4:51.02 
0.5258271162379298 1:49.75 2:51.02 3:49.33 4:50.24 
