svm_type epsilon_svr
kernel_type rbf
gamma 0.25
nr_class 2
total_sv 4
rho -20.9447
SV
1 1:21.14 2:20.58 3:20.78 4:20.86 
1 1:20.78 2:20.86 3:21.32 4:21.27 
-1 1:20.86 2:21.32 3:21.27 4:21.17 
-1 1:21.32 2:21.27 3:21.17 4:20.58 
