svm_type epsilon_svr
kernel_type rbf
gamma 0.25
nr_class 2
total_sv 4
rho -38.0865
SV
1 1:40.97 2:42.05 3:41.77 4:41.33 
-1 1:42.05 2:41.77 3:41.33 4:40.23 
-0.1577401137358493 1:41.33 2:40.23 3:37.41 4:38.06 
0.1577401137358493 1:40.23 2:37.41 3:38.06 4:37.84 
