svm_type epsilon_svr
kernel_type rbf
gamma 0.25
nr_class 2
total_sv 4
rho -308.31
SV
1 1:322.73999 2:322.20001 3:316.98001 4:322.70001 
1 1:322.20001 2:316.98001 3:322.70001 4:315.37 
-1 1:316.98001 2:322.70001 3:315.37 4:311.39001 
-1 1:315.37 2:311.39001 3:306.45001 4:308.31 
