svm_type epsilon_svr
kernel_type rbf
gamma 0.25
nr_class 2
total_sv 5
rho -109.182
SV
1 1:112.54 2:112.01 3:113.99 4:113.91 
0.8738652527589255 1:112.01 2:113.99 3:113.91 4:112.52 
0.1261347472410746 1:113.99 2:113.91 3:112.52 4:110.38 
-1 1:113.91 2:112.52 3:110.38 4:109.33 
-1 1:112.52 2:110.38 3:109.33 4:106.25 
