svm_type epsilon_svr
kernel_type rbf
gamma 0.25
nr_class 2
total_sv 4
rho -532.53
SV
-1 1:541.60999 2:540.78003 3:540.01001 4:539.16998 
1 1:540.01001 2:539.16998 3:530.39001 4:532.53003 
-1 1:539.16998 2:530.39001 3:532.53003 4:533.79999 
1 1:530.39001 2:532.53003 3:533.79999 4:524.04999 
