svm_type epsilon_svr
kernel_type rbf
gamma 0.25
nr_class 2
total_sv 5
rho -30.7496
SV
-0.6074220486960888 1:27.85 2:29.35 3:28.97 4:29.52 
0.3551436008084127 1:29.35 2:28.97 3:29.52 4:29.9 
-1 1:28.97 2:29.52 3:29.9 4:30.56 
0.2522784478876761 1:29.52 2:29.9 3:30.56 4:30.37 
1 1:29.9 2:30.56 3:30.37 4:31.13 
