svm_type epsilon_svr
kernel_type rbf
gamma 0.25
nr_class 2
total_sv 4
rho -41.3728
SV
-1 1:41.48 2:41.27 3:41.11 4:40.86 
0.2725346912153328 1:41.11 2:40.86 3:40.58 4:41.23 
0.5333411908504445 1:40.86 2:40.58 3:41.23 4:41.5 
0.1941241179342226 1:40.58 2:41.23 3:41.5 4:41.68 
