svm_type epsilon_svr
kernel_type rbf
gamma 0.25
nr_class 2
total_sv 5
rho -77.5891
SV
1 1:80.61 2:80.77 3:80.78 4:80.02 
-0.6479996524778329 1:80.77 2:80.78 3:80.02 4:79.22 
1 1:80.78 2:80.02 3:79.22 4:78.02 
-0.3520003475221672 1:80.02 2:79.22 3:78.02 4:78.45 
-1 1:79.22 2:78.02 3:78.45 4:77.19 
