svm_type epsilon_svr
kernel_type rbf
gamma 0.25
nr_class 2
total_sv 5
rho -40.4881
SV
-0.2939107941970789 1:43.78 2:42.08 3:41.8 4:41.47 
0.4875657241983878 1:42.08 2:41.8 3:41.47 4:40.21 
-0.3336343852447215 1:41.8 2:41.47 3:40.21 4:40.9 
0.3429217111114406 1:41.47 2:40.21 3:40.9 4:40.37 
-0.202942255868028 1:40.21 2:40.9 3:40.37 4:40.84 
