svm_type epsilon_svr
kernel_type rbf
gamma 0.25
nr_class 2
total_sv 5
rho -126.165
SV
-1 1:119.56 2:119.94 3:118.93 4:119.72 
-1 1:119.94 2:118.93 3:119.72 4:122.02 
0.2052124128364005 1:118.93 2:119.72 3:122.02 4:124.88 
0.7947875871635995 1:119.72 2:122.02 3:124.88 4:126.46 
1 1:122.02 2:124.88 3:126.46 4:127.08 
