svm_type epsilon_svr
kernel_type rbf
gamma 0.25
nr_class 2
total_sv 4
rho -80.5649
SV
1 1:80.71 2:80.73 3:80.99 4:80.5 
1 1:80.73 2:80.99 3:80.5 4:81.03 
-1 1:80.5 2:81.03 3:80.84 4:80.65 
-1 1:81.03 2:80.84 3:80.65 4:80.29 
