svm_type epsilon_svr
kernel_type rbf
gamma 0.25
nr_class 2
total_sv 5
rho -38.1191
SV
0.5348313051418196 1:37.31 2:37.57 3:37.83 4:39.07 
1 1:37.57 2:37.83 3:39.07 4:39.42 
0.4651686948581803 1:37.83 2:39.07 3:39.42 4:40.1 
-1 1:39.07 2:39.42 3:40.1 4:38.92 
-1 1:39.42 2:40.1 3:38.92 4:37.15 
