svm_type epsilon_svr
kernel_type rbf
gamma 0.25
nr_class 2
total_sv 4
rho -625.63
SV
-1 1:604.59003 2:604.70996 3:606.30994 4:607.27002 
-1 1:606.30994 2:607.27002 3:614.13 4:625.62994 
1 1:607.27002 2:614.13 3:625.62994 4:624.01001 
1 1:614.13 2:625.62994 3:624.01001 4:635.38 
