svm_type epsilon_svr
kernel_type rbf
gamma 0.25
nr_class 2
total_sv 4
rho -80.8283
SV
-0.09912941723080805 1:81.35 2:82.53 3:82.25 4:80.71 
0.3111217164135278 1:82.53 2:82.25 3:80.71 4:80.73 
-0.544659668981154 1:82.25 2:80.71 3:80.73 4:80.99 
0.3326673697984344 1:80.71 2:80.73 3:80.99 4:80.5 
