svm_type epsilon_svr
kernel_type rbf
gamma 0.25
nr_class 2
total_sv 5
rho -91.2636
SV
-0.5309406039409021 1:92.18 2:91.86 3:90.91 4:90.83 
-0.6705775103059261 1:91.86 2:90.91 3:90.83 4:90.28 
-0.7984818857531717 1:90.91 2:90.83 3:90.28 4:90.36 
1 1:90.83 2:90.28 3:90.36 4:90.9 
1 1:90.28 2:90.36 3:90.9 4:91.98 
