svm_type epsilon_svr
kernel_type rbf
gamma 0.25
nr_class 2
total_sv 4
rho -46.5566
SV
-0.4500684121468597 1:47.35 2:46.75 3:47.59 4:45.84 
0.1729284284304875 1:46.75 2:47.59 3:45.84 4:46.27 
-0.4778990218941127 1:45.84 2:46.27 3:47.07 4:46.66 
0.7550390056104849 1:46.27 2:47.07 3:46.66 4:46.43 
