svm_type epsilon_svr
kernel_type rbf
gamma 0.25
nr_class 2
total_sv 5
rho -41.3761
SV
-0.3130567714663254 1:39.52 2:38.48 3:39.46 4:41.44 
-0.4232588973906803 1:38.48 2:39.46 3:41.44 4:40.93 
0.7519895462931653 1:39.46 2:41.44 3:40.93 4:40.97 
0.4486079590003524 1:41.44 2:40.93 3:40.97 4:42.05 
-0.4642818364365118 1:40.93 2:40.97 3:42.05 4:41.77 
