svm_type epsilon_svr
kernel_type rbf
gamma 0.25
nr_class 2
total_sv 5
rho -542.285
SV
-1 1:527.58002 2:531 3:527.83002 4:536.94 
0.5449800000017149 1:531 2:527.83002 3:536.94 4:535.96997 
1 1:527.83002 2:536.94 3:535.96997 4:542.92999 
0.4550199999982851 1:536.94 2:535.96997 3:542.92999 4:549.01001 
-1 1:535.96997 2:542.92999 3:549.01001 4:542.84003 
