svm_type epsilon_svr
kernel_type rbf
gamma 0.25
nr_class 2
total_sv 5
rho -92.2278
SV
-1 1:91.86 2:90.91 3:90.83 4:90.28 
-1 1:90.91 2:90.83 3:90.28 4:90.36 
0.8580307045869816 1:90.83 2:90.28 3:90.36 4:90.9 
0.1419692954130184 1:90.28 2:90.36 3:90.9 4:91.98 
1 1:90.36 2:90.9 3:91.98 4:92.93 
