svm_type epsilon_svr
kernel_type rbf
gamma 0.25
nr_class 2
total_sv 3
rho -63.429
SV
0.3077977785068358 1:60.52 2:61.35 3:63.48 4:63.51 
-1 1:63.51 2:63.83 3:63.3 4:63.08 
0.6922022214931641 1:63.83 2:63.3 3:63.08 4:62.87 
