svm_type epsilon_svr
kernel_type rbf
gamma 0.25
nr_class 2
total_sv 4
rho -16.7331
SV
-1 1:16.09 2:16.22 3:16.26 4:16.12 
0.4209069546943435 1:16.22 2:16.26 3:16.12 4:16.3 
0.7705407293966929 1:16.26 2:16.12 3:16.3 4:16.84 
-0.1914476840910364 1:16.3 2:16.84 3:16.97 4:16.78 
