svm_type epsilon_svr
kernel_type rbf
gamma 0.25
nr_class 2
total_sv 5
rho -43.6458
SV
1 1:44.87 2:44.4 3:44.5 4:43.97 
0.2002575935583372 1:44.4 2:44.5 3:43.97 4:43.89 
-1 1:44.5 2:43.97 3:43.89 4:43.58 
-1 1:43.97 2:43.89 3:43.58 4:43.16 
0.7997424064416627 1:43.89 2:43.58 3:43.16 4:42.86 
