svm_type epsilon_svr
kernel_type rbf
gamma 0.25
nr_class 2
total_sv 4
rho -526.4
SV
1 1:524.87 2:530.59003 3:528.77002 4:534.03003 
1 1:530.59003 2:528.77002 3:534.03003 4:530.33002 
-1 1:534.03003 2:530.33002 3:530.41998 4:526.40002 
-1 1:530.33002 2:530.41998 3:526.40002 4:524.81 
