svm_type epsilon_svr
kernel_type rbf
gamma 0.25
nr_class 2
total_sv 5
rho -49.826
SV
1 1:50.1 2:50.67 3:50.28 4:50.41 
-0.5600488063860825 1:50.67 2:50.28 3:50.41 4:50.99 
0.7709423056491973 1:50.28 2:50.41 3:50.99 4:49.62 
-1 1:50.41 2:50.99 3:49.62 4:50.51 
-0.2108934992631149 1:50.99 2:49.62 3:50.51 4:49.21 
