svm_type epsilon_svr
kernel_type rbf
gamma 0.25
nr_class 2
total_sv 5
rho -107.536
SV
-0.6902953425939711 1:102.99 2:104.83 3:105.22 4:105.11 
0.1091096853525044 1:104.83 2:105.22 3:105.11 4:106.74 
-0.78150014418792 1:105.22 2:105.11 3:106.74 4:107.34 
0.3626858014293868 1:105.11 2:106.74 3:107.34 4:106.98 
1 1:106.74 2:107.34 3:106.98 4:108 
