svm_type epsilon_svr
kernel_type rbf
gamma 0.25
nr_class 2
total_sv 5
rho -17.2433
SV
-1 1:17.18 2:17.12 3:16.98 4:17.05 
-1 1:17.12 2:16.98 3:17.05 4:17.04 
0.1437378110377817 1:16.98 2:17.05 3:17.04 4:16.89 
1 1:17.05 2:17.04 3:16.89 4:17.24 
0.8562621889622183 1:17.04 2:16.89 3:17.24 4:17.53 
