svm_type epsilon_svr
kernel_type rbf
gamma 0.25
nr_class 2
total_sv 4
rho -552.03
SV
1 1:557.98999 2:560.35999 3:558.81 4:570.19 
1 1:560.35999 2:558.81 3:570.19 4:558.78497 
-1 1:558.81 2:570.19 3:558.78497 4:555.16998 
-1 1:558.78497 2:555.16998 3:548.34003 4:552.03003 
