svm_type epsilon_svr
kernel_type rbf
gamma 0.25
nr_class 2
total_sv 4
rho -124.344
SV
1 1:128.47 2:127.5 3:125.9 4:127.21 
-1 1:127.5 2:125.9 3:127.21 4:126.69 
-1 1:127.21 2:126.69 3:123.38 4:124.24 
1 1:126.69 2:123.38 3:124.24 4:123.25 
