svm_type epsilon_svr
kernel_type rbf
gamma 0.25
nr_class 2
total_sv 5
rho -109.139
SV
1 1:115 2:112.4 3:114.12 4:111.95 
0.515165937768577 1:112.4 2:114.12 3:111.95 4:111.62 
-0.8178771814010449 1:114.12 2:111.95 3:111.62 4:109.73 
-1 1:111.95 2:111.62 3:109.73 4:108.23 
0.3027112436324678 1:111.62 2:109.73 3:108.23 4:106.75 
