svm_type epsilon_svr
kernel_type rbf
gamma 0.25
nr_class 2
total_sv 5
rho -113.041
SV
-0.5529777024899539 1:109.41 2:112.65 3:111.78 4:112.94 
-1 1:112.65 2:111.78 3:112.94 4:112.54 
1 1:111.78 2:112.94 3:112.54 4:112.01 
1 1:112.94 2:112.54 3:112.01 4:113.99 
-0.447022297510046 1:112.54 2:112.01 3:113.99 4:113.91 
