svm_type epsilon_svr
kernel_type rbf
gamma 0.25
nr_class 2
total_sv 4
rho -99.8598
SV
1 1:101.75 2:97.87 3:100.75 4:100.11 
-0.5614761211340649 1:97.87 2:100.75 3:100.11 4:100.75 
0.2028450379611048 1:100.75 2:100.11 3:100.75 4:99.18 
-0.6413689168270399 1:100.75 2:99.18 3:99.9 4:99.62 
