svm_type epsilon_svr
kernel_type rbf
gamma 0.25
nr_class 2
total_sv 4
rho -38.6938
SV
0.09444495748665058 1:39.76 2:41.13 3:41.74 4:39.04 
0.2744093026981915 1:41.13 2:41.74 3:39.04 4:38.91 
0.6311457398151578 1:39.04 2:38.91 3:39.06 4:38.79 
-1 1:38.91 2:39.06 3:38.79 4:38.49 
