svm_type epsilon_svr
kernel_type rbf
gamma 0.25
nr_class 2
total_sv 5
rho -77.0493
SV
-0.7026908974750512 1:76.45 2:76.28 3:74.05 4:75.18 
-0.1868174249533283 1:76.28 2:74.05 3:75.18 4:76.24 
0.3043950658301275 1:74.05 2:75.18 3:76.24 4:76.74 
0.5819807308353191 1:75.18 2:76.24 3:76.74 4:77.65 
0.003132525762933027 1:76.24 2:76.74 3:77.65 4:77.83 
