svm_type epsilon_svr
kernel_type rbf
gamma 0.25
nr_class 2
total_sv 5
rho -325.555
SV
1 1:332.63 2:335.64001 3:335.04001 4:333.57001 
0.3449552607006012 1:335.64001 2:335.04001 3:333.57001 4:338.64001 
0.6550447392993988 1:335.04001 2:333.57001 3:338.64001 4:326 
-1 1:333.57001 2:338.64001 3:326 4:326.31 
-1 1:338.64001 2:326 3:326.31 4:316.5 
