svm_type epsilon_svr
kernel_type rbf
gamma 0.25
nr_class 2
total_sv 4
rho -33.4618
SV
-0.7718695955307143 1:32.63 2:33.01 3:33.28 4:33.25 
0.7718695955307142 1:33.28 2:33.25 3:33.34 4:33.5 
1 1:33.25 2:33.34 3:33.5 4:33.7 
-1 1:33.34 2:33.5 3:33.7 4:33.71 
