svm_type epsilon_svr
kernel_type rbf
gamma 0.25
nr_class 2
total_sv 4
rho -298.42
SV
1 1:312.04001 2:310.29999 3:310.35001 4:308.51999 
-1 1:310.29999 2:310.35001 3:308.51999 4:302.19 
1 1:308.51999 2:302.19 3:295.29001 4:298.42001 
-1 1:302.19 2:295.29001 3:298.42001 4:300.45999 
