svm_type epsilon_svr
kernel_type rbf
gamma 0.25
nr_class 2
total_sv 4
rho -39.9377
SV
-0.1723300974522452 1:39.97 2:40.42 3:40.24 4:39.6 
-1 1:40.24 2:39.6 3:39.83 4:39.75 
1 1:39.6 2:39.83 3:39.75 4:39.68 
0.1723300974522452 1:39.83 2:39.75 3:39.68 4:40.35 
