svm_type epsilon_svr
kernel_type rbf
gamma 0.25
nr_class 2
total_sv 5
rho -99.9063
SV
-1 1:100.96 2:101.06 3:102.64 4:101.75 
0.7545860694352489 1:101.06 2:102.64 3:101.75 4:97.87 
0.1027961698092622 1:102.64 2:101.75 3:97.87 4:100.75 
0.758269434011499 1:101.75 2:97.87 3:100.75 4:100.11 
-0.6156516732560101 1:97.87 2:100.75 3:100.11 4:100.75 
