svm_type epsilon_svr
kernel_type rbf
gamma 0.25
nr_class 2
total_sv 4
rho -97.0338
SV
-0.618995307035169 1:95.12 2:94.96 3:94.48 4:94.74 
-1 1:94.96 2:94.48 3:94.74 4:95.99 
0.8330687183016441 1:94.48 2:94.74 3:95.99 4:95.97 
0.7859265887335249 1:95.99 2:95.97 3:97.24 4:97.5 
