svm_type epsilon_svr
kernel_type rbf
gamma 0.25
nr_class 2
total_sv 5
rho -73.9075
SV
1 1:77.08 2:77.44 3:77.56 4:76.29 
1 1:77.44 2:77.56 3:76.29 4:77.52 
-1 1:77.56 2:76.29 3:77.52 4:75.91 
-0.8134580354006254 1:76.29 2:77.52 3:75.91 4:72.91 
-0.1865419645993746 1:77.52 2:75.91 3:72.91 4:72.99 
