svm_type epsilon_svr
kernel_type rbf
gamma 0.25
nr_class 2
total_sv 4
rho -78.7136
SV
1 1:79.76 2:79.67 3:79.71 4:79.7 
-0.9412922376361014 1:79.71 2:79.7 3:79.12 4:78.62 
-0.9530558368923218 1:79.7 2:79.12 3:78.62 4:78.01 
0.8943480745284231 1:79.12 2:78.62 3:78.01 4:77.96 
