svm_type epsilon_svr
kernel_type rbf
gamma 0.25
nr_class 2
total_sv 4
rho -32.9489
SV
1 1:33.5 2:33.7 3:33.71 4:33.47 
-0.03086839128196531 1:33.71 2:33.47 3:33.47 4:33.13 
-1 1:33.47 2:33.47 3:33.13 4:32.84 
0.03086839128196531 1:33.47 2:33.13 3:32.84 4:32.61 
