svm_type epsilon_svr
kernel_type rbf
gamma 0.25
nr_class 2
total_sv 5
rho -84.0778
SV
-0.5191659771255264 1:85.89 2:85.81 3:85.96 4:86.29 
0.1424337185642766 1:85.81 2:85.96 3:86.29 4:83.52 
0.4242514924810742 1:85.96 2:86.29 3:83.52 4:84.3 
0.4241451557377383 1:86.29 2:83.52 3:84.3 4:84.6 
-0.4716643896575627 1:83.52 2:84.3 3:84.6 4:84.57 
