svm_type epsilon_svr
kernel_type rbf
gamma 0.25
nr_class 2
total_sv 4
rho -48.558
SV
1 1:48.87 2:48.78 3:49.61 4:49.58 
-1 1:49.61 2:49.58 3:49.46 4:48.74 
1 1:49.58 2:49.46 3:48.74 4:48.22 
-1 1:49.46 2:48.74 3:48.22 4:48.7 
