svm_type epsilon_svr
kernel_type rbf
gamma 0.25
nr_class 2
total_sv 4
rho -37.4875
SV
1 1:37.83 2:39.07 3:39.42 4:40.1 
-0.474117121689782 1:39.07 2:39.42 3:40.1 4:38.92 
-0.6532563672066419 1:39.42 2:40.1 3:38.92 4:37.15 
0.1273734888964241 1:40.1 2:38.92 3:37.15 4:36.68 
