svm_type epsilon_svr
kernel_type rbf
gamma 0.25
nr_class 2
total_sv 4
rho -355.9
SV
-1 1:329.97 2:327.92001 3:346.20001 4:355.32001 
-1 1:346.20001 2:355.32001 3:354.44 4:355.89999 
1 1:355.32001 2:354.44 3:355.89999 4:352.45001 
1 1:354.44 2:355.89999 3:352.45001 4:358.66 
