svm_type epsilon_svr
kernel_type rbf
gamma 0.25
nr_class 2
total_sv 3
rho -18.7349
SV
-0.471974155549986 1:17.36 2:17.94 3:18.07 4:18.41 
0.01179293499425058 1:17.94 2:18.07 3:18.41 4:18.52 
0.4601812205557354 1:18.07 2:18.41 3:18.52 4:18.86 
