svm_type epsilon_svr
kernel_type rbf
gamma 0.25
nr_class 2
total_sv 4
rho -41.1395
SV
-1 1:40.34 2:40.94 3:40.79 4:40.29 
0.3214438871290826 1:40.94 2:40.79 3:40.29 4:40.32 
0.6145405464618918 1:40.79 2:40.29 3:40.32 4:41.21 
0.06401556640902567 1:40.32 2:41.21 3:41.48 4:41.27 
