svm_type epsilon_svr
kernel_type rbf
gamma 0.25
nr_class 2
total_sv 5
rho -534.2
SV
0.08999499999998761 1:501.79001 2:508.07999 3:506.89999 4:518.03998 
1 1:508.07999 2:506.89999 3:518.03998 4:534.39001 
0.9100050000000124 1:506.89999 2:518.03998 3:534.39001 4:539.95001 
-1 1:518.03998 2:534.39001 3:539.95001 4:535.21002 
-1 1:534.39001 2:539.95001 3:535.21002 4:518.63 
