svm_type epsilon_svr
kernel_type rbf
gamma 0.25
nr_class 2
total_sv 5
rho -39.7689
SV
-0.6571795807087714 1:42.59 2:42.09 3:40.93 4:38.65 
0.2478679768255201 1:42.09 2:40.93 3:38.65 4:39.05 
-1 1:40.93 2:38.65 3:39.05 4:39.88 
0.7637997157479757 1:38.65 2:39.05 3:39.88 4:38.95 
0.6455118881352756 1:39.05 2:39.88 3:38.95 4:40.66 
