svm_type epsilon_svr
kernel_type rbf
gamma 0.25
nr_class 2
total_sv 4
rho -31.8694
SV
-1 1:31.05 2:31 3:31.03 4:31.44 
0.516078026654229 1:31 2:31.03 3:31.44 4:31.47 
-0.516078026654229 1:31.44 2:31.47 3:31.83 4:31.84 
1 1:31.47 2:31.83 3:31.84 4:31.91 
