svm_type epsilon_svr
kernel_type rbf
gamma 0.25
nr_class 2
total_sv 4
rho -122.845
SV
-1 1:118.63 2:118.65 3:119.56 4:119.94 
-1 1:118.65 2:119.56 3:119.94 4:118.93 
1 1:119.94 2:118.93 3:119.72 4:122.02 
1 1:118.93 2:119.72 3:122.02 4:124.88 
