svm_type epsilon_svr
kernel_type rbf
gamma 0.25
nr_class 2
total_sv 5
rho -72.9471
SV
1 1:74.98 2:75.19 3:74.92 4:73.71 
-0.6140957696417849 1:75.19 2:74.92 3:73.71 4:74.68 
-0.9006454998321661 1:74.92 2:73.71 3:74.68 4:72.65 
0.6140957696417849 1:73.71 2:74.68 3:72.65 4:72.36 
-0.09935450016783386 1:74.68 2:72.65 3:72.36 4:73.51 
