svm_type epsilon_svr
kernel_type rbf
gamma 0.25
nr_class 2
total_sv 4
rho -32.3519
SV
0.1215354698856464 1:31.33 2:32.04 3:32.28 4:32.29 
-1 1:32.04 2:32.28 3:32.29 4:32.37 
-0.1215354698856464 1:32.28 2:32.29 3:32.37 4:32.17 
1 1:32.37 2:32.17 3:32.24 4:32.24 
