svm_type epsilon_svr
kernel_type rbf
gamma 0.25
nr_class 2
total_sv 5
rho -98.7395
SV
1 1:99.62 2:98.75 3:100.8 4:101.02 
0.7119498734558694 1:98.75 2:100.8 3:101.02 4:100.73 
0.1787053845924689 1:100.8 2:101.02 3:100.73 4:99.81 
-0.8906552580483382 1:101.02 2:100.73 3:99.81 4:98.75 
-1 1:100.73 2:99.81 3:98.75 4:97.54 
