svm_type epsilon_svr
kernel_type rbf
gamma 0.25
nr_class 2
total_sv 4
rho -39.5393
SV
1 1:41.44 2:40.93 3:40.97 4:42.05 
1 1:40.93 2:40.97 3:42.05 4:41.77 
-1 1:42.05 2:41.77 3:41.33 4:40.23 
-1 1:41.77 2:41.33 3:40.23 4:37.41 
