svm_type epsilon_svr
kernel_type rbf
gamma 0.25
nr_class 2
total_sv 4
rho -371.92
SV
-1 1:387.82999 2:380.09 3:378.56 4:369.51001 
1 1:380.09 2:378.56 3:369.51001 4:366.37 
-1 1:378.56 2:369.51001 3:366.37 4:374.23999 
1 1:369.51001 2:366.37 3:374.23999 4:370.57999 
