svm_type epsilon_svr
kernel_type rbf
gamma 0.25
nr_class 2
total_sv 4
rho -542.56
SV
1 1:570.19 2:558.78497 3:555.16998 4:548.34003 
1 1:558.78497 2:555.16998 3:548.34003 4:552.03003 
-1 1:548.34003 2:552.03003 3:548 4:542.56 
-1 1:552.03003 2:548 3:542.56 4:535.53003 
