svm_type epsilon_svr
kernel_type rbf
gamma 0.25
nr_class 2
total_sv 5
rho -41.8864
SV
0.4490192482838785 1:41.51 2:41.68 3:41.99 4:41.75 
-1 1:41.68 2:41.99 3:41.75 4:42.03 
1 1:41.99 2:41.75 3:42.03 4:41.72 
-0.02340321310237269 1:41.75 2:42.03 3:41.72 4:42.25 
-0.4256160351815058 1:42.03 2:41.72 3:42.25 4:41.7 
