svm_type epsilon_svr
kernel_type rbf
gamma 0.25
nr_class 2
total_sv 5
rho -32.5917
SV
1 1:32.56 2:33.19 3:32.95 4:33.37 
1 1:33.19 2:32.95 3:33.37 4:33.35 
-0.2344686030565567 1:32.95 2:33.37 3:33.35 4:33.5 
-0.7655313969434433 1:33.37 2:33.35 3:33.5 4:32.83 
-1 1:33.35 2:33.5 3:32.83 4:32.31 
