svm_type epsilon_svr
kernel_type rbf
gamma 0.25
nr_class 2
total_sv 4
rho -526.06
SV
1 1:531.32001 2:537.31 3:525.26001 4:526.97998 
1 1:525.26001 2:526.97998 3:533.37 4:526.06 
-1 1:526.97998 2:533.37 3:526.06 4:528.34003 
-1 1:533.37 2:526.06 3:528.34003 4:518.65997 
