svm_type epsilon_svr
kernel_type rbf
gamma 0.25
nr_class 2
total_sv 5
rho -40.9698
SV
-1 1:40.66 2:40.52 3:40.75 4:40.32 
0.06635646823862018 1:40.52 2:40.75 3:40.32 4:40.5 
1 1:40.75 2:40.32 3:40.5 4:41.03 
-0.4829349816869433 1:40.32 2:40.5 3:41.03 4:41.52 
0.4165785134483231 1:40.5 2:41.03 3:41.52 4:40.93 
