svm_type epsilon_svr
kernel_type rbf
gamma 0.25
nr_class 2
total_sv 5
rho -341.505
SV
0.224994992853226 1:335.78 2:332.91 3:331.59 4:334.01999 
1 1:332.91 2:331.59 3:334.01999 4:341.82999 
-1 1:331.59 2:334.01999 3:341.82999 4:343.17999 
-1 1:334.01999 2:341.82999 3:343.17999 4:340.01999 
0.775005007146774 1:341.82999 2:343.17999 3:340.01999 4:339.04001 
