svm_type epsilon_svr
kernel_type rbf
gamma 0.25
nr_class 2
total_sv 3
rho -41.5857
SV
-0.1653038054690591 1:40.72 2:40.29 3:41.55 4:41.53 
-0.02862963782316582 1:40.29 2:41.55 3:41.53 4:41.42 
0.1939334432922249 1:41.53 2:41.42 3:41.48 4:41.72 
