svm_type epsilon_svr
kernel_type rbf
gamma 0.25
nr_class 2
total_sv 5
rho -305.815
SV
-1 1:306.07001 2:295.06 3:298.88 4:297.73001 
0.6249982320602282 1:295.06 2:298.88 3:297.73001 4:299.89999 
0.3750017679397718 1:298.88 2:297.73001 3:299.89999 4:306.54001 
-1 1:297.73001 2:299.89999 3:306.54001 4:306.29001 
1 1:299.89999 2:306.54001 3:306.29001 4:303.03 
