svm_type epsilon_svr
kernel_type rbf
gamma 0.25
nr_class 2
total_sv 5
rho -372.845
SV
-1 1:311.78 2:354.53 3:364.47 4:363.54999 
0.9450049999910277 1:354.53 2:364.47 3:363.54999 4:364.75 
1 1:364.47 2:363.54999 3:364.75 4:373.89001 
-1 1:363.54999 2:364.75 3:373.89001 4:374.28 
0.05499500000897228 1:364.75 2:373.89001 3:374.28 4:370.56 
