svm_type epsilon_svr
kernel_type rbf
gamma 0.25
nr_class 2
total_sv 3
rho -48.8544
SV
-0.06221606672024839 1:47.44 2:47.57 3:47.86 4:48.7 
-0.9377839332797516 1:48.7 2:48.68 3:48.89 4:48.87 
1 1:48.68 2:48.89 3:48.87 4:48.78 
