svm_type epsilon_svr
kernel_type rbf
gamma 0.25
nr_class 2
total_sv 4
rho -533.21
SV
1 1:577.34998 2:563.73999 3:572.5 4:560.88 
1 1:572.5 2:560.88 3:544.48999 4:533.21002 
-1 1:560.88 2:544.48999 3:533.21002 4:537.94 
-1 1:544.48999 2:533.21002 3:537.94 4:530.03003 
