svm_type epsilon_svr
kernel_type rbf
gamma 0.25
nr_class 2
total_sv 5
rho -57.806
SV
0.6545493897387895 1:59.78 2:61.15 3:60.46 4:61.22 
-0.2846303674238838 1:61.15 2:60.46 3:61.22 4:58.53 
-0.8858585953172022 1:60.46 2:61.22 3:58.53 4:57.39 
-0.4840604269977035 1:61.22 2:58.53 3:57.39 4:56.76 
1 1:58.53 2:57.39 3:56.76 4:57.24 
