svm_type epsilon_svr
kernel_type rbf
gamma 0.25
nr_class 2
total_sv 4
rho -32.7584
SV
1 1:32.85 2:32.9 3:33.36 4:33.13 
-0.8382047310665697 1:32.9 2:33.36 3:33.13 4:33.1 
0.8382047310665697 1:33.13 2:33.1 3:32.67 4:32.79 
-1 1:33.1 2:32.67 3:32.79 4:32.83 
