svm_type epsilon_svr
kernel_type rbf
gamma 0.25
nr_class 2
total_sv 4
rho -47.0546
SV
0.9227587675225831 1:48.08 2:48.84 3:48.42 4:47.7 
-1 1:48.84 2:48.42 3:47.7 4:47.59 
0.7696743289485322 1:48.42 2:47.7 3:47.59 4:46.9 
-0.6924330964711152 1:47.59 2:46.9 3:47.17 4:46.95 
