svm_type epsilon_svr
kernel_type rbf
gamma 0.25
nr_class 2
total_sv 5
rho -89.4762
SV
-1 1:86.79 2:85.88 3:85.9 4:85.65 
-0.2956718519911631 1:85.88 2:85.9 3:85.65 4:86.31 
1 1:85.9 2:85.65 3:86.31 4:88.6 
-0.1583925542693341 1:85.65 2:86.31 3:88.6 4:90.47 
0.4540644062604972 1:86.31 2:88.6 3:90.47 4:89.35 
