svm_type epsilon_svr
kernel_type rbf
gamma 0.25
nr_class 2
total_sv 5
rho -44.5808
SV
-1 1:44.98 2:45.04 3:44.72 4:44.42 
-0.07567177385363069 1:45.04 2:44.72 3:44.42 4:44.2 
1 1:44.72 2:44.42 3:44.2 4:44.47 
0.60407336731364 1:44.42 2:44.2 3:44.47 4:45.1 
-0.5284015934600094 1:44.2 2:44.47 3:45.1 4:44.95 
