svm_type epsilon_svr
kernel_type rbf
gamma 0.25
nr_class 2
total_sv 4
rho -37.4717
SV
1 1:37.61 2:37.46 3:37.81 4:37.6 
-0.1555101893001276 1:37.46 2:37.81 3:37.6 4:37.92 
-1 1:37.81 2:37.6 3:37.92 4:37.41 
0.1555101893001276 1:37.6 2:37.92 3:37.41 4:37.33 
