svm_type epsilon_svr
kernel_type rbf
gamma 0.25
nr_class 2
total_sv 5
rho -64.4297
SV
-0.342685963937382 1:65.77 2:65.78 3:64.29 4:64.5 
-0.04303704607982992 1:65.78 2:64.29 3:64.5 4:64.19 
1 1:64.29 2:64.5 3:64.19 4:64.4 
-0.4945930854505161 1:64.5 2:64.19 3:64.4 4:65.6 
-0.119683904532272 1:64.19 2:64.4 3:65.6 4:64.34 
