svm_type epsilon_svr
kernel_type rbf
gamma 0.25
nr_class 2
total_sv 4
rho -125.082
SV
-1 1:118.65 2:119.56 3:119.94 4:118.93 
-1 1:119.56 2:119.94 3:118.93 4:119.72 
1 1:118.93 2:119.72 3:122.02 4:124.88 
1 1:119.72 2:122.02 3:124.88 4:126.46 
