svm_type epsilon_svr
kernel_type rbf
gamma 0.25
nr_class 2
total_sv 5
rho -41.9179
SV
-1 1:37.97 2:37.82 3:38.12 4:38.45 
-1 1:37.82 2:38.12 3:38.45 4:39.28 
0.8987048604097089 1:38.12 2:38.45 3:39.28 4:40.18 
0.1012951395902911 1:38.45 2:39.28 3:40.18 4:42 
1 1:39.28 2:40.18 3:42 4:42.6 
