svm_type epsilon_svr
kernel_type rbf
gamma 0.25
nr_class 2
total_sv 4
rho -37.7212
SV
-0.1542750822251071 1:36.36 2:36.47 3:37.38 4:37.83 
-0.2276190850963148 1:36.47 2:37.38 3:37.83 4:37.5 
0.8451787387143483 1:37.38 2:37.83 3:37.5 4:37.64 
-0.4632845713929264 1:37.83 2:37.5 3:37.64 4:38.01 
