svm_type epsilon_svr
kernel_type rbf
gamma 0.25
nr_class 2
total_sv 4
rho -43.8999
SV
1 1:46.09 2:46.09 3:45.53 4:46.78 
-0.221464327343332 1:46.09 2:45.53 3:46.78 4:45.85 
-0.1971703965122181 1:45.53 2:46.78 3:45.85 4:44.03 
-0.5813652761444501 1:45.85 2:44.03 3:43.65 4:43.73 
