svm_type epsilon_svr
kernel_type rbf
gamma 0.25
nr_class 2
total_sv 4
rho -297.25
SV
-1 1:291.41 2:294.73999 3:293.26999 4:286.95001 
-1 1:294.73999 2:293.26999 3:286.95001 4:290.73999 
1 1:286.95001 2:290.73999 3:289.44 4:297.25 
1 1:290.73999 2:289.44 3:297.25 4:310.32001 
