svm_type epsilon_svr
kernel_type rbf
gamma 0.25
nr_class 2
total_sv 4
rho -43.858
SV
-1 1:43.09 2:43.87 3:43.58 4:43.53 
-0.03246511569041865 1:43.87 2:43.58 3:43.53 4:43.5 
1 1:43.58 2:43.53 3:43.5 4:43.86 
0.03246511569041865 1:43.53 2:43.5 3:43.86 4:44.15 
