svm_type epsilon_svr
kernel_type rbf
gamma 0.25
nr_class 2
total_sv 5
rho -108.982
SV
0.1671031502594963 1:106.26 2:107.75 3:111.89 4:112.01 
1 1:107.75 2:111.89 3:112.01 4:109.25 
0.8328968497405037 1:111.89 2:112.01 3:109.25 4:110.22 
-1 1:112.01 2:109.25 3:110.22 4:109.8 
-1 1:109.25 2:110.22 3:109.8 4:106.82 
