svm_type epsilon_svr
kernel_type rbf
gamma 0.25
nr_class 2
total_sv 5
rho -112.365
SV
0.1873533291335856 1:109.73 2:108.23 3:106.75 4:109.41 
-0.488229274853553 1:108.23 2:106.75 3:109.41 4:112.65 
0.4776596634515463 1:106.75 2:109.41 3:112.65 4:111.78 
0.08188855139522624 1:109.41 2:112.65 3:111.78 4:112.94 
-0.2586722691268051 1:112.65 2:111.78 3:112.94 4:112.54 
