svm_type epsilon_svr
kernel_type rbf
gamma 0.25
nr_class 2
total_sv 4
rho -41.8107
SV
-0.5064111588102499 1:42.66 2:41.19 3:42.01 4:40.4 
-0.4220770989184335 1:41.19 2:42.01 3:40.4 4:41.28 
0.5512057715157512 1:40.4 2:41.28 3:41.6 4:41.84 
0.3772824862129321 1:41.28 2:41.6 3:41.84 4:42.45 
