svm_type epsilon_svr
kernel_type rbf
gamma 0.25
nr_class 2
total_sv 5
rho -64.6274
SV
-0.4560688545687352 1:65.78 2:64.29 3:64.5 4:64.19 
1 1:64.29 2:64.5 3:64.19 4:64.4 
-0.7695758007714338 1:64.5 2:64.19 3:64.4 4:65.6 
-0.3893935283718155 1:64.19 2:64.4 3:65.6 4:64.34 
0.6150381837119846 1:64.4 2:65.6 3:64.34 4:64.5 
