svm_type epsilon_svr
kernel_type rbf
gamma 0.25
nr_class 2
total_sv 4
rho -73.6696
SV
1 1:76.35 2:75.97 3:75.71 4:75.44 
-0.8333595525854216 1:75.97 2:75.71 3:75.44 4:74.78 
0.03467519133096483 1:75.71 2:75.44 3:74.78 4:73.58 
-0.2013156387455433 1:74.78 2:73.58 3:73.54 4:73.54 
