svm_type epsilon_svr
kernel_type rbf
gamma 0.25
nr_class 2
total_sv 5
rho -332.971
SV
-1 1:324.16 2:327.44 3:325.69 4:324.57001 
-0.4577819464399728 1:327.44 2:325.69 3:324.57001 4:324.78 
-0.02060847827261326 1:325.69 2:324.57001 3:324.78 4:332.39001 
1 1:324.57001 2:324.78 3:332.39001 4:332.85001 
0.4783904247125861 1:324.78 2:332.39001 3:332.85001 4:337.48999 
