svm_type epsilon_svr
kernel_type rbf
gamma 0.25
nr_class 2
total_sv 5
rho -540.875
SV
-1 1:524.51001 2:511.17001 3:520.84003 4:526.53998 
1 1:511.17001 2:520.84003 3:526.53998 4:532.71002 
-0.9949950000000172 1:520.84003 2:526.53998 3:532.71002 4:543.97998 
-0.005004999999982829 1:526.53998 2:532.71002 3:543.97998 4:539.78003 
1 1:532.71002 2:543.97998 3:539.78003 4:540.77002 
