svm_type epsilon_svr
kernel_type rbf
gamma 0.25
nr_class 2
total_sv 4
rho -39.9565
SV
1 1:42.88 2:42.55 3:42.71 4:42.59 
0.6481746335115103 1:42.55 2:42.71 3:42.59 4:42.09 
-1 1:42.71 2:42.59 3:42.09 4:40.93 
-0.6481746335115103 1:42.59 2:42.09 3:40.93 4:38.65 
