svm_type epsilon_svr
kernel_type rbf
gamma 0.25
nr_class 2
total_sv 5
rho -32.7846
SV
-1 1:32.75 2:32.92 3:32.8 4:32.62 
-0.5304596545061453 1:32.92 2:32.8 3:32.62 4:32.43 
-0.1858594829768836 1:32.8 2:32.62 3:32.43 4:32.49 
1 1:32.62 2:32.43 3:32.49 4:32.61 
0.7163191374830289 1:32.43 2:32.49 3:32.61 4:33.25 
