svm_type epsilon_svr
kernel_type rbf
gamma 0.25
nr_class 2
total_sv 4
rho -45.4001
SV
-1 1:45.01 2:44.87 3:44.88 4:45.43 
-1 1:44.87 2:44.88 3:45.43 4:45.09 
1 1:45.43 2:45.09 3:44.96 4:45.26 
1 1:45.09 2:44.96 3:45.26 4:45.91 
