svm_type epsilon_svr
kernel_type rbf
gamma 0.25
nr_class 2
total_sv 4
rho -79.5579
SV
0.598065419821592 1:80.5 2:81.03 3:80.84 4:80.65 
0.5724757058420763 1:81.03 2:80.84 3:80.65 4:80.29 
-0.1705411256636682 1:80.65 2:80.29 3:80.15 4:79.74 
-1 1:80.29 2:80.15 3:79.74 4:79.24 
