svm_type epsilon_svr
kernel_type rbf
gamma 0.25
nr_class 2
total_sv 4
rho -21.7959
SV
1 1:21.99 2:22.15 3:21.96 4:21.95 
1 1:22.15 2:21.96 3:21.95 4:22.12 
-1 1:21.96 2:21.95 3:22.12 4:22.16 
-1 1:21.95 2:22.12 3:22.16 4:21.15 
