svm_type epsilon_svr
kernel_type rbf
gamma 0.25
nr_class 2
total_sv 5
rho -49.123
SV
-0.4437891670641166 1:55.42 2:55.29 3:50.4 4:48.49 
0.7679364236999744 1:55.29 2:50.4 3:48.49 4:48.58 
-0.9137547811745649 1:50.4 2:48.49 3:48.58 4:49.99 
-0.4103924754612928 1:48.49 2:48.58 3:49.99 4:48.23 
1 1:48.58 2:49.99 3:48.23 4:48.77 
