svm_type epsilon_svr
kernel_type rbf
gamma 0.25
nr_class 2
total_sv 4
rho -79.5789
SV
-0.3927150385965632 1:79.42 2:79.9 3:78.84 4:78.45 
1 1:79.9 2:78.84 3:78.45 4:79.56 
-1 1:78.84 2:78.45 3:79.56 4:80.41 
0.3927150385965632 1:78.45 2:79.56 3:80.41 4:78.97 
