svm_type epsilon_svr
kernel_type rbf
gamma 0.25
nr_class 2
total_sv 5
rho -312.36
SV
-1 1:302.81 2:296.51999 3:296.64001 4:299.85999 
-0.2499999977083547 1:296.51999 2:296.64001 3:299.85999 4:305.10999 
-0.7500000022916453 1:296.64001 2:299.85999 3:305.10999 4:312.01001 
1 1:299.85999 2:305.10999 3:312.01001 4:311.51001 
1 1:305.10999 2:312.01001 3:311.51001 4:316.48001 
