svm_type epsilon_svr
kernel_type rbf
gamma 0.25
nr_class 2
total_sv 4
rho -76.1472
SV
0.7117073887911255 1:79.15 2:79.14 3:78.74 4:76.83 
0.2642748932336895 1:79.14 2:78.74 3:76.83 4:77.01 
-0.3991835092279112 1:78.74 2:76.83 3:77.01 4:76.61 
-0.5767987727969039 1:77.01 2:76.61 3:75.69 4:75.66 
