svm_type epsilon_svr
kernel_type rbf
gamma 0.25
nr_class 2
total_sv 5
rho -527.12
SV
-0.04001000000118893 1:533.75 2:531.32001 3:537.31 4:525.26001 
1 1:531.32001 2:537.31 3:525.26001 4:526.97998 
-0.9599899999988111 1:537.31 2:525.26001 3:526.97998 4:533.37 
1 1:525.26001 2:526.97998 3:533.37 4:526.06 
-1 1:526.97998 2:533.37 3:526.06 4:528.34003 
