svm_type epsilon_svr
kernel_type rbf
gamma 0.25
nr_class 2
total_sv 5
rho -58.5534
SV
0.6823321220641848 1:56.76 2:57.24 3:59.83 4:59.83 
-0.576109079017713 1:57.24 2:59.83 3:59.83 4:59.23 
-0.9393455237429588 1:59.83 2:59.83 3:59.23 4:57.92 
1 1:59.83 2:59.23 3:57.92 4:58.02 
-0.166877519303513 1:59.23 2:57.92 3:58.02 4:59.21 
