svm_type epsilon_svr
kernel_type rbf
gamma 0.25
nr_class 2
total_sv 4
rho -35.7716
SV
-0.2775382230375101 1:35.62 2:36.53 3:35.7 4:35.79 
0.2775382230375101 1:36.53 2:35.7 3:35.79 4:35.66 
-1 1:35.79 2:35.66 3:35.91 4:35.79 
1 1:35.66 2:35.91 3:35.79 4:35.52 
