svm_type epsilon_svr
kernel_type rbf
gamma 0.25
nr_class 2
total_sv 3
rho -52.2271
SV
0.5559749672235307 1:50.08 2:50.47 3:50.42 4:50.84 
-0.05516054193755757 1:50.84 2:52.87 3:52.3 4:52.17 
-0.5008144252859731 1:52.87 2:52.3 3:52.17 4:51.94 
