svm_type epsilon_svr
kernel_type rbf
gamma 0.25
nr_class 2
total_sv 4
rho -297.62
SV
-1 1:308.01001 2:310.04999 3:297.38 4:292.70999 
-1 1:310.04999 2:297.38 3:292.70999 4:288.32001 
1 1:297.38 2:292.70999 3:288.32001 4:292.23999 
1 1:292.70999 2:288.32001 3:292.23999 4:302.85999 
