svm_type epsilon_svr
kernel_type rbf
gamma 0.25
nr_class 2
total_sv 5
rho -82.3013
SV
-0.547430144464564 1:82.88 2:82.07 3:80.69 4:81.9 
1 1:82.07 2:80.69 3:81.9 4:81.9 
0.2308266322313049 1:80.69 2:81.9 3:81.9 4:83.29 
0.2500881683875489 1:81.9 2:81.9 3:83.29 4:82.62 
-0.9334846561542899 1:81.9 2:83.29 3:82.62 4:82.53 
