svm_type epsilon_svr
kernel_type rbf
gamma 0.25
nr_class 2
total_sv 5
rho -48.7543
SV
-1 1:45.09 2:45.06 3:45.11 4:45.98 
0.2934788254552944 1:45.06 2:45.11 3:45.98 4:46.1 
-0.7042399164718258 1:45.11 2:45.98 3:46.1 4:48.17 
0.6003266865979486 1:45.98 2:46.1 3:48.17 4:48.06 
0.8104344044185827 1:46.1 2:48.17 3:48.06 4:49.43 
