svm_type epsilon_svr
kernel_type rbf
gamma 0.25
nr_class 2
total_sv 5
rho -32.2524
SV
1 1:33.19 2:32.95 3:33.37 4:33.35 
0.2855482995378109 1:32.95 2:33.37 3:33.35 4:33.5 
-0.4122435113058145 1:33.37 2:33.35 3:33.5 4:32.83 
-0.338387508097874 1:33.35 2:33.5 3:32.83 4:32.31 
-0.5349172801341223 1:33.5 2:32.83 3:32.31 4:31.88 
