svm_type epsilon_svr
kernel_type rbf
gamma 0.25
nr_class 2
total_sv 5
rho -50.4466
SV
-0.5126707525629333 1:47.08 2:47.46 3:47.93 4:48.55 
-1 1:47.46 2:47.93 3:48.55 4:49.41 
0.8125296806599346 1:47.93 2:48.55 3:49.41 4:49.05 
-0.2998589280970013 1:48.55 2:49.41 3:49.05 4:50.6 
1 1:49.41 2:49.05 3:50.6 4:50.5 
