svm_type epsilon_svr
kernel_type rbf
gamma 0.25
nr_class 2
total_sv 3
rho -43.6719
SV
-0.07747719071533626 1:42.6 2:42.38 3:43.09 4:43.87 
-0.9225228092846638 1:43.09 2:43.87 3:43.58 4:43.53 
1 1:43.58 2:43.53 3:43.5 4:43.86 
