svm_type epsilon_svr
kernel_type rbf
gamma 0.25
nr_class 2
total_sv 4
rho -73.6951
SV
1 1:69.27 2:71.29 3:74.98 4:75.19 
1 1:74.98 2:75.19 3:74.92 4:73.71 
-1 1:75.19 2:74.92 3:73.71 4:74.68 
-1 1:74.92 2:73.71 3:74.68 4:72.65 
