svm_type epsilon_svr
kernel_type rbf
gamma 0.25
nr_class 2
total_sv 4
rho -75.4726
SV
1 1:73.75 2:74.01 3:75.63 4:77.62 
-0.4616731510213787 1:74.01 2:75.63 3:77.62 4:77.7 
-0.4829909824531077 1:77.62 2:77.7 3:75.1 4:75.46 
-0.05533586652551353 1:77.7 2:75.1 3:75.46 4:74.88 
