svm_type epsilon_svr
kernel_type rbf
gamma 0.25
nr_class 2
total_sv 5
rho -101.274
SV
0.07595970316481443 1:101.32 2:101.54 3:100.89 4:102.13 
0.9240402968351855 1:101.54 2:100.89 3:102.13 4:102.25 
1 1:100.89 2:102.13 3:102.25 4:102.5 
-1 1:102.13 2:102.25 3:102.5 4:103.3 
-1 1:102.25 2:102.5 3:103.3 4:98.94 
