svm_type epsilon_svr
kernel_type rbf
gamma 0.25
nr_class 2
total_sv 4
rho -324.93
SV
-1 1:299.85999 2:305.10999 3:312.01001 4:311.51001 
1 1:305.10999 2:312.01001 3:311.51001 4:316.48001 
-1 1:312.01001 2:311.51001 3:316.48001 4:327.82001 
1 1:316.48001 2:327.82001 3:323.04999 4:324.92999 
