svm_type epsilon_svr
kernel_type rbf
gamma 0.25
nr_class 2
total_sv 4
rho -46.93
SV
0.9444982227727878 1:47.98 2:48.45 3:48.14 4:47.88 
-1 1:48.14 2:47.88 3:47.45 4:47.02 
1 1:47.88 2:47.45 3:47.02 4:46.45 
-0.9444982227727878 1:47.45 2:47.02 3:46.45 4:46.76 
