svm_type epsilon_svr
kernel_type rbf
gamma 0.25
nr_class 2
total_sv 4
rho -33.5651
SV
1 1:34.85 2:34.93 3:35.43 4:35.7 
-0.4372615352706609 1:34.93 2:35.43 3:35.7 4:35.61 
-0.3789337507010413 1:35.43 2:35.7 3:35.61 4:33.79 
-0.1838047140282976 1:35.61 2:33.79 3:33.21 4:33.33 
