svm_type epsilon_svr
kernel_type rbf
gamma 0.25
nr_class 2
total_sv 4
rho -311.39
SV
1 1:318.41 2:322.73999 3:322.20001 4:316.98001 
1 1:322.73999 2:322.20001 3:316.98001 4:322.70001 
-1 1:316.98001 2:322.70001 3:315.37 4:311.39001 
-1 1:322.70001 2:315.37 3:311.39001 4:306.45001 
