svm_type epsilon_svr
kernel_type rbf
gamma 0.25
nr_class 2
total_sv 5
rho -42.5357
SV
0.2665432665859989 1:41.81 2:40.78 3:41.14 4:41.26 
-0.0140251638946718 1:40.78 2:41.14 3:41.26 4:42.88 
0.09850311827798311 1:41.14 2:41.26 3:42.88 4:42.55 
0.1093196547292261 1:41.26 2:42.88 3:42.55 4:42.71 
-0.4603408756985363 1:42.88 2:42.55 3:42.71 4:42.59 
