svm_type epsilon_svr
kernel_type rbf
gamma 0.25
nr_class 2
total_sv 3
rho -49.9174
SV
0.7108214836091273 1:49.62 2:50.51 3:49.21 4:49.94 
-1 1:49.21 2:49.94 3:50.24 4:49.82 
0.2891785163908727 1:49.94 2:50.24 3:49.82 4:48.85 
