svm_type epsilon_svr
kernel_type rbf
gamma 0.25
nr_class 2
total_sv 5
rho -75.9331
SV
1 1:76.61 2:77.09 3:76.77 4:76.64 
0.2952388202099508 1:77.09 2:76.77 3:76.64 4:76.99 
-0.1481040533638016 1:76.77 2:76.64 3:76.99 4:76.35 
-0.6390295904356631 1:76.64 2:76.99 3:76.35 4:75.97 
-0.5081051764104862 1:76.99 2:76.35 3:75.97 4:75.71 
