svm_type epsilon_svr
kernel_type rbf
gamma 0.25
nr_class 2
total_sv 5
rho -83.984
SV
0.6519115283947021 1:87.54 2:86.22 3:86.4 4:84.94 
-0.1479799571445845 1:86.22 2:86.4 3:84.94 4:84.76 
0.4197613929438734 1:86.4 2:84.94 3:84.76 4:84.12 
0.07630703580600905 1:84.94 2:84.76 3:84.12 4:84.23 
-1 1:84.76 2:84.12 3:84.23 4:83.56 
