svm_type epsilon_svr
kernel_type rbf
gamma 0.25
nr_class 2
total_sv 4
rho -554.9
SV
-1 1:558.84003 2:551.34998 3:551.76001 4:544.28003 
-1 1:551.34998 2:551.76001 3:544.28003 4:543.01001 
1 1:544.28003 2:543.01001 3:553.37 4:554.90002 
1 1:543.01001 2:553.37 3:554.90002 4:556.35999 
