svm_type epsilon_svr
kernel_type rbf
gamma 0.25
nr_class 2
total_sv 4
rho -17.6547
SV
-0.05122061849352642 1:16.89 2:17.24 3:17.53 4:17.43 
1 1:17.24 2:17.53 3:17.43 4:17.63 
-1 1:17.43 2:17.63 3:17.87 4:17.72 
0.05122061849352642 1:17.63 2:17.87 3:17.72 4:17.48 
