svm_type epsilon_svr
kernel_type rbf
gamma 0.25
nr_class 2
total_sv 4
rho -82.141
SV
0.3141306943501588 1:82.58 2:83.57 3:82.59 4:82.88 
-1 1:83.57 2:82.59 3:82.88 4:82.07 
-0.3141306943501588 1:82.88 2:82.07 3:80.69 4:81.9 
1 1:82.07 2:80.69 3:81.9 4:81.9 
