svm_type epsilon_svr
kernel_type rbf
gamma 0.25
nr_class 2
total_sv 4
rho -589.02
SV
1 1:595.08002 2:589.46997 3:594.73999 4:595.97998 
1 1:594.73999 2:595.97998 3:593.34998 4:589.02002 
-1 1:595.97998 2:593.34998 3:589.02002 4:590.59998 
-1 1:593.34998 2:589.02002 3:590.59998 4:585.60999 
