svm_type epsilon_svr
kernel_type rbf
gamma 0.25
nr_class 2
total_sv 5
rho -41.3535
SV
0.5598025546001951 1:47.18 2:47.01 3:42.66 4:41.19 
-0.8555472937413985 1:47.01 2:42.66 3:41.19 4:42.01 
-0.1978359820093401 1:42.66 2:41.19 3:42.01 4:40.4 
0.02162061824590019 1:41.19 2:42.01 3:40.4 4:41.28 
0.4719601029046433 1:42.01 2:40.4 3:41.28 4:41.6 
