svm_type epsilon_svr
kernel_type rbf
gamma 0.25
nr_class 2
total_sv 5
rho -79.6269
SV
-1 1:77.73 2:77.83 3:76.99 4:74.69 
-0.9982344137658249 1:77.83 2:76.99 3:74.69 4:76.11 
0.1658239120809977 1:76.99 2:74.69 3:76.11 4:78.4 
1 1:74.69 2:76.11 3:78.4 4:79.88 
0.8324105016848272 1:76.11 2:78.4 3:79.88 4:81.45 
