svm_type epsilon_svr
kernel_type rbf
gamma 0.25
nr_class 2
total_sv 4
rho -76.6165
SV
1 1:75.5 2:75.75 3:76.01 4:76.56 
-0.6342735898481414 1:75.75 2:76.01 3:76.56 4:77.51 
0.221631729596135 1:76.01 2:76.56 3:77.51 4:76.53 
-0.5873581397479936 1:77.51 2:76.53 3:76.74 4:76.51 
