svm_type epsilon_svr
kernel_type rbf
gamma 0.25
nr_class 2
total_sv 5
rho -83.1777
SV
-1 1:77.81 2:78.77 3:79.44 4:79.01 
0.337467876828223 1:78.77 2:79.44 3:79.01 4:79.2 
-0.1246564678007176 1:79.44 2:79.01 3:79.2 4:82.94 
0.2820116481739977 1:79.01 2:79.2 3:82.94 4:82.96 
0.5051769427984969 1:79.2 2:82.94 3:82.96 4:83.57 
