svm_type epsilon_svr
kernel_type rbf
gamma 0.25
nr_class 2
total_sv 4
rho -60.8927
SV
-1 1:59.23 2:57.92 3:58.02 4:59.21 
-0.2485744619146809 1:58.02 2:59.21 3:58.56 4:60.49 
0.2485744619146809 1:59.21 2:58.56 3:60.49 4:60.52 
1 1:58.56 2:60.49 3:60.52 4:61.35 
