svm_type epsilon_svr
kernel_type rbf
gamma 0.25
nr_class 2
total_sv 3
rho -35.3496
SV
-0.7898050104611043 1:34.84 2:35.73 3:35.2 4:34.95 
1 1:35.2 2:34.95 3:35.06 4:35.55 
-0.2101949895388957 1:34.95 2:35.06 3:35.55 4:35.73 
