svm_type epsilon_svr
kernel_type rbf
gamma 0.25
nr_class 2
total_sv 5
rho -47.5535
SV
1 1:49.21 2:48.59 3:50.23 4:49.72 
0.423888366957784 1:48.59 2:50.23 3:49.72 4:48.8 
0.1566833813166859 1:50.23 2:49.72 3:48.8 4:48.3 
-1 1:49.72 2:48.8 3:48.3 4:47.51 
-0.5805717482744698 1:48.8 2:48.3 3:47.51 4:46.23 
