svm_type epsilon_svr
kernel_type rbf
gamma 0.25
nr_class 2
total_sv 4
rho -37.5664
SV
1 1:37.29 2:37.75 3:37.61 4:37.46 
1 1:37.61 2:37.46 3:37.81 4:37.6 
-1 1:37.46 2:37.81 3:37.6 4:37.92 
-1 1:37.81 2:37.6 3:37.92 4:37.41 
