svm_type epsilon_svr
kernel_type rbf
gamma 0.25
nr_class 2
total_sv 5
rho -106.9
SV
-1 1:102.47 2:102.99 3:104.83 4:105.22 
0.03792910213466008 1:102.99 2:104.83 3:105.22 4:105.11 
0.422440164643109 1:104.83 2:105.22 3:105.11 4:106.74 
-0.4603692667777691 1:105.22 2:105.11 3:106.74 4:107.34 
1 1:105.11 2:106.74 3:107.34 4:106.98 
