svm_type epsilon_svr
kernel_type rbf
gamma 0.25
nr_class 2
total_sv 4
rho -75.1055
SV
-1 1:74.22 2:74.03 3:74.39 4:73.9 
-0.2959045614574866 1:74.39 2:73.9 3:74.49 4:74.88 
1 1:73.9 2:74.49 3:74.88 4:74.96 
0.2959045614574864 1:74.49 2:74.88 3:74.96 4:75.55 
