svm_type epsilon_svr
kernel_type rbf
gamma 0.25
nr_class 2
total_sv 5
rho -84.3739
SV
0.4945085783886156 1:84.98 2:87.54 3:86.22 4:86.4 
0.3239651275627405 1:87.54 2:86.22 3:86.4 4:84.94 
-0.2683503156443758 1:86.22 2:86.4 3:84.94 4:84.76 
0.227296304616659 1:86.4 2:84.94 3:84.76 4:84.12 
-0.7774196949236394 1:84.94 2:84.76 3:84.12 4:84.23 
