svm_type epsilon_svr
kernel_type rbf
gamma 0.25
nr_class 2
total_sv 5
rho -30.9588
SV
-1 1:31.13 2:31.75 3:31.08 4:30.01 
-0.01084562314782224 1:31.75 2:31.08 3:30.01 4:30.36 
1 1:31.08 2:30.01 3:30.36 4:30.88 
-0.58184875323804 1:30.01 2:30.36 3:30.88 4:32.35 
0.5926943763858622 1:30.36 2:30.88 3:32.35 4:30.72 
