svm_type epsilon_svr
kernel_type rbf
gamma 0.25
nr_class 2
total_sv 5
rho -375.884
SV
-1 1:364.75 2:373.89001 3:374.28 4:370.56 
-0.6460224328362322 1:373.89001 2:374.28 3:370.56 4:373 
1 1:374.28 2:370.56 3:373 4:375.14001 
1 1:370.56 2:373 3:375.14001 4:377.17001 
-0.3539775671637677 1:373 2:375.14001 3:377.17001 4:381.82999 
