svm_type epsilon_svr
kernel_type rbf
gamma 0.25
nr_class 2
total_sv 5
rho -36.3144
SV
-1 1:35.7 2:35.79 3:35.66 4:35.91 
-1 1:35.79 2:35.66 3:35.91 4:35.79 
0.3579252745717518 1:35.66 2:35.91 3:35.79 4:35.52 
0.7164713619282806 1:35.91 2:35.79 3:35.52 4:36.19 
0.9256033634999675 1:35.79 2:35.52 3:36.19 4:36.36 
