svm_type epsilon_svr
kernel_type rbf
gamma 0.25
nr_class 2
total_sv 5
rho -527.12
SV
1 1:541.83002 2:533.79999 3:533.75 4:531.32001 
-1 1:533.79999 2:533.75 3:531.32001 4:537.31 
-0.0400100000001089 1:533.75 2:531.32001 3:537.31 4:525.26001 
1 1:531.32001 2:537.31 3:525.26001 4:526.97998 
-0.9599899999998911 1:537.31 2:525.26001 3:526.97998 4:533.37 
