svm_type epsilon_svr
kernel_type rbf
gamma 0.25
nr_class 2
total_sv 5
rho -50.0055
SV
-0.2275364464949175 1:50.67 2:50.28 3:50.41 4:50.99 
1 1:50.28 2:50.41 3:50.99 4:49.62 
-1 1:50.41 2:50.99 3:49.62 4:50.51 
-0.4477430574792228 1:50.99 2:49.62 3:50.51 4:49.21 
0.6752795039741402 1:49.62 2:50.51 3:49.21 4:49.94 
