svm_type epsilon_svr
kernel_type rbf
gamma 0.25
nr_class 2
total_sv 5
rho -107.994
SV
-0.1434014465578101 1:104.83 2:105.22 3:105.11 4:106.74 
-1 1:105.22 2:105.11 3:106.74 4:107.34 
0.02411256929987931 1:105.11 2:106.74 3:107.34 4:106.98 
1 1:106.74 2:107.34 3:106.98 4:108 
0.1192888772579308 1:107.34 2:106.98 3:108 4:109.4 
