svm_type epsilon_svr
kernel_type rbf
gamma 0.25
nr_class 2
total_sv 3
rho -63.2129
SV
0.1014386604970806 1:61.35 2:63.48 3:63.51 4:63.83 
-1 1:63.51 2:63.83 3:63.3 4:63.08 
0.8985613395029194 1:63.83 2:63.3 3:63.08 4:62.87 
