svm_type epsilon_svr
kernel_type rbf
gamma 0.25
nr_class 2
total_sv 5
rho -45.9586
SV
-0.3598989431558087 1:42.6 2:43.5 3:44.7 4:45.87 
-0.1848892785262042 1:43.5 2:44.7 3:45.87 4:45.43 
-0.2676919838903961 1:44.7 2:45.87 3:45.43 4:45.63 
-0.187519794427591 1:45.87 2:45.43 3:45.63 4:46.05 
1 1:45.43 2:45.63 3:46.05 4:46.34 
