svm_type epsilon_svr
kernel_type rbf
gamma 0.25
nr_class 2
total_sv 3
rho -38.7897
SV
-0.7356892015047414 1:35.54 2:36.79 3:36.9 4:38.02 
0.1075755844695526 1:36.79 2:36.9 3:38.02 4:38.02 
0.6281136170351888 1:38.02 2:38.74 3:38.9 4:39.24 
