svm_type epsilon_svr
kernel_type rbf
gamma 0.25
nr_class 2
total_sv 4
rho -38.2714
SV
-0.08417820530288188 1:41.08 2:41.1 3:39.6 4:38.38 
-0.3112442685121634 1:41.1 2:39.6 3:38.38 4:37.97 
-0.6045775261849547 1:38.38 2:37.97 3:37.82 4:38.12 
1 1:37.97 2:37.82 3:38.12 4:38.45 
