svm_type epsilon_svr
kernel_type rbf
gamma 0.25
nr_class 2
total_sv 4
rho -112.434
SV
-0.5559106873715318 1:108.23 2:106.75 3:109.41 4:112.65 
0.4089016992849982 1:106.75 2:109.41 3:112.65 4:111.78 
-0.8529910119134665 1:112.65 2:111.78 3:112.94 4:112.54 
1 1:111.78 2:112.94 3:112.54 4:112.01 
