svm_type epsilon_svr
kernel_type rbf
gamma 0.25
nr_class 2
total_sv 5
rho -77.4208
SV
-1 1:72.91 2:72.99 3:73.59 4:73.21 
-0.5481227572329868 1:72.99 2:73.59 3:73.21 4:72.63 
-0.2800329654893897 1:73.59 2:73.21 3:72.63 4:75.95 
1 1:73.21 2:72.63 3:75.95 4:76.95 
0.8281557227223765 1:72.63 2:75.95 3:76.95 4:78.69 
