svm_type epsilon_svr
kernel_type rbf
gamma 0.25
nr_class 2
total_sv 4
rho -33.0642
SV
-1 1:32.89 2:32.98 3:32.94 4:32.93 
-1 1:32.98 2:32.94 3:32.93 4:32.85 
1 1:32.93 2:32.85 3:32.63 4:33.01 
1 1:32.85 2:32.63 3:33.01 4:33.28 
