svm_type epsilon_svr
kernel_type rbf
gamma 0.25
nr_class 2
total_sv 5
rho -20.3627
SV
0.002855154906781834 1:21.95 2:22.12 3:22.16 4:21.15 
0.2535427908739628 1:22.12 2:22.16 3:21.15 4:20.7 
0.3080194768949331 1:22.16 2:21.15 3:20.7 4:20.79 
0.4355825773243224 1:21.15 2:20.7 3:20.79 4:20.74 
-1 1:20.7 2:20.79 3:20.74 4:20.33 
