svm_type epsilon_svr
kernel_type rbf
gamma 0.25
nr_class 2
total_sv 3
rho -32.2077
SV
1 1:32.95 2:33.37 3:33.35 4:33.5 
-0.7264373932672662 1:33.35 2:33.5 3:32.83 4:32.31 
-0.2735626067327338 1:32.83 2:32.31 3:31.88 4:31.66 
