svm_type epsilon_svr
kernel_type rbf
gamma 0.25
nr_class 2
total_sv 4
rho -32.6359
SV
-1 1:31.44 2:31.47 3:31.83 4:31.84 
0.8897151466081774 1:31.47 2:31.83 3:31.84 4:31.91 
0.4362093504882436 1:31.83 2:31.84 3:31.91 4:32.85 
-0.3259244970964209 1:31.91 2:32.85 3:32.95 4:32.75 
