svm_type epsilon_svr
kernel_type rbf
gamma 0.25
nr_class 2
total_sv 4
rho -40.1382
SV
0.6623781843485939 1:42.54 2:40.04 3:41.85 4:40.47 
-0.2864367510750108 1:40.04 2:41.85 3:40.47 4:40.61 
-0.610024616825076 1:41.85 2:40.47 3:40.61 4:39.71 
0.2340831835514929 1:40.61 2:39.71 3:39.81 4:40.03 
