svm_type epsilon_svr
kernel_type rbf
gamma 0.25
nr_class 2
total_sv 5
rho -529.863
SV
-1 1:495.39001 2:504.89001 3:511.10001 4:516.34998 
0.626881562499932 1:504.89001 2:511.10001 3:516.34998 4:524.87 
-0.9931284374998768 1:511.10001 2:516.34998 3:524.87 4:530.59003 
1 1:516.34998 2:524.87 3:530.59003 4:528.77002 
0.3662468749999448 1:524.87 2:530.59003 3:528.77002 4:534.03003 
