svm_type epsilon_svr
kernel_type rbf
gamma 0.25
nr_class 2
total_sv 4
rho -299.86
SV
-1 1:299.07001 2:305.45999 3:305.72 4:302.81 
-1 1:305.45999 2:305.72 3:302.81 4:296.51999 
1 1:302.81 2:296.51999 3:296.64001 4:299.85999 
1 1:296.51999 2:296.64001 3:299.85999 4:305.10999 
