svm_type epsilon_svr
kernel_type rbf
gamma 0.25
nr_class 2
total_sv 5
rho -19.3052
SV
-0.9898904028190206 1:17.87 2:17.72 3:17.48 4:17.72 
-0.6533860366241778 1:17.72 2:17.48 3:17.72 4:18.36 
1 1:17.48 2:17.72 3:18.36 4:18.72 
0.4335137360748981 1:17.72 2:18.36 3:18.72 4:19.82 
0.2097627033683003 1:18.36 2:18.72 3:19.82 4:20.16 
