svm_type epsilon_svr
kernel_type rbf
gamma 0.25
nr_class 2
total_sv 5
rho -125.224
SV
-0.9095387020936606 1:123.38 2:124.24 3:123.25 4:126.37 
-0.9741164802282847 1:124.24 2:123.25 3:126.37 4:124.43 
0.04870192283392142 1:123.25 2:126.37 3:124.43 4:124.25 
1 1:126.37 2:124.43 3:124.25 4:125.32 
0.8349532594880239 1:124.43 2:124.25 3:125.32 4:127.35 
