svm_type epsilon_svr
kernel_type rbf
gamma 0.25
nr_class 2
total_sv 4
rho -86.1695
SV
-1 1:88.63 2:87.53 3:86.82 4:87.72 
-0.3564471733648515 1:87.53 2:86.82 3:87.72 4:84.98 
0.3650756611572873 1:87.72 2:84.98 3:85.71 4:86.19 
0.9913715122075641 1:84.98 2:85.71 3:86.19 4:86.65 
