svm_type epsilon_svr
kernel_type rbf
gamma 0.25
nr_class 2
total_sv 5
rho -43.9777
SV
-0.5486070883841172 1:44.42 2:43.53 3:43.65 4:44.37 
-0.4513929116158827 1:43.53 2:43.65 3:44.37 4:44.11 
-1 1:43.65 2:44.37 3:44.11 4:43.53 
1 1:44.37 2:44.11 3:43.53 4:43.38 
1 1:44.11 2:43.53 3:43.38 4:44.43 
