svm_type epsilon_svr
kernel_type rbf
gamma 0.25
nr_class 2
total_sv 5
rho -82.166
SV
0.4076372629660517 1:82.92 2:83.01 3:83.3 4:83.2 
-0.3415025223737431 1:83.01 2:83.3 3:83.2 4:82.22 
-1 1:83.3 2:83.2 3:82.22 4:81.67 
0.9378085638929007 1:83.2 2:82.22 3:81.67 4:81.56 
-0.003943304485209418 1:82.22 2:81.67 3:81.56 4:82.44 
