svm_type epsilon_svr
kernel_type rbf
gamma 0.25
nr_class 2
total_sv 5
rho -34.7926
SV
-1 1:35.61 2:33.79 3:33.21 4:33.33 
-1 1:33.79 2:33.21 3:33.33 4:33.28 
0.1171913000994776 1:33.21 2:33.33 3:33.28 4:33.6 
1 1:33.33 2:33.28 3:33.6 4:34.71 
0.8828086999005225 1:33.28 2:33.6 3:34.71 4:36.17 
