svm_type epsilon_svr
kernel_type rbf
gamma 0.25
nr_class 2
total_sv 5
rho -64.5119
SV
-0.1883793707202106 1:62.5 2:62.88 3:65.77 4:65.78 
-0.07040835837444454 1:62.88 2:65.77 3:65.78 4:64.29 
-0.4204808495106998 1:65.77 2:65.78 3:64.29 4:64.5 
-0.3207314213946451 1:65.78 2:64.29 3:64.5 4:64.19 
1 1:64.29 2:64.5 3:64.19 4:64.4 
