svm_type epsilon_svr
kernel_type rbf
gamma 0.25
nr_class 2
total_sv 3
rho -33.4237
SV
-1 1:33.09 2:33.29 3:33.27 4:33.5 
0.9038314917511592 1:33.29 2:33.27 3:33.5 4:33.22 
0.09616850824884088 1:33.27 2:33.5 3:33.22 4:33.56 
