svm_type epsilon_svr
kernel_type rbf
gamma 0.25
nr_class 2
total_sv 4
rho -19.4396
SV
0.4577649883297996 1:18.83 2:18.9 3:19.11 4:19.4 
0.5861983998808397 1:18.9 2:19.11 3:19.4 4:19.71 
-0.8119106593113739 1:19.11 2:19.4 3:19.71 4:19.62 
-0.2320527288992653 1:19.71 2:19.62 3:19.27 4:19.21 
