svm_type epsilon_svr
kernel_type rbf
gamma 0.25
nr_class 2
total_sv 4
rho -34.1376
SV
-0.05232207437406685 1:36.87 2:36.91 3:36.49 4:34.07 
-0.3257486630715368 1:36.91 2:36.49 3:34.07 4:33.92 
0.2611565984175586 1:36.49 2:34.07 3:33.92 4:33.76 
0.116914139028045 1:34.07 2:33.92 3:33.76 4:34.45 
