svm_type epsilon_svr
kernel_type rbf
gamma 0.25
nr_class 2
total_sv 4
rho -76.4947
SV
1 1:76.76 2:76.71 3:77.13 4:77.32 
0.5331244685667772 1:76.71 2:77.13 3:77.32 4:77.21 
-0.5331244685667772 1:77.32 2:77.21 3:77.01 4:76.62 
-1 1:77.21 2:77.01 3:76.62 4:76.16 
