svm_type epsilon_svr
kernel_type rbf
gamma 0.25
nr_class 2
total_sv 4
rho -44.8191
SV
-1 1:43.73 2:43.22 3:42.74 4:43.63 
1 1:43.22 2:42.74 3:43.63 4:44.08 
-1 1:42.74 2:43.63 3:44.08 4:44.88 
1 1:44.08 2:44.88 3:44.38 4:45.02 
