svm_type epsilon_svr
kernel_type rbf
gamma 0.25
nr_class 2
total_sv 3
rho -33.2571
SV
-0.9285212287233161 1:32.94 2:32.93 3:32.85 4:32.63 
0.1505415489941841 1:32.93 2:32.85 3:32.63 4:33.01 
0.777979679729132 1:33.01 2:33.28 3:33.25 4:33.34 
