svm_type epsilon_svr
kernel_type rbf
gamma 0.25
nr_class 2
total_sv 5
rho -46.9933
SV
-1 1:37.53 2:37.46 3:39.79 4:40.72 
1 1:37.46 2:39.79 3:40.72 4:41.26 
0.2264470909764809 1:39.79 2:40.72 3:41.26 4:48.01 
-0.6335600793485506 1:40.72 2:41.26 3:48.01 4:47.32 
0.4071129883720696 1:41.26 2:48.01 3:47.32 4:46.26 
