svm_type epsilon_svr
kernel_type rbf
gamma 0.25
nr_class 2
total_sv 5
rho -549.547
SV
-1 1:526.53998 2:532.71002 3:543.97998 4:539.78003 
-0.5462042837613694 1:532.71002 2:543.97998 3:539.78003 4:540.77002 
-0.1168878387744406 1:543.97998 2:539.78003 3:540.77002 4:548.90002 
0.6630921225358101 1:539.78003 2:540.77002 3:548.90002 4:549.33002 
1 1:540.77002 2:548.90002 3:549.33002 4:550.31 
