svm_type epsilon_svr
kernel_type rbf
gamma 0.25
nr_class 2
total_sv 4
rho -31.1603
SV
-1 1:31.66 2:31.68 3:31.19 4:31.01 
1 1:31.68 2:31.19 3:31.01 4:31.09 
-1 1:31.19 2:31.01 3:31.09 4:31.45 
1 1:31.09 2:31.45 3:31.07 4:31.11 
