svm_type epsilon_svr
kernel_type rbf
gamma 0.25
nr_class 2
total_sv 4
rho -33.7743
SV
0.1448995318892064 1:34.94 2:34.68 3:34.05 4:33.64 
-1 1:34.68 2:34.05 3:33.64 4:33.48 
-0.1448995318892064 1:34.05 2:33.64 3:33.48 4:33.25 
1 1:33.64 2:33.48 3:33.25 4:33.66 
