svm_type epsilon_svr
kernel_type rbf
gamma 0.25
nr_class 2
total_sv 4
rho -42.3409
SV
0.2917645018422318 1:41.14 2:41.26 3:42.88 4:42.55 
0.4881926466495224 1:41.26 2:42.88 3:42.55 4:42.71 
0.2200428515082458 1:42.88 2:42.55 3:42.71 4:42.59 
-1 1:42.55 2:42.71 3:42.59 4:42.09 
