svm_type epsilon_svr
kernel_type rbf
gamma 0.25
nr_class 2
total_sv 4
rho -40.1495
SV
1 1:41.47 2:40.21 3:40.9 4:40.37 
0.8026281169070001 1:40.21 2:40.9 3:40.37 4:40.84 
-1 1:40.9 2:40.37 3:40.84 4:40.31 
-0.8026281169070001 1:40.37 2:40.84 3:40.31 4:39.59 
