svm_type epsilon_svr
kernel_type rbf
gamma 0.25
nr_class 2
total_sv 5
rho -37.9637
SV
-0.4577093692372098 1:42.05 2:41.77 3:41.33 4:40.23 
0.04277948027565556 1:41.77 2:41.33 3:40.23 4:37.41 
-0.0495780078009692 1:41.33 2:40.23 3:37.41 4:38.06 
0.2458282170284257 1:40.23 2:37.41 3:38.06 4:37.84 
0.2186796797340977 1:37.41 2:38.06 3:37.84 4:38.33 
