svm_type epsilon_svr
kernel_type rbf
gamma 0.25
nr_class 2
total_sv 4
rho -530.03
SV
1 1:563.73999 2:572.5 3:560.88 4:544.48999 
1 1:572.5 2:560.88 3:544.48999 4:533.21002 
-1 1:544.48999 2:533.21002 3:537.94 4:530.03003 
-1 1:533.21002 2:537.94 3:530.03003 4:524.51001 
