svm_type epsilon_svr
kernel_type rbf
gamma 0.25
nr_class 2
total_sv 4
rho -46.8825
SV
-1 1:47 2:46.7 3:46.24 4:46.76 
-0.488633860776675 1:46.7 2:46.24 3:46.76 4:46.52 
1 1:46.24 2:46.76 3:46.52 4:46.68 
0.488633860776675 1:46.76 2:46.52 3:46.68 4:47.52 
