svm_type epsilon_svr
kernel_type rbf
gamma 0.25
nr_class 2
total_sv 5
rho -34.8507
SV
0.2915865743439384 1:35.52 2:34.53 3:34.85 4:34.93 
0.7084134256560616 1:34.53 2:34.85 3:34.93 4:35.43 
1 1:34.85 2:34.93 3:35.43 4:35.7 
-1 1:34.93 2:35.43 3:35.7 4:35.61 
-1 1:35.43 2:35.7 3:35.61 4:33.79 
