svm_type epsilon_svr
kernel_type rbf
gamma 0.25
nr_class 2
total_sv 5
rho -39.97
SV
-0.1474729118337955 1:40.42 2:40.24 3:39.6 4:39.83 
-1 1:40.24 2:39.6 3:39.83 4:39.75 
1 1:39.6 2:39.83 3:39.75 4:39.68 
0.04589731943990975 1:39.83 2:39.75 3:39.68 4:40.35 
0.1015755923938857 1:39.75 2:39.68 3:40.35 4:40.1 
