svm_type epsilon_svr
kernel_type rbf
gamma 0.25
nr_class 2
total_sv 5
rho -78.3357
SV
1 1:80.65 2:80.29 3:80.15 4:79.74 
-1 1:80.29 2:80.15 3:79.74 4:79.24 
0.01924481447380398 1:80.15 2:79.74 3:79.24 4:77.88 
-0.1437072091464643 1:79.74 2:79.24 3:77.88 4:78.14 
0.1244623946726604 1:79.24 2:77.88 3:78.14 4:78.03 
