svm_type epsilon_svr
kernel_type rbf
gamma 0.25
nr_class 2
total_sv 4
rho -32.9286
SV
-0.1166341123433786 1:33.46 2:32.79 3:33.03 4:33.3 
-0.9403642863013281 1:33.03 2:33.3 3:32.86 4:32.87 
0.2937310978106109 1:33.3 2:32.86 3:32.87 4:32.78 
0.7632673008340958 1:32.86 2:32.87 3:32.78 4:33.05 
