svm_type epsilon_svr
kernel_type rbf
gamma 0.25
nr_class 2
total_sv 5
rho -17.3158
SV
-1 1:16.76 2:16.7 3:16.79 4:16.71 
-1 1:16.7 2:16.79 3:16.71 4:16.69 
0.7800863610404914 1:16.79 2:16.71 3:16.69 4:16.89 
1 1:16.71 2:16.69 3:16.89 4:17.33 
0.2199136389595086 1:16.69 2:16.89 3:17.33 4:17.68 
