svm_type epsilon_svr
kernel_type rbf
gamma 0.25
nr_class 2
total_sv 4
rho -45.8534
SV
1 1:47.63 2:48.18 3:48.89 4:48.95 
1 1:48.18 2:48.89 3:48.95 4:49.44 
-1 1:48.95 2:49.44 3:47.99 4:46.46 
-1 1:49.44 2:47.99 3:46.46 4:43.73 
