svm_type epsilon_svr
kernel_type rbf
gamma 0.25
nr_class 2
total_sv 5
rho -298.26
SV
1 1:297.38 2:292.70999 3:288.32001 4:292.23999 
1 1:292.70999 2:288.32001 3:292.23999 4:302.85999 
-0.5400050000000078 1:288.32001 2:292.23999 3:302.85999 4:304.64001 
-1 1:292.23999 2:302.85999 3:304.64001 4:297.62 
-0.4599949999999922 1:302.85999 2:304.64001 3:297.62 4:295.19 
