svm_type epsilon_svr
kernel_type rbf
gamma 0.25
nr_class 2
total_sv 3
rho -77.0123
SV
-0.5114468579880483 1:75.53 2:75.98 3:76.77 4:76.76 
0.0815138196380175 1:75.98 2:76.77 3:76.76 4:76.71 
0.4299330383500308 1:76.77 2:76.76 3:76.71 4:77.13 
