svm_type epsilon_svr
kernel_type rbf
gamma 0.25
nr_class 2
total_sv 4
rho -74.3848
SV
0.5286676569379526 1:73.54 2:73.34 3:74.2 4:73.95 
-0.07593552342542674 1:74.2 2:73.95 3:74.67 4:74.36 
-0.8182562913043754 1:73.95 2:74.67 3:74.36 4:74.22 
0.3655241577918494 1:74.67 2:74.36 3:74.22 4:74.03 
