svm_type epsilon_svr
kernel_type rbf
gamma 0.25
nr_class 2
total_sv 5
rho -23.337
SV
0.1740700289861769 1:20.82 2:21.91 3:22.17 4:22.6 
-0.6941620394766312 1:21.91 2:22.17 3:22.6 4:23.37 
0.2790965913950532 1:22.17 2:22.6 3:23.37 4:23.06 
0.5090565892780493 1:22.6 2:23.37 3:23.06 4:23.46 
-0.2680611701826481 1:23.37 2:23.06 3:23.46 4:23.57 
