svm_type epsilon_svr
kernel_type rbf
gamma 0.25
nr_class 2
total_sv 5
rho -128.126
SV
-0.942894167474048 1:119.72 2:122.02 3:124.88 4:126.46 
-0.2109127543945751 1:122.02 2:124.88 3:126.46 4:127.08 
0.5596741505983187 1:124.88 2:126.46 3:127.08 4:127.83 
-0.4058672287296957 1:126.46 2:127.08 3:127.83 4:128.72 
1 1:127.08 2:127.83 3:128.72 4:128.45 
