svm_type epsilon_svr
kernel_type rbf
gamma 0.25
nr_class 2
total_sv 5
rho -82.9476
SV
-0.2917645044669606 1:81.9 2:81.9 3:83.29 4:82.62 
-1 1:81.9 2:83.29 3:82.62 4:82.53 
0.4616112109979594 1:83.29 2:82.62 3:82.53 4:81.52 
0.6270865415128509 1:82.62 2:82.53 3:81.52 4:83.24 
0.2030667519561504 1:82.53 2:81.52 3:83.24 4:83.31 
