svm_type epsilon_svr
kernel_type rbf
gamma 0.25
nr_class 2
total_sv 5
rho -33.0008
SV
-0.2657214219461657 1:32.82 2:33.08 3:32.81 4:32.85 
1 1:33.08 2:32.81 3:32.85 4:32.9 
0.04171346862424989 1:32.81 2:32.85 3:32.9 4:33.36 
0.2240079533219158 1:32.85 2:32.9 3:33.36 4:33.13 
-1 1:32.9 2:33.36 3:33.13 4:33.1 
