svm_type epsilon_svr
kernel_type rbf
gamma 0.25
nr_class 2
total_sv 4
rho -47.7315
SV
-0.7972421691754875 1:45.91 2:46.49 3:46.62 4:46.05 
-0.1313080844281225 1:46.62 2:46.05 3:46.95 4:47.44 
-0.07144974639639003 1:46.05 2:46.95 3:47.44 4:47.57 
1 1:46.95 2:47.44 3:47.57 4:47.86 
