svm_type epsilon_svr
kernel_type rbf
gamma 0.25
nr_class 2
total_sv 5
rho -43.4709
SV
-0.8323897150279393 1:44.13 2:43.47 3:43.83 4:43.46 
-0.6871546352292692 1:43.47 2:43.83 3:43.46 4:43 
-0.1676102849720606 1:43.83 2:43.46 3:43 4:43.13 
0.6871546352292692 1:43.46 2:43 3:43.13 4:43.27 
1 1:43 2:43.13 3:43.27 4:43.81 
