svm_type epsilon_svr
kernel_type rbf
gamma 0.25
nr_class 2
total_sv 4
rho -342.34
SV
1 1:340.01999 2:339.04001 3:342.38 4:339 
1 1:339.04001 2:342.38 3:339 4:345.95001 
-1 1:339 2:345.95001 3:346.38 4:342.34 
-1 1:345.95001 2:346.38 3:342.34 4:329.75 
