svm_type epsilon_svr
kernel_type rbf
gamma 0.25
nr_class 2
total_sv 3
rho -44.7075
SV
-0.080375174412001 1:42.09 2:42.14 3:42.45 4:44.08 
0.02492630090023193 1:42.45 2:44.08 3:44.53 4:44.69 
0.05544887351176908 1:44.53 2:44.69 3:44.84 4:44.83 
