svm_type epsilon_svr
kernel_type rbf
gamma 0.25
nr_class 2
total_sv 5
rho -384.484
SV
-1 1:373.37 2:379 3:383.66 4:380.14001 
0.7844580204055287 1:379 2:383.66 3:380.14001 4:378.59 
0.2155419795944713 1:383.66 2:380.14001 3:378.59 4:385.37 
-1 1:380.14001 2:378.59 3:385.37 4:384.79999 
1 1:378.59 2:385.37 3:384.79999 4:380.16 
