svm_type epsilon_svr
kernel_type rbf
gamma 0.25
nr_class 2
total_sv 5
rho -41.5903
SV
0.3394191878630461 1:39.27 2:38.87 3:39.19 4:39.59 
-0.7415511736163515 1:38.87 2:39.19 3:39.59 4:41.81 
-0.2706633485916005 1:39.19 2:39.59 3:41.81 4:40.78 
-0.3272046656550943 1:39.59 2:41.81 3:40.78 4:41.14 
1 1:41.81 2:40.78 3:41.14 4:41.26 
