svm_type epsilon_svr
kernel_type rbf
gamma 0.25
nr_class 2
total_sv 5
rho -342.961
SV
-0.4794913869082972 1:341.82999 2:343.17999 3:340.01999 4:339.04001 
-1 1:343.17999 2:340.01999 3:339.04001 4:342.38 
1 1:340.01999 2:339.04001 3:342.38 4:339 
1 1:339.04001 2:342.38 3:339 4:345.95001 
-0.5205086130917028 1:342.38 2:339 3:345.95001 4:346.38 
