svm_type epsilon_svr
kernel_type rbf
gamma 0.25
nr_class 2
total_sv 5
rho -37.5975
SV
1 1:37.41 2:38.06 3:37.84 4:38.33 
0.5794686773976323 1:38.06 2:37.84 3:38.33 4:38.31 
-0.5592020389330319 1:37.84 2:38.33 3:38.31 4:37.88 
-1 1:38.33 2:38.31 3:37.88 4:37.43 
-0.02026663846460044 1:38.31 2:37.88 3:37.43 4:36.87 
