svm_type epsilon_svr
kernel_type rbf
gamma 0.25
nr_class 2
total_sv 4
rho -44.9673
SV
-1 1:44.95 2:44.44 3:44.13 4:44.15 
-1 1:44.44 2:44.13 3:44.15 4:43.67 
1 1:44.13 2:44.15 3:43.67 4:43.61 
1 1:44.15 2:43.67 3:43.61 4:45.17 
