svm_type epsilon_svr
kernel_type rbf
gamma 0.25
nr_class 2
total_sv 5
rho -44.1521
SV
1 1:45.76 2:46.09 3:46.09 4:45.53 
1 1:46.09 2:46.09 3:45.53 4:46.78 
-1 1:46.09 2:45.53 3:46.78 4:45.85 
-0.7335846841452934 1:45.53 2:46.78 3:45.85 4:44.03 
-0.2664153158547066 1:46.78 2:45.85 3:44.03 4:43.65 
