svm_type epsilon_svr
kernel_type rbf
gamma 0.25
nr_class 2
total_sv 5
rho -47.2213
SV
-1 1:46.9 2:47.17 3:46.95 4:46.67 
-1 1:47.17 2:46.95 3:46.67 4:45.16 
0.962885231704622 1:46.95 2:46.67 3:45.16 4:45.74 
0.2159478069392444 1:46.67 2:45.16 3:45.74 4:47.52 
0.8211669613561334 1:45.16 2:45.74 3:47.52 4:47.66 
