svm_type epsilon_svr
kernel_type rbf
gamma 0.25
nr_class 2
total_sv 5
rho -48.9119
SV
-1 1:46.66 2:46.43 3:46.93 4:47.2 
0.5510186698677529 1:46.43 2:46.93 3:47.2 4:47.93 
-1 1:46.93 2:47.2 3:47.93 4:48.44 
1 1:47.2 2:47.93 3:48.44 4:48.46 
0.4489813301322471 1:47.93 2:48.44 3:48.46 4:51.47 
