svm_type epsilon_svr
kernel_type rbf
gamma 0.25
nr_class 2
total_sv 5
rho -78.7465
SV
-1 1:76.27 2:76.28 3:77.26 4:77.7 
0.1466012208336379 1:76.28 2:77.26 3:77.7 4:77.81 
1 1:77.26 2:77.7 3:77.81 4:78.77 
-0.4772451175523688 1:77.7 2:77.81 3:78.77 4:79.44 
0.3306438967187308 1:77.81 2:78.77 3:79.44 4:79.01 
