svm_type epsilon_svr
kernel_type rbf
gamma 0.25
nr_class 2
total_sv 5
rho -37.7054
SV
-0.5555630593262465 1:33.33 2:34.47 3:35.37 4:35.54 
-0.8131892828351724 1:34.47 2:35.37 3:35.54 4:36.79 
0.6300046617059588 1:35.37 2:35.54 3:36.79 4:36.9 
-0.184782623124387 1:35.54 2:36.79 3:36.9 4:38.02 
0.9235303035798471 1:36.79 2:36.9 3:38.02 4:38.02 
