svm_type epsilon_svr
kernel_type rbf
gamma 0.25
nr_class 2
total_sv 4
rho -76.5397
SV
0.6693106685138394 1:75.81 2:76.32 3:76.24 4:76.22 
-1 1:76.24 2:76.22 3:76.84 4:76.31 
0.8797692085152213 1:76.22 2:76.84 3:76.31 4:75.6 
-0.5490798770290607 1:76.84 2:76.31 3:75.6 4:77.08 
