svm_type epsilon_svr
kernel_type rbf
gamma 0.25
nr_class 2
total_sv 4
rho -563.74
SV
1 1:577.35999 2:568.27002 3:570.08002 4:575.28003 
1 1:570.08002 2:575.28003 3:577.34998 4:563.73999 
-1 1:575.28003 2:577.34998 3:563.73999 4:572.5 
-1 1:577.34998 2:563.73999 3:572.5 4:560.88 
