svm_type epsilon_svr
kernel_type rbf
gamma 0.25
nr_class 2
total_sv 4
rho -32.0304
SV
0.2579994150969447 1:32.59 2:32.33 3:32.19 4:32.07 
-0.2579994150969447 1:32.33 2:32.19 3:32.07 4:32.17 
1 1:32.19 2:32.07 3:32.17 4:31.92 
-1 1:32.07 2:32.17 3:31.92 4:32.22 
