svm_type epsilon_svr
kernel_type rbf
gamma 0.25
nr_class 2
total_sv 4
rho -32.9397
SV
1 1:33.08 2:32.81 3:32.85 4:32.9 
0.6161365867011769 1:32.85 2:32.9 3:33.36 4:33.13 
-1 1:32.9 2:33.36 3:33.13 4:33.1 
-0.6161365867011769 1:33.36 2:33.13 3:33.1 4:32.67 
