svm_type epsilon_svr
kernel_type rbf
gamma 0.25
nr_class 2
total_sv 4
rho -41.7748
SV
1 1:49.08 2:49.67 3:49.95 4:48.56 
0.203317639806558 1:49.67 2:49.95 3:48.56 4:43.78 
-0.203317639806558 1:48.56 2:43.78 3:42.08 4:41.8 
-1 1:43.78 2:42.08 3:41.8 4:41.47 
