svm_type epsilon_svr
kernel_type rbf
gamma 0.25
nr_class 2
total_sv 5
rho -42.5068
SV
1 1:50.63 2:49.08 3:49.67 4:49.95 
0.8696737354618004 1:49.08 2:49.67 3:49.95 4:48.56 
-0.3278467104358485 1:49.67 2:49.95 3:48.56 4:43.78 
-0.605625441681155 1:49.95 2:48.56 3:43.78 4:42.08 
-0.936201583344797 1:48.56 2:43.78 3:42.08 4:41.8 
