svm_type epsilon_svr
kernel_type rbf
gamma 0.25
nr_class 2
total_sv 5
rho -96.6168
SV
-1 1:95.32 2:94.78 3:93.09 4:94.43 
-1 1:94.78 2:93.09 3:94.43 4:93.94 
0.9232198409605877 1:93.09 2:94.43 3:93.94 4:94.72 
0.1573292601389293 1:94.43 2:93.94 3:94.72 4:97.19 
0.9194508989004829 1:93.94 2:94.72 3:97.19 4:97.03 
