svm_type epsilon_svr
kernel_type rbf
gamma 0.25
nr_class 2
total_sv 5
rho -44.2104
SV
0.6150151705846164 1:44.37 2:44.11 3:43.53 4:43.38 
0.287403393178883 1:44.11 2:43.53 3:43.38 4:44.43 
0.05140080949229384 1:43.53 2:43.38 3:44.43 4:44.45 
0.04618062674420668 1:43.38 2:44.43 3:44.45 4:44.28 
-1 1:44.43 2:44.45 3:44.28 4:44.11 
