svm_type epsilon_svr
kernel_type rbf
gamma 0.25
nr_class 2
total_sv 5
rho -46.0317
SV
-1 1:44.87 2:44.88 3:45.43 4:45.09 
-1 1:44.88 2:45.43 3:45.09 4:44.96 
0.2986707061090841 1:45.43 2:45.09 3:44.96 4:45.26 
1 1:45.09 2:44.96 3:45.26 4:45.91 
0.7013292938909159 1:44.96 2:45.26 3:45.91 4:46.47 
