svm_type epsilon_svr
kernel_type rbf
gamma 0.25
nr_class 2
total_sv 5
rho -40.9718
SV
-1 1:38.38 2:37.97 3:37.82 4:38.12 
-0.9859755962299257 1:37.97 2:37.82 3:38.12 4:38.45 
-0.01402440377007427 1:37.82 2:38.12 3:38.45 4:39.28 
1 1:38.12 2:38.45 3:39.28 4:40.18 
1 1:38.45 2:39.28 3:40.18 4:42 
