svm_type epsilon_svr
kernel_type rbf
gamma 0.25
nr_class 2
total_sv 4
rho -316.48
SV
-1 1:296.51999 2:296.64001 3:299.85999 4:305.10999 
-1 1:296.64001 2:299.85999 3:305.10999 4:312.01001 
1 1:305.10999 2:312.01001 3:311.51001 4:316.48001 
1 1:312.01001 2:311.51001 3:316.48001 4:327.82001 
