svm_type epsilon_svr
kernel_type rbf
gamma 0.25
nr_class 2
total_sv 4
rho -571.34
SV
-1 1:538.95001 2:531.90997 3:536.09003 4:543.87 
-1 1:531.90997 2:536.09003 3:543.87 4:555.47998 
1 1:543.87 2:555.47998 3:558.40002 4:571.34003 
1 1:555.47998 2:558.40002 3:571.34003 4:573.64001 
