svm_type epsilon_svr
kernel_type rbf
gamma 0.25
nr_class 2
total_sv 4
rho -327.5
SV
-1 1:313.78 2:312.54999 3:308.84 4:307.19 
-1 1:312.54999 2:308.84 3:307.19 4:306.78 
1 1:308.84 2:307.19 3:306.78 4:323.57001 
1 1:306.78 2:323.57001 3:329.67001 4:327.5 
