svm_type epsilon_svr
kernel_type rbf
gamma 0.25
nr_class 2
total_sv 4
rho -327.76
SV
1 1:346.38 2:342.34 3:329.75 4:331.32999 
1 1:342.34 2:329.75 3:331.32999 4:330.51999 
-1 1:329.75 2:331.32999 3:330.51999 4:331.19 
-1 1:330.51999 2:331.19 3:323.89001 4:327.76001 
