svm_type epsilon_svr
kernel_type rbf
gamma 0.25
nr_class 2
total_sv 4
rho -308.543
SV
1 1:306.29001 2:303.03 3:309.09 4:312.04001 
1 1:303.03 2:309.09 3:312.04001 4:310.29999 
-1 1:312.04001 2:310.29999 3:310.35001 4:308.51999 
-1 1:310.29999 2:310.35001 3:308.51999 4:302.19 
