svm_type epsilon_svr
kernel_type rbf
gamma 0.25
nr_class 2
total_sv 4
rho -37.6193
SV
-1 1:37.15 2:37.23 3:37.5 4:37.43 
0.5234773184147005 1:37.23 2:37.5 3:37.43 4:37.29 
-0.5234773184147005 1:37.43 2:37.29 3:37.75 4:37.61 
1 1:37.29 2:37.75 3:37.61 4:37.46 
