svm_type epsilon_svr
kernel_type rbf
gamma 0.25
nr_class 2
total_sv 4
rho -68.5299
SV
-0.598483863013049 1:64.87 2:66.34 3:67.9 4:67.17 
-1 1:66.34 2:67.9 3:67.17 4:67.66 
1 1:67.17 2:67.66 3:66.41 4:68.42 
0.598483863013049 1:67.66 2:66.41 3:68.42 4:69.4 
