svm_type epsilon_svr
kernel_type rbf
gamma 0.25
nr_class 2
total_sv 4
rho -78.68
SV
-1 1:75.19 2:76.51 3:76.23 4:75.74 
-1 1:76.51 2:76.23 3:75.74 4:75.6 
1 1:76.23 2:75.74 3:75.6 4:76.71 
1 1:75.74 2:75.6 3:76.71 4:79.42 
