svm_type epsilon_svr
kernel_type rbf
gamma 0.25
nr_class 2
total_sv 4
rho -39.0725
SV
-1 1:37.71 2:37.79 3:38.18 4:38.31 
1 1:37.79 2:38.18 3:38.31 4:38.51 
-0.9504392646248063 1:38.18 2:38.31 3:38.51 4:39.27 
0.9504392646248063 1:38.51 2:39.27 3:38.87 4:39.19 
