svm_type epsilon_svr
kernel_type rbf
gamma 0.25
nr_class 2
total_sv 4
rho -20.876
SV
0.7521539811018794 1:20.58 2:20.78 3:20.86 4:21.32 
1 1:20.78 2:20.86 3:21.32 4:21.27 
-1 1:20.86 2:21.32 3:21.27 4:21.17 
-0.7521539811018793 1:21.32 2:21.27 3:21.17 4:20.58 
