svm_type epsilon_svr
kernel_type rbf
gamma 0.25
nr_class 2
total_sv 5
rho -31.5268
SV
1 1:32.83 2:32.31 3:31.88 4:31.66 
-0.5667265122576212 1:32.31 2:31.88 3:31.66 4:31.68 
-1 1:31.88 2:31.66 3:31.68 4:31.19 
-0.4332734877423788 1:31.66 2:31.68 3:31.19 4:31.01 
1 1:31.68 2:31.19 3:31.01 4:31.09 
