svm_type epsilon_svr
kernel_type rbf
gamma 0.25
nr_class 2
total_sv 4
rho -35.5067
SV
-0.2894000311606072 1:33.48 2:33.25 3:33.66 4:34.25 
-0.09103825338306956 1:33.25 2:33.66 3:34.25 4:35.13 
1 1:34.25 2:35.13 3:35.35 4:35.88 
-0.6195617154563232 1:35.13 2:35.35 3:35.88 4:36.14 
