svm_type epsilon_svr
kernel_type rbf
gamma 0.25
nr_class 2
total_sv 5
rho -126.345
SV
-0.2305062383837517 1:124.43 2:124.25 3:125.32 4:127.35 
-0.7609745322610654 1:124.25 2:125.32 3:127.35 4:126.01 
0.06666050197944685 1:125.32 2:127.35 3:126.01 4:125.6 
0.4794995618199557 1:127.35 2:126.01 3:125.6 4:126.56 
0.4453207068454144 1:126.01 2:125.6 3:126.56 4:127.1 
