svm_type epsilon_svr
kernel_type rbf
gamma 0.25
nr_class 2
total_sv 5
rho -77.0521
SV
-1 1:76.12 2:76.49 3:76.08 4:76.47 
-1 1:76.49 2:76.08 3:76.47 4:76.12 
1 1:76.08 2:76.47 3:76.12 4:76.23 
0.8991609485863569 1:76.47 2:76.12 3:76.23 4:77.32 
0.1008390514136431 1:76.12 2:76.23 3:77.32 4:77.35 
