svm_type epsilon_svr
kernel_type rbf
gamma 0.25
nr_class 2
total_sv 5
rho -22.8851
SV
-0.7907574979194127 1:20.93 2:20.67 3:20.82 4:21.91 
-0.1964593344536239 1:20.67 2:20.82 3:21.91 4:22.17 
1 1:20.82 2:21.91 3:22.17 4:22.6 
-0.8091180456274778 1:21.91 2:22.17 3:22.6 4:23.37 
0.7963348780005144 1:22.17 2:22.6 3:23.37 4:23.06 
