svm_type epsilon_svr
kernel_type rbf
gamma 0.25
nr_class 2
total_sv 4
rho -91.8623
SV
-0.6650022267934862 1:93.7 2:94.25 3:93.86 4:92.29 
0.4727814148575648 1:94.25 2:93.86 3:92.29 4:91.28 
0.2415892392800992 1:92.29 2:91.28 3:92.2 4:92.08 
-0.04936842734417809 1:91.28 2:92.2 3:92.08 4:92.18 
