svm_type epsilon_svr
kernel_type rbf
gamma 0.25
nr_class 2
total_sv 5
rho -47.4251
SV
-0.811215388910473 1:49.72 2:48.8 3:48.3 4:47.51 
-0.8045144301858332 1:48.8 2:48.3 3:47.51 4:46.23 
0.4821716807192427 1:48.3 2:47.51 3:46.23 4:46.47 
0.1335581383770634 1:47.51 2:46.23 3:46.47 4:47.63 
1 1:46.23 2:46.47 3:47.63 4:48.18 
