svm_type epsilon_svr
kernel_type rbf
gamma 0.25
nr_class 2
total_sv 5
rho -74.8577
SV
1 1:78.37 2:80.04 3:80.67 4:80.28 
0.4947320835408868 1:80.04 2:80.67 3:80.28 4:80.77 
-0.6507638512680635 1:80.67 2:80.28 3:80.77 4:75.86 
0.03374354145089899 1:80.28 2:80.77 3:75.86 4:74.11 
-0.8777117737237223 1:80.77 2:75.86 3:74.11 4:74.99 
