svm_type epsilon_svr
kernel_type rbf
gamma 0.25
nr_class 2
total_sv 5
rho -27.5088
SV
-0.7135163062472232 1:27.57 2:26.69 3:26.54 4:26.78 
-1 1:26.69 2:26.54 3:26.78 4:27.09 
-0.2864836937527768 1:26.54 2:26.78 3:27.09 4:26.78 
1 1:26.78 2:27.09 3:26.78 4:27.26 
1 1:27.09 2:26.78 3:27.26 4:27.85 
