svm_type epsilon_svr
kernel_type rbf
gamma 0.25
nr_class 2
total_sv 5
rho -46.5978
SV
1 1:47.71 2:47.57 3:47.35 4:46.75 
-1 1:47.57 2:47.35 3:46.75 4:47.59 
-0.8103426932192219 1:47.35 2:46.75 3:47.59 4:45.84 
0.5934526132066424 1:46.75 2:47.59 3:45.84 4:46.27 
0.2168900800125795 1:47.59 2:45.84 3:46.27 4:47.07 
