svm_type epsilon_svr
kernel_type rbf
gamma 0.25
nr_class 2
total_sv 4
rho -40.7081
SV
0.1132186564375013 1:42.86 2:42.9 3:41.46 4:41.21 
0.05604759226354752 1:42.9 2:41.46 3:41.21 4:40.97 
0.8307337512989513 1:41.21 2:40.97 3:40.96 4:40.66 
-1 1:40.97 2:40.96 3:40.66 4:40.72 
