svm_type epsilon_svr
kernel_type rbf
gamma 0.25
nr_class 2
total_sv 5
rho -46.0803
SV
-1 1:47.19 2:46.6 3:46.36 4:45.96 
0.1589565638141713 1:46.6 2:46.36 3:45.96 4:45.48 
0.8410434361858287 1:46.36 2:45.96 3:45.48 4:46.24 
-1 1:45.96 2:45.48 3:46.24 4:46.39 
1 1:45.48 2:46.24 3:46.39 4:45.92 
