svm_type epsilon_svr
kernel_type rbf
gamma 0.25
nr_class 2
total_sv 5
rho -49.7443
SV
1 1:50.86 2:50.53 3:51.22 4:50.51 
-0.9852377764541154 1:50.53 2:51.22 3:50.51 4:50.17 
-0.01476222354588461 1:51.22 2:50.51 3:50.17 4:49.13 
-1 1:50.51 2:50.17 3:49.13 4:49.21 
1 1:50.17 2:49.13 3:49.21 4:48.59 
