svm_type epsilon_svr
kernel_type rbf
gamma 0.25
nr_class 2
total_sv 5
rho -66.3925
SV
1 1:65.72 2:67.44 3:67.13 4:67.6 
1 1:67.44 2:67.13 3:67.6 4:67.29 
-0.7065407904298497 1:67.13 2:67.6 3:67.29 4:68.06 
-0.2934592095701503 1:67.6 2:67.29 3:68.06 4:66.45 
-1 1:67.29 2:68.06 3:66.45 4:66.29 
