svm_type epsilon_svr
kernel_type rbf
gamma 0.25
nr_class 2
total_sv 3
rho -84.9996
SV
1 1:84.95 2:84.98 3:87.54 4:86.22 
-0.6308515807466475 1:86.22 2:86.4 3:84.94 4:84.76 
-0.3691484192533525 1:86.4 2:84.94 3:84.76 4:84.12 
