svm_type epsilon_svr
kernel_type rbf
gamma 0.25
nr_class 2
total_sv 4
rho -75.5589
SV
0.03703638579795052 1:78.74 2:76.83 3:77.01 4:76.61 
0.1313479694755054 1:76.83 2:77.01 3:76.61 4:75.69 
-0.212741685143251 1:77.01 2:76.61 3:75.69 4:75.66 
0.04435732986979499 1:76.61 2:75.69 3:75.66 4:75.39 
