svm_type epsilon_svr
kernel_type rbf
gamma 0.25
nr_class 2
total_sv 5
rho -66.8561
SV
0.5051119765001405 1:65.37 2:65.72 3:67.44 4:67.13 
0.4948880234998595 1:65.72 2:67.44 3:67.13 4:67.6 
1 1:67.44 2:67.13 3:67.6 4:67.29 
-1 1:67.13 2:67.6 3:67.29 4:68.06 
-1 1:67.6 2:67.29 3:68.06 4:66.45 
