svm_type epsilon_svr
kernel_type rbf
gamma 0.25
nr_class 2
total_sv 4
rho -48.2809
SV
-1 1:47.07 2:46.66 3:46.43 4:46.93 
0.9369366311931154 1:46.43 2:46.93 3:47.2 4:47.93 
-0.9369366311931154 1:46.93 2:47.2 3:47.93 4:48.44 
1 1:47.2 2:47.93 3:48.44 4:48.46 
