svm_type epsilon_svr
kernel_type rbf
gamma 0.25
nr_class 2
total_sv 4
rho -19.489
SV
-1 1:19.4 2:19.71 3:19.62 4:19.27 
-0.7407084610859898 1:19.71 2:19.62 3:19.27 4:19.21 
1 1:19.27 2:19.21 3:19.2 4:19.5 
0.7407084610859899 1:19.21 2:19.2 3:19.5 4:19.8 
