svm_type epsilon_svr
kernel_type rbf
gamma 0.25
nr_class 2
total_sv 5
rho -566.822
SV
1 1:589.02002 2:590.59998 3:585.60999 4:587.41998 
-0.6520049999999742 1:590.59998 2:585.60999 3:587.41998 4:571.59998 
1 1:585.60999 2:587.41998 3:571.59998 4:566.07001 
-1 1:587.41998 2:571.59998 3:566.07001 4:573.15002 
-0.3479950000000258 1:571.59998 2:566.07001 3:573.15002 4:565.07001 
