svm_type epsilon_svr
kernel_type rbf
gamma 0.25
nr_class 2
total_sv 4
rho -75.4741
SV
-0.8600139714686864 1:75.97 2:75.62 3:74.91 4:75.34 
-0.6238078451407409 1:75.62 2:74.91 3:75.34 4:75.07 
0.4838218166094273 1:75.34 2:75.07 3:75.28 4:75.62 
1 1:75.07 2:75.28 3:75.62 4:75.75 
