svm_type epsilon_svr
kernel_type rbf
gamma 0.25
nr_class 2
total_sv 5
rho -78.5397
SV
-0.3579019135518804 1:76.45 2:76.27 3:76.28 4:77.26 
-1 1:76.27 2:76.28 3:77.26 4:77.7 
0.4846384144138006 1:76.28 2:77.26 3:77.7 4:77.81 
0.9529558793435191 1:77.26 2:77.7 3:77.81 4:78.77 
-0.0796923802054393 1:77.7 2:77.81 3:78.77 4:79.44 
