svm_type epsilon_svr
kernel_type rbf
gamma 0.25
nr_class 2
total_sv 5
rho -40.6325
SV
-1 1:38.92 2:37.15 3:36.68 4:37.53 
-0.4016537490988043 1:37.15 2:36.68 3:37.53 4:37.46 
0.06751321384269784 1:36.68 2:37.53 3:37.46 4:39.79 
0.3341405352561064 1:37.53 2:37.46 3:39.79 4:40.72 
1 1:37.46 2:39.79 3:40.72 4:41.26 
