svm_type epsilon_svr
kernel_type rbf
gamma 0.25
nr_class 2
total_sv 4
rho -21.0326
SV
-0.2913514269056603 1:19.72 2:20.39 3:21.14 4:20.58 
-0.7347246904976613 1:20.39 2:21.14 3:20.58 4:20.78 
0.3514232270110572 1:21.14 2:20.58 3:20.78 4:20.86 
0.6746528903922645 1:20.58 2:20.78 3:20.86 4:21.32 
