svm_type epsilon_svr
kernel_type rbf
gamma 0.25
nr_class 2
total_sv 4
rho -26.933
SV
1 1:28.11 2:27.85 3:27.91 4:27.78 
-0.8029761415377182 1:27.85 2:27.91 3:27.78 4:27.57 
-0.5515368951660536 1:27.91 2:27.78 3:27.57 4:26.69 
0.3545130367037718 1:27.57 2:26.69 3:26.54 4:26.78 
