svm_type epsilon_svr
kernel_type rbf
gamma 0.25
nr_class 2
total_sv 4
rho -554.41
SV
1 1:567.685 2:568.84998 3:555.01001 4:551.17999 
-1 1:568.84998 2:555.01001 3:551.17999 4:555.51001 
-1 1:551.17999 2:555.51001 3:547.32001 4:554.51001 
1 1:555.51001 2:547.32001 3:554.51001 4:550.84003 
