svm_type epsilon_svr
kernel_type rbf
gamma 0.25
nr_class 2
total_sv 5
rho -48.4529
SV
-1 1:46.05 2:46.95 3:47.44 4:47.57 
0.9093907253335889 1:46.95 2:47.44 3:47.57 4:47.86 
-0.0960237023482734 1:47.44 2:47.57 3:47.86 4:48.7 
0.01829622862943175 1:47.57 2:47.86 3:48.7 4:48.68 
0.1683367483852529 1:47.86 2:48.7 3:48.68 4:48.89 
