svm_type epsilon_svr
kernel_type rbf
gamma 0.25
nr_class 2
total_sv 4
rho -17.1542
SV
0.1680331863885587 1:17.77 2:17.46 3:17.61 4:17.76 
1 1:17.46 2:17.61 3:17.76 4:17.37 
-0.3887306679917273 1:17.76 2:17.37 3:17.79 4:17.18 
-0.7793025183968314 1:17.37 2:17.79 3:17.18 4:17.12 
