svm_type epsilon_svr
kernel_type rbf
gamma 0.25
nr_class 2
total_sv 4
rho -298.815
SV
1 1:312.5 2:305.84 3:307.35999 4:307.32001 
-1 1:305.84 2:307.35999 3:307.32001 4:306.07001 
-0.9849899999999829 1:307.32001 2:306.07001 3:295.06 4:298.88 
0.9849899999999829 1:306.07001 2:295.06 3:298.88 4:297.73001 
