svm_type epsilon_svr
kernel_type rbf
gamma 0.25
nr_class 2
total_sv 5
rho -85.8814
SV
-0.9917467342664952 1:84.99 2:84.58 3:84.65 4:85.4 
-1 1:84.58 2:84.65 3:85.4 4:84.95 
1 1:84.65 2:85.4 3:84.95 4:84.98 
0.4455161380625476 1:85.4 2:84.95 3:84.98 4:87.54 
0.5462305962039475 1:84.95 2:84.98 3:87.54 4:86.22 
