svm_type epsilon_svr
kernel_type rbf
gamma 0.25
nr_class 2
total_sv 5
rho -85.7555
SV
1 1:84.65 2:85.4 3:84.95 4:84.98 
0.2350783712092297 1:85.4 2:84.95 3:84.98 4:87.54 
0.5614012111196313 1:84.95 2:84.98 3:87.54 4:86.22 
-0.8628313046639657 1:84.98 2:87.54 3:86.22 4:86.4 
-0.9336482776648952 1:87.54 2:86.22 3:86.4 4:84.94 
