svm_type epsilon_svr
kernel_type rbf
gamma 0.25
nr_class 2
total_sv 4
rho -50.7873
SV
0.05516352113179357 1:50.24 2:49.82 3:48.85 4:50.12 
0.7705112729898257 1:48.85 2:50.12 3:50.91 4:50.88 
-1 1:50.12 2:50.91 3:50.88 4:51.15 
0.1743252058783808 1:50.91 2:50.88 3:51.15 4:50.02 
