svm_type epsilon_svr
kernel_type rbf
gamma 0.25
nr_class 2
total_sv 5
rho -330.397
SV
-0.547494999999941 1:339 2:345.95001 3:346.38 4:342.34 
0.8324949999999944 1:345.95001 2:346.38 3:342.34 4:329.75 
0.02249499999996374 1:346.38 2:342.34 3:329.75 4:331.32999 
0.6925049999999828 1:342.34 2:329.75 3:331.32999 4:330.51999 
-1 1:329.75 2:331.32999 3:330.51999 4:331.19 
