svm_type epsilon_svr
kernel_type rbf
gamma 0.25
nr_class 2
total_sv 4
rho -44.06
SV
-1 1:37.65 2:37.75 3:38.71 4:38.16 
-1 1:37.75 2:38.71 3:38.16 4:37.93 
1 1:38.71 2:38.16 3:37.93 4:38.59 
1 1:38.16 2:37.93 3:38.59 4:46.3 
