svm_type epsilon_svr
kernel_type rbf
gamma 0.25
nr_class 2
total_sv 5
rho -47.6723
SV
1 1:47.81 2:48.62 3:48.46 4:48.08 
1 1:48.62 2:48.46 3:48.08 4:48.84 
-0.5973260368624466 1:48.46 2:48.08 3:48.84 4:48.42 
-0.4026739631375534 1:48.08 2:48.84 3:48.42 4:47.7 
-1 1:48.84 2:48.42 3:47.7 4:47.59 
