svm_type epsilon_svr
kernel_type rbf
gamma 0.25
nr_class 2
total_sv 5
rho -76.8275
SV
1 1:76.36 2:76.52 3:76.84 4:76.18 
0.8575951825761576 1:76.52 2:76.84 3:76.18 4:77.73 
-0.09402602059174422 1:76.84 2:76.18 3:77.73 4:77.83 
-1 1:76.18 2:77.73 3:77.83 4:76.99 
-0.7635691619844134 1:77.73 2:77.83 3:76.99 4:74.69 
