svm_type epsilon_svr
kernel_type rbf
gamma 0.25
nr_class 2
total_sv 5
rho -72.8996
SV
0.4690373496845914 1:73.71 2:74.68 3:72.65 4:72.36 
-0.4781000864725439 1:74.68 2:72.65 3:72.36 4:73.51 
-0.7400689434388539 1:72.65 2:72.36 3:73.51 4:72.69 
0.1571453925696573 1:72.36 2:73.51 3:72.69 4:72.47 
0.591986287657149 1:73.51 2:72.69 3:72.47 4:73.17 
