svm_type epsilon_svr
kernel_type rbf
gamma 0.25
nr_class 2
total_sv 4
rho -46.6478
SV
-0.4815114909930278 1:47.59 2:45.84 3:46.27 4:47.07 
-0.5575974667391517 1:45.84 2:46.27 3:47.07 4:46.66 
0.03910895773217956 1:46.27 2:47.07 3:46.66 4:46.43 
1 1:47.07 2:46.66 3:46.43 4:46.93 
