svm_type epsilon_svr
kernel_type rbf
gamma 0.25
nr_class 2
total_sv 4
rho -32.5954
SV
-0.162804453397456 1:30.5 2:30.51 3:33.77 4:34 
-0.8199117305801347 1:30.51 2:33.77 3:34 4:32.44 
-0.01728381602240935 1:33.77 2:34 3:32.44 4:31.75 
1 1:32.44 2:31.75 3:32.58 4:32.9 
