svm_type epsilon_svr
kernel_type rbf
gamma 0.25
nr_class 2
total_sv 4
rho -326.54
SV
1 1:305.10999 2:312.01001 3:311.51001 4:316.48001 
-1 1:312.01001 2:311.51001 3:316.48001 4:327.82001 
-1 1:311.51001 2:316.48001 3:327.82001 4:323.04999 
1 1:327.82001 2:323.04999 3:324.92999 4:326.54001 
