svm_type epsilon_svr
kernel_type rbf
gamma 0.25
nr_class 2
total_sv 4
rho -33.9449
SV
0.7064149462570974 1:33.92 2:33.76 3:34.45 4:34.4 
-0.06276578769002794 1:33.76 2:34.45 3:34.4 4:34.17 
-1 1:34.45 2:34.4 3:34.17 4:33.8 
0.3563508414329306 1:34.4 2:34.17 3:33.8 4:33.41 
