svm_type epsilon_svr
kernel_type rbf
gamma 0.25
nr_class 2
total_sv 4
rho -329.97
SV
-1 1:332.39001 2:332.85001 3:337.48999 4:333.54999 
-1 1:337.48999 2:333.54999 3:323.81 4:329.97 
1 1:333.54999 2:323.81 3:329.97 4:327.92001 
1 1:323.81 2:329.97 3:327.92001 4:346.20001 
