svm_type epsilon_svr
kernel_type rbf
gamma 0.25
nr_class 2
total_sv 5
rho -293.075
SV
1 1:304.13 2:307.89001 3:308.01001 4:310.04999 
-0.2649999999999864 1:307.89001 2:308.01001 3:310.04999 4:297.38 
-1 1:308.01001 2:310.04999 3:297.38 4:292.70999 
-0.7350000000000136 1:310.04999 2:297.38 3:292.70999 4:288.32001 
1 1:297.38 2:292.70999 3:288.32001 4:292.23999 
