svm_type epsilon_svr
kernel_type rbf
gamma 0.25
nr_class 2
total_sv 4
rho -74.7033
SV
-0.7775795977921878 1:74.59 2:75.29 3:74.81 4:74.57 
0.1733684374137485 1:75.29 2:74.81 3:74.57 4:74.57 
1 1:74.81 2:74.57 3:74.57 4:75.02 
-0.3957888396215608 1:74.57 2:74.57 3:75.02 4:75.96 
