svm_type epsilon_svr
kernel_type rbf
gamma 0.25
nr_class 2
total_sv 5
rho -109.771
SV
-1 1:109.25 2:110.22 3:109.8 4:106.82 
-0.8798992220551712 1:110.22 2:109.8 3:106.82 4:105.99 
-0.1201007779448288 1:109.8 2:106.82 3:105.99 4:108.72 
1 1:106.82 2:105.99 3:108.72 4:109.55 
1 1:105.99 2:108.72 3:109.55 4:112.4 
