svm_type epsilon_svr
kernel_type rbf
gamma 0.25
nr_class 2
total_sv 4
rho -34.5896
SV
-0.8849108265481244 1:33.8 2:33.41 3:33.89 4:33.87 
0.8134503147886604 1:33.89 2:33.87 3:34.36 4:34.7 
0.6482862416910972 1:33.87 2:34.36 3:34.7 4:35.02 
-0.5768257299316332 1:34.36 2:34.7 3:35.02 4:35.12 
