svm_type epsilon_svr
kernel_type rbf
gamma 0.25
nr_class 2
total_sv 5
rho -98.1465
SV
1 1:98.75 2:100.8 3:101.02 4:100.73 
0.6108869655774906 1:100.8 2:101.02 3:100.73 4:99.81 
-0.5232786924361666 1:101.02 2:100.73 3:99.81 4:98.75 
-1 1:100.73 2:99.81 3:98.75 4:97.54 
-0.08760827314132401 1:99.81 2:98.75 3:97.54 4:96.26 
