svm_type epsilon_svr
kernel_type rbf
gamma 0.25
nr_class 2
total_sv 5
rho -48.7801
SV
0.8347349844792824 1:48.5 2:48.03 3:47.82 4:48.7 
-1 1:48.03 2:47.82 3:48.7 4:49.11 
0.1652650155207176 1:47.82 2:48.7 3:49.11 4:48.47 
-1 1:48.7 2:49.11 3:48.47 4:48.69 
1 1:49.11 2:48.47 3:48.69 4:48.55 
