svm_type epsilon_svr
kernel_type rbf
gamma 0.25
nr_class 2
total_sv 4
rho -86.1737
SV
1 1:88.51 2:88.63 3:87.53 4:86.82 
-1 1:88.63 2:87.53 3:86.82 4:87.72 
-0.4813592071769225 1:87.53 2:86.82 3:87.72 4:84.98 
0.4813592071769225 1:87.72 2:84.98 3:85.71 4:86.19 
