svm_type epsilon_svr
kernel_type rbf
gamma 0.25
nr_class 2
total_sv 5
rho -41.7591
SV
0.5294983445983099 1:43.06 2:43.11 3:42.36 4:42.85 
0.563421487930107 1:43.11 2:42.36 3:42.85 4:42.03 
-1 1:42.36 2:42.85 3:42.03 4:41.98 
-0.2743356869539103 1:42.85 2:42.03 3:41.98 4:41.02 
0.1814158544254933 1:42.03 2:41.98 3:41.02 4:41.38 
