svm_type epsilon_svr
kernel_type rbf
gamma 0.25
nr_class 2
total_sv 4
rho -18.677
SV
-0.3098067471958519 1:17.37 2:17.36 3:17.94 4:18.07 
-0.1537181816077823 1:17.36 2:17.94 3:18.07 4:18.41 
0.1725970943011621 1:17.94 2:18.07 3:18.41 4:18.52 
0.2909278345024722 1:18.07 2:18.41 3:18.52 4:18.86 
