svm_type epsilon_svr
kernel_type rbf
gamma 0.25
nr_class 2
total_sv 5
rho -80.0989
SV
-0.4294866207371399 1:78.45 2:79.56 3:80.41 4:78.97 
-1 1:79.56 2:80.41 3:78.97 4:79.75 
1 1:80.41 2:78.97 3:79.75 4:79.6 
1 1:78.97 2:79.75 3:79.6 4:80.9 
-0.5705133792628601 1:79.75 2:79.6 3:80.9 4:81.21 
