svm_type epsilon_svr
kernel_type rbf
gamma 0.25
nr_class 2
total_sv 4
rho -42.4669
SV
-0.2451100922079528 1:41.6 2:41.84 3:42.45 4:42.41 
0.179277229697406 1:41.84 2:42.45 3:42.41 4:42.36 
-0.9341671374894532 1:42.45 2:42.41 3:42.36 4:42.6 
1 1:42.41 2:42.36 3:42.6 4:42.38 
