svm_type epsilon_svr
kernel_type rbf
gamma 0.25
nr_class 2
total_sv 4
rho -16.2616
SV
0.1814093469697769 1:17.49 2:17.38 3:17.45 4:17.64 
0.02292781292438924 1:17.45 2:17.64 3:16.5 4:16.39 
0.04942827641923696 1:17.64 2:16.5 3:16.39 4:16.38 
-0.2537654363134031 1:16.5 2:16.39 3:16.38 4:16.32 
