svm_type epsilon_svr
kernel_type rbf
gamma 0.25
nr_class 2
total_sv 4
rho -38.118
SV
-0.1960917706785059 1:41.33 2:40.23 3:37.41 4:38.06 
0.2775141398526461 1:40.23 2:37.41 3:38.06 4:37.84 
0.7955205633918883 1:37.41 2:38.06 3:37.84 4:38.33 
-0.8769429325660285 1:38.06 2:37.84 3:38.33 4:38.31 
