svm_type epsilon_svr
kernel_type rbf
gamma 0.25
nr_class 2
total_sv 5
rho -102.138
SV
-0.2227889545665911 1:100.53 2:100.57 3:100.58 4:101.32 
-1 1:100.57 2:100.58 3:101.32 4:101.54 
0.4795786933049354 1:100.58 2:101.32 3:101.54 4:100.89 
0.09936178838637161 1:101.32 2:101.54 3:100.89 4:102.13 
0.6438484728752841 1:101.54 2:100.89 3:102.13 4:102.25 
