svm_type epsilon_svr
kernel_type rbf
gamma 0.25
nr_class 2
total_sv 4
rho -48.5601
SV
-0.1963088369294285 1:46.26 2:47.5 3:47.95 4:48.5 
-1 1:47.5 2:47.95 3:48.5 4:48.03 
0.2671374955058587 1:47.95 2:48.5 3:48.03 4:47.82 
0.9291713414235697 1:48.5 2:48.03 3:47.82 4:48.7 
