svm_type epsilon_svr
kernel_type rbf
gamma 0.25
nr_class 2
total_sv 5
rho -82.9555
SV
0.05378657622601506 1:83.52 2:82.71 3:82.31 4:80.78 
0.4533290655682823 1:82.71 2:82.31 3:80.78 4:83.09 
1 1:82.31 2:80.78 3:83.09 4:83.62 
-0.5071156417942975 1:80.78 2:83.09 3:83.62 4:84.63 
-1 1:83.09 2:83.62 3:84.63 4:82.41 
