svm_type epsilon_svr
kernel_type rbf
gamma 0.25
nr_class 2
total_sv 4
rho -43.7464
SV
-1 1:43.47 2:43.83 3:43.46 4:43 
-0.7249449149706996 1:43.83 2:43.46 3:43 4:43.13 
0.7249449149706997 1:43.46 2:43 3:43.13 4:43.27 
1 1:43.13 2:43.27 3:43.81 4:44.15 
