svm_type epsilon_svr
kernel_type rbf
gamma 0.25
nr_class 2
total_sv 5
rho -21.951
SV
-1 1:21.36 2:21.18 3:20.7 4:20.93 
-1 1:21.18 2:20.7 3:20.93 4:20.67 
1 1:20.7 2:20.93 3:20.67 4:20.82 
0.1997664953692968 1:20.93 2:20.67 3:20.82 4:21.91 
0.8002335046307032 1:20.67 2:20.82 3:21.91 4:22.17 
