svm_type epsilon_svr
kernel_type rbf
gamma 0.25
nr_class 2
total_sv 5
rho -81.8998
SV
0.1292710984029863 1:83.24 2:83.31 3:83.05 4:81.32 
-0.8893697398260242 1:83.31 2:83.05 3:81.32 4:81.89 
1 1:83.05 2:81.32 3:81.89 4:81.35 
0.7600986414230378 1:81.32 2:81.89 3:81.35 4:82.53 
-1 1:81.89 2:81.35 3:82.53 4:82.25 
