svm_type epsilon_svr
kernel_type rbf
gamma 0.25
nr_class 2
total_sv 5
rho -41.6849
SV
-1 1:37.15 2:36.68 3:37.53 4:37.46 
-0.6030278499662618 1:36.68 2:37.53 3:37.46 4:39.79 
-0.3969721500337381 1:37.53 2:37.46 3:39.79 4:40.72 
1 1:37.46 2:39.79 3:40.72 4:41.26 
1 1:39.79 2:40.72 3:41.26 4:48.01 
