svm_type epsilon_svr
kernel_type rbf
gamma 0.25
nr_class 2
total_sv 3
rho -75.8152
SV
-0.06764988014907911 1:75.73 2:75.28 3:75.34 4:74.99 
-0.186950170135592 1:75.34 2:74.99 3:75.7 4:75.87 
0.2546000502846711 1:75.7 2:75.87 3:75.68 4:75.79 
