svm_type epsilon_svr
kernel_type rbf
gamma 0.25
nr_class 2
total_sv 5
rho -44.2392
SV
-0.4018655677378572 1:48.95 2:49.44 3:47.99 4:46.46 
-0.1470432004352315 1:49.44 2:47.99 3:46.46 4:43.73 
0.3317223796957 1:47.99 2:46.46 3:43.73 4:43.99 
0.3547894703155897 1:46.46 2:43.73 3:43.99 4:44.69 
-0.137603081838201 1:43.73 2:43.99 3:44.69 4:44.7 
