svm_type epsilon_svr
kernel_type rbf
gamma 0.25
nr_class 2
total_sv 4
rho -20.5141
SV
-1 1:20.79 2:20.74 3:20.33 4:19.72 
1 1:20.33 2:19.72 3:19.72 4:20.39 
-0.6817247072078499 1:19.72 2:19.72 3:20.39 4:21.14 
0.6817247072078499 1:19.72 2:20.39 3:21.14 4:20.58 
