svm_type epsilon_svr
kernel_type rbf
gamma 0.25
nr_class 2
total_sv 4
rho -358.61
SV
-1 1:327.92001 2:346.20001 3:355.32001 4:354.44 
-1 1:346.20001 2:355.32001 3:354.44 4:355.89999 
1 1:354.44 2:355.89999 3:352.45001 4:358.66 
1 1:355.89999 2:352.45001 3:358.66 4:359.76001 
