svm_type epsilon_svr
kernel_type rbf
gamma 0.25
nr_class 2
total_sv 5
rho -30.8374
SV
-1 1:30.35 2:30.28 3:29.78 4:29.77 
0.6676617581276745 1:30.28 2:29.78 3:29.77 4:30.4 
0.5962627882633293 1:29.78 2:29.77 3:30.4 4:31.02 
-1 1:29.77 2:30.4 3:31.02 4:31.09 
0.7360754536089962 1:30.4 2:31.02 3:31.09 4:30.72 
