svm_type epsilon_svr
kernel_type rbf
gamma 0.25
nr_class 2
total_sv 5
rho -594.31
SV
-1 1:579.17999 2:584.87 3:584.78003 4:582.65997 
0.6700150000000917 1:584.87 2:584.78003 3:582.65997 4:573.72998 
-1 1:584.78003 2:582.65997 3:573.72998 4:595.08002 
0.3299849999999083 1:582.65997 2:573.72998 3:595.08002 4:589.46997 
1 1:573.72998 2:595.08002 3:589.46997 4:594.73999 
