svm_type epsilon_svr
kernel_type rbf
gamma 0.25
nr_class 2
total_sv 5
rho -43.665
SV
-1 1:38.12 2:38.45 3:39.28 4:40.18 
-0.6595888205193371 1:38.45 2:39.28 3:40.18 4:42 
-0.07367603741199134 1:39.28 2:40.18 3:42 4:42.6 
0.7332648579313283 1:40.18 2:42 3:42.6 4:43.5 
1 1:42 2:42.6 3:43.5 4:44.7 
