svm_type epsilon_svr
kernel_type rbf
gamma 0.25
nr_class 2
total_sv 5
rho -78.3109
SV
-1 1:76.39 2:76.45 3:76.27 4:76.28 
0.3748373413267201 1:76.45 2:76.27 3:76.28 4:77.26 
-1 1:76.27 2:76.28 3:77.26 4:77.7 
0.642659086312278 1:76.28 2:77.26 3:77.7 4:77.81 
0.9825035723610018 1:77.26 2:77.7 3:77.81 4:78.77 
