svm_type epsilon_svr
kernel_type rbf
gamma 0.25
nr_class 2
total_sv 4
rho -89.5588
SV
0.8323865846981374 1:85.9 2:85.65 3:86.31 4:88.6 
-0.220069095447458 1:85.65 2:86.31 3:88.6 4:90.47 
0.3876825107493205 1:86.31 2:88.6 3:90.47 4:89.35 
-1 1:90.47 2:89.35 3:90.02 4:89.31 
