svm_type epsilon_svr
kernel_type rbf
gamma 0.25
nr_class 2
total_sv 5
rho -98.5176
SV
-0.2995161689634249 1:102.25 2:102.5 3:103.3 4:98.94 
0.3540940391156627 1:102.5 2:103.3 3:98.94 4:98.12 
-0.05457787015223785 1:103.3 2:98.94 3:98.12 4:98.97 
-1 1:98.94 2:98.12 3:98.97 4:98.36 
1 1:98.12 2:98.97 3:98.36 4:97.99 
