svm_type epsilon_svr
kernel_type rbf
gamma 0.25
nr_class 2
total_sv 3
rho -92.0518
SV
0.1403649418519016 1:94.25 2:93.86 3:92.29 4:91.28 
0.8596350581480984 1:92.29 2:91.28 3:92.2 4:92.08 
-1 1:92.2 2:92.08 3:92.18 4:91.86 
