svm_type epsilon_svr
kernel_type rbf
gamma 0.25
nr_class 2
total_sv 5
rho -94.7033
SV
1 1:633 2:628.64996 3:637.53998 4:644.82001 
1 1:628.64996 2:637.53998 3:644.82001 4:647.34998 
-0.9031445312500068 1:637.53998 2:644.82001 3:647.34998 4:645.57001 
-0.3531445312499955 1:644.82001 2:647.34998 3:645.57001 4:93.7 
-0.7437109374999977 1:647.34998 2:645.57001 3:93.7 4:94.25 
