svm_type epsilon_svr
kernel_type rbf
gamma 0.25
nr_class 2
total_sv 5
rho -36.4385
SV
-0.7671623135647923 1:32.9 2:33.89 3:33.33 4:34.47 
-0.9723833655566413 1:33.89 2:33.33 3:34.47 4:35.37 
0.9321947854874951 1:33.33 2:34.47 3:35.37 4:35.54 
-0.1926491063660615 1:34.47 2:35.37 3:35.54 4:36.79 
1 1:35.37 2:35.54 3:36.79 4:36.9 
