svm_type epsilon_svr
kernel_type rbf
gamma 0.25
nr_class 2
total_sv 5
rho -50.511
SV
0.1195039660899496 1:51.72 2:51.93 3:51.74 4:50.1 
-0.134903838995462 1:51.93 2:51.74 3:50.1 4:50.67 
0.01539987290551244 1:51.74 2:50.1 3:50.67 4:50.28 
1 1:50.1 2:50.67 3:50.28 4:50.41 
-1 1:50.67 2:50.28 3:50.41 4:50.99 
