svm_type epsilon_svr
kernel_type rbf
gamma 0.25
nr_class 2
total_sv 4
rho -48.4474
SV
-0.3715953848074788 1:47.51 2:46.23 3:46.47 4:47.63 
0.3715953848074788 1:46.23 2:46.47 3:47.63 4:48.18 
1 1:47.63 2:48.18 3:48.89 4:48.95 
-1 1:48.18 2:48.89 3:48.95 4:49.44 
