svm_type epsilon_svr
kernel_type rbf
gamma 0.25
nr_class 2
total_sv 4
rho -20.7331
SV
0.6447081957938542 1:21.96 2:21.95 3:22.12 4:22.16 
-0.3795048051438626 1:21.95 2:22.12 3:22.16 4:21.15 
0.2419225665677114 1:22.16 2:21.15 3:20.7 4:20.79 
-0.5071259572177028 1:21.15 2:20.7 3:20.79 4:20.74 
