svm_type epsilon_svr
kernel_type rbf
gamma 0.25
nr_class 2
total_sv 4
rho -315.37
SV
1 1:317.45999 2:318.41 3:322.73999 4:322.20001 
1 1:318.41 2:322.73999 3:322.20001 4:316.98001 
-1 1:322.20001 2:316.98001 3:322.70001 4:315.37 
-1 1:316.98001 2:322.70001 3:315.37 4:311.39001 
