svm_type epsilon_svr
kernel_type rbf
gamma 0.25
nr_class 2
total_sv 4
rho -129.176
SV
1 1:129.5 2:133 3:132.17 4:128.78999 
-0.6149212952457892 1:133 2:132.17 3:128.78999 4:130.42 
0.1797359114245525 1:128.78999 2:130.42 3:128.46001 4:129.09 
-0.5648146161787633 1:130.42 2:128.46001 3:129.09 4:129.36 
