svm_type epsilon_svr
kernel_type rbf
gamma 0.25
nr_class 2
total_sv 5
rho -333.699
SV
-1 1:327.82001 2:323.04999 3:324.92999 4:326.54001 
-0.9703710019960852 1:323.04999 2:324.92999 3:326.54001 4:330.54001 
1 1:324.92999 2:326.54001 3:330.54001 4:332.63 
1 1:326.54001 2:330.54001 3:332.63 4:335.64001 
-0.02962899800391483 1:330.54001 2:332.63 3:335.64001 4:335.04001 
