svm_type epsilon_svr
kernel_type rbf
gamma 0.25
nr_class 2
total_sv 5
rho -73.1803
SV
0.4210788089295815 1:71.29 2:74.98 3:75.19 4:74.92 
1 1:74.98 2:75.19 3:74.92 4:73.71 
-0.820948021328614 1:75.19 2:74.92 3:73.71 4:74.68 
-1 1:74.92 2:73.71 3:74.68 4:72.65 
0.3998692123990326 1:73.71 2:74.68 3:72.65 4:72.36 
