svm_type epsilon_svr
kernel_type rbf
gamma 0.25
nr_class 2
total_sv 4
rho -40.8931
SV
0.04627705137400499 1:42.9 2:41.46 3:41.21 4:40.97 
-0.04627705137400499 1:41.21 2:40.97 3:40.96 4:40.66 
-1 1:40.97 2:40.96 3:40.66 4:40.72 
1 1:40.96 2:40.66 3:40.72 4:40.29 
