svm_type epsilon_svr
kernel_type rbf
gamma 0.25
nr_class 2
total_sv 5
rho -43.1338
SV
-0.8022084435121168 1:41.99 2:41.78 3:41.67 4:41.69 
-1 1:41.78 2:41.67 3:41.69 4:42.09 
-0.1977915564878832 1:41.67 2:41.69 3:42.09 4:42.14 
1 1:41.69 2:42.09 3:42.14 4:42.45 
1 1:42.09 2:42.14 3:42.45 4:44.08 
