svm_type epsilon_svr
kernel_type rbf
gamma 0.25
nr_class 2
total_sv 5
rho -43.3777
SV
1 1:44.4 2:44.5 3:43.97 4:43.89 
-0.6430057181274045 1:44.5 2:43.97 3:43.89 4:43.58 
-1 1:43.97 2:43.89 3:43.58 4:43.16 
1 1:43.89 2:43.58 3:43.16 4:42.86 
-0.3569942818725955 1:43.58 2:43.16 3:42.86 4:43.37 
