svm_type epsilon_svr
kernel_type rbf
gamma 0.25
nr_class 2
total_sv 5
rho -540.194
SV
-0.8309362231823314 1:535.03003 2:536.98999 3:534.83002 4:537.5 
0.7924511976524753 1:536.98999 2:534.83002 3:537.5 4:539.27002 
0.03848502552985611 1:534.83002 2:537.5 3:539.27002 4:541.08002 
1 1:537.5 2:539.27002 3:541.08002 4:540.37 
-1 1:539.27002 2:541.08002 3:540.37 4:541.83002 
