svm_type epsilon_svr
kernel_type rbf
gamma 0.25
nr_class 2
total_sv 3
rho -47.6492
SV
-1 1:47.17 2:46.95 3:46.67 4:45.16 
0.2484948318161692 1:46.95 2:46.67 3:45.16 4:45.74 
0.7515051681838307 1:45.74 2:47.52 3:47.66 4:47.98 
