svm_type epsilon_svr
kernel_type rbf
gamma 0.25
nr_class 2
total_sv 5
rho -126.766
SV
0.5836526448436306 1:127.35 2:126.01 3:125.6 4:126.56 
0.4860854149041828 1:126.01 2:125.6 3:126.56 4:127.1 
-0.9914096862717389 1:125.6 2:126.56 3:127.1 4:126.85 
0.9216716265239256 1:126.56 2:127.1 3:126.85 4:126.3 
-1 1:127.1 2:126.85 3:126.3 4:126.78 
