svm_type epsilon_svr
kernel_type rbf
gamma 0.25
nr_class 2
total_sv 4
rho -31.7841
SV
1 1:32.59 2:32.33 3:32.19 4:32.07 
1 1:32.19 2:32.07 3:32.17 4:31.92 
-1 1:32.07 2:32.17 3:31.92 4:32.22 
-1 1:32.17 2:31.92 3:32.22 4:31.44 
