svm_type epsilon_svr
kernel_type rbf
gamma 0.25
nr_class 2
total_sv 4
rho -40.7182
SV
-0.5699463473067103 1:38.95 2:40.66 3:40.52 4:40.75 
-1 1:40.66 2:40.52 3:40.75 4:40.32 
0.5699463473067103 1:40.52 2:40.75 3:40.32 4:40.5 
1 1:40.75 2:40.32 3:40.5 4:41.03 
