svm_type epsilon_svr
kernel_type rbf
gamma 0.25
nr_class 2
total_sv 4
rho -50.1669
SV
-0.5221139068066784 1:51.47 2:49.5 3:49.92 4:50.01 
-1 1:49.5 2:49.92 3:50.01 4:49.89 
0.5221139068066784 1:49.92 2:50.01 3:49.89 4:50.08 
1 1:49.89 2:50.08 3:50.47 4:50.42 
