svm_type epsilon_svr
kernel_type rbf
gamma 0.25
nr_class 2
total_sv 5
rho -42.9685
SV
-1 1:41.76 2:41.65 3:42.26 4:42.16 
0.3134772222604863 1:41.65 2:42.26 3:42.16 4:41.62 
-0.3177408664696802 1:42.26 2:42.16 3:41.62 4:42.91 
0.3941440877814404 1:42.16 2:41.62 3:42.91 4:42.64 
0.6101195564277536 1:41.62 2:42.91 3:42.64 4:42.99 
