svm_type epsilon_svr
kernel_type rbf
gamma 0.25
nr_class 2
total_sv 5
rho -42.5416
SV
-1 1:41.38 2:41.56 3:41.7 4:42.5 
0.6257673950462219 1:41.56 2:41.7 3:42.5 4:42.29 
0.7964250333591484 1:41.7 2:42.5 3:42.29 4:42.88 
0.5778075715946297 1:42.5 2:42.29 3:42.88 4:42.86 
-1 1:42.29 2:42.88 3:42.86 4:42.9 
