svm_type epsilon_svr
kernel_type rbf
gamma 0.25
nr_class 2
total_sv 4
rho -43.6566
SV
1 1:43.86 2:44.15 3:44.09 4:43.99 
1 1:44.09 2:43.99 3:44.06 4:43.85 
-1 1:43.99 2:44.06 3:43.85 4:43.88 
-1 1:44.06 2:43.85 3:43.88 4:43.28 
