svm_type epsilon_svr
kernel_type rbf
gamma 0.25
nr_class 2
total_sv 5
rho -77.9773
SV
-1 1:72.99 2:73.59 3:73.21 4:72.63 
-0.9045111751898703 1:73.59 2:73.21 3:72.63 4:75.95 
0.6476716669095198 1:73.21 2:72.63 3:75.95 4:76.95 
0.2568395082803505 1:72.63 2:75.95 3:76.95 4:78.69 
1 1:75.95 2:76.95 3:78.69 4:78.37 
