svm_type epsilon_svr
kernel_type rbf
gamma 0.25
nr_class 2
total_sv 5
rho -38.7173
SV
-0.8416047011130077 1:39.85 2:36.93 3:37.31 4:37.57 
0.05860971303684245 1:36.93 2:37.31 3:37.57 4:37.83 
0.06968580696027801 1:37.31 2:37.57 3:37.83 4:39.07 
1 1:37.57 2:37.83 3:39.07 4:39.42 
-0.2866908188841129 1:37.83 2:39.07 3:39.42 4:40.1 
