svm_type epsilon_svr
kernel_type rbf
gamma 0.25
nr_class 2
total_sv 5
rho -46.1539
SV
-0.6253720219457829 1:47.52 2:47.06 3:46.56 4:47.08 
0.3665868613810374 1:47.06 2:46.56 3:47.08 4:46.04 
0.9596154512717355 1:46.56 2:47.08 3:46.04 4:46.41 
0.29916970929301 1:47.08 2:46.04 3:46.41 4:46.44 
-1 1:46.04 2:46.41 3:46.44 4:46.36 
