svm_type epsilon_svr
kernel_type rbf
gamma 0.25
nr_class 2
total_sv 5
rho -45.2635
SV
-0.4360215569008922 1:43.61 2:45.17 3:45.63 4:45.18 
0.370818292174576 1:45.17 2:45.63 3:45.18 4:44.77 
0.06520326472631628 1:45.63 2:45.18 3:44.77 4:45.53 
1 1:45.18 2:44.77 3:45.53 4:45.73 
-1 1:44.77 2:45.53 3:45.73 4:45.78 
