svm_type epsilon_svr
kernel_type rbf
gamma 0.25
nr_class 2
total_sv 4
rho -76.5911
SV
-0.6146341513755744 1:75.9 2:75.5 3:75.75 4:76.01 
1 1:75.5 2:75.75 3:76.01 4:76.56 
-0.4212746582410393 1:75.75 2:76.01 3:76.56 4:77.51 
0.03590880961661365 1:76.01 2:76.56 3:77.51 4:76.53 
