svm_type epsilon_svr
kernel_type rbf
gamma 0.25
nr_class 2
total_sv 4
rho -74.2272
SV
-0.5205943709556372 1:73.95 2:74.67 3:74.36 4:74.22 
0.5205943709556372 1:74.67 2:74.36 3:74.22 4:74.03 
-1 1:74.36 2:74.22 3:74.03 4:74.39 
1 1:74.22 2:74.03 3:74.39 4:73.9 
