svm_type epsilon_svr
kernel_type rbf
gamma 0.25
nr_class 2
total_sv 5
rho -65.2773
SV
-1 1:64.5 2:64.19 3:64.4 4:65.6 
-1 1:64.19 2:64.4 3:65.6 4:64.34 
0.2045725478186128 1:64.4 2:65.6 3:64.34 4:64.5 
0.7954274521813871 1:65.6 2:64.34 3:64.5 4:65.37 
1 1:64.34 2:64.5 3:65.37 4:65.72 
