svm_type epsilon_svr
kernel_type rbf
gamma 0.25
nr_class 2
total_sv 4
rho -47.9151
SV
-0.3153749031669207 1:41.26 2:48.01 3:47.32 4:46.26 
-0.07706368599079173 1:48.01 2:47.32 3:46.26 4:47.5 
0.5943279064104636 1:47.32 2:46.26 3:47.5 4:47.95 
-0.2018893172527513 1:47.5 2:47.95 3:48.5 4:48.03 
