svm_type epsilon_svr
kernel_type rbf
gamma 0.25
nr_class 2
total_sv 5
rho -80.2014
SV
-0.1219664620484272 1:75.95 2:76.95 3:78.69 4:78.37 
0.3328799619960292 1:76.95 2:78.69 3:78.37 4:80.04 
-0.09630112518333747 1:78.69 2:78.37 3:80.04 4:80.67 
0.8853876252357354 1:78.37 2:80.04 3:80.67 4:80.28 
-1 1:80.04 2:80.67 3:80.28 4:80.77 
