svm_type epsilon_svr
kernel_type rbf
gamma 0.25
nr_class 2
total_sv 3
rho -41.8761
SV
-0.8244501397048134 1:41.68 2:41.99 3:41.75 4:42.03 
1 1:41.99 2:41.75 3:42.03 4:41.72 
-0.1755498602951866 1:42.03 2:41.72 3:42.25 4:41.7 
