svm_type epsilon_svr
kernel_type rbf
gamma 0.25
nr_class 2
total_sv 4
rho -86.2185
SV
-0.1308113666375105 1:86.43 2:86.91 3:86.64 4:86.79 
-1 1:86.64 2:86.79 3:85.88 4:85.9 
0.1308113666375105 1:86.79 2:85.88 3:85.9 4:85.65 
1 1:85.88 2:85.9 3:85.65 4:86.31 
