svm_type epsilon_svr
kernel_type rbf
gamma 0.25
nr_class 2
total_sv 4
rho -33.2384
SV
0.01172461155885953 1:32.86 2:32.2 3:32.03 4:32.56 
-0.6807835602019123 1:32.2 2:32.03 3:32.56 4:33.19 
0.4312037707738815 1:32.03 2:32.56 3:33.19 4:32.95 
0.2378551778691715 1:33.19 2:32.95 3:33.37 4:33.35 
