svm_type epsilon_svr
kernel_type rbf
gamma 0.25
nr_class 2
total_sv 5
rho -34.5463
SV
0.1985830578946628 1:36.31 2:36.63 3:36.78 4:36.94 
-0.1720575184657966 1:36.63 2:36.78 3:36.94 4:34.81 
0.3475358349933963 1:36.78 2:36.94 3:34.81 4:34.43 
0.06453340166102448 1:36.94 2:34.81 3:34.43 4:34.94 
-0.4385947760832869 1:34.81 2:34.43 3:34.94 4:34.68 
