svm_type epsilon_svr
kernel_type rbf
gamma 0.25
nr_class 2
total_sv 5
rho -44.455
SV
1 1:38.71 2:38.16 3:37.93 4:38.59 
0.6349997359947903 1:38.16 2:37.93 3:38.59 4:46.3 
-0.2250000269873271 1:37.93 2:38.59 3:46.3 4:45.19 
-0.8849998663119146 1:38.59 2:46.3 3:45.19 4:44.13 
-0.5249998426955486 1:46.3 2:45.19 3:44.13 4:43.47 
