svm_type epsilon_svr
kernel_type rbf
gamma 0.25
nr_class 2
total_sv 4
rho -76.193
SV
-1 1:76.74 2:76.51 3:76.1 4:75.77 
0.632548988671412 1:76.51 2:76.1 3:75.77 4:75.81 
-0.632548988671412 1:75.77 2:75.81 3:76.32 4:76.24 
1 1:75.81 2:76.32 3:76.24 4:76.22 
