svm_type epsilon_svr
kernel_type rbf
gamma 0.25
nr_class 2
total_sv 5
rho -537.493
SV
1 1:558.78497 2:555.16998 3:548.34003 4:552.03003 
1 1:555.16998 2:548.34003 3:552.03003 4:548 
-1 1:548.34003 2:552.03003 3:548 4:542.56 
-0.6275050000032516 1:552.03003 2:548 3:542.56 4:535.53003 
-0.3724949999967485 1:548 2:542.56 3:535.53003 4:536.76501 
