svm_type epsilon_svr
kernel_type rbf
gamma 0.25
nr_class 2
total_sv 4
rho -530.46
SV
0.03000499999996009 1:504.89001 2:511.10001 3:516.34998 4:524.87 
-1 1:511.10001 2:516.34998 3:524.87 4:530.59003 
1 1:516.34998 2:524.87 3:530.59003 4:528.77002 
-0.03000499999996009 1:524.87 2:530.59003 3:528.77002 4:534.03003 
