svm_type epsilon_svr
kernel_type rbf
gamma 0.25
nr_class 2
total_sv 4
rho -298.905
SV
1 1:306.64001 2:312.5 3:305.84 4:307.35999 
1 1:312.5 2:305.84 3:307.35999 4:307.32001 
-1 1:305.84 2:307.35999 3:307.32001 4:306.07001 
-1 1:307.32001 2:306.07001 3:295.06 4:298.88 
