svm_type epsilon_svr
kernel_type rbf
gamma 0.25
nr_class 2
total_sv 5
rho -372.775
SV
1 1:374.09 2:370.95999 3:367.35001 4:370.56 
-0.5747733752776569 1:370.95999 2:367.35001 3:370.56 4:374.59 
-1 1:367.35001 2:370.56 3:374.59 4:372.10001 
-0.4252266247223431 1:370.56 2:374.59 3:372.10001 4:370.26001 
1 1:374.59 2:372.10001 3:370.26001 4:372.25 
