svm_type epsilon_svr
kernel_type rbf
gamma 0.25
nr_class 2
total_sv 5
rho -33.8915
SV
-1 1:34 2:32.44 3:31.75 4:32.58 
0.5022202446521328 1:32.44 2:31.75 3:32.58 4:32.9 
-1 1:31.75 2:32.58 3:32.9 4:33.89 
0.4977797553478672 1:32.58 2:32.9 3:33.89 4:33.33 
1 1:32.9 2:33.89 3:33.33 4:34.47 
