svm_type epsilon_svr
kernel_type rbf
gamma 0.25
nr_class 2
total_sv 5
rho -100.498
SV
1 1:101.79 2:100.96 3:101.06 4:102.64 
-1 1:100.96 2:101.06 3:102.64 4:101.75 
0.1616798095046479 1:101.06 2:102.64 3:101.75 4:97.87 
-0.3098285399551026 1:102.64 2:101.75 3:97.87 4:100.75 
0.1481487304504547 1:101.75 2:97.87 3:100.75 4:100.11 
