svm_type epsilon_svr
kernel_type rbf
gamma 0.25
nr_class 2
total_sv 4
rho -36.6311
SV
-0.2531510962629014 1:38.79 2:38.49 3:36.29 4:37.05 
1 1:36.29 2:37.05 3:36.35 4:36.7 
0.2531510962629014 1:37.05 2:36.35 3:36.7 4:37.1 
-1 1:36.35 2:36.7 3:37.1 4:36.85 
