svm_type epsilon_svr
kernel_type rbf
gamma 0.25
nr_class 2
total_sv 5
rho -44.4467
SV
-1 1:38.45 2:39.28 3:40.18 4:42 
-0.6029000740054239 1:39.28 2:40.18 3:42 4:42.6 
0.09014770604895488 1:40.18 2:42 3:42.6 4:43.5 
1 1:42 2:42.6 3:43.5 4:44.7 
0.5127523679564691 1:42.6 2:43.5 3:44.7 4:45.87 
