svm_type epsilon_svr
kernel_type rbf
gamma 0.25
nr_class 2
total_sv 4
rho -16.9977
SV
-1 1:16.53 2:16.76 3:16.7 4:16.79 
-1 1:16.76 2:16.7 3:16.79 4:16.71 
1 1:16.79 2:16.71 3:16.69 4:16.89 
1 1:16.71 2:16.69 3:16.89 4:17.33 
