svm_type epsilon_svr
kernel_type rbf
gamma 0.25
nr_class 2
total_sv 4
rho -38.5653
SV
-0.2759183250617206 1:35.37 2:35.54 3:36.79 4:36.9 
-0.400174243811796 1:35.54 2:36.79 3:36.9 4:38.02 
0.1244317611436225 1:36.79 2:36.9 3:38.02 4:38.02 
0.5516608077298941 1:38.02 2:38.02 3:38.74 4:38.9 
