svm_type epsilon_svr
kernel_type rbf
gamma 0.25
nr_class 2
total_sv 5
rho -49.2867
SV
0.1845216246728624 1:51.22 2:50.51 3:50.17 4:49.13 
-1 1:50.51 2:50.17 3:49.13 4:49.21 
1 1:50.17 2:49.13 3:49.21 4:48.59 
0.7019521291478508 1:49.13 2:49.21 3:48.59 4:50.23 
-0.8864737538207131 1:49.21 2:48.59 3:50.23 4:49.72 
