svm_type epsilon_svr
kernel_type rbf
gamma 0.25
nr_class 2
total_sv 4
rho -301.19
SV
-1 1:302.85999 2:304.64001 3:297.62 4:295.19 
-1 1:304.64001 2:297.62 3:295.19 4:297.70001 
1 1:295.19 2:297.70001 3:296.76001 4:301.19 
1 1:297.70001 2:296.76001 3:301.19 4:305.01001 
