svm_type epsilon_svr
kernel_type rbf
gamma 0.25
nr_class 2
total_sv 4
rho -84.1752
SV
-0.4976599619845827 1:79.01 2:79.2 3:82.94 4:82.96 
-0.2901702224716105 1:79.2 2:82.94 3:82.96 4:83.57 
0.6802634210585042 1:82.94 2:82.96 3:83.57 4:83.79 
0.107566763397689 1:83.57 2:83.79 3:84.99 4:84.58 
