svm_type epsilon_svr
kernel_type rbf
gamma 0.25
nr_class 2
total_sv 3
rho -47.8028
SV
1 1:49.11 2:48.47 3:48.69 4:48.55 
-0.2716479095264497 1:48.55 2:49.41 3:48.08 4:48.15 
-0.7283520904735503 1:49.41 2:48.08 3:48.15 4:47.71 
