svm_type epsilon_svr
kernel_type rbf
gamma 0.25
nr_class 2
total_sv 4
rho -50.4505
SV
-1 1:50.51 2:49.21 3:49.94 4:50.24 
-1 1:49.21 2:49.94 3:50.24 4:49.82 
1 1:50.24 2:49.82 3:48.85 4:50.12 
1 1:49.82 2:48.85 3:50.12 4:50.91 
