svm_type epsilon_svr
kernel_type rbf
gamma 0.25
nr_class 2
total_sv 5
rho -63.0492
SV
0.382710433491645 1:63.48 2:63.51 3:63.83 4:63.3 
-1 1:63.51 2:63.83 3:63.3 4:63.08 
1 1:63.83 2:63.3 3:63.08 4:62.87 
0.617289566508355 1:63.3 2:63.08 3:62.87 4:63.34 
-1 1:63.08 2:62.87 3:63.34 4:63.19 
