svm_type epsilon_svr
kernel_type rbf
gamma 0.25
nr_class 2
total_sv 5
rho -44.0655
SV
0.3948372782870002 1:43.53 2:43.38 3:44.43 4:44.45 
0.286856914808424 1:43.38 2:44.43 3:44.45 4:44.28 
-1 1:44.43 2:44.45 3:44.28 4:44.11 
0.0971686939852139 1:44.45 2:44.28 3:44.11 4:42.62 
0.2211371129193619 1:44.28 2:44.11 3:42.62 4:43.99 
