svm_type epsilon_svr
kernel_type rbf
gamma 0.25
nr_class 2
total_sv 4
rho -30.9589
SV
0.6590077687557684 1:32.07 2:32.17 3:31.92 4:32.22 
-0.1073721855021771 1:31.92 2:32.22 3:31.44 4:31.05 
-0.3860289506686753 1:32.22 2:31.44 3:31.05 4:30.79 
-0.165606632584916 1:31.44 2:31.05 3:30.79 4:30.54 
