svm_type epsilon_svr
kernel_type rbf
gamma 0.25
nr_class 2
total_sv 5
rho -75.739
SV
1 1:78.69 2:78.37 3:80.04 4:80.67 
1 1:78.37 2:80.04 3:80.67 4:80.28 
-0.3519858009949891 1:80.04 2:80.67 3:80.28 4:80.77 
-1 1:80.67 2:80.28 3:80.77 4:75.86 
-0.648014199005011 1:80.28 2:80.77 3:75.86 4:74.11 
