svm_type epsilon_svr
kernel_type rbf
gamma 0.25
nr_class 2
total_sv 4
rho -82.0987
SV
-1 1:83.57 2:82.59 3:82.88 4:82.07 
-0.2477321609067694 1:82.88 2:82.07 3:80.69 4:81.9 
1 1:82.07 2:80.69 3:81.9 4:81.9 
0.2477321609067694 1:80.69 2:81.9 3:81.9 4:83.29 
