svm_type epsilon_svr
kernel_type rbf
gamma 0.25
nr_class 2
total_sv 3
rho -32.1309
SV
-1 1:31.5 2:31.61 3:31.58 4:31.53 
0.6504665052554184 1:31.53 2:31.32 3:31.95 4:31.99 
0.3495334947445816 1:31.32 2:31.95 3:31.99 4:32.29 
