svm_type epsilon_svr
kernel_type rbf
gamma 0.25
nr_class 2
total_sv 5
rho -305.56
SV
-1 1:297.62 2:295.19 3:297.70001 4:296.76001 
-0.4497759996182153 1:295.19 2:297.70001 3:296.76001 4:301.19 
-0.5502240003817847 1:297.70001 2:296.76001 3:301.19 4:305.01001 
1 1:296.76001 2:301.19 3:305.01001 4:304.91 
1 1:301.19 2:305.01001 3:304.91 4:312.23999 
