svm_type epsilon_svr
kernel_type rbf
gamma 0.25
nr_class 2
total_sv 4
rho -302.167
SV
1 1:303.03 2:309.09 3:312.04001 4:310.29999 
1 1:309.09 2:312.04001 3:310.29999 4:310.35001 
-1 1:310.29999 2:310.35001 3:308.51999 4:302.19 
-1 1:310.35001 2:308.51999 3:302.19 4:295.29001 
