svm_type epsilon_svr
kernel_type rbf
gamma 0.25
nr_class 2
total_sv 5
rho -40.9935
SV
1 1:40.84 2:40.31 3:39.59 4:39.59 
-0.9170294073355799 1:40.31 2:39.59 3:39.59 4:42.54 
0.7555003066151124 1:39.59 2:39.59 3:42.54 4:40.04 
-0.4029569774573292 1:39.59 2:42.54 3:40.04 4:41.85 
-0.4355139218222032 1:42.54 2:40.04 3:41.85 4:40.47 
