svm_type epsilon_svr
kernel_type rbf
gamma 0.25
nr_class 2
total_sv 4
rho -82.9775
SV
-0.1061860154753747 1:82.04 2:83.01 3:83.52 4:82.71 
-1 1:83.01 2:83.52 3:82.71 4:82.31 
0.3651616996552662 1:83.52 2:82.71 3:82.31 4:80.78 
0.7410243158201084 1:82.71 2:82.31 3:80.78 4:83.09 
