svm_type epsilon_svr
kernel_type rbf
gamma 0.25
nr_class 2
total_sv 5
rho -77.8292
SV
-0.1223982994915982 1:76.47 2:76.12 3:76.23 4:77.32 
-1 1:76.12 2:76.23 3:77.32 4:77.35 
1 1:76.23 2:77.32 3:77.35 4:77.3 
-0.4315691242514183 1:77.32 2:77.35 3:77.3 4:78.24 
0.5539674237430164 1:77.35 2:77.3 3:78.24 4:77.86 
