svm_type epsilon_svr
kernel_type rbf
gamma 0.25
nr_class 2
total_sv 4
rho -127.398
SV
-0.7417585046392932 1:127.1 2:126.85 3:126.3 4:126.78 
-1 1:126.85 2:126.3 3:126.78 4:126.17 
0.7417585046392932 1:126.3 2:126.78 3:126.17 4:124.75 
1 1:126.17 2:124.75 3:127.6 4:126.91 
