svm_type epsilon_svr
kernel_type rbf
gamma 0.25
nr_class 2
total_sv 5
rho -46.6416
SV
0.9673042380461089 1:47.88 2:47.45 3:47.02 4:46.45 
-0.6109105105993258 1:47.45 2:47.02 3:46.45 4:46.76 
-1 1:47.02 2:46.45 3:46.76 4:46.33 
-0.3563937274467831 1:46.45 2:46.76 3:46.33 4:45.65 
1 1:46.76 2:46.33 3:45.65 4:46.23 
