svm_type epsilon_svr
kernel_type rbf
gamma 0.25
nr_class 2
total_sv 3
rho -32.9846
SV
0.776830853251178 1:33.7 2:33.71 3:33.47 4:33.47 
-1 1:33.47 2:33.47 3:33.13 4:32.84 
0.223169146748822 1:33.13 2:32.84 3:32.61 4:32.75 
