svm_type epsilon_svr
kernel_type rbf
gamma 0.25
nr_class 2
total_sv 5
rho -76.0315
SV
0.6284667679461138 1:76.15 2:76.15 3:78.18 4:77.74 
0.1626729606471936 1:76.15 2:78.18 3:77.74 4:76.72 
0.8308999014110777 1:78.18 2:77.74 3:76.72 4:76.45 
-1 1:77.74 2:76.72 3:76.45 4:76.28 
-0.6220396300043851 1:76.72 2:76.45 3:76.28 4:74.05 
