svm_type epsilon_svr
kernel_type rbf
gamma 0.25
nr_class 2
total_sv 5
rho -100.588
SV
-1 1:99.18 2:99.9 3:99.62 4:99.62 
0.6556589954096327 1:99.9 2:99.62 3:99.62 4:98.75 
0.7306766635875463 1:99.62 2:99.62 3:98.75 4:100.8 
0.1863629241075768 1:99.62 2:98.75 3:100.8 4:101.02 
-0.5726985831047559 1:98.75 2:100.8 3:101.02 4:100.73 
