svm_type epsilon_svr
kernel_type rbf
gamma 0.25
nr_class 2
total_sv 5
rho -320.805
SV
1 1:359.76001 2:360.84 3:358.14001 4:358.60999 
-0.2949999999999875 1:360.84 2:358.14001 3:358.60999 4:324.01001 
-0.7050000000000125 1:358.14001 2:358.60999 3:324.01001 4:320.41 
1 1:358.60999 2:324.01001 3:320.41 4:320 
-1 1:324.01001 2:320.41 3:320 4:322.51001 
