svm_type epsilon_svr
kernel_type rbf
gamma 0.25
nr_class 2
total_sv 5
rho -47.4298
SV
0.8345571023760308 1:48.59 2:50.23 3:49.72 4:48.8 
0.3460046799023122 1:50.23 2:49.72 3:48.8 4:48.3 
-1 1:49.72 2:48.8 3:48.3 4:47.51 
-0.8016760957577125 1:48.8 2:48.3 3:47.51 4:46.23 
0.6211143134793695 1:48.3 2:47.51 3:46.23 4:46.47 
