svm_type epsilon_svr
kernel_type rbf
gamma 0.25
nr_class 2
total_sv 3
rho -33.5192
SV
0.1522570364038668 1:33.28 2:33.25 3:33.34 4:33.5 
0.8477429635961332 1:33.25 2:33.34 3:33.5 4:33.7 
-1 1:33.7 2:33.71 3:33.47 4:33.47 
