svm_type epsilon_svr
kernel_type rbf
gamma 0.25
nr_class 2
total_sv 5
rho -32.3728
SV
-0.9860244651703146 1:31.03 2:31.44 3:31.47 4:31.83 
-1 1:31.44 2:31.47 3:31.83 4:31.84 
1 1:31.47 2:31.83 3:31.84 4:31.91 
1 1:31.83 2:31.84 3:31.91 4:32.85 
-0.01397553482968535 1:31.84 2:31.91 3:32.85 4:32.95 
