svm_type epsilon_svr
kernel_type rbf
gamma 0.25
nr_class 2
total_sv 5
rho -74.5653
SV
-0.05473700290679178 1:73.06 2:73.44 3:72.83 4:73.77 
-1 1:73.44 2:72.83 3:73.77 4:74.3 
0.02398229350308721 1:72.83 2:73.77 3:74.3 4:73.63 
1 1:73.77 2:74.3 3:73.63 4:74.59 
0.03075470940370457 1:74.3 2:73.63 3:74.59 4:75.29 
