svm_type epsilon_svr
kernel_type rbf
gamma 0.25
nr_class 2
total_sv 5
rho -112.129
SV
-1 1:108.6 2:108.86 3:108.7 4:109.01 
-1 1:108.86 2:108.7 3:109.01 4:108.83 
0.4215990246053311 1:108.7 2:109.01 3:108.83 4:109.7 
0.5784009753946688 1:109.01 2:108.83 3:109.7 4:111.25 
1 1:108.83 2:109.7 3:111.25 4:112.82 
