svm_type epsilon_svr
kernel_type rbf
gamma 0.25
nr_class 2
total_sv 4
rho -17.6102
SV
-1 1:17.36 2:17.37 3:17.35 4:17.27 
0.5018501459268884 1:17.37 2:17.35 3:17.27 4:17.42 
1 1:17.35 2:17.27 3:17.42 4:17.78 
-0.5018501459268884 1:17.42 2:17.78 3:18.04 4:17.77 
