svm_type epsilon_svr
kernel_type rbf
gamma 0.25
nr_class 2
total_sv 5
rho -54.3403
SV
-0.2447352260247571 1:51.74 2:51.58 3:50.06 4:51.85 
-0.6794948336409337 1:51.58 2:50.06 3:51.85 4:53.94 
-0.8008881617032386 1:50.06 2:51.85 3:53.94 4:53.49 
1 1:51.85 2:53.94 3:53.49 4:53.53 
0.7251182213689296 1:53.94 2:53.49 3:53.53 4:55.42 
