svm_type epsilon_svr
kernel_type rbf
gamma 0.25
nr_class 2
total_sv 4
rho -19.1861
SV
-1 1:17.63 2:17.87 3:17.72 4:17.48 
-0.6794444083492749 1:17.72 2:17.48 3:17.72 4:18.36 
1 1:17.48 2:17.72 3:18.36 4:18.72 
0.6794444083492749 1:17.72 2:18.36 3:18.72 4:19.82 
