svm_type epsilon_svr
kernel_type rbf
gamma 0.25
nr_class 2
total_sv 3
rho -16.2384
SV
0.5728160741805309 1:16.05 2:16.18 3:16.11 4:16.64 
0.4271839258194691 1:16.64 2:16.33 3:16.21 4:16.18 
-1 1:16.33 2:16.21 3:16.18 4:16.29 
