svm_type epsilon_svr
kernel_type rbf
gamma 0.25
nr_class 2
total_sv 4
rho -346.2
SV
-1 1:332.85001 2:337.48999 3:333.54999 4:323.81 
-1 1:337.48999 2:333.54999 3:323.81 4:329.97 
1 1:323.81 2:329.97 3:327.92001 4:346.20001 
1 1:329.97 2:327.92001 3:346.20001 4:355.32001 
