svm_type epsilon_svr
kernel_type rbf
gamma 0.25
nr_class 2
total_sv 4
rho -66.9386
SV
-1 1:66.29 2:65.29 3:62.76 4:64.97 
-0.4836162613286564 1:65.29 2:62.76 3:64.97 4:64.87 
0.8762207049630212 1:62.76 2:64.97 3:64.87 4:66.34 
0.6073955563656351 1:64.87 2:66.34 3:67.9 4:67.17 
