svm_type epsilon_svr
kernel_type rbf
gamma 0.25
nr_class 2
total_sv 4
rho -84.2035
SV
0.3162286196940682 1:85.96 2:86.29 3:83.52 4:84.3 
0.3194155701709736 1:86.29 2:83.52 3:84.3 4:84.6 
-0.5522232090685081 1:83.52 2:84.3 3:84.6 4:84.57 
-0.08342098079653375 1:84.6 2:84.57 3:83.57 4:83.8 
