svm_type epsilon_svr
kernel_type rbf
gamma 0.25
nr_class 2
total_sv 4
rho -76.2065
SV
-1 1:75.69 2:75.52 3:75.85 4:75.9 
-1 1:75.52 2:75.85 3:75.9 4:75.5 
1 1:75.9 2:75.5 3:75.75 4:76.01 
1 1:75.5 2:75.75 3:76.01 4:76.56 
