svm_type epsilon_svr
kernel_type rbf
gamma 0.25
nr_class 2
total_sv 4
rho -555.48
SV
-1 1:539.70001 2:542.87 3:538.95001 4:531.90997 
-1 1:542.87 2:538.95001 3:531.90997 4:536.09003 
1 1:531.90997 2:536.09003 3:543.87 4:555.47998 
1 1:536.09003 2:543.87 3:555.47998 4:558.40002 
