svm_type epsilon_svr
kernel_type rbf
gamma 0.25
nr_class 2
total_sv 5
rho -77.1997
SV
-0.1207305026395753 1:78.79 2:79 3:79.04 4:76.55 
0.06890922505563951 1:79 2:79.04 3:76.55 4:77.08 
0.2822050872864978 1:79.04 2:76.55 3:77.08 4:77.44 
-1 1:76.55 2:77.08 3:77.44 4:77.56 
0.769616190297438 1:77.08 2:77.44 3:77.56 4:76.29 
