svm_type epsilon_svr
kernel_type rbf
gamma 0.25
nr_class 2
total_sv 4
rho -95.3676
SV
0.6563578368652468 1:99.02 2:98.38 3:98.15 4:95.6 
0.03970306536908173 1:98.38 2:98.15 3:95.6 4:96.13 
0.3039390977656714 1:95.6 2:96.13 3:95.59 4:95.12 
-1 1:96.13 2:95.59 3:95.12 4:94.96 
