svm_type epsilon_svr
kernel_type rbf
gamma 0.25
nr_class 2
total_sv 5
rho -33.9458
SV
0.006224711652876873 1:34.94 2:34.68 3:34.05 4:33.64 
-1 1:34.68 2:34.05 3:33.64 4:33.48 
-0.1801569979291697 1:34.05 2:33.64 3:33.48 4:33.25 
0.1739322862762928 1:33.64 2:33.48 3:33.25 4:33.66 
1 1:33.48 2:33.25 3:33.66 4:34.25 
