svm_type epsilon_svr
kernel_type rbf
gamma 0.25
nr_class 2
total_sv 5
rho -120.726
SV
-0.1755862727905099 1:117.16 2:118.63 3:118.65 4:119.56 
-1 1:118.63 2:118.65 3:119.56 4:119.94 
-0.82441372720949 1:118.65 2:119.56 3:119.94 4:118.93 
1 1:119.56 2:119.94 3:118.93 4:119.72 
1 1:119.94 2:118.93 3:119.72 4:122.02 
