svm_type epsilon_svr
kernel_type rbf
gamma 0.25
nr_class 2
total_sv 5
rho -371.007
SV
-1 1:378.48999 2:375.10999 3:374.09 4:370.95999 
-0.3469099360848052 1:375.10999 2:374.09 3:370.95999 4:367.35001 
1 1:374.09 2:370.95999 3:367.35001 4:370.56 
0.9937729200924166 1:370.95999 2:367.35001 3:370.56 4:374.59 
-0.6468629840076113 1:367.35001 2:370.56 3:374.59 4:372.10001 
