svm_type epsilon_svr
kernel_type rbf
gamma 0.25
nr_class 2
total_sv 5
rho -79.2167
SV
0.03650803596073001 1:76.23 2:75.74 3:75.6 4:76.71 
0.6125261071493326 1:75.74 2:75.6 3:76.71 4:79.42 
-0.2882778122234721 1:75.6 2:76.71 3:79.42 4:79.9 
-0.6785652366665824 1:76.71 2:79.42 3:79.9 4:78.84 
0.3178089057799917 1:79.42 2:79.9 3:78.84 4:78.45 
