svm_type epsilon_svr
kernel_type rbf
gamma 0.25
nr_class 2
total_sv 5
rho -47.9854
SV
1 1:49.58 2:49.46 3:48.74 4:48.22 
-0.19328894429838 1:49.46 2:48.74 3:48.22 4:48.7 
-0.4256133227817674 1:48.74 2:48.22 3:48.7 4:47.98 
-0.6190227838193082 1:48.22 2:48.7 3:47.98 4:47.59 
0.2379250508994555 1:48.7 2:47.98 3:47.59 4:47.47 
