svm_type epsilon_svr
kernel_type rbf
gamma 0.25
nr_class 2
total_sv 4
rho -580.237
SV
1 1:573.47998 2:582.15997 3:586.85999 4:584.48999 
1 1:582.15997 2:586.85999 3:584.48999 4:583.37 
-1 1:584.48999 2:583.37 3:582.56 4:580.20001 
-1 1:583.37 2:582.56 3:580.20001 4:577.85999 
