svm_type epsilon_svr
kernel_type rbf
gamma 0.25
nr_class 2
total_sv 4
rho -21.0261
SV
0.492946778312599 1:20.25 2:21.53 3:21.56 4:21.34 
1 1:21.53 2:21.56 3:21.34 4:21.36 
-1 1:21.56 2:21.34 3:21.36 4:21.18 
-0.492946778312599 1:21.36 2:21.18 3:20.7 4:20.93 
