svm_type epsilon_svr
kernel_type rbf
gamma 0.25
nr_class 2
total_sv 5
rho -539.925
SV
1 1:536.94 2:535.96997 3:542.92999 4:549.01001 
-0.1250000054174052 1:535.96997 2:542.92999 3:549.01001 4:542.84003 
1 1:542.92999 2:549.01001 3:542.84003 4:539.70001 
-0.8749999945825948 1:549.01001 2:542.84003 3:539.70001 4:542.87 
-1 1:542.84003 2:539.70001 3:542.87 4:538.95001 
