svm_type epsilon_svr
kernel_type rbf
gamma 0.25
nr_class 2
total_sv 4
rho -74.7568
SV
-0.7114682155906725 1:74.67 2:74.36 3:74.22 4:74.03 
-1 1:74.36 2:74.22 3:74.03 4:74.39 
1 1:74.03 2:74.39 3:73.9 4:74.49 
0.7114682155906725 1:74.39 2:73.9 3:74.49 4:74.88 
