svm_type epsilon_svr
kernel_type rbf
gamma 0.25
nr_class 2
total_sv 4
rho -31.3344
SV
-1 1:31.05 2:31.27 3:30.8 4:31.05 
-1 1:31.27 2:30.8 3:31.05 4:31 
1 1:30.8 2:31.05 3:31 4:31.03 
1 1:31 2:31.03 3:31.44 4:31.47 
