svm_type epsilon_svr
kernel_type rbf
gamma 0.25
nr_class 2
total_sv 5
rho -42.6716
SV
0.0292400306169655 1:44.06 2:43.85 3:43.88 4:43.28 
1 1:43.85 2:43.88 3:43.28 4:43.06 
-1 1:43.88 2:43.28 3:43.06 4:43.11 
0.9707599693830345 1:43.28 2:43.06 3:43.11 4:42.36 
-1 1:43.06 2:43.11 3:42.36 4:42.85 
