svm_type epsilon_svr
kernel_type rbf
gamma 0.25
nr_class 2
total_sv 4
rho -49.5554
SV
-0.071291978296198 1:50.53 2:51.22 3:50.51 4:50.17 
-1 1:50.51 2:50.17 3:49.13 4:49.21 
1 1:50.17 2:49.13 3:49.21 4:48.59 
0.071291978296198 1:49.13 2:49.21 3:48.59 4:50.23 
