svm_type epsilon_svr
kernel_type rbf
gamma 0.25
nr_class 2
total_sv 4
rho -44.8656
SV
1 1:45.63 2:45.18 3:44.77 4:45.53 
1 1:45.18 2:44.77 3:45.53 4:45.73 
-1 1:44.77 2:45.53 3:45.73 4:45.78 
-1 1:45.73 2:45.78 3:44.45 4:44.66 
