svm_type epsilon_svr
kernel_type rbf
gamma 0.25
nr_class 2
total_sv 5
rho -51.5207
SV
0.7805672939706821 1:49.05 2:50.6 3:50.5 4:51.75 
0.4671830243411167 1:50.6 2:50.5 3:51.75 4:52.37 
-1 1:50.5 2:51.75 3:52.37 4:51.75 
0.1371529673785442 1:51.75 2:52.37 3:51.75 4:50.58 
-0.3849032856903432 1:52.37 2:51.75 3:50.58 4:51.25 
