svm_type epsilon_svr
kernel_type rbf
gamma 0.25
nr_class 2
total_sv 5
rho -99.6142
SV
0.08133719093296243 1:100.75 2:100.11 3:100.75 4:99.18 
0.07756913433908152 1:100.11 2:100.75 3:99.18 4:99.9 
-0.158906325272044 1:100.75 2:99.18 3:99.9 4:99.62 
-1 1:99.18 2:99.9 3:99.62 4:99.62 
1 1:99.9 2:99.62 3:99.62 4:98.75 
