svm_type epsilon_svr
kernel_type rbf
gamma 0.25
nr_class 2
total_sv 3
rho -108.793
SV
-0.1036985328253957 1:107.34 2:106.98 3:108 4:109.4 
-0.05521507625368163 1:108 2:109.4 3:108.6 4:108.86 
0.1589136090790773 1:109.4 2:108.6 3:108.86 4:108.7 
