svm_type epsilon_svr
kernel_type rbf
gamma 0.25
nr_class 2
total_sv 5
rho -127.617
SV
1 1:128.78999 2:130.42 3:128.46001 4:129.09 
0.9831200510868352 1:130.42 2:128.46001 3:129.09 4:129.36 
-1 1:128.46001 2:129.09 3:129.36 4:128.53999 
-0.806148387711076 1:129.09 2:129.36 3:128.53999 4:126.41 
-0.1769716633757593 1:129.36 2:128.53999 3:126.41 4:126.6 
