svm_type epsilon_svr
kernel_type rbf
gamma 0.25
nr_class 2
total_sv 4
rho -95.4577
SV
0.4679465585130747 1:92.93 2:93.52 3:93.48 4:94.03 
-0.1244963261594162 1:93.52 2:93.48 3:94.03 4:95.97 
-0.3127820062287288 1:94.03 2:95.97 3:95.35 4:95.39 
-0.03066822612492955 1:95.97 2:95.35 3:95.39 4:95.04 
