svm_type epsilon_svr
kernel_type rbf
gamma 0.25
nr_class 2
total_sv 5
rho -309.725
SV
1 1:306.54001 2:306.29001 3:303.03 4:309.09 
0.4749868455703314 1:306.29001 2:303.03 3:309.09 4:312.04001 
0.5250131544296686 1:303.03 2:309.09 3:312.04001 4:310.29999 
-1 1:309.09 2:312.04001 3:310.29999 4:310.35001 
-1 1:312.04001 2:310.29999 3:310.35001 4:308.51999 
