svm_type epsilon_svr
kernel_type rbf
gamma 0.25
nr_class 2
total_sv 5
rho -584.225
SV
0.5449849999999969 1:571.09003 2:576.08002 3:571.09998 4:579.17999 
0.4550150000000031 1:576.08002 2:571.09998 3:579.17999 4:584.87 
-1 1:571.09998 2:579.17999 3:584.87 4:584.78003 
-1 1:579.17999 2:584.87 3:584.78003 4:582.65997 
1 1:584.87 2:584.78003 3:582.65997 4:573.72998 
