svm_type epsilon_svr
kernel_type rbf
gamma 0.25
nr_class 2
total_sv 4
rho -567.667
SV
1 1:558.40002 2:571.34003 3:573.64001 4:573.37 
1 1:573.64001 2:573.37 3:575.33002 4:567.685 
-1 1:573.37 2:575.33002 3:567.685 4:568.84998 
-1 1:575.33002 2:567.685 3:568.84998 4:555.01001 
