svm_type epsilon_svr
kernel_type rbf
gamma 0.25
nr_class 2
total_sv 5
rho -49.1223
SV
1 1:53.49 2:53.53 3:55.42 4:55.29 
-0.5330968864884187 1:53.53 2:55.42 3:55.29 4:50.4 
-0.4427762605393313 1:55.42 2:55.29 3:50.4 4:48.49 
0.7685961235193715 1:55.29 2:50.4 3:48.49 4:48.58 
-0.7927229764916215 1:50.4 2:48.49 3:48.58 4:49.99 
