svm_type epsilon_svr
kernel_type rbf
gamma 0.25
nr_class 2
total_sv 5
rho -334.23
SV
0.2000020092101453 1:319.32001 2:326.28 3:333.20999 4:333.63 
0.7999979907898547 1:326.28 2:333.20999 3:333.63 4:334.53 
1 1:333.20999 2:333.63 3:334.53 4:335.13 
-1 1:333.63 2:334.53 3:335.13 4:335.78 
-1 1:334.53 2:335.13 3:335.78 4:332.91 
