svm_type epsilon_svr
kernel_type rbf
gamma 0.25
nr_class 2
total_sv 4
rho -75.7375
SV
0.2657137370900323 1:77.65 2:77.83 3:77.5 4:75.78 
1 1:77.83 2:77.5 3:75.78 4:76.24 
-0.7019258623914761 1:75.78 2:76.24 3:78 4:75.91 
-0.5637878746985563 1:76.24 2:78 3:75.91 4:74.99 
