svm_type epsilon_svr
kernel_type rbf
gamma 0.25
nr_class 2
total_sv 4
rho -326.28
SV
-1 1:312.32001 2:313.89001 3:311.45001 4:316.79999 
-1 1:313.89001 2:311.45001 3:316.79999 4:318.32999 
1 1:316.79999 2:318.32999 3:319.32001 4:326.28 
1 1:318.32999 2:319.32001 3:326.28 4:333.20999 
