svm_type epsilon_svr
kernel_type rbf
gamma 0.25
nr_class 2
total_sv 4
rho -568.867
SV
1 1:555.47998 2:558.40002 3:571.34003 4:573.64001 
1 1:558.40002 2:571.34003 3:573.64001 4:573.37 
-1 1:571.34003 2:573.64001 3:573.37 4:575.33002 
-1 1:573.37 2:575.33002 3:567.685 4:568.84998 
