svm_type epsilon_svr
kernel_type rbf
gamma 0.25
nr_class 2
total_sv 4
rho -127.242
SV
-0.1535183757350863 1:122.24 2:124.45 3:123.59 4:124.95 
1 1:124.45 2:123.59 3:124.95 4:127.04 
0.1535183757350863 1:123.59 2:124.95 3:127.04 4:128.47 
-1 1:124.95 2:127.04 3:128.47 4:127.5 
