svm_type epsilon_svr
kernel_type rbf
gamma 0.25
nr_class 2
total_sv 5
rho -51.0998
SV
-1 1:49.43 2:49.75 3:51.02 4:49.33 
-0.2687443551923237 1:49.75 2:51.02 3:49.33 4:50.24 
1 1:51.02 2:49.33 3:50.24 4:50.7 
-0.7312556448076764 1:49.33 2:50.24 3:50.7 4:52 
1 1:50.24 2:50.7 3:52 4:50.61 
