svm_type epsilon_svr
kernel_type rbf
gamma 0.25
nr_class 2
total_sv 3
rho -32.3637
SV
1 1:32.24 2:32.27 3:31.65 4:32.41 
-0.4266156174403096 1:32.27 2:31.65 3:32.41 4:32.86 
-0.5733843825596904 1:31.65 2:32.41 3:32.86 4:32.2 
