svm_type epsilon_svr
kernel_type rbf
gamma 0.25
nr_class 2
total_sv 5
rho -100.681
SV
-1 1:100.75 2:99.18 3:99.9 4:99.62 
-1 1:99.18 2:99.9 3:99.62 4:99.62 
1 1:99.9 2:99.62 3:99.62 4:98.75 
0.7927365057108031 1:99.62 2:99.62 3:98.75 4:100.8 
0.2072634942891969 1:99.62 2:98.75 3:100.8 4:101.02 
