svm_type epsilon_svr
kernel_type rbf
gamma 0.25
nr_class 2
total_sv 3
rho -21.9157
SV
-0.3594311308415731 1:20.48 2:21.24 3:21.63 4:21.93 
0.425823824778387 1:21.63 2:21.93 3:21.69 4:21.99 
-0.06639269393681389 1:21.69 2:21.99 3:22.15 4:21.96 
