svm_type epsilon_svr
kernel_type rbf
gamma 0.25
nr_class 2
total_sv 3
rho -17.4635
SV
0.16506782954892 1:19.87 2:20.25 3:18.88 4:18.04 
-0.07581448157027233 1:20.25 2:18.88 3:18.04 4:17.69 
-0.08925334797864762 1:17.69 2:17.36 3:17.37 4:17.35 
