svm_type epsilon_svr
kernel_type rbf
gamma 0.25
nr_class 2
total_sv 3
rho -18.4744
SV
-0.6866597959963656 1:17.42 2:17.37 3:17.36 4:17.94 
0.608509248359307 1:17.94 2:18.07 3:18.41 4:18.52 
0.07815054763705864 1:18.07 2:18.41 3:18.52 4:18.86 
