svm_type epsilon_svr
kernel_type rbf
gamma 0.25
nr_class 2
total_sv 5
rho -41.3404
SV
0.6392197248992671 1:49.67 2:49.95 3:48.56 4:43.78 
0.3589188230483092 1:49.95 2:48.56 3:43.78 4:42.08 
0.03075148606568483 1:48.56 2:43.78 3:42.08 4:41.8 
-1 1:43.78 2:42.08 3:41.8 4:41.47 
-0.02889003401326119 1:42.08 2:41.8 3:41.47 4:40.21 
