svm_type epsilon_svr
kernel_type rbf
gamma 0.25
nr_class 2
total_sv 5
rho -95.8073
SV
1 1:97.03 2:97.67 3:99.02 4:98.38 
-0.6451052146139525 1:97.67 2:99.02 3:98.38 4:98.15 
0.2885168185393525 1:99.02 2:98.38 3:98.15 4:95.6 
-0.04929507212029754 1:98.38 2:98.15 3:95.6 4:96.13 
-0.5941165318051023 1:98.15 2:95.6 3:96.13 4:95.59 
