svm_type epsilon_svr
kernel_type rbf
gamma 0.25
nr_class 2
total_sv 4
rho -75.7742
SV
-0.7576045453174336 1:77.62 2:77.7 3:75.1 4:75.46 
-0.4018260490522442 1:77.7 2:75.1 3:75.46 4:74.88 
0.2529394992240959 1:75.1 2:75.46 3:74.88 4:75.24 
0.9064910951455819 1:74.88 2:75.24 3:76.36 4:76.52 
