svm_type epsilon_svr
kernel_type rbf
gamma 0.25
nr_class 2
total_sv 4
rho -31.7543
SV
-1 1:31.28 2:31.5 3:31.61 4:31.58 
-1 1:31.5 2:31.61 3:31.58 4:31.53 
1 1:31.61 2:31.58 3:31.53 4:31.32 
1 1:31.58 2:31.53 3:31.32 4:31.95 
