svm_type epsilon_svr
kernel_type rbf
gamma 0.25
nr_class 2
total_sv 4
rho -312.985
SV
1 1:358.60999 2:324.01001 3:320.41 4:320 
-1 1:320.41 2:320 3:322.51001 4:312.98999 
0.5649899999999661 1:320 2:322.51001 3:312.98999 4:307.06 
-0.5649899999999661 1:322.51001 2:312.98999 3:307.06 4:313.64999 
