svm_type epsilon_svr
kernel_type rbf
gamma 0.25
nr_class 2
total_sv 3
rho -47.9345
SV
-0.2973743926840827 1:46.95 2:46.67 3:45.16 4:45.74 
-0.1385420645540102 1:46.67 2:45.16 3:45.74 4:47.52 
0.435916457238093 1:45.74 2:47.52 3:47.66 4:47.98 
