svm_type epsilon_svr
kernel_type rbf
gamma 0.25
nr_class 2
total_sv 4
rho -75.592
SV
-0.1301138075286104 1:77.01 2:76.61 3:75.69 4:75.66 
0.01872011068235736 1:76.61 2:75.69 3:75.66 4:75.39 
-0.888606303153747 1:75.66 2:75.39 3:75.61 4:75.59 
1 1:75.39 2:75.61 3:75.59 4:75.53 
