svm_type epsilon_svr
kernel_type rbf
gamma 0.25
nr_class 2
total_sv 4
rho -75.7339
SV
0.08690151218713098 1:74.49 2:74.88 3:74.96 4:75.55 
-0.7481691118626005 1:74.96 2:75.55 3:75.73 4:75.69 
0.2301062108374996 1:75.55 2:75.73 3:75.69 4:75.52 
0.4311613888379698 1:75.73 2:75.69 3:75.52 4:75.85 
