svm_type epsilon_svr
kernel_type rbf
gamma 0.25
nr_class 2
total_sv 4
rho -63.0862
SV
0.3645795274073525 1:63.83 2:63.3 3:63.08 4:62.87 
-1 1:63.08 2:62.87 3:63.34 4:63.19 
-0.3645795274073525 1:62.87 2:63.34 3:63.19 4:62.5 
1 1:63.34 2:63.19 3:62.5 4:62.88 
