svm_type epsilon_svr
kernel_type rbf
gamma 0.25
nr_class 2
total_sv 5
rho -129.973
SV
-0.7984268842859047 1:124.88 2:126.46 3:127.08 4:127.83 
-1 1:126.46 2:127.08 3:127.83 4:128.72 
-0.2015731157140953 1:127.08 2:127.83 3:128.72 4:128.45 
1 1:127.83 2:128.72 3:128.45 4:129.5 
1 1:128.72 2:128.45 3:129.5 4:133 
