svm_type epsilon_svr
kernel_type rbf
gamma 0.25
nr_class 2
total_sv 4
rho -102.422
SV
-1 1:100.57 2:100.58 3:101.32 4:101.54 
0.001920035475503077 1:100.58 2:101.32 3:101.54 4:100.89 
-0.001920035475503077 1:101.32 2:101.54 3:100.89 4:102.13 
1 1:100.89 2:102.13 3:102.25 4:102.5 
