svm_type epsilon_svr
kernel_type rbf
gamma 0.25
nr_class 2
total_sv 3
rho -49.8046
SV
-0.2224388801619557 1:47.93 2:48.44 3:48.46 4:51.47 
0.04330620822083492 1:48.46 2:51.47 3:49.5 4:49.92 
0.1791326719411208 1:49.5 2:49.92 3:50.01 4:49.89 
