svm_type epsilon_svr
kernel_type rbf
gamma 0.25
nr_class 2
total_sv 5
rho -74.8348
SV
0.7307729163559284 1:75.76 2:74.83 3:75.26 4:75.6 
-0.4470915055773957 1:74.83 2:75.26 3:75.6 4:75 
0.08714721383530327 1:75.26 2:75.6 3:75 4:74.61 
-1 1:75.6 2:75 3:74.61 4:74.72 
0.629171375386164 1:75 2:74.61 3:74.72 4:74.25 
