svm_type epsilon_svr
kernel_type rbf
gamma 0.25
nr_class 2
total_sv 4
rho -560.08
SV
-1 1:520.63 2:528.85999 3:529.77002 4:538.94 
-1 1:528.85999 2:529.77002 3:538.94 4:545.06 
1 1:529.77002 2:538.94 3:545.06 4:552.70001 
1 1:538.94 2:545.06 3:552.70001 4:565.95001 
