svm_type epsilon_svr
kernel_type rbf
gamma 0.25
nr_class 2
total_sv 4
rho -31.9325
SV
1 1:42.62 2:38.97 3:39.09 4:39.02 
-0.01747451759284147 1:38.97 2:39.09 3:39.02 4:38.75 
-1 1:39.09 2:39.02 3:38.75 4:31.85 
0.01747451759284147 1:38.75 2:31.85 3:30.66 4:31.96 
