svm_type epsilon_svr
kernel_type rbf
gamma 0.25
nr_class 2
total_sv 5
rho -311.09
SV
-0.1699946247624484 1:301.19 2:305.01001 3:304.91 4:312.23999 
-0.8300053752375516 1:305.01001 2:304.91 3:312.23999 4:310.82001 
1 1:304.91 2:312.23999 3:310.82001 4:310.16 
1 1:312.23999 2:310.82001 3:310.16 4:313.78 
-1 1:310.82001 2:310.16 3:313.78 4:312.54999 
