svm_type epsilon_svr
kernel_type rbf
gamma 0.25
nr_class 2
total_sv 5
rho -118.035
SV
-1 1:112.4 2:112.98 3:113.1 4:109.14 
0.7650011736502338 1:112.98 2:113.1 3:109.14 4:115.31 
-0.7750002658207237 1:113.1 2:109.14 3:115.31 4:118.9 
0.4949995468682101 1:109.14 2:115.31 3:118.9 4:117.16 
0.5149995453022798 1:115.31 2:118.9 3:117.16 4:118.63 
