svm_type epsilon_svr
kernel_type rbf
gamma 0.25
nr_class 2
total_sv 5
rho -129.225
SV
-0.3366848560620948 1:128.45 2:129.5 3:133 4:132.17 
1 1:129.5 2:133 3:132.17 4:128.78999 
-0.6660187233750511 1:133 2:132.17 3:128.78999 4:130.42 
-0.02978450507318253 1:132.17 2:128.78999 3:130.42 4:128.46001 
0.03248808451032842 1:128.78999 2:130.42 3:128.46001 4:129.09 
