svm_type epsilon_svr
kernel_type rbf
gamma 0.25
nr_class 2
total_sv 4
rho -539.365
SV
-1 1:530.39001 2:532.53003 3:533.79999 4:524.04999 
-1 1:532.53003 2:533.79999 3:524.04999 4:535.38 
1 1:524.04999 2:535.38 3:533.96997 4:539.36499 
1 1:535.38 2:533.96997 3:539.36499 4:547 
