svm_type epsilon_svr
kernel_type rbf
gamma 0.25
nr_class 2
total_sv 4
rho -42.7677
SV
-1 1:41.6 2:41.84 3:42.45 4:42.41 
-1 1:42.45 2:42.41 3:42.36 4:42.6 
1 1:42.41 2:42.36 3:42.6 4:42.38 
1 1:42.36 2:42.6 3:42.38 4:43.09 
