svm_type epsilon_svr
kernel_type rbf
gamma 0.25
nr_class 2
total_sv 4
rho -573.465
SV
-1 1:565.07001 2:566.37402 3:563.35999 4:568.77002 
-1 1:566.37402 2:563.35999 3:568.77002 4:567.88 
1 1:563.35999 2:568.77002 3:567.88 4:562.72998 
1 1:568.77002 2:567.88 3:562.72998 4:574.78003 
