svm_type epsilon_svr
kernel_type rbf
gamma 0.25
nr_class 2
total_sv 4
rho -515.14
SV
1 1:527.70001 2:526.65997 3:531.34998 4:527.92999 
-1 1:531.34998 2:527.92999 3:527.81 4:515.14001 
-1 1:527.92999 2:527.81 3:515.14001 4:509.95999 
1 1:527.81 2:515.14001 3:509.95999 4:511 
