svm_type epsilon_svr
kernel_type rbf
gamma 0.25
nr_class 2
total_sv 5
rho -75.1346
SV
-0.9987409041518679 1:74.57 2:74.57 3:75.02 4:75.96 
-1 1:74.57 2:75.02 3:75.96 4:74.63 
-0.001259095848132054 1:75.02 2:75.96 3:74.63 4:73.86 
1 1:75.96 2:74.63 3:73.86 4:74.82 
1 1:74.63 2:73.86 3:74.82 4:76.68 
