svm_type epsilon_svr
kernel_type rbf
gamma 0.25
nr_class 2
total_sv 4
rho -575.28
SV
1 1:587.98999 2:575.06 3:577.09998 4:576.35999 
-1 1:575.06 2:577.09998 3:576.35999 4:577.35999 
-1 1:577.09998 2:576.35999 3:577.35999 4:568.27002 
1 1:577.35999 2:568.27002 3:570.08002 4:575.28003 
