svm_type epsilon_svr
kernel_type rbf
gamma 0.25
nr_class 2
total_sv 5
rho -35.1983
SV
-1 1:31.75 2:32.58 3:32.9 4:33.89 
-0.3293004414123064 1:32.58 2:32.9 3:33.89 4:33.33 
0.4822511411959301 1:32.9 2:33.89 3:33.33 4:34.47 
-0.1529506997836237 1:33.89 2:33.33 3:34.47 4:35.37 
1 1:33.33 2:34.47 3:35.37 4:35.54 
