svm_type epsilon_svr
kernel_type rbf
gamma 0.25
nr_class 2
total_sv 5
rho -19.9321
SV
0.06078151333730674 1:17.72 2:18.36 3:18.72 4:19.82 
-0.02500780772565637 1:18.36 2:18.72 3:19.82 4:20.16 
0.435228570777791 1:18.72 2:19.82 3:20.16 4:20.01 
-0.1171377263074062 1:19.82 2:20.16 3:20.01 4:20.18 
-0.3538645500820352 1:20.16 2:20.01 3:20.18 4:19.7 
