svm_type epsilon_svr
kernel_type rbf
gamma 0.25
nr_class 2
total_sv 5
rho -90.9545
SV
0.5638305941634215 1:92.08 2:92.18 3:91.86 4:90.91 
-0.7380667935245632 1:92.18 2:91.86 3:90.91 4:90.83 
-0.8008718391480746 1:91.86 2:90.91 3:90.83 4:90.28 
-0.02489196149078389 1:90.91 2:90.83 3:90.28 4:90.36 
1 1:90.83 2:90.28 3:90.36 4:90.9 
