svm_type epsilon_svr
kernel_type rbf
gamma 0.25
nr_class 2
total_sv 5
rho -38.6361
SV
1 1:40.93 2:40.97 3:42.05 4:41.77 
1 1:40.97 2:42.05 3:41.77 4:41.33 
-1 1:42.05 2:41.77 3:41.33 4:40.23 
-0.3358711365745145 1:41.77 2:41.33 3:40.23 4:37.41 
-0.6641288634254855 1:41.33 2:40.23 3:37.41 4:38.06 
