svm_type epsilon_svr
kernel_type rbf
gamma 0.25
nr_class 2
total_sv 4
rho -384.999
SV
-1 1:383.54001 2:382.64999 3:382.35999 4:385.10999 
1 1:382.64999 2:382.35999 3:385.10999 4:383.45001 
-1 1:382.35999 2:385.10999 3:383.45001 4:386.04001 
1 1:385.10999 2:383.45001 3:386.04001 4:375.56 
