svm_type epsilon_svr
kernel_type rbf
gamma 0.25
nr_class 2
total_sv 5
rho -41.6247
SV
1 1:43.11 2:42.36 3:42.85 4:42.03 
-1 1:42.36 2:42.85 3:42.03 4:41.98 
-0.3587803707920634 1:42.85 2:42.03 3:41.98 4:41.02 
0.3549115039846144 1:42.03 2:41.98 3:41.02 4:41.38 
0.003868866807448946 1:41.98 2:41.02 3:41.38 4:41.56 
