svm_type epsilon_svr
kernel_type rbf
gamma 0.25
nr_class 2
total_sv 4
rho -582.16
SV
-1 1:568.77002 2:567.88 3:562.72998 4:574.78003 
-1 1:567.88 2:562.72998 3:574.78003 4:574.65002 
1 1:574.78003 2:574.65002 3:573.47998 4:582.15997 
1 1:574.65002 2:573.47998 3:582.15997 4:586.85999 
