svm_type epsilon_svr
kernel_type rbf
gamma 0.25
nr_class 2
total_sv 3
rho -32.868
SV
0.7365759894746462 1:32.82 2:32.97 3:33.14 4:33.11 
-1 1:32.97 2:33.14 3:33.11 4:32.96 
0.2634240105253537 1:33.14 2:33.11 3:32.96 4:32.59 
