svm_type epsilon_svr
kernel_type rbf
gamma 0.25
nr_class 2
total_sv 5
rho -47.4138
SV
-1 1:46.13 2:45.91 3:46.49 4:46.62 
-0.1455169923860663 1:45.91 2:46.49 3:46.62 4:46.05 
0.3688338482650402 1:46.49 2:46.62 3:46.05 4:46.95 
0.2437028508486027 1:46.62 2:46.05 3:46.95 4:47.44 
0.5329802932724234 1:46.05 2:46.95 3:47.44 4:47.57 
