svm_type epsilon_svr
kernel_type rbf
gamma 0.25
nr_class 2
total_sv 5
rho -75.829
SV
-1 1:75.63 2:75.61 3:74.47 4:74.44 
1 1:75.61 2:74.47 3:74.44 4:75.19 
0.1038236049202411 1:74.47 2:74.44 3:75.19 4:76.51 
-0.1014147076566625 1:74.44 2:75.19 3:76.51 4:76.23 
-0.002408897263578625 1:75.19 2:76.51 3:76.23 4:75.74 
