svm_type epsilon_svr
kernel_type rbf
gamma 0.25
nr_class 2
total_sv 5
rho -94.6816
SV
-0.8339761319565356 1:90.9 2:91.98 3:92.93 4:93.52 
-0.8108390713151177 1:91.98 2:92.93 3:93.52 4:93.48 
1 1:92.93 2:93.52 3:93.48 4:94.03 
0.1811473856212335 1:93.52 2:93.48 3:94.03 4:95.97 
0.4636678176504197 1:93.48 2:94.03 3:95.97 4:95.35 
