svm_type epsilon_svr
kernel_type rbf
gamma 0.25
nr_class 2
total_sv 4
rho -39.9838
SV
-0.6017215786597411 1:39.06 2:39.42 3:39.64 4:39.54 
1 1:39.42 2:39.64 3:39.54 4:39.97 
0.6017215786597411 1:39.64 2:39.54 3:39.97 4:40.42 
-1 1:39.54 2:39.97 3:40.42 4:40.24 
