svm_type epsilon_svr
kernel_type rbf
gamma 0.25
nr_class 2
total_sv 5
rho -86.0966
SV
0.3413341428764126 1:88.3 2:88.51 3:88.63 4:87.53 
1 1:88.51 2:88.63 3:87.53 4:86.82 
-1 1:88.63 2:87.53 3:86.82 4:87.72 
-0.3790475277302727 1:87.53 2:86.82 3:87.72 4:84.98 
0.03771338485386006 1:86.82 2:87.72 3:84.98 4:85.71 
