svm_type epsilon_svr
kernel_type rbf
gamma 0.25
nr_class 2
total_sv 5
rho -40.0431
SV
1 1:40.21 2:40.9 3:40.37 4:40.84 
-0.9457937813977151 1:40.9 2:40.37 3:40.84 4:40.31 
-1 1:40.37 2:40.84 3:40.31 4:39.59 
1 1:40.84 2:40.31 3:39.59 4:39.59 
-0.05420621860228497 1:40.31 2:39.59 3:39.59 4:42.54 
