svm_type epsilon_svr
kernel_type rbf
gamma 0.25
nr_class 2
total_sv 5
rho -75.1027
SV
-0.5776361141510474 1:74.11 2:74.99 3:73.88 4:75.76 
0.5120527284040569 1:74.99 2:73.88 3:75.76 4:74.83 
1 1:73.88 2:75.76 3:74.83 4:75.26 
0.06558338574699063 1:75.76 2:74.83 3:75.26 4:75.6 
-1 1:74.83 2:75.26 3:75.6 4:75 
