svm_type epsilon_svr
kernel_type rbf
gamma 0.25
nr_class 2
total_sv 3
rho -20.5618
SV
0.1160632559007246 1:20.18 2:19.7 3:19.62 4:20.5 
-0.132243447672988 1:19.62 2:20.5 3:20.71 4:20.63 
0.01618019177226341 1:20.5 2:20.71 3:20.63 4:20.41 
