svm_type epsilon_svr
kernel_type rbf
gamma 0.25
nr_class 2
total_sv 3
rho -75.9334
SV
1 1:77.13 2:77.32 3:77.21 4:77.01 
-0.005959191295158696 1:77.32 2:77.21 3:77.01 4:76.62 
-0.9940408087048413 1:77.01 2:76.62 3:76.16 4:75.73 
