svm_type epsilon_svr
kernel_type rbf
gamma 0.25
nr_class 2
total_sv 3
rho -75.9329
SV
0.7088023829601441 1:79.14 2:78.74 3:76.83 4:77.01 
-0.3068204690042335 1:78.74 2:76.83 3:77.01 4:76.61 
-0.4019819139559106 1:77.01 2:76.61 3:75.69 4:75.66 
