svm_type epsilon_svr
kernel_type rbf
gamma 0.25
nr_class 2
total_sv 5
rho -307.6
SV
1 1:326 2:326.31 3:316.5 4:316.92999 
-0.8599900000001242 1:326.31 2:316.5 3:316.92999 4:312.63 
1 1:316.5 2:316.92999 3:312.63 4:306.64001 
-1 1:316.92999 2:312.63 3:306.64001 4:312.5 
-0.1400099999998758 1:312.63 2:306.64001 3:312.5 4:305.84 
