svm_type epsilon_svr
kernel_type rbf
gamma 0.25
nr_class 2
total_sv 4
rho -539.216
SV
-1 1:544.40002 2:536.51001 3:535.03003 4:536.98999 
-1 1:536.51001 2:535.03003 3:536.98999 4:534.83002 
1 1:536.98999 2:534.83002 3:537.5 4:539.27002 
1 1:534.83002 2:537.5 3:539.27002 4:541.08002 
