svm_type epsilon_svr
kernel_type rbf
gamma 0.25
nr_class 2
total_sv 3
rho -76.8602
SV
0.3530881452049903 1:75.75 2:76.07 3:76.65 4:77.21 
-0.8014354176808002 1:76.65 2:77.21 3:77.06 4:76.82 
0.44834727247581 1:77.21 2:77.06 3:76.82 4:76.55 
