svm_type epsilon_svr
kernel_type rbf
gamma 0.25
nr_class 2
total_sv 3
rho -32.1768
SV
-1 1:31.62 2:31.48 3:31.57 4:31.59 
0.7605905475163736 1:31.57 2:31.59 3:31.33 4:32.04 
0.2394094524836264 1:31.33 2:32.04 3:32.28 4:32.29 
