svm_type epsilon_svr
kernel_type rbf
gamma 0.25
nr_class 2
total_sv 4
rho -553.37
SV
-1 1:560.54999 2:558.84003 3:551.34998 4:551.76001 
-1 1:558.84003 2:551.34998 3:551.76001 4:544.28003 
1 1:551.76001 2:544.28003 3:543.01001 4:553.37 
1 1:544.28003 2:543.01001 3:553.37 4:554.90002 
