svm_type epsilon_svr
kernel_type rbf
gamma 0.25
nr_class 2
total_sv 4
rho -50.8089
SV
-1 1:49.21 2:49.94 3:50.24 4:49.82 
-0.3484973184407315 1:49.94 2:50.24 3:49.82 4:48.85 
0.4765396669796122 1:50.24 2:49.82 3:48.85 4:50.12 
0.8719576514611194 1:48.85 2:50.12 3:50.91 4:50.88 
