svm_type epsilon_svr
kernel_type rbf
gamma 0.25
nr_class 2
total_sv 5
rho -64.8877
SV
-1 1:62.87 2:63.34 3:63.19 4:62.5 
1 1:63.34 2:63.19 3:62.5 4:62.88 
0.8023841983072276 1:63.19 2:62.5 3:62.88 4:65.77 
-0.5616451004834223 1:62.5 2:62.88 3:65.77 4:65.78 
-0.2407390978238053 1:62.88 2:65.77 3:65.78 4:64.29 
