svm_type epsilon_svr
kernel_type rbf
gamma 0.25
nr_class 2
total_sv 5
rho -374.455
SV
-1 1:366.37 2:374.23999 3:370.57999 4:373.35001 
0.4335056150818504 1:374.23999 2:370.57999 3:373.35001 4:371.92001 
-1 1:370.57999 2:373.35001 3:371.92001 4:375.14001 
1 1:373.35001 2:371.92001 3:375.14001 4:373.23999 
0.5664943849181496 1:371.92001 2:375.14001 3:373.23999 4:378.48999 
