svm_type epsilon_svr
kernel_type rbf
gamma 0.25
nr_class 2
total_sv 5
rho -50.3126
SV
0.3165725126526795 1:51.15 2:50.02 3:50.65 4:50.86 
1 1:50.02 2:50.65 3:50.86 4:50.53 
0.2192654047619103 1:50.65 2:50.86 3:50.53 4:51.22 
-0.5358379174145897 1:50.86 2:50.53 3:51.22 4:50.51 
-1 1:50.53 2:51.22 3:50.51 4:50.17 
