svm_type epsilon_svr
kernel_type rbf
gamma 0.25
nr_class 2
total_sv 4
rho -77.0844
SV
1 1:77.35 2:77.3 3:78.24 4:77.86 
1 1:78.24 2:77.86 3:78.29 4:77.56 
-1 1:77.86 2:78.29 3:77.56 4:77.98 
-1 1:78.29 2:77.56 3:77.98 4:75.2 
