svm_type epsilon_svr
kernel_type rbf
gamma 0.25
nr_class 2
total_sv 5
rho -332.06
SV
-1 1:327.23999 2:324.16 3:327.44 4:325.69 
-1 1:324.16 2:327.44 3:325.69 4:324.57001 
0.31000522811904 1:327.44 2:325.69 3:324.57001 4:324.78 
0.68999477188096 1:325.69 2:324.57001 3:324.78 4:332.39001 
1 1:324.57001 2:324.78 3:332.39001 4:332.85001 
