svm_type epsilon_svr
kernel_type rbf
gamma 0.25
nr_class 2
total_sv 4
rho -72.8999
SV
-1 1:72.65 2:72.36 3:73.51 4:72.69 
0.4422189673541956 1:72.36 2:73.51 3:72.69 4:72.47 
1 1:72.69 2:72.47 3:73.17 4:73.06 
-0.4422189673541956 1:72.47 2:73.17 3:73.06 4:73.44 
