svm_type epsilon_svr
kernel_type rbf
gamma 0.25
nr_class 2
total_sv 5
rho -46.7271
SV
0.9504432758782878 1:47.7 2:47.59 3:46.9 4:47.17 
0.04955672412171223 1:47.59 2:46.9 3:47.17 4:46.95 
-1 1:46.9 2:47.17 3:46.95 4:46.67 
-1 1:47.17 2:46.95 3:46.67 4:45.16 
1 1:46.95 2:46.67 3:45.16 4:45.74 
