svm_type epsilon_svr
kernel_type rbf
gamma 0.25
nr_class 2
total_sv 5
rho -38.1051
SV
-0.6647438090605952 1:39.37 2:39.65 3:39.85 4:36.93 
-0.3672675166977803 1:39.65 2:39.85 3:36.93 4:37.31 
-0.2425637545437635 1:39.85 2:36.93 3:37.31 4:37.57 
0.2745750803021391 1:36.93 2:37.31 3:37.57 4:37.83 
1 1:37.31 2:37.57 3:37.83 4:39.07 
