svm_type epsilon_svr
kernel_type rbf
gamma 0.25
nr_class 2
total_sv 5
rho -43.7962
SV
-0.2512423016181544 1:45.85 2:44.03 3:43.65 4:43.73 
-1 1:44.03 2:43.65 3:43.73 4:43.22 
0.002573722935450417 1:43.65 2:43.73 3:43.22 4:42.74 
0.248668578682704 1:43.73 2:43.22 3:42.74 4:43.63 
1 1:43.22 2:42.74 3:43.63 4:44.08 
