svm_type epsilon_svr
kernel_type rbf
gamma 0.25
nr_class 2
total_sv 5
rho -382.883
SV
-1 1:370.26001 2:372.25 3:377.04001 4:374.41 
0.5564201785137913 1:372.25 2:377.04001 3:374.41 4:381.20001 
-0.1335996700788245 1:377.04001 2:374.41 3:381.20001 4:383.54001 
-0.4228205084349669 1:374.41 2:381.20001 3:383.54001 4:382.64999 
1 1:381.20001 2:383.54001 3:382.64999 4:382.35999 
