svm_type epsilon_svr
kernel_type rbf
gamma 0.25
nr_class 2
total_sv 5
rho -36.7582
SV
-1 1:37.61 2:37.6 3:36.42 4:35.86 
0.5489062246669487 1:37.6 2:36.42 3:35.86 4:35.87 
-1 1:36.42 2:35.86 3:35.87 4:36.56 
1 1:35.86 2:35.87 3:36.56 4:36.38 
0.4510937753330513 1:35.87 2:36.56 3:36.38 4:38.76 
