svm_type epsilon_svr
kernel_type rbf
gamma 0.25
nr_class 2
total_sv 4
rho -101.331
SV
-1 1:101.63 2:100.86 3:101.58 4:101.79 
1 1:101.58 2:101.79 3:100.96 4:101.06 
1 1:101.79 2:100.96 3:101.06 4:102.64 
-1 1:100.96 2:101.06 3:102.64 4:101.75 
