svm_type epsilon_svr
kernel_type rbf
gamma 0.25
nr_class 2
total_sv 5
rho -383.242
SV
0.1977231651173449 1:372.25 2:377.04001 3:374.41 4:381.20001 
-0.4922965695593933 1:377.04001 2:374.41 3:381.20001 4:383.54001 
-0.7822986920548781 1:374.41 2:381.20001 3:383.54001 4:382.64999 
1 1:381.20001 2:383.54001 3:382.64999 4:382.35999 
0.07687209649692651 1:383.54001 2:382.64999 3:382.35999 4:385.10999 
