svm_type epsilon_svr
kernel_type rbf
gamma 0.25
nr_class 2
total_sv 4
rho -33.1466
SV
-1 1:32.8 2:32.62 3:32.43 4:32.49 
1 1:32.62 2:32.43 3:32.49 4:32.61 
-0.1099447844409361 1:32.43 2:32.49 3:32.61 4:33.25 
0.1099447844409361 1:32.61 2:33.25 3:33.09 4:33.29 
