svm_type epsilon_svr
kernel_type rbf
gamma 0.25
nr_class 2
total_sv 4
rho -108.954
SV
0.5545033219697502 1:106.74 2:107.34 3:106.98 4:108 
-0.4666560334824653 1:107.34 2:106.98 3:108 4:109.4 
-0.1687284477449821 1:108 2:109.4 3:108.6 4:108.86 
0.08088115925769718 1:109.4 2:108.6 3:108.86 4:108.7 
