svm_type epsilon_svr
kernel_type rbf
gamma 0.25
nr_class 2
total_sv 4
rho -27.2289
SV
1 1:28.32 2:28.11 3:27.83 4:27.89 
0.04808326889794106 1:28.11 2:27.83 3:27.89 4:28.06 
-1 1:27.89 2:28.06 3:27.51 4:27.27 
-0.04808326889794106 1:28.06 2:27.51 3:27.27 4:26.57 
