svm_type epsilon_svr
kernel_type rbf
gamma 0.25
nr_class 2
total_sv 5
rho -37.9595
SV
-0.5896446233554484 1:37.43 2:36.87 3:37.05 4:38.05 
-0.3992019627244942 1:36.87 2:37.05 3:38.05 4:37.65 
1 1:37.05 2:38.05 3:37.65 4:37.75 
0.2382110893396759 1:38.05 2:37.65 3:37.75 4:38.71 
-0.2493645032597331 1:37.65 2:37.75 3:38.71 4:38.16 
