svm_type epsilon_svr
kernel_type rbf
gamma 0.25
nr_class 2
total_sv 4
rho -49.2372
SV
-0.7991552704013556 1:47.86 2:48.7 3:48.68 4:48.89 
-1 1:48.7 2:48.68 3:48.89 4:48.87 
1 1:48.68 2:48.89 3:48.87 4:48.78 
0.7991552704013556 1:48.89 2:48.87 3:48.78 4:49.61 
