svm_type epsilon_svr
kernel_type rbf
gamma 0.25
nr_class 2
total_sv 4
rho -76.7721
SV
-1 1:76.72 2:76.45 3:76.28 4:74.05 
-0.2599219558846514 1:76.45 2:76.28 3:74.05 4:75.18 
0.4740546998901418 1:74.05 2:75.18 3:76.24 4:76.74 
0.7858672559945097 1:75.18 2:76.24 3:76.74 4:77.65 
