svm_type epsilon_svr
kernel_type rbf
gamma 0.25
nr_class 2
total_sv 4
rho -43.3144
SV
-1 1:42.45 2:42.41 3:42.36 4:42.6 
-0.0206335569132533 1:42.41 2:42.36 3:42.6 4:42.38 
1 1:42.36 2:42.6 3:42.38 4:43.09 
0.0206335569132533 1:42.6 2:42.38 3:43.09 4:43.87 
