svm_type epsilon_svr
kernel_type rbf
gamma 0.25
nr_class 2
total_sv 4
rho -33.1162
SV
0.1301763042505416 1:33.03 2:33.14 3:33.31 4:33.32 
1 1:33.14 2:33.31 3:33.32 4:33.27 
-0.1301763042505416 1:33.31 2:33.32 3:33.27 4:33.36 
-1 1:33.27 2:33.36 3:33.04 4:33.05 
