svm_type epsilon_svr
kernel_type rbf
gamma 0.25
nr_class 2
total_sv 4
rho -76.7702
SV
-1 1:75.39 2:75.61 3:75.59 4:75.53 
0.8551596144737635 1:75.61 2:75.59 3:75.53 4:75.98 
-0.4993372320714329 1:75.53 2:75.98 3:76.77 4:76.76 
0.6441776175976693 1:75.98 2:76.77 3:76.76 4:76.71 
