svm_type epsilon_svr
kernel_type rbf
gamma 0.25
nr_class 2
total_sv 4
rho -76.6878
SV
1 1:77.19 2:76.15 3:76.15 4:78.18 
-0.03602075700861037 1:76.15 2:78.18 3:77.74 4:76.72 
0.03602075700861037 1:78.18 2:77.74 3:76.72 4:76.45 
-1 1:77.74 2:76.72 3:76.45 4:76.28 
