svm_type epsilon_svr
kernel_type rbf
gamma 0.25
nr_class 2
total_sv 5
rho -85.1309
SV
0.5280053325633726 1:85.91 2:87.29 3:86.34 4:85.89 
0.3997564860109044 1:87.29 2:86.34 3:85.89 4:85.81 
1 1:86.34 2:85.89 3:85.81 4:85.96 
-1 1:85.89 2:85.81 3:85.96 4:86.29 
-0.9277618185742771 1:85.81 2:85.96 3:86.29 4:83.52 
