svm_type epsilon_svr
kernel_type rbf
gamma 0.25
nr_class 2
total_sv 5
rho -318.535
SV
-0.9749717252129472 1:321.92999 2:323.20999 3:321.82001 4:322.44 
-0.02502827478705283 1:323.20999 2:321.82001 3:322.44 4:317.45999 
1 1:321.82001 2:322.44 3:317.45999 4:318.41 
1 1:322.44 2:317.45999 3:318.41 4:322.73999 
-1 1:317.45999 2:318.41 3:322.73999 4:322.20001 
