svm_type epsilon_svr
kernel_type rbf
gamma 0.25
nr_class 2
total_sv 5
rho -104.966
SV
-1 1:96.26 2:97.67 3:99.76 4:102.47 
-0.008035881078498461 1:97.67 2:99.76 3:102.47 4:102.99 
0.1584149064284212 1:99.76 2:102.47 3:102.99 4:104.83 
-0.1503790253499227 1:102.47 2:102.99 3:104.83 4:105.22 
1 1:102.99 2:104.83 3:105.22 4:105.11 
