svm_type epsilon_svr
kernel_type rbf
gamma 0.25
nr_class 2
total_sv 5
rho -48.1891
SV
1 1:48.78 2:49.61 3:49.58 4:49.46 
-1 1:49.61 2:49.58 3:49.46 4:48.74 
1 1:49.58 2:49.46 3:48.74 4:48.22 
-0.1099837905891409 1:49.46 2:48.74 3:48.22 4:48.7 
-0.8900162094108591 1:48.74 2:48.22 3:48.7 4:47.98 
