svm_type epsilon_svr
kernel_type rbf
gamma 0.25
nr_class 2
total_sv 4
rho -20.8565
SV
-1 1:20.71 2:20.63 3:20.41 4:20.64 
1 1:20.63 2:20.41 3:20.64 4:20.26 
-1 1:20.64 2:20.26 3:21.26 4:20.81 
1 1:20.26 2:21.26 3:20.81 4:20.48 
