svm_type epsilon_svr
kernel_type rbf
gamma 0.25
nr_class 2
total_sv 3
rho -32.9205
SV
-0.2096048213542755 1:32.59 2:32.94 3:32.86 4:32.81 
1 1:32.94 2:32.86 3:32.81 4:32.82 
-0.7903951786457245 1:32.86 2:32.81 3:32.82 4:33.08 
