svm_type epsilon_svr
kernel_type rbf
gamma 0.25
nr_class 2
total_sv 5
rho -550.42
SV
-1 1:532.71002 2:543.97998 3:539.78003 4:540.77002 
-0.9899899807155871 1:543.97998 2:539.78003 3:540.77002 4:548.90002 
-0.01001001928441297 1:539.78003 2:540.77002 3:548.90002 4:549.33002 
1 1:540.77002 2:548.90002 3:549.33002 4:550.31 
1 1:548.90002 2:549.33002 3:550.31 4:559.08002 
