svm_type epsilon_svr
kernel_type rbf
gamma 0.25
nr_class 2
total_sv 4
rho -539.975
SV
-1 1:548 2:542.56 3:535.53003 4:536.76501 
1 1:542.56 2:535.53003 3:536.76501 4:537.02002 
0.7050425967383651 1:535.53003 2:536.76501 3:537.02002 4:541.60999 
-0.7050425967383651 1:537.02002 2:541.60999 3:540.78003 4:540.01001 
