svm_type epsilon_svr
kernel_type rbf
gamma 0.25
nr_class 2
total_sv 5
rho -35.8602
SV
0.5520734246021783 1:33.99 2:35.83 3:35.95 4:36.51 
1 1:35.83 2:35.95 3:36.51 4:36.87 
0.4479265753978217 1:35.95 2:36.51 3:36.87 4:36.91 
-1 1:36.51 2:36.87 3:36.91 4:36.49 
-1 1:36.87 2:36.91 3:36.49 4:34.07 
