svm_type epsilon_svr
kernel_type rbf
gamma 0.25
nr_class 2
total_sv 5
rho -62.8711
SV
-1 1:58.02 2:59.21 3:58.56 4:60.49 
-1 1:59.21 2:58.56 3:60.49 4:60.52 
0.9688362163302594 1:58.56 2:60.49 3:60.52 4:61.35 
0.2496542067173203 1:60.49 2:60.52 3:61.35 4:63.48 
0.7815095769524204 1:60.52 2:61.35 3:63.48 4:63.51 
