svm_type epsilon_svr
kernel_type rbf
gamma 0.25
nr_class 2
total_sv 5
rho -574.27
SV
-1 1:566.37402 2:563.35999 3:568.77002 4:567.88 
0.4097466019881608 1:563.35999 2:568.77002 3:567.88 4:562.72998 
0.2797365278198072 1:568.77002 2:567.88 3:562.72998 4:574.78003 
-0.689483129807968 1:567.88 2:562.72998 3:574.78003 4:574.65002 
1 1:562.72998 2:574.78003 3:574.65002 4:573.47998 
