svm_type epsilon_svr
kernel_type rbf
gamma 0.25
nr_class 2
total_sv 4
rho -37.6878
SV
-1 1:37.43 2:37.29 3:37.75 4:37.61 
0.1767184981895267 1:37.29 2:37.75 3:37.61 4:37.46 
-0.1767184981895267 1:37.75 2:37.61 3:37.46 4:37.81 
1 1:37.61 2:37.46 3:37.81 4:37.6 
