svm_type epsilon_svr
kernel_type rbf
gamma 0.25
nr_class 2
total_sv 3
rho -44.6264
SV
0.4872864238231466 1:43.51 2:43.79 3:44.67 4:44.98 
-0.7719524286412801 1:44.98 2:45.04 3:44.72 4:44.42 
0.2846660048181336 1:45.04 2:44.72 3:44.42 4:44.2 
