svm_type epsilon_svr
kernel_type rbf
gamma 0.25
nr_class 2
total_sv 4
rho -20.8941
SV
-0.5522448389656431 1:19.72 2:19.72 3:20.39 4:21.14 
-0.7952879932634379 1:20.39 2:21.14 3:20.58 4:20.78 
0.3819743567781489 1:21.14 2:20.58 3:20.78 4:20.86 
0.965558475450932 1:20.58 2:20.78 3:20.86 4:21.32 
