svm_type epsilon_svr
kernel_type rbf
gamma 0.25
nr_class 2
total_sv 4
rho -75.4324
SV
-0.2539863925002376 1:74.01 2:75.63 3:77.62 4:77.7 
-0.4773183884946408 1:77.62 2:77.7 3:75.1 4:75.46 
-0.1541531358402533 1:77.7 2:75.1 3:75.46 4:74.88 
0.8854579168351318 1:75.1 2:75.46 3:74.88 4:75.24 
