svm_type epsilon_svr
kernel_type rbf
gamma 0.25
nr_class 2
total_sv 3
rho -75.9501
SV
1 1:77.83 2:77.5 3:75.78 4:76.24 
-0.0786664846863184 1:77.5 2:75.78 3:76.24 4:78 
-0.9213335153136816 1:75.78 2:76.24 3:78 4:75.91 
