svm_type epsilon_svr
kernel_type rbf
gamma 0.25
nr_class 2
total_sv 5
rho -47.9955
SV
-0.2619439984811731 1:46.67 2:45.16 3:45.74 4:47.52 
-0.02002460358041788 1:45.16 2:45.74 3:47.52 4:47.66 
0.4215681089591586 1:45.74 2:47.52 3:47.66 4:47.98 
0.05926593294823972 1:47.52 2:47.66 3:47.98 4:48.45 
-0.1988654398458075 1:47.66 2:47.98 3:48.45 4:48.14 
