svm_type epsilon_svr
kernel_type rbf
gamma 0.25
nr_class 2
total_sv 4
rho -22.4717
SV
-1 1:21.18 2:20.7 3:20.93 4:20.67 
0.08237199226992491 1:20.7 2:20.93 3:20.67 4:20.82 
-0.08237199226992491 1:20.67 2:20.82 3:21.91 4:22.17 
1 1:20.82 2:21.91 3:22.17 4:22.6 
