svm_type epsilon_svr
kernel_type rbf
gamma 0.25
nr_class 2
total_sv 5
rho -565.385
SV
-1 1:544.28003 2:543.01001 3:553.37 4:554.90002 
-0.3349949984506679 1:543.01001 2:553.37 3:554.90002 4:556.35999 
-0.6650050015493321 1:553.37 2:554.90002 3:556.35999 4:564.95001 
1 1:554.90002 2:556.35999 3:564.95001 4:564.62 
1 1:556.35999 2:564.95001 3:564.62 4:578.65002 
