svm_type epsilon_svr
kernel_type rbf
gamma 0.25
nr_class 2
total_sv 5
rho -41.0226
SV
1 1:40.75 2:40.32 3:40.5 4:41.03 
-0.5616721356214615 1:40.32 2:40.5 3:41.03 4:41.52 
0.07890249132241699 1:40.5 2:41.03 3:41.52 4:40.93 
0.4827696442990443 1:41.03 2:41.52 3:40.93 4:41.08 
-1 1:41.52 2:40.93 3:41.08 4:41.1 
