svm_type epsilon_svr
kernel_type rbf
gamma 0.25
nr_class 2
total_sv 5
rho -79.4059
SV
0.4442436904182979 1:75.74 2:75.6 3:76.71 4:79.42 
-0.4470981202754051 1:75.6 2:76.71 3:79.42 4:79.9 
-0.8393434554384991 1:76.71 2:79.42 3:79.9 4:78.84 
-0.1578021147043936 1:79.42 2:79.9 3:78.84 4:78.45 
1 1:79.9 2:78.84 3:78.45 4:79.56 
