svm_type epsilon_svr
kernel_type rbf
gamma 0.25
nr_class 2
total_sv 5
rho -115.481
SV
-1 1:109.7 2:111.25 3:112.82 4:114.18 
0.2239446220545454 1:111.25 2:112.82 3:114.18 4:113.99 
-1 1:112.82 2:114.18 3:113.99 4:115.47 
0.7760553779454546 1:114.18 2:113.99 3:115.47 4:114.67 
1 1:113.99 2:115.47 3:114.67 4:116.31 
