svm_type epsilon_svr
kernel_type rbf
gamma 0.25
nr_class 2
total_sv 4
rho -296.93
SV
-1 1:310.29999 2:310.35001 3:308.51999 4:302.19 
1 1:310.35001 2:308.51999 3:302.19 4:295.29001 
1 1:308.51999 2:302.19 3:295.29001 4:298.42001 
-1 1:295.29001 2:298.42001 3:300.45999 4:296.92999 
