svm_type epsilon_svr
kernel_type rbf
gamma 0.25
nr_class 2
total_sv 5
rho -540.2
SV
-1 1:536.51001 2:535.03003 3:536.98999 4:534.83002 
-0.8253103695637923 1:535.03003 2:536.98999 3:534.83002 4:537.5 
0.7937396512313937 1:536.98999 2:534.83002 3:537.5 4:539.27002 
0.03157071833239869 1:534.83002 2:537.5 3:539.27002 4:541.08002 
1 1:537.5 2:539.27002 3:541.08002 4:540.37 
