svm_type epsilon_svr
kernel_type rbf
gamma 0.25
nr_class 2
total_sv 3
rho -32.1189
SV
0.3375409374756143 1:32.67 2:32.79 3:32.83 4:32.59 
0.3441601661354242 1:32.59 2:32.33 3:32.19 4:32.07 
-0.6817011036110384 1:32.33 2:32.19 3:32.07 4:32.17 
