svm_type epsilon_svr
kernel_type rbf
gamma 0.25
nr_class 2
total_sv 4
rho -41.4898
SV
-1 1:40.97 2:40.96 3:40.66 4:40.72 
0.7204960739906147 1:40.96 2:40.66 3:40.72 4:40.29 
0.261145597111872 1:40.66 2:40.72 3:40.29 4:41.55 
0.01835832889751331 1:40.29 2:41.55 3:41.53 4:41.42 
