svm_type epsilon_svr
kernel_type rbf
gamma 0.25
nr_class 2
total_sv 5
rho -40.6941
SV
0.5132808772648747 1:40.12 2:40.19 3:40.01 4:40.34 
0.01360050189261116 1:40.19 2:40.01 3:40.34 4:40.94 
-0.5268813791574859 1:40.01 2:40.34 3:40.94 4:40.79 
-1 1:40.34 2:40.94 3:40.79 4:40.29 
1 1:40.94 2:40.79 3:40.29 4:40.32 
