svm_type epsilon_svr
kernel_type rbf
gamma 0.25
nr_class 2
total_sv 4
rho -42.9689
SV
-0.7265696811223634 1:43.97 2:43.89 3:43.58 4:43.16 
1 1:43.89 2:43.58 3:43.16 4:42.86 
-1 1:43.16 2:42.86 3:43.37 4:43.08 
0.7265696811223634 1:42.86 2:43.37 3:43.08 4:42.74 
