svm_type epsilon_svr
kernel_type rbf
gamma 0.25
nr_class 2
total_sv 4
rho -46.288
SV
-1 1:44.88 2:45.43 3:45.09 4:44.96 
-0.2030457230412898 1:45.43 2:45.09 3:44.96 4:45.26 
0.8211166343051759 1:45.09 2:44.96 3:45.26 4:45.91 
0.3819290887361138 1:45.26 2:45.91 3:46.47 4:46.76 
