svm_type epsilon_svr
kernel_type rbf
gamma 0.25
nr_class 2
total_sv 4
rho -30.9868
SV
1 1:32.19 2:32.07 3:32.17 4:31.92 
-0.4122989520031309 1:32.17 2:31.92 3:32.22 4:31.44 
-0.04308201213807977 1:31.92 2:32.22 3:31.44 4:31.05 
-0.5446190358587893 1:32.22 2:31.44 3:31.05 4:30.79 
