svm_type epsilon_svr
kernel_type rbf
gamma 0.25
nr_class 2
total_sv 5
rho -35.8737
SV
-0.5286604401163694 1:34.71 2:36.17 3:36.12 4:35.9 
1 1:36.17 2:36.12 3:35.9 4:35.68 
-0.4713395598836307 1:36.12 2:35.9 3:35.68 4:36.6 
-1 1:35.9 2:35.68 3:36.6 4:35.81 
1 1:35.68 2:36.6 3:35.81 4:35.62 
