svm_type epsilon_svr
kernel_type rbf
gamma 0.25
nr_class 2
total_sv 3
rho -76.4568
SV
-0.06531851977301877 1:75.14 2:76.02 3:76.03 4:76.25 
0.8149166115024207 1:76.02 2:76.03 3:76.25 4:76.38 
-0.7495980917294019 1:76.03 2:76.25 3:76.38 4:76.59 
