svm_type epsilon_svr
kernel_type rbf
gamma 0.25
nr_class 2
total_sv 4
rho -316.98
SV
1 1:322.44 2:317.45999 3:318.41 4:322.73999 
1 1:318.41 2:322.73999 3:322.20001 4:316.98001 
-1 1:322.73999 2:322.20001 3:316.98001 4:322.70001 
-1 1:322.20001 2:316.98001 3:322.70001 4:315.37 
