svm_type epsilon_svr
kernel_type rbf
gamma 0.25
nr_class 2
total_sv 5
rho -35.5119
SV
-0.5717746744814121 1:35.73 2:35.2 3:34.95 4:35.06 
1 1:35.2 2:34.95 3:35.06 4:35.55 
-0.428225325518588 1:34.95 2:35.06 3:35.55 4:35.73 
-1 1:35.06 2:35.55 3:35.73 4:35.37 
1 1:35.55 2:35.73 3:35.37 4:35.28 
