svm_type epsilon_svr
kernel_type rbf
gamma 0.25
nr_class 2
total_sv 4
rho -47.5972
SV
0.1774846852070397 1:48.55 2:49.41 3:48.08 4:48.15 
0.155128094468994 1:49.41 2:48.08 3:48.15 4:47.71 
-1 1:48.15 2:47.71 3:47.57 4:47.35 
0.6673872203239662 1:47.71 2:47.57 3:47.35 4:46.75 
