svm_type epsilon_svr
kernel_type rbf
gamma 0.25
nr_class 2
total_sv 5
rho -325.35
SV
1 1:331.32999 2:330.51999 3:331.19 4:323.89001 
-1 1:330.51999 2:331.19 3:323.89001 4:327.76001 
-0.2500004324191394 1:331.19 2:323.89001 3:327.76001 4:324 
1 1:323.89001 2:327.76001 3:324 4:325 
-0.7499995675808606 1:327.76001 2:324 3:325 4:331.32001 
