svm_type epsilon_svr
kernel_type rbf
gamma 0.25
nr_class 2
total_sv 5
rho -555.86
SV
1 1:571.34003 2:573.64001 3:573.37 4:575.33002 
1 1:573.64001 2:573.37 3:575.33002 4:567.685 
-0.7500000611232736 1:573.37 2:575.33002 3:567.685 4:568.84998 
-1 1:575.33002 2:567.685 3:568.84998 4:555.01001 
-0.2499999388767264 1:567.685 2:568.84998 3:555.01001 4:551.17999 
