svm_type epsilon_svr
kernel_type rbf
gamma 0.25
nr_class 2
total_sv 5
rho -53.0276
SV
-1 1:51.45 2:51.89 3:51.74 4:51.58 
-0.8041011706315756 1:51.89 2:51.74 3:51.58 4:50.06 
1 1:51.74 2:51.58 3:50.06 4:51.85 
0.3579854679055698 1:51.58 2:50.06 3:51.85 4:53.94 
0.4461157027260057 1:50.06 2:51.85 3:53.94 4:53.49 
