svm_type epsilon_svr
kernel_type rbf
gamma 0.25
nr_class 2
total_sv 5
rho -49.3476
SV
-1 1:45.11 2:45.98 3:46.1 4:48.17 
0.1976352597840235 1:45.98 2:46.1 3:48.17 4:48.06 
0.1349845060018028 1:46.1 2:48.17 3:48.06 4:49.43 
1 1:48.17 2:48.06 3:49.43 4:49.75 
-0.3326197657858263 1:48.06 2:49.43 3:49.75 4:51.02 
