svm_type epsilon_svr
kernel_type rbf
gamma 0.25
nr_class 2
total_sv 4
rho -113.728
SV
-1 1:108.7 2:109.01 3:108.83 4:109.7 
-0.4866688824730631 1:109.01 2:108.83 3:109.7 4:111.25 
0.4866688824730631 1:108.83 2:109.7 3:111.25 4:112.82 
1 1:111.25 2:112.82 3:114.18 4:113.99 
