svm_type epsilon_svr
kernel_type rbf
gamma 0.25
nr_class 2
total_sv 4
rho -20.9335
SV
0.128300148728183 1:21.34 2:21.36 3:21.18 4:20.7 
-1 1:21.36 2:21.18 3:20.7 4:20.93 
-0.128300148728183 1:21.18 2:20.7 3:20.93 4:20.67 
1 1:20.7 2:20.93 3:20.67 4:20.82 
