svm_type epsilon_svr
kernel_type rbf
gamma 0.25
nr_class 2
total_sv 4
rho -513.87
SV
1 1:528.77002 2:534.03003 3:530.33002 4:530.41998 
1 1:534.03003 2:530.33002 3:530.41998 4:526.40002 
-1 1:530.41998 2:526.40002 3:524.81 4:513.87 
-1 1:526.40002 2:524.81 3:513.87 4:501.95999 
