svm_type epsilon_svr
kernel_type rbf
gamma 0.25
nr_class 2
total_sv 5
rho -76.8957
SV
-0.4644050545352094 1:79.22 2:78.02 3:78.45 4:77.19 
-1 1:78.02 2:78.45 3:77.19 4:76.15 
1 1:78.45 2:77.19 3:76.15 4:76.15 
0.6967430785245382 1:77.19 2:76.15 3:76.15 4:78.18 
-0.2323380239893289 1:76.15 2:76.15 3:78.18 4:77.74 
