svm_type epsilon_svr
kernel_type rbf
gamma 0.25
nr_class 2
total_sv 4
rho -33.2081
SV
-1 1:32.98 2:32.94 3:32.93 4:32.85 
-0.209105676919289 1:32.94 2:32.93 3:32.85 4:32.63 
0.706458890250424 1:32.93 2:32.85 3:32.63 4:33.01 
0.5026467866688651 1:32.63 2:33.01 3:33.28 4:33.25 
