svm_type epsilon_svr
kernel_type rbf
gamma 0.25
nr_class 2
total_sv 4
rho -506.89
SV
-1 1:502.67999 2:496.17001 3:492.54999 4:496.17999 
-1 1:496.17001 2:492.54999 3:496.17999 4:500.87 
1 1:492.54999 2:496.17999 3:500.87 4:501.79001 
1 1:500.87 2:501.79001 3:508.07999 4:506.89999 
