svm_type epsilon_svr
kernel_type rbf
gamma 0.25
nr_class 2
total_sv 4
rho -44.6778
SV
-1 1:43.2 2:43.2 3:43.52 4:44.08 
0.5304000467034418 1:43.2 2:43.52 3:44.08 4:44.27 
1 1:44.08 2:44.27 3:44.79 4:45.11 
-0.5304000467034418 1:44.27 2:44.79 3:45.11 4:45.33 
