svm_type epsilon_svr
kernel_type rbf
gamma 0.25
nr_class 2
total_sv 5
rho -50.6656
SV
-1 1:50.12 2:50.91 3:50.88 4:51.15 
-0.1357591757596202 1:50.91 2:50.88 3:51.15 4:50.02 
0.3018711934386175 1:50.88 2:51.15 3:50.02 4:50.65 
-0.1661120176789972 1:51.15 2:50.02 3:50.65 4:50.86 
1 1:50.02 2:50.65 3:50.86 4:50.53 
