svm_type epsilon_svr
kernel_type rbf
gamma 0.25
nr_class 2
total_sv 5
rho -87.8331
SV
0.2676259759124887 1:87.38 2:86.77 3:86.69 4:86.64 
0.1571158576866995 1:86.77 2:86.69 3:86.64 4:88.3 
0.901497405060511 1:86.69 2:86.64 3:88.3 4:88.51 
-0.3436102091821316 1:86.64 2:88.3 3:88.51 4:88.63 
-0.9826290294775675 1:88.3 2:88.51 3:88.63 4:87.53 
