svm_type epsilon_svr
kernel_type rbf
gamma 0.25
nr_class 2
total_sv 4
rho -83.4829
SV
-1 1:84.76 2:84.12 3:84.23 4:83.56 
1 1:84.12 2:84.23 3:83.56 4:82.98 
1 1:83.56 2:82.98 3:83.83 4:83.81 
-1 1:82.98 2:83.83 3:83.81 4:83.94 
