svm_type epsilon_svr
kernel_type rbf
gamma 0.25
nr_class 2
total_sv 5
rho -83.3762
SV
1 1:84.57 2:83.57 3:83.8 4:83.93 
0.08456764956172776 1:83.57 2:83.8 3:83.93 4:83.96 
-1 1:83.8 2:83.93 3:83.96 4:83.37 
0.9154323504382722 1:83.93 2:83.96 3:83.37 4:82.58 
-1 1:83.96 2:83.37 3:82.58 4:83.57 
