svm_type epsilon_svr
kernel_type rbf
gamma 0.25
nr_class 2
total_sv 4
rho -39.4489
SV
-0.788655469660791 1:40.4 2:40 3:39.69 4:39.43 
0.3738959617283111 1:39.69 2:39.43 3:39.06 4:39.42 
-0.5852404920675202 1:39.43 2:39.06 3:39.42 4:39.64 
1 1:39.06 2:39.42 3:39.64 4:39.54 
