svm_type epsilon_svr
kernel_type rbf
gamma 0.25
nr_class 2
total_sv 3
rho -76.2712
SV
-0.11931337800572 1:75.2 2:73.82 3:74.1 4:75.14 
-0.1153107133437699 1:73.82 2:74.1 3:75.14 4:76.02 
0.2346240913494899 1:76.02 2:76.03 3:76.25 4:76.38 
