svm_type epsilon_svr
kernel_type rbf
gamma 0.25
nr_class 2
total_sv 3
rho -108.961
SV
-0.1464741541763051 1:108 2:109.4 3:108.6 4:108.86 
-0.8535258458236948 1:108.6 2:108.86 3:108.7 4:109.01 
1 1:108.86 2:108.7 3:109.01 4:108.83 
