svm_type epsilon_svr
kernel_type rbf
gamma 0.25
nr_class 2
total_sv 3
rho -17.629
SV
0.342432149765819 1:19.82 2:19.87 3:20.25 4:18.88 
-0.1959373815337606 1:20.25 2:18.88 3:18.04 4:17.69 
-0.1464947682320585 1:18.04 2:17.69 3:17.36 4:17.37 
