svm_type epsilon_svr
kernel_type rbf
gamma 0.25
nr_class 2
total_sv 4
rho -47.9508
SV
-0.04632956256150542 1:45.16 2:45.74 3:47.52 4:47.66 
0.3486991320321728 1:45.74 2:47.52 3:47.66 4:47.98 
0.6733063469941338 1:47.52 2:47.66 3:47.98 4:48.45 
-0.9756759164648012 1:47.98 2:48.45 3:48.14 4:47.88 
