svm_type epsilon_svr
kernel_type rbf
gamma 0.25
nr_class 2
total_sv 5
rho -46.2778
SV
0.4221959998787326 1:47.06 2:46.56 3:47.08 4:46.04 
0.8557028606935088 1:46.56 2:47.08 3:46.04 4:46.41 
0.2138363876573373 1:47.08 2:46.04 3:46.41 4:46.44 
-0.4917352482295787 1:46.04 2:46.41 3:46.44 4:46.36 
-1 1:46.41 2:46.44 3:46.36 4:45.9 
