svm_type epsilon_svr
kernel_type rbf
gamma 0.25
nr_class 2
total_sv 3
rho -41.5877
SV
-0.707747038033854 1:42.36 2:42.85 3:42.03 4:41.98 
-0.292252961966146 1:41.98 2:41.02 3:41.38 4:41.56 
1 1:41.02 2:41.38 3:41.56 4:41.7 
