svm_type epsilon_svr
kernel_type rbf
gamma 0.25
nr_class 2
total_sv 5
rho -21.1768
SV
0.1101923773744995 1:20.26 2:20.25 3:21.53 4:21.56 
0.1783808606394619 1:20.25 2:21.53 3:21.56 4:21.34 
0.7701519557930906 1:21.53 2:21.56 3:21.34 4:21.36 
-1 1:21.56 2:21.34 3:21.36 4:21.18 
-0.05872519380705193 1:21.34 2:21.36 3:21.18 4:20.7 
