svm_type epsilon_svr
kernel_type rbf
gamma 0.25
nr_class 2
total_sv 4
rho -44.1085
SV
0.7268837533888917 1:44.11 2:43.53 3:43.38 4:44.43 
0.2553660958664296 1:43.38 2:44.43 3:44.45 4:44.28 
-1 1:44.43 2:44.45 3:44.28 4:44.11 
0.01775015074467879 1:44.45 2:44.28 3:44.11 4:42.62 
