svm_type epsilon_svr
kernel_type rbf
gamma 0.25
nr_class 2
total_sv 4
rho -46.6375
SV
-0.7957859716491602 1:47.59 2:45.84 3:46.27 4:47.07 
-1 1:45.84 2:46.27 3:47.07 4:46.66 
0.7957859716491603 1:47.07 2:46.66 3:46.43 4:46.93 
1 1:46.66 2:46.43 3:46.93 4:47.2 
