svm_type epsilon_svr
kernel_type rbf
gamma 0.25
nr_class 2
total_sv 5
rho -100.842
SV
1 1:101.58 2:101.79 3:100.96 4:101.06 
0.7488237972836403 1:101.79 2:100.96 3:101.06 4:102.64 
-1 1:100.96 2:101.06 3:102.64 4:101.75 
-0.03333529282121726 1:101.06 2:102.64 3:101.75 4:97.87 
-0.7154885044624232 1:102.64 2:101.75 3:97.87 4:100.75 
