svm_type epsilon_svr
kernel_type rbf
gamma 0.25
nr_class 2
total_sv 4
rho -40.5581
SV
-0.3822496166230693 1:40.31 2:39.59 3:39.59 4:42.54 
1 1:39.59 2:39.59 3:42.54 4:40.04 
0.3822496166230693 1:39.59 2:42.54 3:40.04 4:41.85 
-1 1:40.04 2:41.85 3:40.47 4:40.61 
