svm_type epsilon_svr
kernel_type rbf
gamma 0.25
nr_class 2
total_sv 5
rho -99.8433
SV
1 1:99.62 2:99.62 3:98.75 4:100.8 
0.6418168403657269 1:99.62 2:98.75 3:100.8 4:101.02 
-0.03624272738755588 1:98.75 2:100.8 3:101.02 4:100.73 
-0.6055741129781711 1:100.8 2:101.02 3:100.73 4:99.81 
-1 1:101.02 2:100.73 3:99.81 4:98.75 
