svm_type epsilon_svr
kernel_type rbf
gamma 0.25
nr_class 2
total_sv 5
rho -124.1
SV
1 1:129.36 2:128.53999 3:126.41 4:126.6 
0.1126639661387059 1:128.53999 2:126.41 3:126.6 4:127.14 
-1 1:126.41 2:126.6 3:127.14 4:124.51 
0.3001629505106739 1:126.6 2:127.14 3:124.51 4:122.24 
-0.4128269166493797 1:127.14 2:124.51 3:122.24 4:124.45 
