svm_type epsilon_svr
kernel_type rbf
gamma 0.25
nr_class 2
total_sv 5
rho -40.3836
SV
-1 1:38.31 2:38.51 3:39.27 4:38.87 
-0.7186894778770009 1:38.51 2:39.27 3:38.87 4:39.19 
1 1:39.27 2:38.87 3:39.19 4:39.59 
0.1085099835892783 1:38.87 2:39.19 3:39.59 4:41.81 
0.6101794942877226 1:39.19 2:39.59 3:41.81 4:40.78 
