svm_type epsilon_svr
kernel_type rbf
gamma 0.25
nr_class 2
total_sv 4
rho -43.6204
SV
0.4097059217256216 1:37.93 2:38.59 3:46.3 4:45.19 
-0.05027483423036616 1:38.59 2:46.3 3:45.19 4:44.13 
0.1881869770476255 1:46.3 2:45.19 3:44.13 4:43.47 
-0.547618064542881 1:44.13 2:43.47 3:43.83 4:43.46 
