svm_type epsilon_svr
kernel_type rbf
gamma 0.25
nr_class 2
total_sv 4
rho -39.9708
SV
1 1:39.42 2:39.64 3:39.54 4:39.97 
0.5284193238825494 1:39.64 2:39.54 3:39.97 4:40.42 
-1 1:39.54 2:39.97 3:40.42 4:40.24 
-0.5284193238825494 1:40.42 2:40.24 3:39.6 4:39.83 
