svm_type epsilon_svr
kernel_type rbf
gamma 0.25
nr_class 2
total_sv 3
rho -45.1037
SV
0.5900440185644231 1:44.79 2:45.11 3:45.33 4:44.95 
0.4099559814355769 1:45.33 2:44.95 3:45.22 4:45.15 
-1 1:45.22 2:45.15 3:45.17 4:45.01 
