svm_type epsilon_svr
kernel_type rbf
gamma 0.25
nr_class 2
total_sv 5
rho -605.237
SV
-1 1:592.83002 2:593.76001 3:593.87 4:588.82001 
-0.5461966503848998 1:593.76001 2:593.87 3:588.82001 4:597.50995 
-0.4268916748074503 1:593.87 2:588.82001 3:597.50995 4:604.59003 
0.9730883251923501 1:588.82001 2:597.50995 3:604.59003 4:604.70996 
1 1:597.50995 2:604.59003 3:604.70996 4:606.30994 
