svm_type epsilon_svr
kernel_type rbf
gamma 0.25
nr_class 2
total_sv 5
rho -69.2917
SV
-1 1:66.34 2:67.9 3:67.17 4:67.66 
-0.6285543094324905 1:67.9 2:67.17 3:67.66 4:66.41 
0.7040116986129604 1:67.17 2:67.66 3:66.41 4:68.42 
-0.07545738918047 1:67.66 2:66.41 3:68.42 4:69.4 
1 1:66.41 2:68.42 3:69.4 4:69.27 
