svm_type epsilon_svr
kernel_type rbf
gamma 0.25
nr_class 2
total_sv 3
rho -36.1439
SV
-1 1:34.65 2:34.87 3:34.65 4:34.73 
0.5056144785802338 1:34.87 2:34.65 3:34.73 4:34.94 
0.4943855214197662 1:34.94 2:35.92 3:36.04 4:36.31 
