svm_type epsilon_svr
kernel_type rbf
gamma 0.25
nr_class 2
total_sv 4
rho -587.42
SV
1 1:589.46997 2:594.73999 3:595.97998 4:593.34998 
1 1:594.73999 2:595.97998 3:593.34998 4:589.02002 
-1 1:595.97998 2:593.34998 3:589.02002 4:590.59998 
-1 1:589.02002 2:590.59998 3:585.60999 4:587.41998 
