svm_type epsilon_svr
kernel_type rbf
gamma 0.25
nr_class 2
total_sv 4
rho -19.942
SV
0.4497023310927269 1:18.72 2:19.82 3:20.16 4:20.01 
-0.4497023310927269 1:19.82 2:20.16 3:20.01 4:20.18 
-1 1:20.16 2:20.01 3:20.18 4:19.7 
1 1:20.01 2:20.18 3:19.7 4:19.62 
