svm_type epsilon_svr
kernel_type rbf
gamma 0.25
nr_class 2
total_sv 5
rho -100.787
SV
-1 1:103.3 2:98.94 3:98.12 4:98.97 
-1 1:98.94 2:98.12 3:98.97 4:98.36 
0.6864375645883796 1:98.12 2:98.97 3:98.36 4:97.99 
0.56335304133345 1:98.97 2:98.36 3:97.99 4:101 
0.7502093940781704 1:98.36 2:97.99 3:101 4:101.43 
