svm_type epsilon_svr
kernel_type rbf
gamma 0.25
nr_class 2
total_sv 5
rho -31.7583
SV
-0.875298856824454 1:31.51 2:31.8 3:31.62 4:31.48 
-0.124701143175546 1:31.8 2:31.62 3:31.48 4:31.57 
-1 1:31.62 2:31.48 3:31.57 4:31.59 
1 1:31.48 2:31.57 3:31.59 4:31.33 
1 1:31.57 2:31.59 3:31.33 4:32.04 
