svm_type epsilon_svr
kernel_type rbf
gamma 0.25
nr_class 2
total_sv 5
rho -32.869
SV
-1 1:31.65 2:32.41 3:32.86 4:32.2 
-0.6695536951001695 1:32.41 2:32.86 3:32.2 4:32.03 
0.9848994266303411 1:32.86 2:32.2 3:32.03 4:32.56 
-0.3153457315301716 1:32.2 2:32.03 3:32.56 4:33.19 
1 1:32.03 2:32.56 3:33.19 4:32.95 
