svm_type epsilon_svr
kernel_type rbf
gamma 0.25
nr_class 2
total_sv 5
rho -34.5614
SV
1 1:35.83 2:35.95 3:36.51 4:36.87 
1 1:35.95 2:36.51 3:36.87 4:36.91 
-1 1:36.51 2:36.87 3:36.91 4:36.49 
-0.3749631631192982 1:36.87 2:36.91 3:36.49 4:34.07 
-0.6250368368807018 1:36.91 2:36.49 3:34.07 4:33.92 
