svm_type epsilon_svr
kernel_type rbf
gamma 0.25
nr_class 2
total_sv 4
rho -579.95
SV
-1 1:589.71997 2:581.01001 3:583.09998 4:581.34998 
-1 1:581.01001 2:583.09998 3:581.34998 4:575.62 
1 1:581.34998 2:575.62 3:573.09998 4:579.95001 
1 1:575.62 2:573.09998 3:579.95001 4:584.77002 
