svm_type epsilon_svr
kernel_type rbf
gamma 0.25
nr_class 2
total_sv 4
rho -22.6223
SV
-0.6420410592903583 1:20.7 2:20.93 3:20.67 4:20.82 
-0.06473913878516799 1:20.93 2:20.67 3:20.82 4:21.91 
-0.2932198019244737 1:20.67 2:20.82 3:21.91 4:22.17 
1 1:20.82 2:21.91 3:22.17 4:22.6 
