svm_type epsilon_svr
kernel_type rbf
gamma 0.25
nr_class 2
total_sv 5
rho -77.2903
SV
0.2287294145621875 1:75.18 2:76.24 3:76.74 4:77.65 
0.7712705854378126 1:76.24 2:76.74 3:77.65 4:77.83 
-1 1:76.74 2:77.65 3:77.83 4:77.5 
-1 1:77.65 2:77.83 3:77.5 4:75.78 
1 1:77.83 2:77.5 3:75.78 4:76.24 
