svm_type epsilon_svr
kernel_type rbf
gamma 0.25
nr_class 2
total_sv 5
rho -77.9449
SV
-1 1:76.08 2:76.43 3:77 4:77.91 
0.3644052962590152 1:76.43 2:77 3:77.91 4:76.8 
0.9254046482965268 1:77 2:77.91 3:76.8 4:78.29 
-0.9626355880060549 1:77.91 2:76.8 3:78.29 4:78.54 
0.6728256434505129 1:76.8 2:78.29 3:78.54 4:77.22 
