svm_type epsilon_svr
kernel_type rbf
gamma 0.25
nr_class 2
total_sv 4
rho -34.4048
SV
-0.2752754566946049 1:34.4 2:34.17 3:33.8 4:33.41 
-1 1:34.17 2:33.8 3:33.41 4:33.89 
0.2752754566946049 1:33.41 2:33.89 3:33.87 4:34.36 
1 1:33.89 2:33.87 3:34.36 4:34.7 
