svm_type epsilon_svr
kernel_type rbf
gamma 0.25
nr_class 2
total_sv 3
rho -18.4013
SV
-0.6039910104934559 1:17.34 2:17.42 3:17.37 4:17.36 
-0.06058778885880268 1:17.42 2:17.37 3:17.36 4:17.94 
0.6645787993522586 1:17.94 2:18.07 3:18.41 4:18.52 
