svm_type epsilon_svr
kernel_type rbf
gamma 0.25
nr_class 2
total_sv 5
rho -32.7081
SV
1 1:31.52 2:30.5 3:30.51 4:33.77 
-0.1894763341759692 1:30.5 2:30.51 3:33.77 4:34 
-0.8522477193073971 1:30.51 2:33.77 3:34 4:32.44 
-0.02995855307886025 1:33.77 2:34 3:32.44 4:31.75 
0.07168260656222668 1:34 2:32.44 3:31.75 4:32.58 
