svm_type epsilon_svr
kernel_type rbf
gamma 0.25
nr_class 2
total_sv 4
rho -39.8599
SV
-1 1:39.71 2:39.81 3:40.03 4:40.19 
1 1:39.81 2:40.03 3:40.19 4:39.76 
1 1:40.03 2:40.19 3:39.76 4:41.13 
-1 1:40.19 2:39.76 3:41.13 4:41.74 
