svm_type epsilon_svr
kernel_type rbf
gamma 0.25
nr_class 2
total_sv 4
rho -76.3134
SV
0.1335141746562263 1:76.31 2:75.6 3:77.08 4:76.12 
-0.0249055758744955 1:75.6 2:77.08 3:76.12 4:76.49 
0.1572073587735032 1:77.08 2:76.12 3:76.49 4:76.08 
-0.265815957555234 1:76.12 2:76.49 3:76.08 4:76.47 
