svm_type epsilon_svr
kernel_type rbf
gamma 0.25
nr_class 2
total_sv 4
rho -82.8301
SV
0.3526205952346737 1:82.07 2:80.69 3:81.9 4:81.9 
-0.008454542319347899 1:81.9 2:81.9 3:83.29 4:82.62 
-1 1:81.9 2:83.29 3:82.62 4:82.53 
0.6558339470846742 1:83.29 2:82.62 3:82.53 4:81.52 
