svm_type epsilon_svr
kernel_type rbf
gamma 0.25
nr_class 2
total_sv 4
rho -16.4911
SV
-1 1:16.18 2:15.99 3:16.09 4:16.22 
-1 1:15.99 2:16.09 3:16.22 4:16.26 
1 1:16.22 2:16.26 3:16.12 4:16.3 
1 1:16.26 2:16.12 3:16.3 4:16.84 
