svm_type epsilon_svr
kernel_type rbf
gamma 0.25
nr_class 2
total_sv 4
rho -19.4103
SV
1 1:18.9 2:19.11 3:19.4 4:19.71 
-0.9629350155558146 1:19.11 2:19.4 3:19.71 4:19.62 
-0.7159989096370429 1:19.71 2:19.62 3:19.27 4:19.21 
0.6789339251928576 1:19.62 2:19.27 3:19.21 4:19.2 
