svm_type epsilon_svr
kernel_type rbf
gamma 0.25
nr_class 2
total_sv 4
rho -34.905
SV
0.5650748304207838 1:33.87 2:34.36 3:34.7 4:35.02 
-0.4548478453643748 1:34.36 2:34.7 3:35.02 4:35.12 
0.2368685668491822 1:34.7 2:35.02 3:35.12 4:34.78 
-0.3470955519055912 1:35.02 2:35.12 3:34.78 4:34.9 
