svm_type epsilon_svr
kernel_type rbf
gamma 0.25
nr_class 2
total_sv 4
rho -101.477
SV
0.07785957948412438 1:98.36 2:97.99 3:101 4:101.43 
0.1111110291218202 1:97.99 2:101 3:101.43 4:101.66 
-1 1:101 2:101.43 3:101.66 4:101.63 
0.8110293913940555 1:101.43 2:101.66 3:101.63 4:100.86 
