svm_type epsilon_svr
kernel_type rbf
gamma 0.25
nr_class 2
total_sv 5
rho -77.2383
SV
-0.7095473769880192 1:77.92 2:77.48 3:74.58 4:76.08 
-0.09397476754018279 1:77.48 2:74.58 3:76.08 4:76.43 
0.803522144528202 1:74.58 2:76.08 3:76.43 4:77 
-1 1:76.08 2:76.43 3:77 4:77.91 
1 1:76.43 2:77 3:77.91 4:76.8 
