svm_type epsilon_svr
kernel_type rbf
gamma 0.25
nr_class 2
total_sv 4
rho -558.4
SV
-1 1:542.87 2:538.95001 3:531.90997 4:536.09003 
-1 1:538.95001 2:531.90997 3:536.09003 4:543.87 
1 1:536.09003 2:543.87 3:555.47998 4:558.40002 
1 1:543.87 2:555.47998 3:558.40002 4:571.34003 
