svm_type epsilon_svr
kernel_type rbf
gamma 0.25
nr_class 2
total_sv 5
rho -99.2684
SV
-0.1942238964671934 1:102.5 2:103.3 3:98.94 4:98.12 
-0.8057761035328066 1:103.3 2:98.94 3:98.12 4:98.97 
-1 1:98.94 2:98.12 3:98.97 4:98.36 
1 1:98.12 2:98.97 3:98.36 4:97.99 
1 1:98.97 2:98.36 3:97.99 4:101 
