svm_type epsilon_svr
kernel_type rbf
gamma 0.25
nr_class 2
total_sv 4
rho -78.9234
SV
-0.4960571804145644 1:79.12 2:78.62 3:78.01 4:77.96 
0.5664516424762092 1:78.62 2:78.01 3:77.96 4:78.69 
0.3109856320481771 1:77.96 2:78.69 3:79.2 4:79.15 
-0.3813800941098219 1:78.69 2:79.2 3:79.15 4:79.14 
