svm_type epsilon_svr
kernel_type rbf
gamma 0.25
nr_class 2
total_sv 5
rho -41.0306
SV
0.6687803414367253 1:49.95 2:48.56 3:43.78 4:42.08 
0.3395739098809781 1:48.56 2:43.78 3:42.08 4:41.8 
-0.7260472707476816 1:43.78 2:42.08 3:41.8 4:41.47 
0.3636639264030495 1:42.08 2:41.8 3:41.47 4:40.21 
-0.6459709069730712 1:41.8 2:41.47 3:40.21 4:40.9 
