svm_type epsilon_svr
kernel_type rbf
gamma 0.25
nr_class 2
total_sv 4
rho -526.65
SV
-1 1:527.81 2:515.14001 3:509.95999 4:511 
1 1:515.14001 2:509.95999 3:511 4:518.72998 
1 1:509.95999 2:511 3:518.72998 4:529.91998 
-1 1:518.72998 2:529.91998 3:533.09003 4:526.65002 
