svm_type epsilon_svr
kernel_type rbf
gamma 0.25
nr_class 2
total_sv 5
rho -34.7838
SV
1 1:36.04 2:36.31 3:36.63 4:36.78 
-0.705251681101981 1:36.31 2:36.63 3:36.78 4:36.94 
-0.4008550386849319 1:36.63 2:36.78 3:36.94 4:34.81 
0.1586903783990367 1:36.78 2:36.94 3:34.81 4:34.43 
-0.05258365861212377 1:36.94 2:34.81 3:34.43 4:34.94 
