svm_type epsilon_svr
kernel_type rbf
gamma 0.25
nr_class 2
total_sv 5
rho -297.327
SV
1 1:292.70999 2:288.32001 3:292.23999 4:302.85999 
0.1931378650319004 1:288.32001 2:292.23999 3:302.85999 4:304.64001 
-1 1:292.23999 2:302.85999 3:304.64001 4:297.62 
0.2731479095899459 1:302.85999 2:304.64001 3:297.62 4:295.19 
-0.4662857746218464 1:304.64001 2:297.62 3:295.19 4:297.70001 
