svm_type epsilon_svr
kernel_type rbf
gamma 0.25
nr_class 2
total_sv 4
rho -48.476
SV
-1 1:47.98 2:47.59 3:47.47 4:47.75 
1 1:47.59 2:47.47 3:47.75 4:47.81 
-1 1:47.75 2:47.81 3:48.62 4:48.46 
1 1:47.81 2:48.62 3:48.46 4:48.08 
