svm_type epsilon_svr
kernel_type rbf
gamma 0.25
nr_class 2
total_sv 4
rho -324.577
SV
-0.476367217793046 1:330.51999 2:331.19 3:323.89001 4:327.76001 
0.3227345380030761 1:331.19 2:323.89001 3:327.76001 4:324 
1 1:323.89001 2:327.76001 3:324 4:325 
-0.84636732021003 1:324 2:325 3:331.32001 4:324.5 
