svm_type epsilon_svr
kernel_type rbf
gamma 0.25
nr_class 2
total_sv 4
rho -313.889
SV
-1 1:322.51001 2:312.98999 3:307.06 4:313.64999 
-1 1:307.06 2:313.64999 3:312.32001 4:313.89001 
1 1:313.64999 2:312.32001 3:313.89001 4:311.45001 
1 1:312.32001 2:313.89001 3:311.45001 4:316.79999 
