svm_type epsilon_svr
kernel_type rbf
gamma 0.25
nr_class 2
total_sv 5
rho -380.75
SV
-0.5099948816675314 1:375.42999 2:373.37 3:379 4:383.66 
-1 1:373.37 2:379 3:383.66 4:380.14001 
1 1:379 2:383.66 3:380.14001 4:378.59 
1 1:383.66 2:380.14001 3:378.59 4:385.37 
-0.4900051183324686 1:380.14001 2:378.59 3:385.37 4:384.79999 
