svm_type epsilon_svr
kernel_type rbf
gamma 0.25
nr_class 2
total_sv 5
rho -36.3699
SV
1 1:36.29 2:37.05 3:36.35 4:36.7 
0.7152810779655764 1:37.05 2:36.35 3:36.7 4:37.1 
-1 1:36.35 2:36.7 3:37.1 4:36.85 
-1 1:36.7 2:37.1 3:36.85 4:35.13 
0.2847189220344236 1:37.1 2:36.85 3:35.13 4:35.57 
