svm_type epsilon_svr
kernel_type rbf
gamma 0.25
nr_class 2
total_sv 4
rho -33.042
SV
-1 1:32.8 2:33.07 3:32.98 4:32.75 
0.1226516910497453 1:33.07 2:32.98 3:32.75 4:32.82 
-0.1226516910497453 1:32.98 2:32.75 3:32.82 4:33.14 
1 1:32.82 2:33.14 3:32.96 4:33.01 
