svm_type epsilon_svr
kernel_type rbf
gamma 0.25
nr_class 2
total_sv 5
rho -389.055
SV
-1 1:382.64999 2:382.35999 3:385.10999 4:383.45001 
-1 1:382.35999 2:385.10999 3:383.45001 4:386.04001 
0.3550100114832162 1:385.10999 2:383.45001 3:386.04001 4:375.56 
1 1:383.45001 2:386.04001 3:375.56 4:389.51001 
0.6449899885167838 1:386.04001 2:375.56 3:389.51001 4:391.17999 
