svm_type epsilon_svr
kernel_type rbf
gamma 0.25
nr_class 2
total_sv 5
rho -26.2117
SV
0.324391195358551 1:23.33 2:23.39 3:25.94 4:26.82 
-0.4983169921395664 1:23.39 2:25.94 3:26.82 4:26.57 
-0.1296590968401027 1:25.94 2:26.82 3:26.57 4:25.69 
-0.6964151063788818 1:26.82 2:26.57 3:25.69 4:26.06 
1 1:26.57 2:25.69 3:26.06 4:26.1 
