svm_type epsilon_svr
kernel_type rbf
gamma 0.25
nr_class 2
total_sv 5
rho -323.816
SV
0.5855688367731895 1:327.76001 2:324 3:325 4:331.32001 
-0.08064923951203179 1:324 2:325 3:331.32001 4:324.5 
1 1:325 2:331.32001 3:324.5 4:323.63 
-1 1:331.32001 2:324.5 3:323.63 4:328.20999 
-0.5049195972611576 1:324.5 2:323.63 3:328.20999 4:321.92999 
