svm_type epsilon_svr
kernel_type rbf
gamma 0.25
nr_class 2
total_sv 4
rho -585.609
SV
1 1:594.73999 2:595.97998 3:593.34998 4:589.02002 
1 1:593.34998 2:589.02002 3:590.59998 4:585.60999 
-1 1:589.02002 2:590.59998 3:585.60999 4:587.41998 
-1 1:590.59998 2:585.60999 3:587.41998 4:571.59998 
