svm_type epsilon_svr
kernel_type rbf
gamma 0.25
nr_class 2
total_sv 4
rho -37.4032
SV
-0.02790123541057964 1:35.28 2:36.08 3:37.38 4:37.15 
0.02790123541057964 1:36.08 2:37.38 3:37.15 4:37.23 
-1 1:37.15 2:37.23 3:37.5 4:37.43 
1 1:37.23 2:37.5 3:37.43 4:37.29 
