svm_type epsilon_svr
kernel_type rbf
gamma 0.25
nr_class 2
total_sv 4
rho -47.1734
SV
-0.3453754770371496 1:45.02 2:46.13 3:45.91 4:46.49 
-1 1:46.13 2:45.91 3:46.49 4:46.62 
0.6359150036424052 1:46.49 2:46.62 3:46.05 4:46.95 
0.7094604733947446 1:46.62 2:46.05 3:46.95 4:47.44 
