svm_type epsilon_svr
kernel_type rbf
gamma 0.25
nr_class 2
total_sv 4
rho -44.2469
SV
-1 1:43.53 2:43.65 3:44.37 4:44.11 
-1 1:43.65 2:44.37 3:44.11 4:43.53 
1 1:44.37 2:44.11 3:43.53 4:43.38 
1 1:43.53 2:43.38 3:44.43 4:44.45 
