svm_type epsilon_svr
kernel_type rbf
gamma 0.25
nr_class 2
total_sv 5
rho -550.955
SV
0.2949848989364168 1:556.33002 2:562.12 3:560.54999 4:558.84003 
0.7050151010635832 1:562.12 2:560.54999 3:558.84003 4:551.34998 
-1 1:560.54999 2:558.84003 3:551.34998 4:551.76001 
-1 1:558.84003 2:551.34998 3:551.76001 4:544.28003 
1 1:551.34998 2:551.76001 3:544.28003 4:543.01001 
