svm_type epsilon_svr
kernel_type rbf
gamma 0.25
nr_class 2
total_sv 3
rho -47.4384
SV
-1 1:40.72 2:41.26 3:48.01 4:47.32 
0.9297275506226368 1:47.32 2:46.26 3:47.5 4:47.95 
0.07027244937736318 1:46.26 2:47.5 3:47.95 4:48.5 
