svm_type epsilon_svr
kernel_type rbf
gamma 0.25
nr_class 2
total_sv 5
rho -26.287
SV
0.4049146389465672 1:23.29 2:23.33 3:23.39 4:25.94 
0.2018659669353098 1:23.33 2:23.39 3:25.94 4:26.82 
-0.5280733608221513 1:23.39 2:25.94 3:26.82 4:26.57 
-0.02338932460616502 1:25.94 2:26.82 3:26.57 4:25.69 
-0.05531792045356061 1:26.82 2:26.57 3:25.69 4:26.06 
