svm_type epsilon_svr
kernel_type rbf
gamma 0.25
nr_class 2
total_sv 5
rho -67.0745
SV
-0.6609485743634687 1:65.29 2:62.76 3:64.97 4:64.87 
0.7377624832997753 1:62.76 2:64.97 3:64.87 4:66.34 
-0.005819401367990846 1:64.97 2:64.87 3:66.34 4:67.9 
0.6679027821044959 1:64.87 2:66.34 3:67.9 4:67.17 
-0.7388972896728118 1:66.34 2:67.9 3:67.17 4:67.66 
