svm_type epsilon_svr
kernel_type rbf
gamma 0.25
nr_class 2
total_sv 5
rho -305.494
SV
1 1:322.70001 2:315.37 3:311.39001 4:306.45001 
0.3759018361770831 1:315.37 2:311.39001 3:306.45001 4:308.31 
-1 1:311.39001 2:306.45001 3:308.31 4:305.97 
-1 1:306.45001 2:308.31 3:305.97 4:302.85999 
0.6240981638229168 1:308.31 2:305.97 3:302.85999 4:303.64001 
