svm_type epsilon_svr
kernel_type rbf
gamma 0.25
nr_class 2
total_sv 5
rho -34.1883
SV
1 1:35.95 2:36.51 3:36.87 4:36.91 
-0.865086183303466 1:36.51 2:36.87 3:36.91 4:36.49 
-0.006624875601531736 1:36.87 2:36.91 3:36.49 4:34.07 
-0.3717941945286407 1:36.91 2:36.49 3:34.07 4:33.92 
0.2435052534336384 1:36.49 2:34.07 3:33.92 4:33.76 
