svm_type epsilon_svr
kernel_type rbf
gamma 0.25
nr_class 2
total_sv 5
rho -87.2171
SV
-0.2892777593963138 1:90.02 2:89.31 3:86.61 4:87.38 
-0.7107222406036862 1:89.31 2:86.61 3:87.38 4:86.77 
-1 1:86.61 2:87.38 3:86.77 4:86.69 
1 1:87.38 2:86.77 3:86.69 4:86.64 
1 1:86.77 2:86.69 3:86.64 4:88.3 
