svm_type epsilon_svr
kernel_type rbf
gamma 0.25
nr_class 2
total_sv 4
rho -73.2895
SV
-0.2074160521274408 1:76.29 2:77.52 3:75.91 4:72.91 
0.2074160521274408 1:77.52 2:75.91 3:72.91 4:72.99 
-1 1:72.91 2:72.99 3:73.59 4:73.21 
1 1:72.99 2:73.59 3:73.21 4:72.63 
