svm_type epsilon_svr
kernel_type rbf
gamma 0.25
nr_class 2
total_sv 4
rho -66.536
SV
-1 1:64.4 2:65.6 3:64.34 4:64.5 
-0.8956351954535529 1:65.6 2:64.34 3:64.5 4:65.37 
1 1:64.34 2:64.5 3:65.37 4:65.72 
0.8956351954535529 1:65.37 2:65.72 3:67.44 4:67.13 
