svm_type epsilon_svr
kernel_type rbf
gamma 0.25
nr_class 2
total_sv 5
rho -74.6678
SV
1 1:78.24 2:77.86 3:78.29 4:77.56 
-0.02789182733449722 1:77.86 2:78.29 3:77.56 4:77.98 
-0.9497239673819662 1:78.29 2:77.56 3:77.98 4:75.2 
-0.4332492699264489 1:77.56 2:77.98 3:75.2 4:73.82 
0.4108650646429123 1:77.98 2:75.2 3:73.82 4:74.1 
