svm_type epsilon_svr
kernel_type rbf
gamma 0.25
nr_class 2
total_sv 4
rho -46.4591
SV
0.9643532979644548 1:46.33 2:45.65 3:46.23 4:47.59 
-0.009887685020971166 1:45.65 2:46.23 3:47.59 4:47.19 
0.04553438705651642 1:46.23 2:47.59 3:47.19 4:46.6 
-1 1:47.19 2:46.6 3:46.36 4:45.96 
