svm_type epsilon_svr
kernel_type rbf
gamma 0.25
nr_class 2
total_sv 4
rho -28.0321
SV
-1 1:27.37 2:27.26 3:27.03 4:27.74 
0.1782753172844336 1:27.26 2:27.03 3:27.74 4:27.69 
0.8833116952359811 1:27.03 2:27.74 3:27.69 4:28.13 
-0.06158701252041456 1:27.74 2:27.69 3:28.13 4:28.32 
