svm_type epsilon_svr
kernel_type rbf
gamma 0.25
nr_class 2
total_sv 5
rho -74.9904
SV
0.856235477740229 1:76.55 2:77.08 3:77.44 4:77.56 
1 1:77.08 2:77.44 3:77.56 4:76.29 
0.143764522259771 1:77.44 2:77.56 3:76.29 4:77.52 
-1 1:77.56 2:76.29 3:77.52 4:75.91 
-1 1:76.29 2:77.52 3:75.91 4:72.91 
