svm_type epsilon_svr
kernel_type rbf
gamma 0.25
nr_class 2
total_sv 4
rho -100.139
SV
0.5367794448560512 1:101.06 2:102.64 3:101.75 4:97.87 
0.5565667030551978 1:101.75 2:97.87 3:100.75 4:100.11 
-0.8479763386679445 1:97.87 2:100.75 3:100.11 4:100.75 
-0.2453698092433046 1:100.75 2:100.11 3:100.75 4:99.18 
