svm_type epsilon_svr
kernel_type rbf
gamma 0.25
nr_class 2
total_sv 5
rho -48.6777
SV
-0.1534172882434567 1:47.95 2:48.5 3:48.03 4:47.82 
1 1:48.5 2:48.03 3:47.82 4:48.7 
-0.7714267776226259 1:48.03 2:47.82 3:48.7 4:49.11 
0.3138410210975989 1:47.82 2:48.7 3:49.11 4:48.47 
-0.3889969552315166 1:48.7 2:49.11 3:48.47 4:48.69 
