svm_type epsilon_svr
kernel_type rbf
gamma 0.25
nr_class 2
total_sv 4
rho -26.8178
SV
-0.5608916946463821 1:27.91 2:27.78 3:27.57 4:26.69 
0.5608916946463821 1:27.57 2:26.69 3:26.54 4:26.78 
-1 1:26.69 2:26.54 3:26.78 4:27.09 
1 1:26.54 2:26.78 3:27.09 4:26.78 
