svm_type epsilon_svr
kernel_type rbf
gamma 0.25
nr_class 2
total_sv 5
rho -330.98
SV
1 1:342.38 2:339 3:345.95001 4:346.38 
-1 1:339 2:345.95001 3:346.38 4:342.34 
0.2502115234374571 1:345.95001 2:346.38 3:342.34 4:329.75 
-0.3597884765624713 1:346.38 2:342.34 3:329.75 4:331.32999 
0.1095769531250141 1:342.34 2:329.75 3:331.32999 4:330.51999 
