svm_type epsilon_svr
kernel_type rbf
gamma 0.25
nr_class 2
total_sv 4
rho -35.7776
SV
0.157419437264293 1:35.81 2:35.62 3:36.53 4:35.7 
0.4687106140793344 1:36.53 2:35.7 3:35.79 4:35.66 
0.3738699486563726 1:35.7 2:35.79 3:35.66 4:35.91 
-1 1:35.79 2:35.66 3:35.91 4:35.79 
