svm_type epsilon_svr
kernel_type rbf
gamma 0.25
nr_class 2
total_sv 4
rho -545.92
SV
1 1:548.90002 2:549.33002 3:550.31 4:559.08002 
1 1:549.33002 2:550.31 3:559.08002 4:555.21997 
-1 1:559.08002 2:555.21997 3:554.10999 4:545.91998 
-1 1:555.21997 2:554.10999 3:545.91998 4:542.03998 
