svm_type epsilon_svr
kernel_type rbf
gamma 0.25
nr_class 2
total_sv 4
rho -75.2719
SV
-0.4822874070998929 1:74.03 2:74.39 3:73.9 4:74.49 
-0.8472487108778471 1:74.39 2:73.9 3:74.49 4:74.88 
0.8486665804437649 1:73.9 2:74.49 3:74.88 4:74.96 
0.4808695375339752 1:74.49 2:74.88 3:74.96 4:75.55 
