svm_type epsilon_svr
kernel_type rbf
gamma 0.25
nr_class 2
total_sv 5
rho -78.265
SV
-0.7813753519884145 1:81.21 2:80.01 3:79.44 4:77.55 
0.6963789289695149 1:80.01 2:79.44 3:77.55 4:77.57 
-0.3419986231858018 1:79.44 2:77.55 3:77.57 4:78.93 
-0.5730049537952987 1:77.55 2:77.57 3:78.93 4:78.05 
1 1:77.57 2:78.93 3:78.05 4:78.07 
