svm_type epsilon_svr
kernel_type rbf
gamma 0.25
nr_class 2
total_sv 4
rho -111.94
SV
0.2523571429563621 1:114.63 2:115.93 3:115.49 4:115 
1 1:115.93 2:115.49 3:115 4:112.4 
-0.2523571429563621 1:115 2:112.4 3:114.12 4:111.95 
-1 1:112.4 2:114.12 3:111.95 4:111.62 
