svm_type epsilon_svr
kernel_type rbf
gamma 0.25
nr_class 2
total_sv 5
rho -80.3924
SV
-0.009647604669190854 1:77.26 2:77.7 3:77.81 4:78.77 
-0.9903523953308091 1:77.7 2:77.81 3:78.77 4:79.44 
-1 1:77.81 2:78.77 3:79.44 4:79.01 
1 1:78.77 2:79.44 3:79.01 4:79.2 
1 1:79.44 2:79.01 3:79.2 4:82.94 
