svm_type epsilon_svr
kernel_type rbf
gamma 0.25
nr_class 2
total_sv 5
rho -76.6985
SV
-0.8636847887441759 1:76.65 2:77.21 3:77.06 4:76.82 
0.03521307836005423 1:77.21 2:77.06 3:76.82 4:76.55 
0.67070793847987 1:77.06 2:76.82 3:76.55 4:76.84 
-0.8422362280957485 1:76.82 2:76.55 3:76.84 4:76.86 
1 1:76.55 2:76.84 3:76.86 4:76.61 
