svm_type epsilon_svr
kernel_type rbf
gamma 0.25
nr_class 2
total_sv 4
rho -43.1038
SV
1 1:44.09 2:43.99 3:44.06 4:43.85 
-0.8045806222668903 1:44.06 2:43.85 3:43.88 4:43.28 
0.8045806222668903 1:43.85 2:43.88 3:43.28 4:43.06 
-1 1:43.88 2:43.28 3:43.06 4:43.11 
