svm_type epsilon_svr
kernel_type rbf
gamma 0.25
nr_class 2
total_sv 4
rho -76.8759
SV
1 1:76.77 2:76.76 3:76.71 4:77.13 
0.3675057444345752 1:76.76 2:76.71 3:77.13 4:77.32 
-0.3675057444345752 1:77.13 2:77.32 3:77.21 4:77.01 
-1 1:77.32 2:77.21 3:77.01 4:76.62 
