svm_type epsilon_svr
kernel_type rbf
gamma 0.25
nr_class 2
total_sv 4
rho -27.5728
SV
1 1:26.1 2:27.11 3:27.3 4:26.6 
-0.6295067846495241 1:27.3 2:26.6 3:28.02 4:27.37 
-1 1:26.6 2:28.02 3:27.37 4:27.26 
0.6295067846495241 1:28.02 2:27.37 3:27.26 4:27.03 
