svm_type epsilon_svr
kernel_type rbf
gamma 0.25
nr_class 2
total_sv 5
rho -26.4862
SV
-0.5797404664348 1:25.94 2:26.82 3:26.57 4:25.69 
-1 1:26.82 2:26.57 3:25.69 4:26.06 
1 1:26.57 2:25.69 3:26.06 4:26.1 
1 1:25.69 2:26.06 3:26.1 4:27.11 
-0.4202595335652 1:26.06 2:26.1 3:27.11 4:27.3 
