svm_type epsilon_svr
kernel_type rbf
gamma 0.25
nr_class 2
total_sv 4
rho -67.3401
SV
-0.1705935791861043 1:64.5 2:65.37 3:65.72 4:67.44 
0.1705935791861043 1:65.37 2:65.72 3:67.44 4:67.13 
1 1:67.44 2:67.13 3:67.6 4:67.29 
-1 1:67.13 2:67.6 3:67.29 4:68.06 
