svm_type epsilon_svr
kernel_type rbf
gamma 0.25
nr_class 2
total_sv 4
rho -79.6719
SV
-1 1:79.44 2:77.55 3:77.57 4:78.93 
-1 1:77.55 2:77.57 3:78.93 4:78.05 
1 1:78.93 2:78.05 3:78.07 4:79.36 
1 1:78.05 2:78.07 3:79.36 4:80.91 
