svm_type epsilon_svr
kernel_type rbf
gamma 0.25
nr_class 2
total_sv 5
rho -26.9911
SV
-0.6644578938996547 1:27.78 2:27.57 3:26.69 4:26.54 
0.2813933356559867 1:27.57 2:26.69 3:26.54 4:26.78 
-1 1:26.69 2:26.54 3:26.78 4:27.09 
0.3830645582436679 1:26.54 2:26.78 3:27.09 4:26.78 
1 1:26.78 2:27.09 3:26.78 4:27.26 
