svm_type epsilon_svr
kernel_type rbf
gamma 0.25
nr_class 2
total_sv 4
rho -78.5994
SV
-1 1:79.7 2:79.12 3:78.62 4:78.01 
0.1873287370187798 1:79.12 2:78.62 3:78.01 4:77.96 
0.7598849376176897 1:78.62 2:78.01 3:77.96 4:78.69 
0.05278632536353046 1:78.01 2:77.96 3:78.69 4:79.2 
