svm_type epsilon_svr
kernel_type rbf
gamma 0.25
nr_class 2
total_sv 4
rho -501.89
SV
1 1:530.33002 2:530.41998 3:526.40002 4:524.81 
-0.6899899999999661 1:526.40002 2:524.81 3:513.87 4:501.95999 
0.6899899999999661 1:524.81 2:513.87 3:501.95999 4:501.10001 
-1 1:513.87 2:501.95999 3:501.10001 4:502.67999 
