svm_type epsilon_svr
kernel_type rbf
gamma 0.25
nr_class 2
total_sv 5
rho -51.4195
SV
1 1:51.94 2:51.62 3:51.2 4:51.3 
-1 1:51.62 2:51.2 3:51.3 4:52.03 
-0.2038239422620692 1:51.2 2:51.3 3:52.03 4:50.66 
-0.251067073820537 1:51.3 2:52.03 3:50.66 4:51.4 
0.4548910160826062 1:52.03 2:50.66 3:51.4 4:51.32 
