svm_type epsilon_svr
kernel_type rbf
gamma 0.25
nr_class 2
total_sv 4
rho -537.94
SV
1 1:575.28003 2:577.34998 3:563.73999 4:572.5 
1 1:577.34998 2:563.73999 3:572.5 4:560.88 
-1 1:563.73999 2:572.5 3:560.88 4:544.48999 
-1 1:560.88 2:544.48999 3:533.21002 4:537.94 
