svm_type epsilon_svr
kernel_type rbf
gamma 0.25
nr_class 2
total_sv 3
rho -83.9251
SV
0.5184217567420231 1:86.4 2:84.94 3:84.76 4:84.12 
-1 1:84.76 2:84.12 3:84.23 4:83.56 
0.4815782432579769 1:84.12 2:84.23 3:83.56 4:82.98 
