svm_type epsilon_svr
kernel_type rbf
gamma 0.25
nr_class 2
total_sv 4
rho -83.7427
SV
-0.3592918229783446 1:84.12 2:84.23 3:83.56 4:82.98 
0.3592918229783446 1:83.56 2:82.98 3:83.83 4:83.81 
-1 1:82.98 2:83.83 3:83.81 4:83.94 
1 1:83.83 2:83.81 3:83.94 4:82.96 
