svm_type epsilon_svr
kernel_type rbf
gamma 0.25
nr_class 2
total_sv 5
rho -43.4204
SV
0.07888553839950968 1:44.83 2:44.87 3:44.4 4:44.5 
1 1:44.87 2:44.4 3:44.5 4:43.97 
0.06410346334402298 1:44.4 2:44.5 3:43.97 4:43.89 
-0.6265017218706496 1:44.5 2:43.97 3:43.89 4:43.58 
-0.5164872798728831 1:43.97 2:43.89 3:43.58 4:43.16 
