svm_type epsilon_svr
kernel_type rbf
gamma 0.25
nr_class 2
total_sv 4
rho -41.0958
SV
0.1102932541785748 1:40.29 2:40.32 3:41.21 4:41.48 
-0.1102932541785748 1:41.21 2:41.48 3:41.27 4:41.11 
-1 1:41.48 2:41.27 3:41.11 4:40.86 
1 1:41.27 2:41.11 3:40.86 4:40.58 
