svm_type epsilon_svr
kernel_type rbf
gamma 0.25
nr_class 2
total_sv 5
rho -42.014
SV
0.5001723782710913 1:41.14 2:41.26 3:42.88 4:42.55 
0.6386447275168788 1:41.26 2:42.88 3:42.55 4:42.71 
0.8611828942120298 1:42.88 2:42.55 3:42.71 4:42.59 
-1 1:42.55 2:42.71 3:42.59 4:42.09 
-1 1:42.71 2:42.59 3:42.09 4:40.93 
