svm_type epsilon_svr
kernel_type rbf
gamma 0.25
nr_class 2
total_sv 4
rho -19.2975
SV
-1 1:18.86 2:18.97 3:18.87 4:18.83 
-0.7403471035719994 1:18.97 2:18.87 3:18.83 4:18.9 
0.7403471035719994 1:18.87 2:18.83 3:18.9 4:19.11 
1 1:18.83 2:18.9 3:19.11 4:19.4 
