svm_type epsilon_svr
kernel_type rbf
gamma 0.25
nr_class 2
total_sv 4
rho -20.2572
SV
-0.3741731880147101 1:20.7 2:20.79 3:20.74 4:20.33 
-1 1:20.79 2:20.74 3:20.33 4:19.72 
0.3741731880147101 1:20.74 2:20.33 3:19.72 4:19.72 
1 1:20.33 2:19.72 3:19.72 4:20.39 
