svm_type epsilon_svr
kernel_type rbf
gamma 0.25
nr_class 2
total_sv 4
rho -579.18
SV
-1 1:582.33502 2:584.72998 3:582.25 4:571.09003 
-1 1:584.72998 2:582.25 3:571.09003 4:576.08002 
1 1:571.09003 2:576.08002 3:571.09998 4:579.17999 
1 1:576.08002 2:571.09998 3:579.17999 4:584.87 
