svm_type epsilon_svr
kernel_type rbf
gamma 0.25
nr_class 2
total_sv 5
rho -78.7931
SV
-0.05113944863600904 1:77 2:77.91 3:76.8 4:78.29 
-1 1:77.91 2:76.8 3:78.29 4:78.54 
0.01230843530269591 1:76.8 2:78.29 3:78.54 4:77.22 
0.1713780463290374 1:78.29 2:78.54 3:77.22 4:78.79 
0.8674529670042757 1:78.54 2:77.22 3:78.79 4:79 
