svm_type epsilon_svr
kernel_type rbf
gamma 0.25
nr_class 2
total_sv 3
rho -32.6531
SV
0.492832807116706 1:32.35 2:32.32 3:32.44 4:32.66 
0.5071671928832939 1:32.66 2:32.81 3:32.75 4:32.69 
-1 1:32.81 2:32.75 3:32.69 4:32.71 
