svm_type epsilon_svr
kernel_type rbf
gamma 0.25
nr_class 2
total_sv 5
rho -316.115
SV
1 1:335.04001 2:333.57001 3:338.64001 4:326 
0.2850050000000124 1:333.57001 2:338.64001 3:326 4:326.31 
0.7149949999999876 1:338.64001 2:326 3:326.31 4:316.5 
-1 1:326 2:326.31 3:316.5 4:316.92999 
-1 1:326.31 2:316.5 3:316.92999 4:312.63 
