svm_type epsilon_svr
kernel_type rbf
gamma 0.25
nr_class 2
total_sv 5
rho -38.4957
SV
-0.7847733534005505 1:39.65 2:39.85 3:36.93 4:37.31 
-0.5583302372828737 1:39.85 2:36.93 3:37.31 4:37.57 
0.2282016494306358 1:36.93 2:37.31 3:37.57 4:37.83 
0.1149019412527884 1:37.31 2:37.57 3:37.83 4:39.07 
1 1:37.57 2:37.83 3:39.07 4:39.42 
