svm_type epsilon_svr
kernel_type rbf
gamma 0.25
nr_class 2
total_sv 4
rho -556.33
SV
-1 1:560.08002 2:559.89001 3:553.92999 4:544.94 
-1 1:559.89001 2:553.92999 3:544.94 4:544.65997 
1 1:544.94 2:544.65997 3:553.90002 4:556.33002 
1 1:544.65997 2:553.90002 3:556.33002 4:562.12 
