svm_type epsilon_svr
kernel_type rbf
gamma 0.25
nr_class 2
total_sv 5
rho -384.513
SV
0.9450531380470446 1:378.59 2:385.37 3:384.79999 4:380.16 
0.05494686195295537 1:385.37 2:384.79999 3:380.16 4:385.66 
-1 1:384.79999 2:380.16 3:385.66 4:384.60999 
1 1:380.16 2:385.66 3:384.60999 4:382.72 
-1 1:385.66 2:384.60999 3:382.72 4:387.82999 
