svm_type epsilon_svr
kernel_type rbf
gamma 0.25
nr_class 2
total_sv 4
rho -46.2318
SV
0.926903869449916 1:46.56 2:47.08 3:46.04 4:46.41 
0.5061004528147534 1:47.08 2:46.04 3:46.41 4:46.44 
-0.4330043222646694 1:46.04 2:46.41 3:46.44 4:46.36 
-1 1:46.41 2:46.44 3:46.36 4:45.9 
