svm_type epsilon_svr
kernel_type rbf
gamma 0.25
nr_class 2
total_sv 5
rho -43.8486
SV
-1 1:41.78 2:41.67 3:41.69 4:42.09 
-1 1:41.67 2:41.69 3:42.09 4:42.14 
1 1:41.69 2:42.09 3:42.14 4:42.45 
0.5020476973182488 1:42.09 2:42.14 3:42.45 4:44.08 
0.4979523026817512 1:42.14 2:42.45 3:44.08 4:44.53 
