svm_type epsilon_svr
kernel_type rbf
gamma 0.25
nr_class 2
total_sv 5
rho -38.0277
SV
1 1:37.28 2:39.09 3:40.17 4:39.37 
1 1:39.09 2:40.17 3:39.37 4:39.65 
-1 1:40.17 2:39.37 3:39.65 4:39.85 
-0.6894356807816462 1:39.37 2:39.65 3:39.85 4:36.93 
-0.3105643192183538 1:39.65 2:39.85 3:36.93 4:37.31 
