svm_type epsilon_svr
kernel_type rbf
gamma 0.25
nr_class 2
total_sv 4
rho -323.05
SV
-1 1:296.64001 2:299.85999 3:305.10999 4:312.01001 
-1 1:299.85999 2:305.10999 3:312.01001 4:311.51001 
1 1:305.10999 2:312.01001 3:311.51001 4:316.48001 
1 1:311.51001 2:316.48001 3:327.82001 4:323.04999 
