svm_type epsilon_svr
kernel_type rbf
gamma 0.25
nr_class 2
total_sv 5
rho -47.383
SV
0.6882483035997006 1:50.23 2:49.72 3:48.8 4:48.3 
-1 1:49.72 2:48.8 3:48.3 4:47.51 
-0.6878696037968703 1:48.8 2:48.3 3:47.51 4:46.23 
0.3440094611861366 1:48.3 2:47.51 3:46.23 4:46.47 
0.6556118390110334 1:47.51 2:46.23 3:46.47 4:47.63 
