svm_type epsilon_svr
kernel_type rbf
gamma 0.25
nr_class 2
total_sv 4
rho -43.5875
SV
-1 1:44.43 2:44.45 3:44.28 4:44.11 
0.7995803219950341 1:44.45 2:44.28 3:44.11 4:42.62 
0.8359988852683832 1:44.28 2:44.11 3:42.62 4:43.99 
-0.6355792072634172 1:42.62 2:43.99 3:44.16 4:43.44 
