svm_type epsilon_svr
kernel_type rbf
gamma 0.25
nr_class 2
total_sv 5
rho -26.0955
SV
-1 1:23.06 2:23.46 3:23.57 4:23.29 
-1 1:23.46 2:23.57 3:23.29 4:23.33 
1 1:23.57 2:23.29 3:23.33 4:23.39 
0.7351616632489768 1:23.29 2:23.33 3:23.39 4:25.94 
0.2648383367510231 1:23.33 2:23.39 3:25.94 4:26.82 
