svm_type epsilon_svr
kernel_type rbf
gamma 0.25
nr_class 2
total_sv 5
rho -94.8279
SV
0.1262426147268062 1:95.97 2:95.35 3:95.39 4:95.04 
1 1:95.35 2:95.39 3:95.04 4:95.22 
0.04895088758882234 1:95.39 2:95.04 3:95.22 4:96.45 
-0.1751935023156285 1:95.04 2:95.22 3:96.45 4:95.32 
-1 1:95.22 2:96.45 3:95.32 4:94.78 
