svm_type epsilon_svr
kernel_type rbf
gamma 0.25
nr_class 2
total_sv 5
rho -76.2767
SV
-0.1138946408934538 1:75.6 2:77.08 3:76.12 4:76.49 
0.2318562616620222 1:77.08 2:76.12 3:76.49 4:76.08 
-1 1:76.12 2:76.49 3:76.08 4:76.47 
-0.1179616207685683 1:76.49 2:76.08 3:76.47 4:76.12 
1 1:76.08 2:76.47 3:76.12 4:76.23 
