svm_type epsilon_svr
kernel_type rbf
gamma 0.25
nr_class 2
total_sv 5
rho -44.367
SV
-1 1:43.65 2:43.73 3:43.22 4:42.74 
-0.08991906903528385 1:43.73 2:43.22 3:42.74 4:43.63 
1 1:43.22 2:42.74 3:43.63 4:44.08 
-0.870542157449562 1:42.74 2:43.63 3:44.08 4:44.88 
0.9604612264848459 1:43.63 2:44.08 3:44.88 4:44.38 
