svm_type epsilon_svr
kernel_type rbf
gamma 0.25
nr_class 2
total_sv 4
rho -37.1816
SV
-1 1:35.55 2:35.73 3:35.37 4:35.28 
1 1:35.73 2:35.37 3:35.28 4:36.08 
-0.2497611756355816 1:35.37 2:35.28 3:36.08 4:37.38 
0.2497611756355816 1:36.08 2:37.38 3:37.15 4:37.23 
