svm_type epsilon_svr
kernel_type rbf
gamma 0.25
nr_class 2
total_sv 4
rho -80.0656
SV
-1 1:72.63 2:75.95 3:76.95 4:78.69 
0.4516619940109433 1:76.95 2:78.69 3:78.37 4:80.04 
-0.01883131346521743 1:78.69 2:78.37 3:80.04 4:80.67 
0.5671693194542742 1:78.37 2:80.04 3:80.67 4:80.28 
