svm_type epsilon_svr
kernel_type rbf
gamma 0.25
nr_class 2
total_sv 4
rho -38.1262
SV
-0.8921728236730544 1:36.87 2:37.05 3:38.05 4:37.65 
1 1:37.05 2:38.05 3:37.65 4:37.75 
-0.3459273073358974 1:37.65 2:37.75 3:38.71 4:38.16 
0.2381001310089519 1:37.75 2:38.71 3:38.16 4:37.93 
