svm_type epsilon_svr
kernel_type rbf
gamma 0.25
nr_class 2
total_sv 5
rho -86.1036
SV
1 1:86.66 2:86.43 3:86.91 4:86.64 
-0.4006050248004589 1:86.43 2:86.91 3:86.64 4:86.79 
-0.4276945566946287 1:86.91 2:86.64 3:86.79 4:85.88 
-1 1:86.64 2:86.79 3:85.88 4:85.9 
0.8282995814950875 1:86.79 2:85.88 3:85.9 4:85.65 
