svm_type epsilon_svr
kernel_type rbf
gamma 0.25
nr_class 2
total_sv 4
rho -524.51
SV
-1 1:533.21002 2:537.94 3:530.03003 4:524.51001 
-1 1:537.94 2:530.03003 3:524.51001 4:511.17001 
1 1:530.03003 2:524.51001 3:511.17001 4:520.84003 
1 1:524.51001 2:511.17001 3:520.84003 4:526.53998 
