svm_type epsilon_svr
kernel_type rbf
gamma 0.25
nr_class 2
total_sv 5
rho -31.1357
SV
0.03248904318309329 1:32.31 2:31.88 3:31.66 4:31.68 
-0.4526822693944664 1:31.88 2:31.66 3:31.68 4:31.19 
-0.09721514032725193 1:31.66 2:31.68 3:31.19 4:31.01 
1 1:31.68 2:31.19 3:31.01 4:31.09 
-0.482591633461375 1:31.19 2:31.01 3:31.09 4:31.45 
