svm_type epsilon_svr
kernel_type rbf
gamma 0.25
nr_class 2
total_sv 5
rho -76.7837
SV
-0.5953699358522359 1:77.43 2:77.92 3:77.48 4:74.58 
-0.2277666621476791 1:77.92 2:77.48 3:74.58 4:76.08 
0.1142028916332498 1:77.48 2:74.58 3:76.08 4:76.43 
1 1:74.58 2:76.08 3:76.43 4:77 
-0.2910662936333348 1:76.08 2:76.43 3:77 4:77.91 
