svm_type epsilon_svr
kernel_type rbf
gamma 0.25
nr_class 2
total_sv 3
rho -46.5207
SV
-1 1:45.43 2:45.09 3:44.96 4:45.26 
0.6161386965147688 1:45.09 2:44.96 3:45.26 4:45.91 
0.3838613034852311 1:45.91 2:46.47 3:46.76 4:46.84 
