svm_type epsilon_svr
kernel_type rbf
gamma 0.25
nr_class 2
total_sv 5
rho -355.187
SV
0.03282234375004123 1:323.81 2:329.97 3:327.92001 4:346.20001 
-0.6464061718749861 1:329.97 2:327.92001 3:346.20001 4:355.32001 
0.6135838281249448 1:327.92001 2:346.20001 3:355.32001 4:354.44 
-1 1:346.20001 2:355.32001 3:354.44 4:355.89999 
1 1:355.32001 2:354.44 3:355.89999 4:352.45001 
