svm_type epsilon_svr
kernel_type rbf
gamma 0.25
nr_class 2
total_sv 4
rho -34.7739
SV
0.4683699285104691 1:34.7 2:35.02 3:35.12 4:34.78 
-0.3031037729394351 1:35.02 2:35.12 3:34.78 4:34.9 
0.08587168041302722 1:35.12 2:34.78 3:34.9 4:34.65 
-0.2511378359840611 1:34.78 2:34.9 3:34.65 4:34.87 
