svm_type epsilon_svr
kernel_type rbf
gamma 0.25
nr_class 2
total_sv 4
rho -33.7643
SV
0.5949131896446801 1:34.81 2:34.43 3:34.94 4:34.68 
-0.1394105455897284 1:34.43 2:34.94 3:34.68 4:34.05 
-1 1:34.68 2:34.05 3:33.64 4:33.48 
0.5444973559450483 1:34.05 2:33.64 3:33.48 4:33.25 
