svm_type epsilon_svr
kernel_type rbf
gamma 0.25
nr_class 2
total_sv 5
rho -560.583
SV
1 1:529.77002 2:538.94 3:545.06 4:552.70001 
0.9970438671874717 1:538.94 2:545.06 3:552.70001 4:565.95001 
-0.4035169335937212 1:545.06 2:552.70001 3:565.95001 4:561.67999 
-0.5935269335937505 1:552.70001 2:565.95001 3:561.67999 4:560.08002 
-1 1:565.95001 2:561.67999 3:560.08002 4:559.89001 
