svm_type epsilon_svr
kernel_type rbf
gamma 0.25
nr_class 2
total_sv 4
rho -342.381
SV
-1 1:334.01999 2:341.82999 3:343.17999 4:340.01999 
-1 1:343.17999 2:340.01999 3:339.04001 4:342.38 
1 1:340.01999 2:339.04001 3:342.38 4:339 
1 1:339.04001 2:342.38 3:339 4:345.95001 
