svm_type epsilon_svr
kernel_type rbf
gamma 0.25
nr_class 2
total_sv 5
rho -32.9347
SV
0.6934083144504852 1:31.75 2:31.52 3:30.5 4:30.51 
0.9521144542217811 1:31.52 2:30.5 3:30.51 4:33.77 
-0.4086790060728723 1:30.5 2:30.51 3:33.77 4:34 
-1 1:30.51 2:33.77 3:34 4:32.44 
-0.2368437625993939 1:33.77 2:34 3:32.44 4:31.75 
