svm_type epsilon_svr
kernel_type rbf
gamma 0.25
nr_class 2
total_sv 5
rho -86.4879
SV
-0.7197463859777909 1:87.53 2:86.82 3:87.72 4:84.98 
-0.2249317645432281 1:86.82 2:87.72 3:84.98 4:85.71 
0.03546775724542614 1:87.72 2:84.98 3:85.71 4:86.19 
0.3119016680327219 1:84.98 2:85.71 3:86.19 4:86.65 
0.597308725242871 1:85.71 2:86.19 3:86.65 4:87.28 
