svm_type epsilon_svr
kernel_type rbf
gamma 0.25
nr_class 2
total_sv 4
rho -33.0219
SV
-1 1:32.81 2:32.82 3:33.08 4:32.81 
-0.2164283649799831 1:32.82 2:33.08 3:32.81 4:32.85 
1 1:33.08 2:32.81 3:32.85 4:32.9 
0.2164283649799831 1:32.85 2:32.9 3:33.36 4:33.13 
