svm_type epsilon_svr
kernel_type rbf
gamma 0.25
nr_class 2
total_sv 5
rho -354.28
SV
-1 1:333.54999 2:323.81 3:329.97 4:327.92001 
0.9400050000000135 1:323.81 2:329.97 3:327.92001 4:346.20001 
0.05999499999998648 1:329.97 2:327.92001 3:346.20001 4:355.32001 
1 1:327.92001 2:346.20001 3:355.32001 4:354.44 
-1 1:346.20001 2:355.32001 3:354.44 4:355.89999 
