svm_type epsilon_svr
kernel_type rbf
gamma 0.25
nr_class 2
total_sv 5
rho -48.5455
SV
-0.1627883229239275 1:46.26 2:47.5 3:47.95 4:48.5 
-1 1:47.5 2:47.95 3:48.5 4:48.03 
0.2817594701261864 1:47.95 2:48.5 3:48.03 4:47.82 
1 1:48.5 2:48.03 3:47.82 4:48.7 
-0.1189711472022589 1:48.03 2:47.82 3:48.7 4:49.11 
