svm_type epsilon_svr
kernel_type rbf
gamma 0.25
nr_class 2
total_sv 5
rho -112.51
SV
1 1:115.07 2:114.63 3:115.93 4:115.49 
-0.6505147010200338 1:114.63 2:115.93 3:115.49 4:115 
1 1:115.93 2:115.49 3:115 4:112.4 
-0.5108882656040696 1:115.49 2:115 3:112.4 4:114.12 
-0.8385970333758965 1:115 2:112.4 3:114.12 4:111.95 
