svm_type epsilon_svr
kernel_type rbf
gamma 0.25
nr_class 2
total_sv 5
rho -101.298
SV
-1 1:101 2:101.43 3:101.66 4:101.63 
1 1:101.43 2:101.66 3:101.63 4:100.86 
1 1:101.66 2:101.63 3:100.86 4:101.58 
-0.5611074007815819 1:101.63 2:100.86 3:101.58 4:101.79 
-0.4388925992184181 1:100.86 2:101.58 3:101.79 4:100.96 
