svm_type epsilon_svr
kernel_type rbf
gamma 0.25
nr_class 2
total_sv 5
rho -128.752
SV
-0.1976667441497818 1:133 2:132.17 3:128.78999 4:130.42 
0.2676774092330884 1:132.17 2:128.78999 3:130.42 4:128.46001 
0.9900449186646311 1:128.78999 2:130.42 3:128.46001 4:129.09 
-0.06005558374793762 1:130.42 2:128.46001 3:129.09 4:129.36 
-1 1:128.46001 2:129.09 3:129.36 4:128.53999 
