svm_type epsilon_svr
kernel_type rbf
gamma 0.25
nr_class 2
total_sv 5
rho -70.0189
SV
-1 1:67.9 2:67.17 3:67.66 4:66.41 
-0.2512747333019887 1:67.17 2:67.66 3:66.41 4:68.42 
-0.7487252666980113 1:67.66 2:66.41 3:68.42 4:69.4 
1 1:66.41 2:68.42 3:69.4 4:69.27 
1 1:68.42 2:69.4 3:69.27 4:71.29 
