svm_type epsilon_svr
kernel_type rbf
gamma 0.25
nr_class 2
total_sv 5
rho -125.664
SV
0.5095171260665684 1:128.46001 2:129.09 3:129.36 4:128.53999 
0.4904828739334316 1:129.09 2:129.36 3:128.53999 4:126.41 
1 1:129.36 2:128.53999 3:126.41 4:126.6 
-1 1:128.53999 2:126.41 3:126.6 4:127.14 
-1 1:126.41 2:126.6 3:127.14 4:124.51 
