svm_type epsilon_svr
kernel_type rbf
gamma 0.25
nr_class 2
total_sv 5
rho -49.3353
SV
-0.4650874935121161 1:46.43 2:46.93 3:47.2 4:47.93 
-1 1:46.93 2:47.2 3:47.93 4:48.44 
1 1:47.2 2:47.93 3:48.44 4:48.46 
0.01698563595684659 1:47.93 2:48.44 3:48.46 4:51.47 
0.4481018575552695 1:48.44 2:48.46 3:51.47 4:49.5 
