svm_type epsilon_svr
kernel_type rbf
gamma 0.25
nr_class 2
total_sv 3
rho -31.4867
SV
0.5475525919576802 1:31.78 2:31.8 3:31.51 4:31.8 
0.4524474080423198 1:31.8 2:31.62 3:31.48 4:31.57 
-1 1:31.62 2:31.48 3:31.57 4:31.59 
