svm_type epsilon_svr
kernel_type rbf
gamma 0.25
nr_class 2
total_sv 4
rho -90.8711
SV
1 1:91.28 2:92.2 3:92.08 4:92.18 
-0.4500127500992241 1:92.2 2:92.08 3:92.18 4:91.86 
0.3115150781370911 1:92.08 2:92.18 3:91.86 4:90.91 
-0.861502328037867 1:92.18 2:91.86 3:90.91 4:90.83 
