svm_type epsilon_svr
kernel_type rbf
gamma 0.25
nr_class 2
total_sv 5
rho -44.2692
SV
-1 1:42.68 2:42.5 3:42.95 4:42.87 
-0.537261680109538 1:42.5 2:42.95 3:42.87 4:43.51 
1 1:42.95 2:42.87 3:43.51 4:43.79 
0.2221362097289287 1:42.87 2:43.51 3:43.79 4:44.67 
0.3151254703806095 1:43.51 2:43.79 3:44.67 4:44.98 
