svm_type epsilon_svr
kernel_type rbf
gamma 0.25
nr_class 2
total_sv 5
rho -113.698
SV
-0.6123184904050101 1:105.99 2:108.72 3:109.55 4:112.4 
-0.38768150959499 1:108.72 2:109.55 3:112.4 4:112.98 
-1 1:109.55 2:112.4 3:112.98 4:113.1 
1 1:112.4 2:112.98 3:113.1 4:109.14 
1 1:112.98 2:113.1 3:109.14 4:115.31 
