svm_type epsilon_svr
kernel_type rbf
gamma 0.25
nr_class 2
total_sv 5
rho -50.166
SV
1 1:47.2 2:47.93 3:48.44 4:48.46 
-0.6424301842571679 1:47.93 2:48.44 3:48.46 4:51.47 
-0.1632122698738997 1:48.44 2:48.46 3:51.47 4:49.5 
-0.03108889813366708 1:48.46 2:51.47 3:49.5 4:49.92 
-0.1632686477352653 1:51.47 2:49.5 3:49.92 4:50.01 
