svm_type epsilon_svr
kernel_type rbf
gamma 0.25
nr_class 2
total_sv 5
rho -74.63
SV
-0.5032334364205363 1:74.88 2:74.24 3:74.34 4:73.33 
-0.8942545353934297 1:74.24 2:74.34 3:73.33 4:73.6 
-0.602512028186034 1:74.34 2:73.33 3:73.6 4:73.75 
1 1:73.33 2:73.6 3:73.75 4:74.01 
1 1:73.6 2:73.75 3:74.01 4:75.63 
