svm_type epsilon_svr
kernel_type rbf
gamma 0.25
nr_class 2
total_sv 4
rho -78.47
SV
-0.09813140101820815 1:76.43 2:77 3:77.91 4:76.8 
-1 1:77.91 2:76.8 3:78.29 4:78.54 
0.4059830212276449 1:76.8 2:78.29 3:78.54 4:77.22 
0.6921483797905633 1:78.29 2:78.54 3:77.22 4:78.79 
