svm_type epsilon_svr
kernel_type rbf
gamma 0.25
nr_class 2
total_sv 5
rho -39.8956
SV
-0.2884140055942634 1:39.69 2:39.43 3:39.06 4:39.42 
-1 1:39.43 2:39.06 3:39.42 4:39.64 
0.04714018187915889 1:39.06 2:39.42 3:39.64 4:39.54 
1 1:39.42 2:39.64 3:39.54 4:39.97 
0.2412738237151045 1:39.64 2:39.54 3:39.97 4:40.42 
