svm_type epsilon_svr
kernel_type rbf
gamma 0.25
nr_class 2
total_sv 5
rho -607.39
SV
-1 1:593.87 2:588.82001 3:597.50995 4:604.59003 
-0.9800392468855532 1:588.82001 2:597.50995 3:604.59003 4:604.70996 
-0.0199607531144468 1:597.50995 2:604.59003 3:604.70996 4:606.30994 
1 1:604.59003 2:604.70996 3:606.30994 4:607.27002 
1 1:604.70996 2:606.30994 3:607.27002 4:614.13 
