svm_type epsilon_svr
kernel_type rbf
gamma 0.25
nr_class 2
total_sv 5
rho -52.2464
SV
-1 1:52.11 2:49.38 3:50.83 4:50.7 
0.7662295949370601 1:49.38 2:50.83 3:50.7 4:50.88 
-0.3267908966148708 1:50.83 2:50.7 3:50.88 4:53 
-0.07753441270604988 1:50.7 2:50.88 3:53 4:51.94 
0.6380957143838606 1:50.88 2:53 3:51.94 4:52.17 
