svm_type epsilon_svr
kernel_type rbf
gamma 0.25
nr_class 2
total_sv 4
rho -32.5282
SV
0.2834639322636183 1:33.36 2:33.13 3:33.1 4:32.67 
1 1:33.13 2:33.1 3:32.67 4:32.79 
-0.2834639322636183 1:32.67 2:32.79 3:32.83 4:32.59 
-1 1:32.79 2:32.83 3:32.59 4:32.33 
