svm_type epsilon_svr
kernel_type rbf
gamma 0.25
nr_class 2
total_sv 5
rho -119.964
SV
-0.1382202759666304 1:118.9 2:117.16 3:118.63 4:118.65 
0.2417474383651406 1:117.16 2:118.63 3:118.65 4:119.56 
-1 1:118.63 2:118.65 3:119.56 4:119.94 
-0.1035271623985102 1:118.65 2:119.56 3:119.94 4:118.93 
1 1:119.56 2:119.94 3:118.93 4:119.72 
