svm_type epsilon_svr
kernel_type rbf
gamma 0.25
nr_class 2
total_sv 4
rho -78.0515
SV
-0.2912122363738266 1:80.9 2:81.21 3:80.01 4:79.44 
-0.55654386733177 1:81.21 2:80.01 3:79.44 4:77.55 
0.9617088050730567 1:80.01 2:79.44 3:77.55 4:77.57 
-0.11395270136746 1:79.44 2:77.55 3:77.57 4:78.93 
