svm_type epsilon_svr
kernel_type rbf
gamma 0.25
nr_class 2
total_sv 5
rho -40.2908
SV
-0.1875873369810274 1:38.02 2:38.74 3:38.9 4:39.24 
-1 1:38.74 2:38.9 3:39.24 4:39.52 
-0.5289380900539628 1:38.9 2:39.24 3:39.52 4:38.48 
1 1:39.24 2:39.52 3:38.48 4:39.46 
0.7165254270349901 1:39.52 2:38.48 3:39.46 4:41.44 
