svm_type epsilon_svr
kernel_type rbf
gamma 0.25
nr_class 2
total_sv 4
rho -44.2411
SV
0.3334765827082458 1:47.99 2:46.46 3:43.73 4:43.99 
0.583031603703182 1:46.46 2:43.73 3:43.99 4:44.69 
0.08349181358857227 1:43.73 2:43.99 3:44.69 4:44.7 
-1 1:44.69 2:44.7 3:44.05 4:43.55 
