svm_type epsilon_svr
kernel_type rbf
gamma 0.25
nr_class 2
total_sv 5
rho -94.3265
SV
0.7862956261533364 1:95.04 2:95.22 3:96.45 4:95.32 
-1 1:95.22 2:96.45 3:95.32 4:94.78 
0.1887071476567472 1:96.45 2:95.32 3:94.78 4:93.09 
-0.3168319176046559 1:95.32 2:94.78 3:93.09 4:94.43 
0.3418291437945722 1:94.78 2:93.09 3:94.43 4:93.94 
