svm_type epsilon_svr
kernel_type rbf
gamma 0.25
nr_class 2
total_sv 5
rho -93.7397
SV
-0.861059214508088 1:90.28 2:90.36 3:90.9 4:91.98 
0.334319136631878 1:90.36 2:90.9 3:91.98 4:92.93 
-0.3577233764776744 1:90.9 2:91.98 3:92.93 4:93.52 
-0.1155365456461155 1:91.98 2:92.93 3:93.52 4:93.48 
1 1:92.93 2:93.52 3:93.48 4:94.03 
