svm_type epsilon_svr
kernel_type rbf
gamma 0.25
nr_class 2
total_sv 5
rho -38.5694
SV
1 1:41.03 2:41.52 3:40.93 4:41.08 
0.5222259189802083 1:41.52 2:40.93 3:41.08 4:41.1 
-0.8421078983168695 1:40.93 2:41.08 3:41.1 4:39.6 
-0.09393521620002677 1:41.08 2:41.1 3:39.6 4:38.38 
-0.5861828044633121 1:41.1 2:39.6 3:38.38 4:37.97 
