svm_type epsilon_svr
kernel_type rbf
gamma 0.25
nr_class 2
total_sv 5
rho -46.3685
SV
-0.6348618580778331 1:43.5 2:44.7 3:45.87 4:45.43 
-0.3503161330484571 1:44.7 2:45.87 3:45.43 4:45.63 
-1 1:45.87 2:45.43 3:45.63 4:46.05 
1 1:45.43 2:45.63 3:46.05 4:46.34 
0.9851779911262903 1:45.63 2:46.05 3:46.34 4:47.08 
