svm_type epsilon_svr
kernel_type rbf
gamma 0.25
nr_class 2
total_sv 3
rho -45.1284
SV
-0.1894543818767678 1:44.15 2:45.33 3:44.76 4:45.12 
-0.8105456181232322 1:45.33 2:44.76 3:45.12 4:45.09 
1 1:45.12 2:45.09 3:45.06 4:45.11 
