svm_type epsilon_svr
kernel_type rbf
gamma 0.25
nr_class 2
total_sv 5
rho -379.277
SV
-1 1:375.14001 2:377.17001 3:381.82999 4:375.42999 
-0.1766087493096225 1:377.17001 2:381.82999 3:375.42999 4:373.37 
1 1:381.82999 2:375.42999 3:373.37 4:379 
0.763401246051537 1:375.42999 2:373.37 3:379 4:383.66 
-0.5867924967419146 1:373.37 2:379 3:383.66 4:380.14001 
