svm_type epsilon_svr
kernel_type rbf
gamma 0.25
nr_class 2
total_sv 5
rho -77.0847
SV
1 1:78.45 2:77.19 3:76.15 4:76.15 
0.6642432999625223 1:77.19 2:76.15 3:76.15 4:78.18 
-0.3087192119457972 1:76.15 2:76.15 3:78.18 4:77.74 
-0.3555240880167252 1:76.15 2:78.18 3:77.74 4:76.72 
-1 1:78.18 2:77.74 3:76.72 4:76.45 
