svm_type epsilon_svr
kernel_type rbf
gamma 0.25
nr_class 2
total_sv 4
rho -46.6436
SV
0.4944943974384252 1:46.47 2:46.76 3:46.84 4:47 
-1 1:46.76 2:46.84 3:47 4:46.7 
0.6884939205500038 1:46.84 2:47 3:46.7 4:46.24 
-0.182988317988429 1:47 2:46.7 3:46.24 4:46.76 
