svm_type epsilon_svr
kernel_type rbf
gamma 0.25
nr_class 2
total_sv 5
rho -77.3668
SV
-0.6590798941483705 1:75.83 2:75.95 3:77.26 4:77.89 
0.6258435982501761 1:75.95 2:77.26 3:77.89 4:76.67 
0.8742458802906978 1:77.26 2:77.89 3:76.67 4:77.43 
0.1589904156074967 1:77.89 2:76.67 3:77.43 4:77.92 
-1 1:76.67 2:77.43 3:77.92 4:77.48 
