svm_type epsilon_svr
kernel_type rbf
gamma 0.25
nr_class 2
total_sv 4
rho -76.0139
SV
-0.01243468845548878 1:76.53 2:76.74 3:76.51 4:76.1 
-1 1:76.74 2:76.51 3:76.1 4:75.77 
1 1:76.51 2:76.1 3:75.77 4:75.81 
0.01243468845548878 1:75.77 2:75.81 3:76.32 4:76.24 
