svm_type epsilon_svr
kernel_type rbf
gamma 0.25
nr_class 2
total_sv 3
rho -48.3941
SV
-0.9074382094220969 1:45.63 2:46.05 3:46.34 4:47.08 
-0.09256179057790315 1:46.34 2:47.08 3:47.46 4:47.93 
1 1:47.08 2:47.46 3:47.93 4:48.55 
