svm_type epsilon_svr
kernel_type rbf
gamma 0.25
nr_class 2
total_sv 5
rho -94.6894
SV
1 1:95.35 2:95.39 3:95.04 4:95.22 
0.1837435600661316 1:95.39 2:95.04 3:95.22 4:96.45 
-0.01109895039793069 1:95.04 2:95.22 3:96.45 4:95.32 
-1 1:95.22 2:96.45 3:95.32 4:94.78 
-0.1726446096682009 1:96.45 2:95.32 3:94.78 4:93.09 
