svm_type epsilon_svr
kernel_type rbf
gamma 0.25
nr_class 2
total_sv 5
rho -44.9888
SV
1 1:48.18 2:48.89 3:48.95 4:49.44 
1 1:48.89 2:48.95 3:49.44 4:47.99 
-1 1:48.95 2:49.44 3:47.99 4:46.46 
-0.8437555930612946 1:49.44 2:47.99 3:46.46 4:43.73 
-0.1562444069387054 1:47.99 2:46.46 3:43.73 4:43.99 
