svm_type epsilon_svr
kernel_type rbf
gamma 0.25
nr_class 2
total_sv 5
rho -82.9002
SV
0.03376251241033598 1:82.75 2:83.8 3:84.43 4:85.31 
0.04743629105882925 1:83.8 2:84.43 3:85.31 4:82.92 
0.3350508388000035 1:84.43 2:85.31 3:82.92 4:83.01 
0.2964761976165008 1:85.31 2:82.92 3:83.01 4:83.3 
-0.7127258398856695 1:82.92 2:83.01 3:83.3 4:83.2 
