svm_type epsilon_svr
kernel_type rbf
gamma 0.25
nr_class 2
total_sv 3
rho -47.8492
SV
0.3738877101025013 1:45.74 2:47.52 3:47.66 4:47.98 
0.6261122898974987 1:47.52 2:47.66 3:47.98 4:48.45 
-1 1:48.45 2:48.14 3:47.88 4:47.45 
