svm_type epsilon_svr
kernel_type rbf
gamma 0.25
nr_class 2
total_sv 4
rho -384.846
SV
0.4227057868901636 1:379 2:383.66 3:380.14001 4:378.59 
-1 1:380.14001 2:378.59 3:385.37 4:384.79999 
0.71302335003185 1:378.59 2:385.37 3:384.79999 4:380.16 
-0.1357291369220138 1:385.37 2:384.79999 3:380.16 4:385.66 
