svm_type epsilon_svr
kernel_type rbf
gamma 0.25
nr_class 2
total_sv 5
rho -325.35
SV
-0.2499999496713115 1:331.19 2:323.89001 3:327.76001 4:324 
1 1:323.89001 2:327.76001 3:324 4:325 
-0.7500000503286886 1:327.76001 2:324 3:325 4:331.32001 
-1 1:324 2:325 3:331.32001 4:324.5 
1 1:325 2:331.32001 3:324.5 4:323.63 
