svm_type epsilon_svr
kernel_type rbf
gamma 0.25
nr_class 2
total_sv 4
rho -518.73
SV
-1 1:531.34998 2:527.92999 3:527.81 4:515.14001 
-1 1:527.92999 2:527.81 3:515.14001 4:509.95999 
1 1:515.14001 2:509.95999 3:511 4:518.72998 
1 1:509.95999 2:511 3:518.72998 4:529.91998 
