svm_type epsilon_svr
kernel_type rbf
gamma 0.25
nr_class 2
total_sv 5
rho -304.36
SV
-1 1:304.64001 2:297.62 3:295.19 4:297.70001 
-1 1:297.62 2:295.19 3:297.70001 4:296.76001 
0.550224000384371 1:295.19 2:297.70001 3:296.76001 4:301.19 
0.4497759996156289 1:297.70001 2:296.76001 3:301.19 4:305.01001 
1 1:296.76001 2:301.19 3:305.01001 4:304.91 
