svm_type epsilon_svr
kernel_type rbf
gamma 0.25
nr_class 2
total_sv 5
rho -33.316
SV
1 1:33.48 2:33.72 3:33.63 4:33.77 
0.343785255624092 1:33.72 2:33.63 3:33.77 4:33.61 
-1 1:33.63 2:33.77 3:33.61 4:33.46 
-0.41492802030979 1:33.77 2:33.61 3:33.46 4:32.79 
0.07114276468569795 1:33.61 2:33.46 3:32.79 4:33.03 
