svm_type epsilon_svr
kernel_type rbf
gamma 0.25
nr_class 2
total_sv 4
rho -381.2
SV
-1 1:374.59 2:372.10001 3:370.26001 4:372.25 
-1 1:372.10001 2:370.26001 3:372.25 4:377.04001 
1 1:372.25 2:377.04001 3:374.41 4:381.20001 
1 1:377.04001 2:374.41 3:381.20001 4:383.54001 
