svm_type epsilon_svr
kernel_type rbf
gamma 0.25
nr_class 2
total_sv 4
rho -76.4172
SV
-1 1:74.24 2:74.34 3:73.33 4:73.6 
-1 1:74.34 2:73.33 3:73.6 4:73.75 
1 1:73.6 2:73.75 3:74.01 4:75.63 
1 1:73.75 2:74.01 3:75.63 4:77.62 
