svm_type epsilon_svr
kernel_type rbf
gamma 0.25
nr_class 2
total_sv 5
rho -588.243
SV
0.9263838281042354 1:575.62 2:573.09998 3:579.95001 4:584.77002 
1 1:573.09998 2:579.95001 3:584.77002 4:589.27002 
-0.7727376562395989 1:579.95001 2:584.77002 3:589.27002 4:596.08002 
-1 1:584.77002 2:589.27002 3:596.08002 4:587.37 
-0.1536461718646365 1:589.27002 2:596.08002 3:587.37 4:581.13 
