svm_type epsilon_svr
kernel_type rbf
gamma 0.25
nr_class 2
total_sv 4
rho -33.3278
SV
1 1:33.25 2:33.34 3:33.5 4:33.7 
1 1:33.5 2:33.7 3:33.71 4:33.47 
-1 1:33.7 2:33.71 3:33.47 4:33.47 
-1 1:33.71 2:33.47 3:33.47 4:33.13 
