svm_type epsilon_svr
kernel_type rbf
gamma 0.25
nr_class 2
total_sv 4
rho -582.66
SV
-1 1:582.25 2:571.09003 3:576.08002 4:571.09998 
1 1:571.09003 2:576.08002 3:571.09998 4:579.17999 
1 1:576.08002 2:571.09998 3:579.17999 4:584.87 
-1 1:579.17999 2:584.87 3:584.78003 4:582.65997 
