svm_type epsilon_svr
kernel_type rbf
gamma 0.25
nr_class 2
total_sv 5
rho -309.88
SV
-1 1:297.73001 2:299.89999 3:306.54001 4:306.29001 
-0.6893744327116064 1:299.89999 2:306.54001 3:306.29001 4:303.03 
1 1:306.54001 2:306.29001 3:303.03 4:309.09 
0.3196768028832115 1:306.29001 2:303.03 3:309.09 4:312.04001 
0.3696976298283949 1:303.03 2:309.09 3:312.04001 4:310.29999 
