svm_type epsilon_svr
kernel_type rbf
gamma 0.25
nr_class 2
total_sv 5
rho -52.6163
SV
-0.7557467329150946 1:52.96 2:51.45 3:51.89 4:51.74 
-1 1:51.45 2:51.89 3:51.74 4:51.58 
-0.1284090157566898 1:51.89 2:51.74 3:51.58 4:50.06 
1 1:51.74 2:51.58 3:50.06 4:51.85 
0.8841557486717846 1:51.58 2:50.06 3:51.85 4:53.94 
