svm_type epsilon_svr
kernel_type rbf
gamma 0.25
nr_class 2
total_sv 4
rho -38.0091
SV
-1 1:37.83 2:37.5 3:37.64 4:38.01 
-1 1:37.5 2:37.64 3:38.01 4:37.71 
1 1:37.64 2:38.01 3:37.71 4:37.79 
1 1:38.01 2:37.71 3:37.79 4:38.18 
