svm_type epsilon_svr
kernel_type rbf
gamma 0.25
nr_class 2
total_sv 4
rho -47.7827
SV
0.1634999994468498 1:48.47 2:48.69 3:48.55 4:49.41 
0.4328254676227363 1:48.69 2:48.55 3:49.41 4:48.08 
-0.1001005497855348 1:49.41 2:48.08 3:48.15 4:47.71 
-0.4962249172840514 1:48.08 2:48.15 3:47.71 4:47.57 
