svm_type epsilon_svr
kernel_type rbf
gamma 0.25
nr_class 2
total_sv 5
rho -44.4142
SV
0.503584060362322 1:45.53 2:45.73 3:45.78 4:44.45 
0.09871974192686027 1:45.73 2:45.78 3:44.45 4:44.66 
-0.6023038022891822 1:45.78 2:44.45 3:44.66 4:44.49 
-1 1:44.45 2:44.66 3:44.49 4:43.98 
1 1:44.66 2:44.49 3:43.98 4:43.7 
