svm_type epsilon_svr
kernel_type rbf
gamma 0.25
nr_class 2
total_sv 5
rho -76.4266
SV
1 1:76.24 2:76.74 3:77.65 4:77.83 
-1 1:76.74 2:77.65 3:77.83 4:77.5 
-0.2554650038125035 1:77.65 2:77.83 3:77.5 4:75.78 
1 1:77.83 2:77.5 3:75.78 4:76.24 
-0.7445349961874965 1:77.5 2:75.78 3:76.24 4:78 
