svm_type epsilon_svr
kernel_type rbf
gamma 0.25
nr_class 2
total_sv 4
rho -380.09
SV
1 1:384.79999 2:380.16 3:385.66 4:384.60999 
1 1:380.16 2:385.66 3:384.60999 4:382.72 
-1 1:384.60999 2:382.72 3:387.82999 4:380.09 
-1 1:382.72 2:387.82999 3:380.09 4:378.56 
