svm_type epsilon_svr
kernel_type rbf
gamma 0.25
nr_class 2
total_sv 5
rho -65.4281
SV
0.7515267183839422 1:67.13 2:67.6 3:67.29 4:68.06 
0.8540398353391124 1:67.6 2:67.29 3:68.06 4:66.45 
-0.330934764956637 1:67.29 2:68.06 3:66.45 4:66.29 
-1 1:68.06 2:66.45 3:66.29 4:65.29 
-0.2746317887664179 1:66.45 2:66.29 3:65.29 4:62.76 
