svm_type epsilon_svr
kernel_type rbf
gamma 0.25
nr_class 2
total_sv 5
rho -76.2956
SV
-0.07133450509461273 1:76.84 2:76.31 3:75.6 4:77.08 
0.1187496900400467 1:76.31 2:75.6 3:77.08 4:76.12 
-0.03922860196104586 1:75.6 2:77.08 3:76.12 4:76.49 
0.184877087857484 1:77.08 2:76.12 3:76.49 4:76.08 
-0.1930636708418721 1:76.12 2:76.49 3:76.08 4:76.47 
