svm_type epsilon_svr
kernel_type rbf
gamma 0.25
nr_class 2
total_sv 4
rho -46.2809
SV
-0.2533549823892779 1:48.14 2:47.88 3:47.45 4:47.02 
1 1:47.88 2:47.45 3:47.02 4:46.45 
-1 1:47.02 2:46.45 3:46.76 4:46.33 
0.2533549823892779 1:46.45 2:46.76 3:46.33 4:45.65 
