svm_type epsilon_svr
kernel_type rbf
gamma 0.25
nr_class 2
total_sv 5
rho -51.004
SV
1 1:51.25 2:51.04 3:51.83 4:51.72 
0.9098389722080409 1:51.04 2:51.83 3:51.72 4:51.93 
-1 1:51.83 2:51.72 3:51.93 4:51.74 
-0.1253006305075423 1:51.72 2:51.93 3:51.74 4:50.1 
-0.7845383417004986 1:51.93 2:51.74 3:50.1 4:50.67 
