svm_type epsilon_svr
kernel_type rbf
gamma 0.25
nr_class 2
total_sv 4
rho -31.873
SV
-1 1:31.01 2:31.09 3:31.45 4:31.07 
-0.3030323434358282 1:31.45 2:31.07 3:31.11 4:31.62 
1 1:31.07 2:31.11 3:31.62 4:31.74 
0.3030323434358282 1:31.11 2:31.62 3:31.74 4:32.19 
