svm_type epsilon_svr
kernel_type rbf
gamma 0.25
nr_class 2
total_sv 5
rho -390.42
SV
-0.8099849999999549 1:385.10999 2:383.45001 3:386.04001 4:375.56 
0.6599949999999524 1:383.45001 2:386.04001 3:375.56 4:389.51001 
-0.5200049999999976 1:386.04001 2:375.56 3:389.51001 4:391.17999 
-0.3300049999999999 1:375.56 2:389.51001 3:391.17999 4:389.79999 
1 1:389.51001 2:391.17999 3:389.79999 4:389.98999 
