svm_type epsilon_svr
kernel_type rbf
gamma 0.25
nr_class 2
total_sv 4
rho -30.4625
SV
-0.6777578264738462 1:30.79 2:30.54 3:30.48 4:30.49 
0.6777578264738462 1:30.54 2:30.48 3:30.49 4:30.36 
1 1:30.48 2:30.49 3:30.36 4:30.59 
-1 1:30.49 2:30.36 3:30.59 4:30.68 
