svm_type epsilon_svr
kernel_type rbf
gamma 0.25
nr_class 2
total_sv 4
rho -43.139
SV
0.4985752391357466 1:43.89 2:43.58 3:43.16 4:42.86 
-1 1:43.16 2:42.86 3:43.37 4:43.08 
0.4060129340672726 1:42.86 2:43.37 3:43.08 4:42.74 
0.09541182679698069 1:43.37 2:43.08 3:42.74 4:43.23 
