svm_type epsilon_svr
kernel_type rbf
gamma 0.25
nr_class 2
total_sv 5
rho -593.453
SV
-0.522922350114186 1:594.40997 2:592.32996 3:587.98999 4:585.53998 
0.2064660231803565 1:592.32996 2:587.98999 3:585.53998 4:592.83002 
0.3164563269338295 1:587.98999 2:585.53998 3:592.83002 4:593.76001 
-1 1:585.53998 2:592.83002 3:593.76001 4:593.87 
1 1:592.83002 2:593.76001 3:593.87 4:588.82001 
