svm_type epsilon_svr
kernel_type rbf
gamma 0.25
nr_class 2
total_sv 4
rho -323.581
SV
-1 1:310.16 2:313.78 3:312.54999 4:308.84 
-1 1:313.78 2:312.54999 3:308.84 4:307.19 
1 1:308.84 2:307.19 3:306.78 4:323.57001 
1 1:307.19 2:306.78 3:323.57001 4:329.67001 
