svm_type epsilon_svr
kernel_type rbf
gamma 0.25
nr_class 2
total_sv 4
rho -75.5806
SV
0.9280216628128514 1:77.32 2:77.21 3:77.01 4:76.62 
-1 1:77.01 2:76.62 3:76.16 4:75.73 
1 1:76.62 2:76.16 3:75.73 4:75.28 
-0.9280216628128515 1:76.16 2:75.73 3:75.28 4:75.34 
