svm_type epsilon_svr
kernel_type rbf
gamma 0.25
nr_class 2
total_sv 3
rho -39.6386
SV
0.5251312416788335 1:40.87 2:40.51 3:40.4 4:40 
-1 1:40.4 2:40 3:39.69 4:39.43 
0.4748687583211665 1:39.69 2:39.43 3:39.06 4:39.42 
