svm_type epsilon_svr
kernel_type rbf
gamma 0.25
nr_class 2
total_sv 5
rho -41.8731
SV
-0.2425321183604129 1:42.85 2:42.03 3:41.98 4:41.02 
-0.405965349188584 1:42.03 2:41.98 3:41.02 4:41.38 
-0.46809522174824 1:41.98 2:41.02 3:41.38 4:41.56 
1 1:41.02 2:41.38 3:41.56 4:41.7 
0.1165926892972368 1:41.38 2:41.56 3:41.7 4:42.5 
