svm_type epsilon_svr
kernel_type rbf
gamma 0.25
nr_class 2
total_sv 5
rho -47.9893
SV
-0.4131048539461252 1:46.49 2:46.62 3:46.05 4:46.95 
-0.2974001213783307 1:46.62 2:46.05 3:46.95 4:47.44 
-0.3965277442894832 1:46.05 2:46.95 3:47.44 4:47.57 
1 1:46.95 2:47.44 3:47.57 4:47.86 
0.107032719613939 1:47.44 2:47.57 3:47.86 4:48.7 
