svm_type epsilon_svr
kernel_type rbf
gamma 0.25
nr_class 2
total_sv 4
rho -44.5132
SV
-0.3727190508660511 1:41.69 2:42.09 3:42.14 4:42.45 
0.07464620732759662 1:42.09 2:42.14 3:42.45 4:44.08 
0.1598089318602995 1:42.45 2:44.08 3:44.53 4:44.69 
0.1382639116781549 1:44.08 2:44.53 3:44.69 4:44.84 
