svm_type epsilon_svr
kernel_type rbf
gamma 0.25
nr_class 2
total_sv 5
rho -35.4138
SV
-1 1:33.79 2:33.21 3:33.33 4:33.28 
-0.4509334665264295 1:33.21 2:33.33 3:33.28 4:33.6 
1 1:33.33 2:33.28 3:33.6 4:34.71 
0.2006388640943495 1:33.28 2:33.6 3:34.71 4:36.17 
0.25029460243208 1:33.6 2:34.71 3:36.17 4:36.12 
