svm_type epsilon_svr
kernel_type rbf
gamma 0.25
nr_class 2
total_sv 5
rho -78.7199
SV
0.9023178054632301 1:79.67 2:79.71 3:79.7 4:79.12 
-1 1:79.71 2:79.7 3:79.12 4:78.62 
-0.8102253103115323 1:79.7 2:79.12 3:78.62 4:78.01 
0.2444322214204512 1:79.12 2:78.62 3:78.01 4:77.96 
0.6634752834278511 1:78.62 2:78.01 3:77.96 4:78.69 
