svm_type epsilon_svr
kernel_type rbf
gamma 0.25
nr_class 2
total_sv 4
rho -115.312
SV
-1 1:108.72 2:109.55 3:112.4 4:112.98 
-1 1:109.55 2:112.4 3:112.98 4:113.1 
1 1:112.98 2:113.1 3:109.14 4:115.31 
1 1:113.1 2:109.14 3:115.31 4:118.9 
