svm_type epsilon_svr
kernel_type rbf
gamma 0.25
nr_class 2
total_sv 3
rho -76.6857
SV
-0.7568590682483766 1:75.28 2:75.62 3:75.75 4:76.07 
1 1:75.62 2:75.75 3:76.07 4:76.65 
-0.2431409317516235 1:76.65 2:77.21 3:77.06 4:76.82 
