svm_type epsilon_svr
kernel_type rbf
gamma 0.25
nr_class 2
total_sv 5
rho -38.8116
SV
-1 1:36.42 2:35.86 3:35.87 4:36.56 
0.8246377293572873 1:35.86 2:35.87 3:36.56 4:36.38 
-1 1:35.87 2:36.56 3:36.38 4:38.76 
0.1753622706427127 1:36.56 2:36.38 3:38.76 4:37.28 
1 1:36.38 2:38.76 3:37.28 4:39.09 
