svm_type epsilon_svr
kernel_type rbf
gamma 0.25
nr_class 2
total_sv 4
rho -52.0759
SV
-0.09730381863071019 1:50.83 2:50.7 3:50.88 4:53 
1 1:50.88 2:53 3:51.94 4:52.17 
-0.6168925286572429 1:53 2:51.94 3:52.17 4:52.96 
-0.2858036527120471 1:51.94 2:52.17 3:52.96 4:51.45 
