svm_type epsilon_svr
kernel_type rbf
gamma 0.25
nr_class 2
total_sv 4
rho -21.6574
SV
-0.5942490280311121 1:20.26 2:21.26 3:20.81 4:20.48 
0.4568629552053065 1:20.81 2:20.48 3:21.24 4:21.63 
-0.2364763311228806 1:20.48 2:21.24 3:21.63 4:21.93 
0.3738624039486863 1:21.24 2:21.63 3:21.93 4:21.69 
