svm_type epsilon_svr
kernel_type rbf
gamma 0.25
nr_class 2
total_sv 4
rho -325.1
SV
1 1:342.34 2:329.75 3:331.32999 4:330.51999 
-1 1:329.75 2:331.32999 3:330.51999 4:331.19 
1 1:331.32999 2:330.51999 3:331.19 4:323.89001 
-1 1:330.51999 2:331.19 3:323.89001 4:327.76001 
