svm_type epsilon_svr
kernel_type rbf
gamma 0.25
nr_class 2
total_sv 4
rho -45.2123
SV
0.7571734028459031 1:45.17 2:45.01 3:44.87 4:44.88 
-0.7571734028459032 1:45.01 2:44.87 3:44.88 4:45.43 
-1 1:44.87 2:44.88 3:45.43 4:45.09 
1 1:45.43 2:45.09 3:44.96 4:45.26 
