svm_type epsilon_svr
kernel_type rbf
gamma 0.25
nr_class 2
total_sv 4
rho -75.5871
SV
0.4180198520917568 1:74.99 2:75.7 3:75.87 4:75.68 
1 1:75.7 2:75.87 3:75.68 4:75.79 
-1 1:75.68 2:75.79 3:75.97 4:75.62 
-0.4180198520917568 1:75.79 2:75.97 3:75.62 4:74.91 
