svm_type epsilon_svr
kernel_type rbf
gamma 0.25
nr_class 2
total_sv 4
rho -44.5586
SV
-1 1:42.5 2:42.95 3:42.87 4:43.51 
0.5336768847038276 1:42.95 2:42.87 3:43.51 4:43.79 
0.4063827372697456 1:42.87 2:43.51 3:43.79 4:44.67 
0.05994037802642698 1:43.51 2:43.79 3:44.67 4:44.98 
