svm_type epsilon_svr
kernel_type rbf
gamma 0.25
nr_class 2
total_sv 5
rho -325.857
SV
-0.00291332812946746 1:324.20001 2:327.23999 3:324.16 4:327.44 
-1 1:327.23999 2:324.16 3:327.44 4:325.69 
-0.9970866718705326 1:324.16 2:327.44 3:325.69 4:324.57001 
1 1:327.44 2:325.69 3:324.57001 4:324.78 
1 1:325.69 2:324.57001 3:324.78 4:332.39001 
