svm_type epsilon_svr
kernel_type rbf
gamma 0.25
nr_class 2
total_sv 5
rho -528.305
SV
-1 1:510.66 2:534.52002 3:528.47998 4:529.23999 
-0.6249999978963366 1:534.52002 2:528.47998 3:529.23999 4:522.76001 
1 1:528.47998 2:529.23999 3:522.76001 4:527.58002 
-0.3750000021036634 1:529.23999 2:522.76001 3:527.58002 4:531 
1 1:522.76001 2:527.58002 3:531 4:527.83002 
