svm_type epsilon_svr
kernel_type rbf
gamma 0.25
nr_class 2
total_sv 4
rho -17.4485
SV
-1 1:17.12 2:16.98 3:17.05 4:17.04 
-0.6217000204919132 1:16.98 2:17.05 3:17.04 4:16.89 
1 1:17.05 2:17.04 3:16.89 4:17.24 
0.6217000204919132 1:16.89 2:17.24 3:17.53 4:17.43 
