svm_type epsilon_svr
kernel_type rbf
gamma 0.25
nr_class 2
total_sv 4
rho -74.598
SV
0.8995418204726351 1:76.64 2:76.99 3:76.35 4:75.97 
0.5758359236394045 1:76.99 2:76.35 3:75.97 4:75.71 
-1 1:75.97 2:75.71 3:75.44 4:74.78 
-0.4753777441120395 1:75.71 2:75.44 3:74.78 4:73.58 
