svm_type epsilon_svr
kernel_type rbf
gamma 0.25
nr_class 2
total_sv 5
rho -76.4079
SV
-1 1:76.24 2:76.22 3:76.84 4:76.31 
1 1:76.22 2:76.84 3:76.31 4:75.6 
-0.03631047675112524 1:76.84 2:76.31 3:75.6 4:77.08 
0.5255996116505632 1:76.31 2:75.6 3:77.08 4:76.12 
-0.4892891348994381 1:75.6 2:77.08 3:76.12 4:76.49 
