svm_type epsilon_svr
kernel_type rbf
gamma 0.25
nr_class 2
total_sv 4
rho -44.592
SV
0.01217728736834279 1:43.79 2:44.67 3:44.98 4:45.04 
-1 1:44.98 2:45.04 3:44.72 4:44.42 
-0.01217728736834279 1:45.04 2:44.72 3:44.42 4:44.2 
1 1:44.72 2:44.42 3:44.2 4:44.47 
