svm_type epsilon_svr
kernel_type rbf
gamma 0.25
nr_class 2
total_sv 4
rho -43.6245
SV
-1 1:43.55 2:42.94 3:42.57 4:43.07 
0.5912653043858654 1:42.94 2:42.57 3:43.07 4:42.96 
1 1:42.57 2:43.07 3:42.96 4:43.93 
-0.5912653043858654 1:43.07 2:42.96 3:43.93 4:44.42 
