svm_type epsilon_svr
kernel_type rbf
gamma 0.25
nr_class 2
total_sv 5
rho -38.145
SV
-1 1:39.42 2:40.1 3:38.92 4:37.15 
-0.0240822723749229 1:40.1 2:38.92 3:37.15 4:36.68 
-0.9759177276250771 1:38.92 2:37.15 3:36.68 4:37.53 
1 1:37.15 2:36.68 3:37.53 4:37.46 
1 1:36.68 2:37.53 3:37.46 4:39.79 
