svm_type epsilon_svr
kernel_type rbf
gamma 0.25
nr_class 2
total_sv 5
rho -528.25
SV
0.8893550208135821 1:510 2:510.66 3:534.52002 4:528.47998 
-1 1:510.66 2:534.52002 3:528.47998 4:529.23999 
-0.5696775084836636 1:534.52002 2:528.47998 3:529.23999 4:522.76001 
1 1:528.47998 2:529.23999 3:522.76001 4:527.58002 
-0.3196775123299185 1:529.23999 2:522.76001 3:527.58002 4:531 
