svm_type epsilon_svr
kernel_type rbf
gamma 0.25
nr_class 2
total_sv 5
rho -372.804
SV
-1 1:378.56 2:369.51001 3:366.37 4:374.23999 
0.4469703657068176 1:369.51001 2:366.37 3:374.23999 4:370.57999 
-0.7849301327071343 1:366.37 2:374.23999 3:370.57999 4:373.35001 
1 1:374.23999 2:370.57999 3:373.35001 4:371.92001 
0.3379597670003166 1:370.57999 2:373.35001 3:371.92001 4:375.14001 
