svm_type epsilon_svr
kernel_type rbf
gamma 0.25
nr_class 2
total_sv 4
rho -528.41
SV
1 1:535.21002 2:518.63 3:510 4:510.66 
0.7299849999999992 1:510 2:510.66 3:534.52002 4:528.47998 
-1 1:510.66 2:534.52002 3:528.47998 4:529.23999 
-0.7299849999999992 1:534.52002 2:528.47998 3:529.23999 4:522.76001 
