svm_type epsilon_svr
kernel_type rbf
gamma 0.25
nr_class 2
total_sv 5
rho -66.0338
SV
-1 1:64.19 2:64.4 3:65.6 4:64.34 
-0.4122450854942919 1:64.4 2:65.6 3:64.34 4:64.5 
-0.3481300310496273 1:65.6 2:64.34 3:64.5 4:65.37 
1 1:64.34 2:64.5 3:65.37 4:65.72 
0.7603751165439193 1:64.5 2:65.37 3:65.72 4:67.44 
