svm_type epsilon_svr
kernel_type rbf
gamma 0.25
nr_class 2
total_sv 4
rho -35.9996
SV
-1 1:35.7 2:35.79 3:35.66 4:35.91 
-1 1:35.79 2:35.66 3:35.91 4:35.79 
1 1:35.66 2:35.91 3:35.79 4:35.52 
1 1:35.91 2:35.79 3:35.52 4:36.19 
