svm_type epsilon_svr
kernel_type rbf
gamma 0.25
nr_class 2
total_sv 5
rho -48.8457
SV
1 1:50.17 2:49.13 3:49.21 4:48.59 
1 1:49.13 2:49.21 3:48.59 4:50.23 
-0.3680407314371717 1:49.21 2:48.59 3:50.23 4:49.72 
-0.6319592685628284 1:48.59 2:50.23 3:49.72 4:48.8 
-1 1:50.23 2:49.72 3:48.8 4:48.3 
