svm_type epsilon_svr
kernel_type rbf
gamma 0.25
nr_class 2
total_sv 4
rho -76.4738
SV
1 1:79.04 2:76.55 3:77.08 4:77.44 
1 1:77.08 2:77.44 3:77.56 4:76.29 
-1 1:77.44 2:77.56 3:76.29 4:77.52 
-1 1:77.56 2:76.29 3:77.52 4:75.91 
