svm_type epsilon_svr
kernel_type rbf
gamma 0.25
nr_class 2
total_sv 3
rho -41.0599
SV
-0.4108725682033293 1:40.52 2:40.75 3:40.32 4:40.5 
1 1:40.75 2:40.32 3:40.5 4:41.03 
-0.5891274317966707 1:40.32 2:40.5 3:41.03 4:41.52 
