svm_type epsilon_svr
kernel_type rbf
gamma 0.25
nr_class 2
total_sv 5
rho -35.8563
SV
0.05104174038743743 1:33.6 2:34.71 3:36.17 4:36.12 
-0.08777213637662133 1:34.71 2:36.17 3:36.12 4:35.9 
1 1:36.17 2:36.12 3:35.9 4:35.68 
-0.1457131707066966 1:36.12 2:35.9 3:35.68 4:36.6 
-0.8175564333041195 1:35.9 2:35.68 3:36.6 4:35.81 
