svm_type epsilon_svr
kernel_type rbf
gamma 0.25
nr_class 2
total_sv 5
rho -39.9691
SV
-0.2600513647176527 1:41.85 2:40.47 3:40.61 4:39.71 
-0.005029953727036511 1:40.47 2:40.61 3:39.71 4:39.81 
0.2650813184446892 1:40.61 2:39.71 3:39.81 4:40.03 
-1 1:39.71 2:39.81 3:40.03 4:40.19 
1 1:39.81 2:40.03 3:40.19 4:39.76 
