svm_type epsilon_svr
kernel_type rbf
gamma 0.25
nr_class 2
total_sv 4
rho -35.9718
SV
0.07963978835485302 1:33.28 2:33.6 3:34.71 4:36.17 
-0.4560263360431392 1:34.71 2:36.17 3:36.12 4:35.9 
1 1:36.17 2:36.12 3:35.9 4:35.68 
-0.6236134523117138 1:36.12 2:35.9 3:35.68 4:36.6 
