svm_type epsilon_svr
kernel_type rbf
gamma 0.25
nr_class 2
total_sv 4
rho -27.766
SV
-1 1:26.6 2:28.02 3:27.37 4:27.26 
-0.625714700081716 1:27.37 2:27.26 3:27.03 4:27.74 
0.625714700081716 1:27.26 2:27.03 3:27.74 4:27.69 
1 1:27.03 2:27.74 3:27.69 4:28.13 
