svm_type epsilon_svr
kernel_type rbf
gamma 0.25
nr_class 2
total_sv 4
rho -30.2138
SV
-0.6192302508351208 1:27.26 2:27.85 3:29.35 4:28.97 
0.3734090515777114 1:29.35 2:28.97 3:29.52 4:29.9 
-0.7541788007425906 1:28.97 2:29.52 3:29.9 4:30.56 
1 1:29.52 2:29.9 3:30.56 4:30.37 
