svm_type epsilon_svr
kernel_type rbf
gamma 0.25
nr_class 2
total_sv 5
rho -76.0861
SV
-1 1:77.74 2:76.72 3:76.45 4:76.28 
-0.6721948736040244 1:76.72 2:76.45 3:76.28 4:74.05 
0.1978304041580445 1:76.45 2:76.28 3:74.05 4:75.18 
0.4743644694459798 1:76.28 2:74.05 3:75.18 4:76.24 
1 1:74.05 2:75.18 3:76.24 4:76.74 
