svm_type epsilon_svr
kernel_type rbf
gamma 0.25
nr_class 2
total_sv 4
rho -48.662
SV
-1 1:47.5 2:47.95 3:48.5 4:48.03 
1 1:48.5 2:48.03 3:47.82 4:48.7 
-0.4915619017756379 1:48.03 2:47.82 3:48.7 4:49.11 
0.4915619017756379 1:47.82 2:48.7 3:49.11 4:48.47 
