svm_type epsilon_svr
kernel_type rbf
gamma 0.25
nr_class 2
total_sv 4
rho -44.2307
SV
1 1:44.53 2:44.69 3:44.84 4:44.83 
1 1:44.84 2:44.83 3:44.87 4:44.4 
-1 1:44.83 2:44.87 3:44.4 4:44.5 
-1 1:44.87 2:44.4 3:44.5 4:43.97 
