svm_type epsilon_svr
kernel_type rbf
gamma 0.25
nr_class 2
total_sv 4
rho -32.1495
SV
-0.260150244862706 1:31.61 2:31.58 3:31.53 4:31.32 
-0.3418079425196997 1:31.58 2:31.53 3:31.32 4:31.95 
0.3023128704154126 1:31.53 2:31.32 3:31.95 4:31.99 
0.299645316966993 1:31.32 2:31.95 3:31.99 4:32.29 
