svm_type epsilon_svr
kernel_type rbf
gamma 0.25
nr_class 2
total_sv 4
rho -86.9451
SV
1 1:85.71 2:86.19 3:86.65 4:87.28 
-1 1:86.19 2:86.65 3:87.28 4:87.33 
0.6533197079232765 1:86.65 2:87.28 3:87.33 4:85.91 
-0.6533197079232765 1:87.28 2:87.33 3:85.91 4:87.29 
