svm_type epsilon_svr
kernel_type rbf
gamma 0.25
nr_class 2
total_sv 5
rho -502.92
SV
1 1:534.03003 2:530.33002 3:530.41998 4:526.40002 
1 1:530.33002 2:530.41998 3:526.40002 4:524.81 
-0.8599999999999852 1:530.41998 2:526.40002 3:524.81 4:513.87 
-1 1:526.40002 2:524.81 3:513.87 4:501.95999 
-0.1400000000000148 1:524.81 2:513.87 3:501.95999 4:501.10001 
