svm_type epsilon_svr
kernel_type rbf
gamma 0.25
nr_class 2
total_sv 3
rho -45.0813
SV
-0.2585620156665375 1:44.27 2:44.79 3:45.11 4:45.33 
0.4038350866069945 1:44.79 2:45.11 3:45.33 4:44.95 
-0.145273070940457 1:44.95 2:45.22 3:45.15 4:45.17 
