svm_type epsilon_svr
kernel_type rbf
gamma 0.25
nr_class 2
total_sv 5
rho -98.1506
SV
0.9614288423004074 1:100.8 2:101.02 3:100.73 4:99.81 
-0.660327185590292 1:101.02 2:100.73 3:99.81 4:98.75 
-1 1:100.73 2:99.81 3:98.75 4:97.54 
-0.3011016567101152 1:99.81 2:98.75 3:97.54 4:96.26 
1 1:98.75 2:97.54 3:96.26 4:97.67 
