svm_type epsilon_svr
kernel_type rbf
gamma 0.25
nr_class 2
total_sv 5
rho -41.8332
SV
-1 1:41.5 2:41.68 3:41.65 4:41.51 
1 1:41.68 2:41.65 3:41.51 4:41.68 
-0.4174613383563682 1:41.65 2:41.51 3:41.68 4:41.99 
1 1:41.51 2:41.68 3:41.99 4:41.75 
-0.5825386616436319 1:41.68 2:41.99 3:41.75 4:42.03 
