svm_type epsilon_svr
kernel_type rbf
gamma 0.25
nr_class 2
total_sv 5
rho -74.9459
SV
1 1:74.81 2:74.57 3:74.57 4:75.02 
-0.74841744227096 1:74.57 2:74.57 3:75.02 4:75.96 
-1 1:74.57 2:75.02 3:75.96 4:74.63 
-0.2515825577290401 1:75.02 2:75.96 3:74.63 4:73.86 
1 1:75.96 2:74.63 3:73.86 4:74.82 
