svm_type epsilon_svr
kernel_type rbf
gamma 0.25
nr_class 2
total_sv 5
rho -38.4294
SV
1 1:41.52 2:40.93 3:41.08 4:41.1 
-0.4005834029141158 1:40.93 2:41.08 3:41.1 4:39.6 
-0.1215160624507207 1:41.08 2:41.1 3:39.6 4:38.38 
-0.4398610941652953 1:41.1 2:39.6 3:38.38 4:37.97 
-0.0380394404698681 1:39.6 2:38.38 3:37.97 4:37.82 
