svm_type epsilon_svr
kernel_type rbf
gamma 0.25
nr_class 2
total_sv 3
rho -42.7996
SV
0.1255331624514033 1:42.62 2:43.99 3:44.16 4:43.44 
-0.7149388412596228 1:44.16 2:43.44 3:42.98 4:42.68 
0.5894056788082195 1:43.44 2:42.98 3:42.68 4:42.5 
