svm_type epsilon_svr
kernel_type rbf
gamma 0.25
nr_class 2
total_sv 4
rho -39.981
SV
-1 1:38.18 2:38.31 3:38.51 4:39.27 
-0.601088246089603 1:38.31 2:38.51 3:39.27 4:38.87 
1 1:39.27 2:38.87 3:39.19 4:39.59 
0.601088246089603 1:38.87 2:39.19 3:39.59 4:41.81 
