svm_type epsilon_svr
kernel_type rbf
gamma 0.25
nr_class 2
total_sv 5
rho -76.2316
SV
-1 1:75.52 2:75.85 3:75.9 4:75.5 
-0.8441195054025262 1:75.85 2:75.9 3:75.5 4:75.75 
1 1:75.9 2:75.5 3:75.75 4:76.01 
1 1:75.5 2:75.75 3:76.01 4:76.56 
-0.1558804945974738 1:75.75 2:76.01 3:76.56 4:77.51 
