svm_type epsilon_svr
kernel_type rbf
gamma 0.25
nr_class 2
total_sv 5
rho -496.775
SV
-0.5049902012181349 1:513.87 2:501.95999 3:501.10001 4:502.67999 
-1 1:501.95999 2:501.10001 3:502.67999 4:496.17001 
-0.4950097987818651 1:501.10001 2:502.67999 3:496.17001 4:492.54999 
1 1:502.67999 2:496.17001 3:492.54999 4:496.17999 
1 1:496.17001 2:492.54999 3:496.17999 4:500.87 
