svm_type epsilon_svr
kernel_type rbf
gamma 0.25
nr_class 2
total_sv 5
rho -51.0972
SV
-1 1:47.46 2:47.93 3:48.55 4:49.41 
0.2774623818978882 1:47.93 2:48.55 3:49.41 4:49.05 
-0.8626425852994266 1:48.55 2:49.41 3:49.05 4:50.6 
0.5851802034015384 1:49.41 2:49.05 3:50.6 4:50.5 
1 1:49.05 2:50.6 3:50.5 4:51.75 
