svm_type epsilon_svr
kernel_type rbf
gamma 0.25
nr_class 2
total_sv 5
rho -76.5827
SV
0.7586767411175944 1:76.84 2:76.86 3:76.61 4:77.09 
0.2413232588824056 1:76.86 2:76.61 3:77.09 4:76.77 
1 1:76.61 2:77.09 3:76.77 4:76.64 
-1 1:77.09 2:76.77 3:76.64 4:76.99 
-1 1:76.77 2:76.64 3:76.99 4:76.35 
