svm_type epsilon_svr
kernel_type rbf
gamma 0.25
nr_class 2
total_sv 4
rho -545.06
SV
-1 1:526.65002 2:519.97998 3:520.63 4:528.85999 
-1 1:519.97998 2:520.63 3:528.85999 4:529.77002 
1 1:528.85999 2:529.77002 3:538.94 4:545.06 
1 1:529.77002 2:538.94 3:545.06 4:552.70001 
