svm_type epsilon_svr
kernel_type rbf
gamma 0.25
nr_class 2
total_sv 4
rho -544.49
SV
1 1:570.08002 2:575.28003 3:577.34998 4:563.73999 
1 1:575.28003 2:577.34998 3:563.73999 4:572.5 
-1 1:563.73999 2:572.5 3:560.88 4:544.48999 
-1 1:572.5 2:560.88 3:544.48999 4:533.21002 
