svm_type epsilon_svr
kernel_type rbf
gamma 0.25
nr_class 2
total_sv 4
rho -635.38
SV
-1 1:614.13 2:625.62994 3:624.01001 4:635.38 
-1 1:625.62994 2:624.01001 3:635.38 4:633 
1 1:624.01001 2:635.38 3:633 4:628.64996 
1 1:635.38 2:633 3:628.64996 4:637.53998 
