svm_type epsilon_svr
kernel_type rbf
gamma 0.25
nr_class 2
total_sv 4
rho -40.5731
SV
0.212199059579326 1:39.88 2:38.95 3:40.66 4:40.52 
-0.3855043846162358 1:38.95 2:40.66 3:40.52 4:40.75 
-0.8266946749630901 1:40.66 2:40.52 3:40.75 4:40.32 
1 1:40.52 2:40.75 3:40.32 4:40.5 
