svm_type epsilon_svr
kernel_type rbf
gamma 0.25
nr_class 2
total_sv 4
rho -86.0708
SV
-0.921208363603489 1:83.94 2:82.96 3:84.23 4:85.94 
0.313909798097039 1:82.96 2:84.23 3:85.94 4:85.16 
0.4644299045260785 1:84.23 2:85.94 3:85.16 4:86.38 
0.1428686609803716 1:85.94 2:85.16 3:86.38 4:86.66 
