svm_type epsilon_svr
kernel_type rbf
gamma 0.25
nr_class 2
total_sv 5
rho -37.4799
SV
1 1:41.74 2:39.04 3:38.91 4:39.06 
1 1:39.04 2:38.91 3:39.06 4:38.79 
-1 1:38.91 2:39.06 3:38.79 4:38.49 
-0.01721157940380776 1:39.06 2:38.79 3:38.49 4:36.29 
-0.9827884205961922 1:38.79 2:38.49 3:36.29 4:37.05 
