svm_type epsilon_svr
kernel_type rbf
gamma 0.25
nr_class 2
total_sv 5
rho -88.7986
SV
0.3771213090456438 1:85.65 2:86.31 3:88.6 4:90.47 
1 1:86.31 2:88.6 3:90.47 4:89.35 
0.6228786909543562 1:88.6 2:90.47 3:89.35 4:90.02 
-1 1:90.47 2:89.35 3:90.02 4:89.31 
-1 1:89.35 2:90.02 3:89.31 4:86.61 
