svm_type epsilon_svr
kernel_type rbf
gamma 0.25
nr_class 2
total_sv 5
rho -99.1312
SV
1 1:101.54 2:100.89 3:102.13 4:102.25 
1 1:100.89 2:102.13 3:102.25 4:102.5 
-1 1:102.13 2:102.25 3:102.5 4:103.3 
-0.9442298700991248 1:102.25 2:102.5 3:103.3 4:98.94 
-0.05577012990087515 1:102.5 2:103.3 3:98.94 4:98.12 
