svm_type epsilon_svr
kernel_type rbf
gamma 0.25
nr_class 2
total_sv 5
rho -51.5974
SV
-0.7760767079632803 1:52.64 2:52.11 3:49.38 4:50.83 
-0.6783126427885787 1:52.11 2:49.38 3:50.83 4:50.7 
1 1:49.38 2:50.83 3:50.7 4:50.88 
0.07486892591605539 1:50.83 2:50.7 3:50.88 4:53 
0.3795204248358036 1:50.7 2:50.88 3:53 4:51.94 
