svm_type epsilon_svr
kernel_type rbf
gamma 0.25
nr_class 2
total_sv 5
rho -24.2269
SV
-1 1:23.37 2:23.06 3:23.46 4:23.57 
-0.3947620790201132 1:23.06 2:23.46 3:23.57 4:23.29 
-0.6052379209798868 1:23.46 2:23.57 3:23.29 4:23.33 
1 1:23.57 2:23.29 3:23.33 4:23.39 
1 1:23.29 2:23.33 3:23.39 4:25.94 
