svm_type epsilon_svr
kernel_type rbf
gamma 0.25
nr_class 2
total_sv 5
rho -58.9425
SV
0.732670380883802 1:58.53 2:57.39 3:56.76 4:57.24 
0.6845968496475283 1:57.39 2:56.76 3:57.24 4:59.83 
0.2206791736784587 1:56.76 2:57.24 3:59.83 4:59.83 
-0.8898580340552262 1:57.24 2:59.83 3:59.83 4:59.23 
-0.7480883701545626 1:59.83 2:59.83 3:59.23 4:57.92 
