svm_type epsilon_svr
kernel_type rbf
gamma 0.25
nr_class 2
total_sv 5
rho -94.3188
SV
-1 1:95.22 2:96.45 3:95.32 4:94.78 
0.2974810698156477 1:96.45 2:95.32 3:94.78 4:93.09 
-0.4819661531715698 1:95.32 2:94.78 3:93.09 4:94.43 
0.184485083355922 1:94.78 2:93.09 3:94.43 4:93.94 
1 1:93.09 2:94.43 3:93.94 4:94.72 
