svm_type epsilon_svr
kernel_type rbf
gamma 0.25
nr_class 2
total_sv 3
rho -33.15
SV
-0.1469869504268203 1:33.3 2:32.86 3:32.87 4:32.78 
-0.8530130495731797 1:32.87 2:32.78 3:33.05 4:33.08 
1 1:33.05 2:33.08 3:33.03 4:33.14 
