svm_type epsilon_svr
kernel_type rbf
gamma 0.25
nr_class 2
total_sv 5
rho -576.13
SV
0.8699949999999603 1:587.37 2:581.13 3:587.98999 4:575.06 
0.1300050000000397 1:581.13 2:587.98999 3:575.06 4:577.09998 
1 1:587.98999 2:575.06 3:577.09998 4:576.35999 
-1 1:575.06 2:577.09998 3:576.35999 4:577.35999 
-1 1:577.09998 2:576.35999 3:577.35999 4:568.27002 
