svm_type epsilon_svr
kernel_type rbf
gamma 0.25
nr_class 2
total_sv 5
rho -572.905
SV
-1 1:531.90997 2:536.09003 3:543.87 4:555.47998 
-1 1:536.09003 2:543.87 3:555.47998 4:558.40002 
0.6350049999999783 1:543.87 2:555.47998 3:558.40002 4:571.34003 
0.3649950000000217 1:555.47998 2:558.40002 3:571.34003 4:573.64001 
1 1:558.40002 2:571.34003 3:573.64001 4:573.37 
