svm_type epsilon_svr
kernel_type rbf
gamma 0.25
nr_class 2
total_sv 4
rho -51.4055
SV
-0.7202006525544041 1:49.92 2:50.01 3:49.89 4:50.08 
-1 1:50.01 2:49.89 3:50.08 4:50.47 
1 1:50.08 2:50.47 3:50.42 4:50.84 
0.7202006525544041 1:50.47 2:50.42 3:50.84 4:52.87 
