svm_type epsilon_svr
kernel_type rbf
gamma 0.25
nr_class 2
total_sv 4
rho -354.53
SV
-1 1:310.32001 2:312.39001 3:309.66 4:306.75 
-1 1:312.39001 2:309.66 3:306.75 4:303.91 
1 1:306.75 2:303.91 3:311.78 4:354.53 
1 1:303.91 2:311.78 3:354.53 4:364.47 
