svm_type epsilon_svr
kernel_type rbf
gamma 0.25
nr_class 2
total_sv 5
rho -31.8005
SV
1 1:33.28 2:33.15 3:33.05 4:33.27 
-0.8182266955001639 1:33.15 2:33.05 3:33.27 4:33 
0.09775243203478336 1:33.05 2:33.27 3:33 4:31.78 
-0.3893811786931195 1:33.27 2:33 3:31.78 4:31.8 
0.1098554421585002 1:33 2:31.78 3:31.8 4:31.51 
