svm_type epsilon_svr
kernel_type rbf
gamma 0.25
nr_class 2
total_sv 5
rho -534.323
SV
1 1:537.5 2:539.27002 3:541.08002 4:540.37 
-0.5271166782140417 1:539.27002 2:541.08002 3:540.37 4:541.83002 
-0.4728833217859582 1:541.08002 2:540.37 3:541.83002 4:533.79999 
-1 1:540.37 2:541.83002 3:533.79999 4:533.75 
1 1:541.83002 2:533.79999 3:533.75 4:531.32001 
