svm_type epsilon_svr
kernel_type rbf
gamma 0.25
nr_class 2
total_sv 5
rho -92.7629
SV
-1 1:90.91 2:90.83 3:90.28 4:90.36 
-0.0425251368160865 1:90.83 2:90.28 3:90.36 4:90.9 
0.2256816753035679 1:90.28 2:90.36 3:90.9 4:91.98 
0.4268935597890678 1:90.36 2:90.9 3:91.98 4:92.93 
0.3899499017234508 1:90.9 2:91.98 3:92.93 4:93.52 
