svm_type epsilon_svr
kernel_type rbf
gamma 0.25
nr_class 2
total_sv 5
rho -49.0996
SV
1 1:48.68 2:48.89 3:48.87 4:48.78 
0.1090993374082749 1:48.89 2:48.87 3:48.78 4:49.61 
0.8909006625917251 1:48.87 2:48.78 3:49.61 4:49.58 
-1 1:48.78 2:49.61 3:49.58 4:49.46 
-1 1:49.61 2:49.58 3:49.46 4:48.74 
