svm_type epsilon_svr
kernel_type rbf
gamma 0.25
nr_class 2
total_sv 5
rho -37.9876
SV
0.5359340264553507 1:40.23 2:37.41 3:38.06 4:37.84 
1 1:37.41 2:38.06 3:37.84 4:38.33 
0.1126985978506073 1:38.06 2:37.84 3:38.33 4:38.31 
-0.6486326243059579 1:37.84 2:38.33 3:38.31 4:37.88 
-1 1:38.33 2:38.31 3:37.88 4:37.43 
