svm_type epsilon_svr
kernel_type rbf
gamma 0.25
nr_class 2
total_sv 4
rho -78.7069
SV
-1 1:79.7 2:79.12 3:78.62 4:78.01 
0.1288024921960268 1:79.12 2:78.62 3:78.01 4:77.96 
0.5906348846777107 1:78.62 2:78.01 3:77.96 4:78.69 
0.2805626231262624 1:77.96 2:78.69 3:79.2 4:79.15 
