svm_type epsilon_svr
kernel_type rbf
gamma 0.25
nr_class 2
total_sv 5
rho -39.0044
SV
1 1:40.5 2:41.03 3:41.52 4:40.93 
1 1:41.03 2:41.52 3:40.93 4:41.08 
-0.3116635423053797 1:41.52 2:40.93 3:41.08 4:41.1 
-1 1:40.93 2:41.08 3:41.1 4:39.6 
-0.6883364576946203 1:41.08 2:41.1 3:39.6 4:38.38 
