svm_type epsilon_svr
kernel_type rbf
gamma 0.25
nr_class 2
total_sv 4
rho -577.24
SV
-1 1:556.35999 2:564.95001 3:564.62 4:578.65002 
-1 1:564.62 2:578.65002 3:576 4:577.23999 
1 1:578.65002 2:576 3:577.23999 4:575.28003 
1 1:576 2:577.23999 3:575.28003 4:582.66998 
