svm_type epsilon_svr
kernel_type rbf
gamma 0.25
nr_class 2
total_sv 5
rho -111.622
SV
-1 1:111.95 2:111.62 3:109.73 4:108.23 
-1 1:111.62 2:109.73 3:108.23 4:106.75 
0.9519311570342667 1:109.73 2:108.23 3:106.75 4:109.41 
0.04806884296573337 1:108.23 2:106.75 3:109.41 4:112.65 
1 1:106.75 2:109.41 3:112.65 4:111.78 
