svm_type epsilon_svr
kernel_type rbf
gamma 0.25
nr_class 2
total_sv 5
rho -49.85
SV
-0.3403976652244416 1:45.98 2:46.1 3:48.17 4:48.06 
-0.07803941492417715 1:46.1 2:48.17 3:48.06 4:49.43 
1 1:48.17 2:48.06 3:49.43 4:49.75 
-0.879959532468826 1:48.06 2:49.43 3:49.75 4:51.02 
0.2983966126174449 1:49.43 2:49.75 3:51.02 4:49.33 
