svm_type epsilon_svr
kernel_type rbf
gamma 0.25
nr_class 2
total_sv 4
rho -130.422
SV
-1 1:127.08 2:127.83 3:128.72 4:128.45 
1 1:127.83 2:128.72 3:128.45 4:129.5 
1 1:128.72 2:128.45 3:129.5 4:133 
-1 1:128.45 2:129.5 3:133 4:132.17 
