svm_type epsilon_svr
kernel_type rbf
gamma 0.25
nr_class 2
total_sv 4
rho -78.7093
SV
1 1:80.84 2:80.65 3:80.29 4:80.15 
0.4208134826852408 1:80.65 2:80.29 3:80.15 4:79.74 
-1 1:80.29 2:80.15 3:79.74 4:79.24 
-0.4208134826852408 1:79.74 2:79.24 3:77.88 4:78.14 
