svm_type epsilon_svr
kernel_type rbf
gamma 0.25
nr_class 2
total_sv 3
rho -32.1265
SV
0.1195989089844445 1:32.79 2:32.83 3:32.59 4:32.33 
-1 1:32.33 2:32.19 3:32.07 4:32.17 
0.8804010910155555 1:32.19 2:32.07 3:32.17 4:31.92 
