svm_type epsilon_svr
kernel_type rbf
gamma 0.25
nr_class 2
total_sv 5
rho -554.16
SV
0.75 1:573.37 2:575.33002 3:567.685 4:568.84998 
-1 1:575.33002 2:567.685 3:568.84998 4:555.01001 
1 1:567.685 2:568.84998 3:555.01001 4:551.17999 
-1 1:568.84998 2:555.01001 3:551.17999 4:555.51001 
0.25 1:555.01001 2:551.17999 3:555.51001 4:547.32001 
