svm_type epsilon_svr
kernel_type rbf
gamma 0.25
nr_class 2
total_sv 3
rho -47.5649
SV
0.6305143289612216 1:48.69 2:48.55 3:49.41 4:48.08 
0.3694856710387784 1:48.08 2:48.15 3:47.71 4:47.57 
-1 1:48.15 2:47.71 3:47.57 4:47.35 
