svm_type epsilon_svr
kernel_type rbf
gamma 0.25
nr_class 2
total_sv 4
rho -31.6326
SV
0.1798288208689948 1:33.05 2:33.27 3:33 4:31.78 
-0.3016658357877151 1:33.27 2:33 3:31.78 4:31.8 
0.3574046356849158 1:33 2:31.78 3:31.8 4:31.51 
-0.2355676207661956 1:31.8 2:31.51 3:31.8 4:31.62 
