svm_type epsilon_svr
kernel_type rbf
gamma 0.25
nr_class 2
total_sv 5
rho -88.901
SV
-1 1:86.64 2:86.79 3:85.88 4:85.9 
-1 1:86.79 2:85.88 3:85.9 4:85.65 
0.7503450494630978 1:85.88 2:85.9 3:85.65 4:86.31 
1 1:85.9 2:85.65 3:86.31 4:88.6 
0.2496549505369022 1:85.65 2:86.31 3:88.6 4:90.47 
