svm_type epsilon_svr
kernel_type rbf
gamma 0.25
nr_class 2
total_sv 4
rho -32.6481
SV
1 1:33.13 2:32.84 3:32.61 4:32.75 
0.6828449736721335 1:32.84 2:32.61 3:32.75 4:32.92 
-1 1:32.75 2:32.92 3:32.8 4:32.62 
-0.6828449736721335 1:32.92 2:32.8 3:32.62 4:32.43 
