svm_type epsilon_svr
kernel_type rbf
gamma 0.25
nr_class 2
total_sv 4
rho -50.5514
SV
1 1:51.04 2:51.83 3:51.72 4:51.93 
-1 1:51.83 2:51.72 3:51.93 4:51.74 
0.2464419387758355 1:51.72 2:51.93 3:51.74 4:50.1 
-0.2464419387758355 1:51.93 2:51.74 3:50.1 4:50.67 
