svm_type epsilon_svr
kernel_type rbf
gamma 0.25
nr_class 2
total_sv 4
rho -299.99
SV
-1 1:307.35999 2:307.32001 3:306.07001 4:295.06 
-1 1:307.32001 2:306.07001 3:295.06 4:298.88 
1 1:295.06 2:298.88 3:297.73001 4:299.89999 
1 1:298.88 2:297.73001 3:299.89999 4:306.54001 
