svm_type epsilon_svr
kernel_type rbf
gamma 0.25
nr_class 2
total_sv 4
rho -43.3897
SV
0.8054657262152564 1:43.73 2:43.99 3:44.69 4:44.7 
-0.02934083241333411 1:44.69 2:44.7 3:44.05 4:43.55 
-1 1:44.7 2:44.05 3:43.55 4:42.94 
0.2238751061980777 1:44.05 2:43.55 3:42.94 4:42.57 
