svm_type epsilon_svr
kernel_type rbf
gamma 0.25
nr_class 2
total_sv 4
rho -76.7567
SV
1 1:76.55 2:76.84 3:76.86 4:76.61 
-0.4136825432769097 1:76.86 2:76.61 3:77.09 4:76.77 
0.4136825432769097 1:76.61 2:77.09 3:76.77 4:76.64 
-1 1:77.09 2:76.77 3:76.64 4:76.99 
