svm_type epsilon_svr
kernel_type rbf
gamma 0.25
nr_class 2
total_sv 4
rho -37.4661
SV
0.7269618940335182 1:37.84 2:38.33 3:38.31 4:37.88 
-1 1:38.33 2:38.31 3:37.88 4:37.43 
-0.7269618940335183 1:38.31 2:37.88 3:37.43 4:36.87 
1 1:37.88 2:37.43 3:36.87 4:37.05 
