svm_type epsilon_svr
kernel_type rbf
gamma 0.25
nr_class 2
total_sv 3
rho -42.9773
SV
0.2822350211487114 1:43.99 2:44.06 3:43.85 4:43.88 
0.7177649788512886 1:43.85 2:43.88 3:43.28 4:43.06 
-1 1:43.88 2:43.28 3:43.06 4:43.11 
