svm_type epsilon_svr
kernel_type rbf
gamma 0.25
nr_class 2
total_sv 5
rho -44.8095
SV
0.2090054016645055 1:45.9 2:45.76 3:46.09 4:46.09 
1 1:45.76 2:46.09 3:46.09 4:45.53 
0.7909945983354946 1:46.09 2:46.09 3:45.53 4:46.78 
-1 1:46.09 2:45.53 3:46.78 4:45.85 
-1 1:45.53 2:46.78 3:45.85 4:44.03 
