svm_type epsilon_svr
kernel_type rbf
gamma 0.25
nr_class 2
total_sv 5
rho -39.6574
SV
0.402909661885215 1:36.38 2:38.76 3:37.28 4:39.09 
-0.09749223064409931 1:38.76 2:37.28 3:39.09 4:40.17 
-0.01983001918412084 1:37.28 2:39.09 3:40.17 4:39.37 
0.7144125879430051 1:39.09 2:40.17 3:39.37 4:39.65 
-1 1:40.17 2:39.37 3:39.65 4:39.85 
