svm_type epsilon_svr
kernel_type rbf
gamma 0.25
nr_class 2
total_sv 4
rho -583.1
SV
1 1:571.59998 2:577.33002 3:577.94 4:581.97998 
1 1:577.33002 2:577.94 3:581.97998 4:586.08002 
-1 1:577.94 2:581.97998 3:586.08002 4:589.71997 
-1 1:586.08002 2:589.71997 3:581.01001 4:583.09998 
