svm_type epsilon_svr
kernel_type rbf
gamma 0.25
nr_class 2
total_sv 4
rho -516.35
SV
-1 1:528.34003 2:518.65997 3:513.79999 4:495.39001 
-1 1:518.65997 2:513.79999 3:495.39001 4:504.89001 
1 1:495.39001 2:504.89001 3:511.10001 4:516.34998 
1 1:504.89001 2:511.10001 3:516.34998 4:524.87 
