svm_type epsilon_svr
kernel_type rbf
gamma 0.25
nr_class 2
total_sv 4
rho -383.506
SV
-1 1:374.41 2:381.20001 3:383.54001 4:382.64999 
1 1:381.20001 2:383.54001 3:382.64999 4:382.35999 
1 1:382.64999 2:382.35999 3:385.10999 4:383.45001 
-1 1:382.35999 2:385.10999 3:383.45001 4:386.04001 
