svm_type epsilon_svr
kernel_type rbf
gamma 0.25
nr_class 2
total_sv 5
rho -41.5266
SV
1 1:45.92 2:47.13 3:47.18 4:47.01 
-0.2449210395546572 1:47.13 2:47.18 3:47.01 4:42.66 
0.3886900704987598 1:47.18 2:47.01 3:42.66 4:41.19 
-1 1:47.01 2:42.66 3:41.19 4:42.01 
-0.1437690309441025 1:42.66 2:41.19 3:42.01 4:40.4 
