svm_type epsilon_svr
kernel_type rbf
gamma 0.25
nr_class 2
total_sv 4
rho -33.4777
SV
0.3325472069766413 1:34.93 2:35.43 3:35.7 4:35.61 
-0.2936982848193286 1:35.43 2:35.7 3:35.61 4:33.79 
-0.1080492222042996 1:35.61 2:33.79 3:33.21 4:33.33 
0.06920030004698703 1:33.79 2:33.21 3:33.33 4:33.28 
