svm_type epsilon_svr
kernel_type rbf
gamma 0.25
nr_class 2
total_sv 4
rho -74.3068
SV
0.6629896902911218 1:73.34 2:74.2 3:73.95 4:74.67 
-0.6629896902911218 1:73.95 2:74.67 3:74.36 4:74.22 
1 1:74.67 2:74.36 3:74.22 4:74.03 
-1 1:74.36 2:74.22 3:74.03 4:74.39 
