svm_type epsilon_svr
kernel_type rbf
gamma 0.25
nr_class 2
total_sv 4
rho -31.1314
SV
-0.4040555784674322 1:31.88 2:31.66 3:31.68 4:31.19 
-0.1136051253632572 1:31.66 2:31.68 3:31.19 4:31.01 
1 1:31.68 2:31.19 3:31.01 4:31.09 
-0.4823392961693106 1:31.19 2:31.01 3:31.09 4:31.45 
