svm_type epsilon_svr
kernel_type rbf
gamma 0.25
nr_class 2
total_sv 5
rho -34.0929
SV
-1 1:34.45 2:34.4 3:34.17 4:33.8 
0.4685651727741105 1:34.4 2:34.17 3:33.8 4:33.41 
-0.9741016197287096 1:34.17 2:33.8 3:33.41 4:33.89 
0.5055364469545991 1:33.8 2:33.41 3:33.89 4:33.87 
1 1:33.41 2:33.89 3:33.87 4:34.36 
