svm_type epsilon_svr
kernel_type rbf
gamma 0.25
nr_class 2
total_sv 5
rho -74.7505
SV
-0.4127009550612222 1:72.83 2:73.77 3:74.3 4:73.63 
0.8841854575395439 1:73.77 2:74.3 3:73.63 4:74.59 
-0.03685506184871565 1:74.3 2:73.63 3:74.59 4:75.29 
-0.1079019764714746 1:73.63 2:74.59 3:75.29 4:74.81 
-0.3267274641581315 1:74.59 2:75.29 3:74.81 4:74.57 
