svm_type epsilon_svr
kernel_type rbf
gamma 0.25
nr_class 2
total_sv 5
rho -27.2587
SV
0.9771690922277989 1:26.75 2:28.11 3:27.85 4:27.91 
1 1:28.11 2:27.85 3:27.91 4:27.78 
-1 1:27.85 2:27.91 3:27.78 4:27.57 
-0.9960903338471659 1:27.91 2:27.78 3:27.57 4:26.69 
0.01892124161936704 1:27.78 2:27.57 3:26.69 4:26.54 
