svm_type epsilon_svr
kernel_type rbf
gamma 0.25
nr_class 2
total_sv 5
rho -319.425
SV
-1 1:313.64999 2:312.32001 3:313.89001 4:311.45001 
-0.9949676873314989 1:312.32001 2:313.89001 3:311.45001 4:316.79999 
-0.005032312668501169 1:313.89001 2:311.45001 3:316.79999 4:318.32999 
1 1:311.45001 2:316.79999 3:318.32999 4:319.32001 
1 1:316.79999 2:318.32999 3:319.32001 4:326.28 
