svm_type epsilon_svr
kernel_type rbf
gamma 0.25
nr_class 2
total_sv 5
rho -46.7206
SV
-0.7345307359697506 1:46.6 2:46.36 3:45.96 4:45.48 
-0.2654692640302493 1:46.36 2:45.96 3:45.48 4:46.24 
-1 1:45.96 2:45.48 3:46.24 4:46.39 
1 1:45.48 2:46.24 3:46.39 4:45.92 
1 1:46.24 2:46.39 3:45.92 4:47.13 
