svm_type epsilon_svr
kernel_type rbf
gamma 0.25
nr_class 2
total_sv 5
rho -23.1115
SV
-0.9479429925976743 1:20.67 2:20.82 3:21.91 4:22.17 
1 1:20.82 2:21.91 3:22.17 4:22.6 
-0.7536990763469533 1:21.91 2:22.17 3:22.6 4:23.37 
0.2095951157763327 1:22.17 2:22.6 3:23.37 4:23.06 
0.4920469531682951 1:22.6 2:23.37 3:23.06 4:23.46 
