svm_type epsilon_svr
kernel_type rbf
gamma 0.25
nr_class 2
total_sv 5
rho -34.7659
SV
-0.4682621931109185 1:33.41 2:33.89 3:33.87 4:34.36 
0.1283166095637839 1:33.89 2:33.87 3:34.36 4:34.7 
1 1:33.87 2:34.36 3:34.7 4:35.02 
-0.7300477202553631 1:34.36 2:34.7 3:35.02 4:35.12 
0.06999330380249777 1:34.7 2:35.02 3:35.12 4:34.78 
