svm_type epsilon_svr
kernel_type rbf
gamma 0.25
nr_class 2
total_sv 5
rho -40.8022
SV
0.568494427509815 1:48.56 2:43.78 3:42.08 4:41.8 
-0.5457458690710825 1:43.78 2:42.08 3:41.8 4:41.47 
0.4384782534087207 1:42.08 2:41.8 3:41.47 4:40.21 
-0.5255088638348059 1:41.8 2:41.47 3:40.21 4:40.9 
0.06428205198735273 1:41.47 2:40.21 3:40.9 4:40.37 
