svm_type epsilon_svr
kernel_type rbf
gamma 0.25
nr_class 2
total_sv 5
rho -565.805
SV
0.1646841796874696 1:590.59998 2:585.60999 3:587.41998 4:571.59998 
1 1:585.60999 2:587.41998 3:571.59998 4:566.07001 
-0.6343470898436863 1:587.41998 2:571.59998 3:566.07001 4:573.15002 
0.4696629101562166 1:571.59998 2:566.07001 3:573.15002 4:565.07001 
-1 1:566.07001 2:573.15002 3:565.07001 4:566.37402 
