svm_type epsilon_svr
kernel_type rbf
gamma 0.25
nr_class 2
total_sv 5
rho -65.21
SV
0.3298715715152793 1:67.29 2:68.06 3:66.45 4:66.29 
-1 1:68.06 2:66.45 3:66.29 4:65.29 
-0.05984871937631143 1:66.45 2:66.29 3:65.29 4:62.76 
-0.2700228521389679 1:66.29 2:65.29 3:62.76 4:64.97 
1 1:65.29 2:62.76 3:64.97 4:64.87 
