svm_type epsilon_svr
kernel_type rbf
gamma 0.25
nr_class 2
total_sv 5
rho -47.3572
SV
-1 1:45.84 2:46.27 3:47.07 4:46.66 
-0.2445546361534577 1:46.27 2:47.07 3:46.66 4:46.43 
-0.7554453638465424 1:47.07 2:46.66 3:46.43 4:46.93 
1 1:46.66 2:46.43 3:46.93 4:47.2 
1 1:46.43 2:46.93 3:47.2 4:47.93 
