svm_type epsilon_svr
kernel_type rbf
gamma 0.25
nr_class 2
total_sv 5
rho -30.1301
SV
1 1:30.36 2:30.59 3:30.68 4:30.35 
0.8266144442025141 1:30.59 2:30.68 3:30.35 4:30.45 
0.1733855557974859 1:30.68 2:30.35 3:30.45 4:30.35 
-1 1:30.35 2:30.45 3:30.35 4:30.28 
-1 1:30.45 2:30.35 3:30.28 4:29.78 
