svm_type epsilon_svr
kernel_type rbf
gamma 0.25
nr_class 2
total_sv 5
rho -324.666
SV
1 1:323.89001 2:327.76001 3:324 4:325 
-0.06389867690015102 1:327.76001 2:324 3:325 4:331.32001 
-0.9361013230998489 1:324 2:325 3:331.32001 4:324.5 
1 1:325 2:331.32001 3:324.5 4:323.63 
-1 1:331.32001 2:324.5 3:323.63 4:328.20999 
