svm_type epsilon_svr
kernel_type rbf
gamma 0.25
nr_class 2
total_sv 4
rho -34.8113
SV
-1 1:32.96 2:33.01 3:33.35 4:34.31 
0.07988516997127237 1:33.01 2:33.35 3:34.31 4:33.94 
1 1:33.35 2:34.31 3:33.94 4:34.84 
-0.07988516997127237 1:33.94 2:34.84 3:35.73 4:35.2 
