svm_type epsilon_svr
kernel_type rbf
gamma 0.25
nr_class 2
total_sv 5
rho -49.749
SV
-1 1:46.93 2:47.2 3:47.93 4:48.44 
1 1:47.2 2:47.93 3:48.44 4:48.46 
-0.1915768458435733 1:47.93 2:48.44 3:48.46 4:51.47 
0.0353249238855376 1:48.44 2:48.46 3:51.47 4:49.5 
0.1562519219580357 1:48.46 2:51.47 3:49.5 4:49.92 
