svm_type epsilon_svr
kernel_type rbf
gamma 0.25
nr_class 2
total_sv 4
rho -581.98
SV
-1 1:577.85999 2:571 3:569.20001 4:571.59998 
-1 1:571 2:569.20001 3:571.59998 4:577.33002 
1 1:571.59998 2:577.33002 3:577.94 4:581.97998 
1 1:577.33002 2:577.94 3:581.97998 4:586.08002 
