svm_type epsilon_svr
kernel_type rbf
gamma 0.25
nr_class 2
total_sv 5
rho -72.8126
SV
-0.4340769350708764 1:74.92 2:73.71 3:74.68 4:72.65 
0.6370534707776302 1:73.71 2:74.68 3:72.65 4:72.36 
-0.02792971985410769 1:74.68 2:72.65 3:72.36 4:73.51 
-0.4410406531079061 1:72.65 2:72.36 3:73.51 4:72.69 
0.2659938372552599 1:72.36 2:73.51 3:72.69 4:72.47 
