svm_type epsilon_svr
kernel_type rbf
gamma 0.25
nr_class 2
total_sv 5
rho -35.6662
SV
-1 1:34.9 2:34.65 3:34.87 4:34.65 
-1 1:34.65 2:34.87 3:34.65 4:34.73 
1 1:34.87 2:34.65 3:34.73 4:34.94 
0.3204056582212242 1:34.65 2:34.73 3:34.94 4:35.92 
0.6795943417787758 1:34.73 2:34.94 3:35.92 4:36.04 
