svm_type epsilon_svr
kernel_type rbf
gamma 0.25
nr_class 2
total_sv 3
rho -76.3761
SV
-0.9543996196358454 1:75.77 2:75.81 3:76.32 4:76.24 
1 1:75.81 2:76.32 3:76.24 4:76.22 
-0.04560038036415463 1:76.32 2:76.24 3:76.22 4:76.84 
