svm_type epsilon_svr
kernel_type rbf
gamma 0.25
nr_class 2
total_sv 4
rho -74.254
SV
1 1:76.99 2:76.35 3:75.97 4:75.71 
0.4543954395082855 1:76.35 2:75.97 3:75.71 4:75.44 
-1 1:75.97 2:75.71 3:75.44 4:74.78 
-0.4543954395082855 1:75.44 2:74.78 3:73.58 4:73.54 
