svm_type epsilon_svr
kernel_type rbf
gamma 0.25
nr_class 2
total_sv 5
rho -75.9424
SV
-0.7243623427349528 1:73.33 2:73.6 3:73.75 4:74.01 
1 1:73.6 2:73.75 3:74.01 4:75.63 
1 1:73.75 2:74.01 3:75.63 4:77.62 
-0.9244900760577961 1:74.01 2:75.63 3:77.62 4:77.7 
-0.3511475812072511 1:75.63 2:77.62 3:77.7 4:75.1 
