svm_type epsilon_svr
kernel_type rbf
gamma 0.25
nr_class 2
total_sv 5
rho -37.7641
SV
0.1944045575060631 1:36.19 2:36.36 3:36.47 4:37.38 
-0.3789585301653859 1:36.36 2:36.47 3:37.38 4:37.83 
-0.1499746248098646 1:36.47 2:37.38 3:37.83 4:37.5 
0.7449144204297569 1:37.38 2:37.83 3:37.5 4:37.64 
-0.4103858229605695 1:37.83 2:37.5 3:37.64 4:38.01 
