svm_type epsilon_svr
kernel_type rbf
gamma 0.25
nr_class 2
total_sv 5
rho -72.7867
SV
-0.03376982808857266 1:75.19 2:74.92 3:73.71 4:74.68 
-0.4276979140578406 1:74.92 2:73.71 3:74.68 4:72.65 
0.7561400692406328 1:73.71 2:74.68 3:72.65 4:72.36 
-0.0141307356640682 1:74.68 2:72.65 3:72.36 4:73.51 
-0.2805415914301513 1:72.65 2:72.36 3:73.51 4:72.69 
