svm_type epsilon_svr
kernel_type rbf
gamma 0.25
nr_class 2
total_sv 4
rho -30.669
SV
-0.9214821700374871 1:30.37 2:31.13 3:31.75 4:31.08 
-0.04125664911542645 1:31.13 2:31.75 3:31.08 4:30.01 
-0.03726118084708645 1:31.75 2:31.08 3:30.01 4:30.36 
1 1:31.08 2:30.01 3:30.36 4:30.88 
