svm_type epsilon_svr
kernel_type rbf
gamma 0.25
nr_class 2
total_sv 5
rho -75.25
SV
1 1:75.87 2:75.68 3:75.79 4:75.97 
-1 1:75.68 2:75.79 3:75.97 4:75.62 
0.5426864156244046 1:75.79 2:75.97 3:75.62 4:74.91 
-0.5461275228839054 1:75.97 2:75.62 3:74.91 4:75.34 
0.003441107259500862 1:75.62 2:74.91 3:75.34 4:75.07 
