svm_type epsilon_svr
kernel_type rbf
gamma 0.25
nr_class 2
total_sv 4
rho -91.9662
SV
0.2240617850381525 1:645.57001 2:93.7 3:94.25 4:93.86 
-0.7402878906901371 1:93.7 2:94.25 3:93.86 4:92.29 
0.4032002040733579 1:94.25 2:93.86 3:92.29 4:91.28 
0.1130259015786265 1:92.29 2:91.28 3:92.2 4:92.08 
