svm_type epsilon_svr
kernel_type rbf
gamma 0.25
nr_class 2
total_sv 4
rho -528.77
SV
-1 1:513.79999 2:495.39001 3:504.89001 4:511.10001 
-1 1:495.39001 2:504.89001 3:511.10001 4:516.34998 
1 1:504.89001 2:511.10001 3:516.34998 4:524.87 
1 1:516.34998 2:524.87 3:530.59003 4:528.77002 
