svm_type epsilon_svr
kernel_type rbf
gamma 0.25
nr_class 2
total_sv 4
rho -535.38
SV
-1 1:539.16998 2:530.39001 3:532.53003 4:533.79999 
-1 1:532.53003 2:533.79999 3:524.04999 4:535.38 
1 1:533.79999 2:524.04999 3:535.38 4:533.96997 
1 1:524.04999 2:535.38 3:533.96997 4:539.36499 
