svm_type epsilon_svr
kernel_type rbf
gamma 0.25
nr_class 2
total_sv 5
rho -124.3
SV
-1 1:126.41 2:126.6 3:127.14 4:124.51 
0.1025994810481744 1:126.6 2:127.14 3:124.51 4:122.24 
-0.6180775275608181 1:127.14 2:124.51 3:122.24 4:124.45 
0.5154780465126437 1:124.51 2:122.24 3:124.45 4:123.59 
1 1:122.24 2:124.45 3:123.59 4:124.95 
