svm_type epsilon_svr
kernel_type rbf
gamma 0.25
nr_class 2
total_sv 5
rho -125.276
SV
-0.7130468618059291 1:126.6 2:127.14 3:124.51 4:122.24 
-1 1:127.14 2:124.51 3:122.24 4:124.45 
-0.2869531381940708 1:124.51 2:122.24 3:124.45 4:123.59 
1 1:122.24 2:124.45 3:123.59 4:124.95 
1 1:124.45 2:123.59 3:124.95 4:127.04 
