svm_type epsilon_svr
kernel_type rbf
gamma 0.25
nr_class 2
total_sv 4
rho -128.673
SV
-0.9142282292439636 1:126.3 2:126.78 3:126.17 4:124.75 
-1 1:126.78 2:126.17 3:124.75 4:127.6 
0.9142282292439636 1:124.75 2:127.6 3:126.91 4:128.62 
1 1:127.6 2:126.91 3:128.62 4:129.67 
