svm_type epsilon_svr
kernel_type rbf
gamma 0.25
nr_class 2
total_sv 4
rho -78.673
SV
-0.1533511848669098 1:80.15 2:79.74 3:79.24 4:77.88 
-0.5355177688782496 1:79.74 2:79.24 3:77.88 4:78.14 
-0.3111310462548406 1:79.24 2:77.88 3:78.14 4:78.03 
1 1:78.14 2:78.03 3:78.43 4:79.18 
