svm_type epsilon_svr
kernel_type rbf
gamma 0.25
nr_class 2
total_sv 5
rho -76.7925
SV
-0.3862526276921143 1:75.1 2:75.46 3:74.88 4:75.24 
-0.1091421242447437 1:75.46 2:74.88 3:75.24 4:76.36 
0.495394751936858 1:74.88 2:75.24 3:76.36 4:76.52 
-1 1:75.24 2:76.36 3:76.52 4:76.84 
1 1:76.36 2:76.52 3:76.84 4:76.18 
