svm_type epsilon_svr
kernel_type rbf
gamma 0.25
nr_class 2
total_sv 5
rho -78.3828
SV
0.7327105522557348 1:76.8 2:78.29 3:78.54 4:77.22 
0.5790801244743993 1:78.29 2:78.54 3:77.22 4:78.79 
0.6882093232698659 1:78.54 2:77.22 3:78.79 4:79 
-1 1:77.22 2:78.79 3:79 4:79.04 
-1 1:78.79 2:79 3:79.04 4:76.55 
