svm_type epsilon_svr
kernel_type rbf
gamma 0.25
nr_class 2
total_sv 4
rho -41.407
SV
-0.3272184213149849 1:39.52 2:38.48 3:39.46 4:41.44 
-0.4550187137972423 1:38.48 2:39.46 3:41.44 4:40.93 
0.6555950726530796 1:39.46 2:41.44 3:40.93 4:40.97 
0.1266420624591475 1:41.44 2:40.93 3:40.97 4:42.05 
