svm_type epsilon_svr
kernel_type rbf
gamma 0.25
nr_class 2
total_sv 5
rho -41.704
SV
1 1:46.39 2:45.92 3:47.13 4:47.18 
0.2072489351209917 1:45.92 2:47.13 3:47.18 4:47.01 
-0.4200828621285776 1:47.13 2:47.18 3:47.01 4:42.66 
0.212833927007586 1:47.18 2:47.01 3:42.66 4:41.19 
-1 1:47.01 2:42.66 3:41.19 4:42.01 
