svm_type epsilon_svr
kernel_type rbf
gamma 0.25
nr_class 2
total_sv 5
rho -58.864
SV
-1 1:61.22 2:58.53 3:57.39 4:56.76 
0.8850233170384937 1:58.53 2:57.39 3:56.76 4:57.24 
0.7332389144372171 1:57.39 2:56.76 3:57.24 4:59.83 
0.2880353010163213 1:56.76 2:57.24 3:59.83 4:59.83 
-0.906297532492032 1:57.24 2:59.83 3:59.83 4:59.23 
