svm_type epsilon_svr
kernel_type rbf
gamma 0.25
nr_class 2
total_sv 3
rho -86.586
SV
-0.1141448130583469 1:82.96 2:84.23 3:85.94 4:85.16 
-0.2710525736441248 1:85.94 2:85.16 3:86.38 4:86.66 
0.3851973867024717 1:85.16 2:86.38 3:86.66 4:86.43 
