svm_type epsilon_svr
kernel_type rbf
gamma 0.25
nr_class 2
total_sv 5
rho -101.285
SV
-0.189895133813402 1:98.12 2:98.97 3:98.36 4:97.99 
0.03555635893087795 1:98.97 2:98.36 3:97.99 4:101 
0.2511910484511535 1:98.36 2:97.99 3:101 4:101.43 
0.255351173879161 1:97.99 2:101 3:101.43 4:101.66 
-0.3522034474477905 1:101 2:101.43 3:101.66 4:101.63 
