svm_type epsilon_svr
kernel_type rbf
gamma 0.25
nr_class 2
total_sv 5
rho -42.8962
SV
-1 1:37.82 2:38.12 3:38.45 4:39.28 
-0.08199477186802266 1:38.12 2:38.45 3:39.28 4:40.18 
-0.2160286698407185 1:38.45 2:39.28 3:40.18 4:42 
0.2980234417087412 1:39.28 2:40.18 3:42 4:42.6 
1 1:40.18 2:42 3:42.6 4:43.5 
