svm_type epsilon_svr
kernel_type rbf
gamma 0.25
nr_class 2
total_sv 4
rho -76.7368
SV
-0.7736585743669372 1:74.63 2:73.86 3:74.82 4:76.68 
-0.6830003854951755 1:73.86 2:74.82 3:76.68 4:75.83 
0.4566589598621127 1:74.82 2:76.68 3:75.83 4:75.95 
1 1:76.68 2:75.83 3:75.95 4:77.26 
