svm_type epsilon_svr
kernel_type rbf
gamma 0.25
nr_class 2
total_sv 4
rho -35.8195
SV
-1 1:34.95 2:35.06 3:35.55 4:35.73 
-1 1:35.06 2:35.55 3:35.73 4:35.37 
1 1:35.55 2:35.73 3:35.37 4:35.28 
1 1:35.73 2:35.37 3:35.28 4:36.08 
