svm_type epsilon_svr
kernel_type rbf
gamma 0.25
nr_class 2
total_sv 3
rho -32.6842
SV
0.3124983347421031 1:31.83 2:31.84 3:31.91 4:32.85 
-0.01924394446705285 1:31.91 2:32.85 3:32.95 4:32.75 
-0.2932543902750502 1:32.85 2:32.95 3:32.75 4:32.52 
