svm_type epsilon_svr
kernel_type rbf
gamma 0.25
nr_class 2
total_sv 4
rho -524.81
SV
1 1:530.59003 2:528.77002 3:534.03003 4:530.33002 
1 1:528.77002 2:534.03003 3:530.33002 4:530.41998 
-1 1:530.33002 2:530.41998 3:526.40002 4:524.81 
-1 1:530.41998 2:526.40002 3:524.81 4:513.87 
