svm_type epsilon_svr
kernel_type rbf
gamma 0.25
nr_class 2
total_sv 4
rho -34.0694
SV
-0.2643945765417882 1:36.91 2:36.49 3:34.07 4:33.92 
0.2740678111452461 1:36.49 2:34.07 3:33.92 4:33.76 
0.9726658885595019 1:34.07 2:33.92 3:33.76 4:34.45 
-0.9823391231629598 1:33.76 2:34.45 3:34.4 4:34.17 
