svm_type epsilon_svr
kernel_type rbf
gamma 0.25
nr_class 2
total_sv 4
rho -17.9034
SV
1 1:17.47 2:17.53 3:18.43 4:18.02 
0.3051960822006338 1:17.53 2:18.43 3:18.02 4:18.3 
-1 1:18.02 2:18.3 3:18.01 4:17.75 
-0.3051960822006338 1:18.3 2:18.01 3:17.75 4:17.34 
