svm_type epsilon_svr
kernel_type rbf
gamma 0.25
nr_class 2
total_sv 4
rho -508.09
SV
-1 1:496.17001 2:492.54999 3:496.17999 4:500.87 
-1 1:496.17999 2:500.87 3:501.79001 4:508.07999 
1 1:500.87 2:501.79001 3:508.07999 4:506.89999 
1 1:501.79001 2:508.07999 3:506.89999 4:518.03998 
