svm_type epsilon_svr
kernel_type rbf
gamma 0.25
nr_class 2
total_sv 5
rho -110.391
SV
1 1:112.94 2:112.54 3:112.01 4:113.99 
1 1:112.54 2:112.01 3:113.99 4:113.91 
-0.1776134887852854 1:112.01 2:113.99 3:113.91 4:112.52 
-0.8223865112147146 1:113.99 2:113.91 3:112.52 4:110.38 
-1 1:113.91 2:112.52 3:110.38 4:109.33 
