svm_type epsilon_svr
kernel_type rbf
gamma 0.25
nr_class 2
total_sv 5
rho -40.2253
SV
-1 1:40.93 2:38.65 3:39.05 4:39.88 
0.2631986014570159 1:38.65 2:39.05 3:39.88 4:38.95 
0.2002137221206688 1:39.05 2:39.88 3:38.95 4:40.66 
0.6817934157546204 1:39.88 2:38.95 3:40.66 4:40.52 
-0.1452057393323051 1:38.95 2:40.66 3:40.52 4:40.75 
