svm_type epsilon_svr
kernel_type rbf
gamma 0.25
nr_class 2
total_sv 5
rho -88.0525
SV
-1 1:86.61 2:87.38 3:86.77 4:86.69 
0.7221301831898643 1:87.38 2:86.77 3:86.69 4:86.64 
0.2497545875310544 1:86.77 2:86.69 3:86.64 4:88.3 
0.8159167240218997 1:86.69 2:86.64 3:88.3 4:88.51 
-0.7878014947428185 1:86.64 2:88.3 3:88.51 4:88.63 
