svm_type epsilon_svr
kernel_type rbf
gamma 0.25
nr_class 2
total_sv 4
rho -46.7242
SV
-0.2687359548101246 1:45.26 2:45.91 3:46.47 4:46.76 
1 1:45.91 2:46.47 3:46.76 4:46.84 
-1 1:46.76 2:46.84 3:47 4:46.7 
0.2687359548101246 1:46.84 2:47 3:46.7 4:46.24 
