svm_type epsilon_svr
kernel_type rbf
gamma 0.25
nr_class 2
total_sv 5
rho -364.223
SV
-1 1:309.66 2:306.75 3:303.91 4:311.78 
0.1460970703125213 1:306.75 2:303.91 3:311.78 4:354.53 
-0.5730535351562196 1:303.91 2:311.78 3:354.53 4:364.47 
0.4269564648436983 1:311.78 2:354.53 3:364.47 4:363.54999 
1 1:354.53 2:364.47 3:363.54999 4:364.75 
