svm_type epsilon_svr
kernel_type rbf
gamma 0.25
nr_class 2
total_sv 5
rho -127.142
SV
1 1:124.45 2:123.59 3:124.95 4:127.04 
0.2528536957276482 1:123.59 2:124.95 3:127.04 4:128.47 
-1 1:124.95 2:127.04 3:128.47 4:127.5 
0.1100761385215723 1:127.04 2:128.47 3:127.5 4:125.9 
-0.3629298342492205 1:128.47 2:127.5 3:125.9 4:127.21 
