svm_type epsilon_svr
kernel_type rbf
gamma 0.25
nr_class 2
total_sv 4
rho -41.1621
SV
-0.3909836244555533 1:41.21 2:41.48 3:41.27 4:41.11 
-1 1:41.48 2:41.27 3:41.11 4:40.86 
0.3909836244555533 1:41.27 2:41.11 3:40.86 4:40.58 
1 1:41.11 2:40.86 3:40.58 4:41.23 
