svm_type epsilon_svr
kernel_type rbf
gamma 0.25
nr_class 2
total_sv 5
rho -332.6
SV
0.1500098243735692 1:325.69 2:324.57001 3:324.78 4:332.39001 
1 1:324.57001 2:324.78 3:332.39001 4:332.85001 
0.8499901756264308 1:324.78 2:332.39001 3:332.85001 4:337.48999 
-1 1:332.39001 2:332.85001 3:337.48999 4:333.54999 
-1 1:332.85001 2:337.48999 3:333.54999 4:323.81 
