svm_type epsilon_svr
kernel_type rbf
gamma 0.25
nr_class 2
total_sv 5
rho -334.397
SV
-1 1:316.79999 2:318.32999 3:319.32001 4:326.28 
-0.6664047849425572 1:318.32999 2:319.32001 3:326.28 4:333.20999 
0.03281393097285878 1:319.32001 2:326.28 3:333.20999 4:333.63 
0.6335908539696984 1:326.28 2:333.20999 3:333.63 4:334.53 
1 1:333.20999 2:333.63 3:334.53 4:335.13 
