svm_type epsilon_svr
kernel_type rbf
gamma 0.25
nr_class 2
total_sv 4
rho -42.0025
SV
-0.5934097244968607 1:41.19 2:42.01 3:40.4 4:41.28 
-0.1919710914138671 1:42.01 2:40.4 3:41.28 4:41.6 
0.528487396234493 1:40.4 2:41.28 3:41.6 4:41.84 
0.2568934196762349 1:41.28 2:41.6 3:41.84 4:42.45 
