svm_type epsilon_svr
kernel_type rbf
gamma 0.25
nr_class 2
total_sv 4
rho -41.2995
SV
-0.01257423390733181 1:47.13 2:47.18 3:47.01 4:42.66 
0.6140515933540255 1:47.18 2:47.01 3:42.66 4:41.19 
-0.8021189801586348 1:47.01 2:42.66 3:41.19 4:42.01 
0.2006416207119412 1:41.19 2:42.01 3:40.4 4:41.28 
