svm_type epsilon_svr
kernel_type rbf
gamma 0.25
nr_class 2
total_sv 4
rho -77.8034
SV
-1 1:76.35 2:76.39 3:76.45 4:76.27 
0.5211997269136597 1:76.45 2:76.27 3:76.28 4:77.26 
-0.5211997269136597 1:76.27 2:76.28 3:77.26 4:77.7 
1 1:76.28 2:77.26 3:77.7 4:77.81 
