svm_type epsilon_svr
kernel_type rbf
gamma 0.25
nr_class 2
total_sv 3
rho -46.4357
SV
1 1:46.68 2:47.52 3:47.06 4:46.56 
-0.9830584177212774 1:47.52 2:47.06 3:46.56 4:47.08 
-0.01694158227872254 1:47.06 2:46.56 3:47.08 4:46.04 
