svm_type epsilon_svr
kernel_type rbf
gamma 0.25
nr_class 2
total_sv 4
rho -83.7435
SV
0.4270492992979596 1:79.36 2:80.91 3:82.75 4:83.8 
1 1:80.91 2:82.75 3:83.8 4:84.43 
-0.8953161037569458 1:82.75 2:83.8 3:84.43 4:85.31 
-0.5317331955410138 1:83.8 2:84.43 3:85.31 4:82.92 
