svm_type epsilon_svr
kernel_type rbf
gamma 0.25
nr_class 2
total_sv 5
rho -73.9671
SV
-1 1:74.78 2:73.58 3:73.54 4:73.54 
0.4134556396839444 1:73.58 2:73.54 3:73.54 4:73.34 
-0.6247364430380639 1:73.54 2:73.54 3:73.34 4:74.2 
1 1:73.54 2:73.34 3:74.2 4:73.95 
0.2112808033541195 1:73.34 2:74.2 3:73.95 4:74.67 
