svm_type epsilon_svr
kernel_type rbf
gamma 0.25
nr_class 2
total_sv 4
rho -97.6276
SV
-1 1:94.96 2:94.48 3:94.74 4:95.99 
0.1353326603297598 1:94.48 2:94.74 3:95.99 4:95.97 
-0.1353326603297598 1:95.99 2:95.97 3:97.24 4:97.5 
1 1:95.97 2:97.24 3:97.5 4:97.98 
