svm_type epsilon_svr
kernel_type rbf
gamma 0.25
nr_class 2
total_sv 5
rho -371.24
SV
-0.179814314034914 1:373.23999 2:378.48999 3:375.10999 4:374.09 
-1 1:378.48999 2:375.10999 3:374.09 4:370.95999 
-0.5798558047277069 1:375.10999 2:374.09 3:370.95999 4:367.35001 
1 1:374.09 2:370.95999 3:367.35001 4:370.56 
0.7596701187626209 1:370.95999 2:367.35001 3:370.56 4:374.59 
