svm_type epsilon_svr
kernel_type rbf
gamma 0.25
nr_class 2
total_sv 5
rho -37.6163
SV
0.8454827016735913 1:35.13 2:35.57 3:36.73 4:37.08 
-0.3332712138709407 1:35.57 2:36.73 3:37.08 4:38.43 
0.07668495211778037 1:36.73 2:37.08 3:38.43 4:37.57 
0.4111035600795691 1:37.08 2:38.43 3:37.57 4:37.61 
-1 1:38.43 2:37.57 3:37.61 4:37.6 
