svm_type epsilon_svr
kernel_type rbf
gamma 0.25
nr_class 2
total_sv 4
rho -30.2939
SV
1 1:30.59 2:30.68 3:30.35 4:30.45 
-1 1:30.35 2:30.45 3:30.35 4:30.28 
-1 1:30.45 2:30.35 3:30.28 4:29.78 
1 1:30.35 2:30.28 3:29.78 4:29.77 
