svm_type epsilon_svr
kernel_type rbf
gamma 0.25
nr_class 2
total_sv 4
rho -39.6168
SV
-0.4517367279877161 1:36.56 2:36.38 3:38.76 4:37.28 
0.4847245655409017 1:36.38 2:38.76 3:37.28 4:39.09 
-0.1712678307691861 1:38.76 2:37.28 3:39.09 4:40.17 
0.1382799932160005 1:39.09 2:40.17 3:39.37 4:39.65 
