svm_type epsilon_svr
kernel_type rbf
gamma 0.25
nr_class 2
total_sv 5
rho -92.9412
SV
1 1:644.82001 2:647.34998 3:645.57001 4:93.7 
0.8191025535249992 1:647.34998 2:645.57001 3:93.7 4:94.25 
-0.550897446474977 1:645.57001 2:93.7 3:94.25 4:93.86 
-1 1:93.7 2:94.25 3:93.86 4:92.29 
-0.2682051070500222 1:94.25 2:93.86 3:92.29 4:91.28 
