svm_type epsilon_svr
kernel_type rbf
gamma 0.25
nr_class 2
total_sv 4
rho -45.7281
SV
1 1:46.36 2:45.9 3:45.76 4:46.09 
-1 1:45.9 2:45.76 3:46.09 4:46.09 
1 1:45.76 2:46.09 3:46.09 4:45.53 
-1 1:46.09 2:45.53 3:46.78 4:45.85 
