svm_type epsilon_svr
kernel_type rbf
gamma 0.25
nr_class 2
total_sv 5
rho -41.804
SV
-1 1:41.23 2:41.5 3:41.68 4:41.65 
-0.8877095979294203 1:41.5 2:41.68 3:41.65 4:41.51 
1 1:41.68 2:41.65 3:41.51 4:41.68 
-0.1122904020705797 1:41.65 2:41.51 3:41.68 4:41.99 
1 1:41.51 2:41.68 3:41.99 4:41.75 
