svm_type epsilon_svr
kernel_type rbf
gamma 0.25
nr_class 2
total_sv 4
rho -290.74
SV
-1 1:296.92999 2:291.41 3:294.73999 4:293.26999 
-1 1:294.73999 2:293.26999 3:286.95001 4:290.73999 
1 1:293.26999 2:286.95001 3:290.73999 4:289.44 
1 1:286.95001 2:290.73999 3:289.44 4:297.25 
