svm_type epsilon_svr
kernel_type rbf
gamma 0.25
nr_class 2
total_sv 4
rho -539.977
SV
1 1:542.56 2:535.53003 3:536.76501 4:537.02002 
0.7034730137804324 1:535.53003 2:536.76501 3:537.02002 4:541.60999 
-0.7034730137804324 1:537.02002 2:541.60999 3:540.78003 4:540.01001 
-1 1:541.60999 2:540.78003 3:540.01001 4:539.16998 
