svm_type epsilon_svr
kernel_type rbf
gamma 0.25
nr_class 2
total_sv 4
rho -75.8136
SV
-0.5848296903115966 1:77.98 2:75.2 3:73.82 4:74.1 
0.09952676070703351 1:75.2 2:73.82 3:74.1 4:75.14 
0.0561487748176478 1:74.1 2:75.14 3:76.02 4:76.03 
0.4291541547869153 1:75.14 2:76.02 3:76.03 4:76.25 
