svm_type epsilon_svr
kernel_type rbf
gamma 0.25
nr_class 2
total_sv 5
rho -114.999
SV
0.8269802981029718 1:119 2:118.93 3:115.07 4:114.63 
0.3799462721482341 1:118.93 2:115.07 3:114.63 4:115.93 
0.4914726225386819 1:115.07 2:114.63 3:115.93 4:115.49 
-1 1:114.63 2:115.93 3:115.49 4:115 
-0.6983991927898878 1:115.93 2:115.49 3:115 4:112.4 
