svm_type epsilon_svr
kernel_type rbf
gamma 0.25
nr_class 2
total_sv 4
rho -20.9724
SV
0.4078354065657844 1:20.33 2:19.72 3:19.72 4:20.39 
-0.7043589501234353 1:19.72 2:19.72 3:20.39 4:21.14 
-0.3876364347865323 1:20.39 2:21.14 3:20.58 4:20.78 
0.6841599783441831 1:21.14 2:20.58 3:20.78 4:20.86 
