svm_type epsilon_svr
kernel_type rbf
gamma 0.25
nr_class 2
total_sv 5
rho -41.2956
SV
1 1:42.5 2:42.29 3:42.88 4:42.86 
-0.5260139885113239 1:42.29 2:42.88 3:42.86 4:42.9 
-0.07744356073982621 1:42.88 2:42.86 3:42.9 4:41.46 
-0.1781335660338065 1:42.86 2:42.9 3:41.46 4:41.21 
-0.2184088847150436 1:42.9 2:41.46 3:41.21 4:40.97 
