svm_type epsilon_svr
kernel_type rbf
gamma 0.25
nr_class 2
total_sv 5
rho -33.1552
SV
-0.7970808056943979 1:32.2 2:32.03 3:32.56 4:33.19 
0.5698250812155172 1:32.03 2:32.56 3:33.19 4:32.95 
0.2272557244788805 1:32.56 2:33.19 3:32.95 4:33.37 
1 1:33.19 2:32.95 3:33.37 4:33.35 
-1 1:32.95 2:33.37 3:33.35 4:33.5 
