svm_type epsilon_svr
kernel_type rbf
gamma 0.25
nr_class 2
total_sv 4
rho -31.4162
SV
-1 1:31.19 2:31.01 3:31.09 4:31.45 
-1 1:31.01 2:31.09 3:31.45 4:31.07 
1 1:31.09 2:31.45 3:31.07 4:31.11 
1 1:31.45 2:31.07 3:31.11 4:31.62 
