svm_type epsilon_svr
kernel_type rbf
gamma 0.25
nr_class 2
total_sv 4
rho -79.8482
SV
0.5765158993812064 1:79.9 2:78.84 3:78.45 4:79.56 
-1 1:78.84 2:78.45 3:79.56 4:80.41 
-0.5765158993812064 1:79.56 2:80.41 3:78.97 4:79.75 
1 1:80.41 2:78.97 3:79.75 4:79.6 
