svm_type epsilon_svr
kernel_type rbf
gamma 0.25
nr_class 2
total_sv 5
rho -77.893
SV
0.1386635432688945 1:74.58 2:76.08 3:76.43 4:77 
-1 1:76.08 2:76.43 3:77 4:77.91 
0.7069041252597041 1:76.43 2:77 3:77.91 4:76.8 
1 1:77 2:77.91 3:76.8 4:78.29 
-0.8455676685285987 1:77.91 2:76.8 3:78.29 4:78.54 
