svm_type epsilon_svr
kernel_type rbf
gamma 0.25
nr_class 2
total_sv 5
rho -21.0201
SV
-0.6352286571005267 1:20.39 2:21.14 3:20.58 4:20.78 
0.5566355810038419 1:21.14 2:20.58 3:20.78 4:20.86 
1 1:20.58 2:20.78 3:20.86 4:21.32 
0.07859307609668489 1:20.78 2:20.86 3:21.32 4:21.27 
-1 1:20.86 2:21.32 3:21.27 4:21.17 
