svm_type epsilon_svr
kernel_type rbf
gamma 0.25
nr_class 2
total_sv 3
rho -32.3539
SV
0.4244412787942407 1:32.85 2:32.95 3:32.75 4:32.52 
-1 1:32.52 2:32.42 3:32.24 4:32.27 
0.5755587212057593 1:32.42 2:32.24 3:32.27 4:31.65 
