svm_type epsilon_svr
kernel_type rbf
gamma 0.25
nr_class 2
total_sv 5
rho -74.9114
SV
-0.9423266086834411 1:78.29 2:77.56 3:77.98 4:75.2 
-0.6533555339329782 1:77.56 2:77.98 3:75.2 4:73.82 
0.1354364098864613 1:77.98 2:75.2 3:73.82 4:74.1 
0.7155952005751853 1:75.2 2:73.82 3:74.1 4:75.14 
0.7446505321547727 1:73.82 2:74.1 3:75.14 4:76.02 
