svm_type epsilon_svr
kernel_type rbf
gamma 0.25
nr_class 2
total_sv 4
rho -77.0433
SV
0.8862104535351959 1:76.52 2:76.84 3:76.18 4:77.73 
-1 1:76.18 2:77.73 3:77.83 4:76.99 
-0.8862104535351959 1:77.73 2:77.83 3:76.99 4:74.69 
1 1:77.83 2:76.99 3:74.69 4:76.11 
