svm_type epsilon_svr
kernel_type rbf
gamma 0.25
nr_class 2
total_sv 4
rho -35.2505
SV
-0.3531204346562232 1:36.14 2:35.52 3:34.53 4:34.85 
0.3531204346562232 1:34.53 2:34.85 3:34.93 4:35.43 
1 1:34.85 2:34.93 3:35.43 4:35.7 
-1 1:34.93 2:35.43 3:35.7 4:35.61 
