svm_type epsilon_svr
kernel_type rbf
gamma 0.25
nr_class 2
total_sv 5
rho -365.21
SV
-0.6399999999999864 1:306.75 2:303.91 3:311.78 4:354.53 
-1 1:303.91 2:311.78 3:354.53 4:364.47 
-0.3600000000000136 1:311.78 2:354.53 3:364.47 4:363.54999 
1 1:354.53 2:364.47 3:363.54999 4:364.75 
1 1:364.47 2:363.54999 3:364.75 4:373.89001 
