svm_type epsilon_svr
kernel_type rbf
gamma 0.25
nr_class 2
total_sv 3
rho -44.065
SV
1 1:38.16 2:37.93 3:38.59 4:46.3 
-0.4949999865950112 1:38.59 2:46.3 3:45.19 4:44.13 
-0.505000013404989 1:45.19 2:44.13 3:43.47 4:43.83 
