svm_type epsilon_svr
kernel_type rbf
gamma 0.25
nr_class 2
total_sv 4
rho -48.8662
SV
-0.2764869974838738 1:53.53 2:55.42 3:55.29 4:50.4 
-0.1868959179632303 1:55.42 2:55.29 3:50.4 4:48.49 
1 1:55.29 2:50.4 3:48.49 4:48.58 
-0.5366170845528958 1:50.4 2:48.49 3:48.58 4:49.99 
