svm_type epsilon_svr
kernel_type rbf
gamma 0.25
nr_class 2
total_sv 4
rho -47.7672
SV
0.3198846965340389 1:49.46 2:48.74 3:48.22 4:48.7 
-0.0778726182006812 1:48.74 2:48.22 3:48.7 4:47.98 
-0.4108428672844575 1:48.22 2:48.7 3:47.98 4:47.59 
0.1688307889510998 1:47.98 2:47.59 3:47.47 4:47.75 
