svm_type epsilon_svr
kernel_type rbf
gamma 0.25
nr_class 2
total_sv 4
rho -51.9728
SV
-0.08777921398568757 1:52.96 2:51.45 3:51.89 4:51.74 
-1 1:51.45 2:51.89 3:51.74 4:51.58 
0.08777921398568757 1:51.89 2:51.74 3:51.58 4:50.06 
1 1:51.74 2:51.58 3:50.06 4:51.85 
