svm_type epsilon_svr
kernel_type rbf
gamma 0.25
nr_class 2
total_sv 5
rho -128.193
SV
0.7675727017249574 1:132.17 2:128.78999 3:130.42 4:128.46001 
1 1:128.78999 2:130.42 3:128.46001 4:129.09 
0.2324272982750425 1:130.42 2:128.46001 3:129.09 4:129.36 
-1 1:128.46001 2:129.09 3:129.36 4:128.53999 
-1 1:129.09 2:129.36 3:128.53999 4:126.41 
