svm_type epsilon_svr
kernel_type rbf
gamma 0.25
nr_class 2
total_sv 5
rho -75.5966
SV
1 1:77.83 2:77.5 3:75.78 4:76.24 
0.07747804281939952 1:77.5 2:75.78 3:76.24 4:78 
-0.5320900627041524 1:75.78 2:76.24 3:78 4:75.91 
-0.3477770476654178 1:76.24 2:78 3:75.91 4:74.99 
-0.1976109324498293 1:78 2:75.91 3:74.99 4:75.4 
