svm_type epsilon_svr
kernel_type rbf
gamma 0.25
nr_class 2
total_sv 3
rho -32.4961
SV
0.3600098176032065 1:31.84 2:31.91 3:32.85 4:32.95 
-0.2848413394031071 1:32.95 2:32.75 3:32.52 4:32.42 
-0.07516847820009943 1:32.75 2:32.52 3:32.42 4:32.24 
