svm_type epsilon_svr
kernel_type rbf
gamma 0.25
nr_class 2
total_sv 5
rho -46.8876
SV
-0.1132473494408699 1:44.38 2:45.02 3:46.13 4:45.91 
-0.08438452994950053 1:45.02 2:46.13 3:45.91 4:46.49 
-1 1:46.13 2:45.91 3:46.49 4:46.62 
0.1976318793903704 1:45.91 2:46.49 3:46.62 4:46.05 
1 1:46.49 2:46.62 3:46.05 4:46.95 
