svm_type epsilon_svr
kernel_type rbf
gamma 0.25
nr_class 2
total_sv 3
rho -45.282
SV
-0.7910346552267192 1:43.61 2:45.17 3:45.63 4:45.18 
0.03699354354511497 1:45.17 2:45.63 3:45.18 4:44.77 
0.7540411116816043 1:45.18 2:44.77 3:45.53 4:45.73 
