svm_type epsilon_svr
kernel_type rbf
gamma 0.25
nr_class 2
total_sv 3
rho -32.6822
SV
-5.551115123125783e-17 1:31.07 2:31.11 3:31.62 4:31.74 
-1 1:31.11 2:31.62 3:31.74 4:32.19 
1 1:31.74 2:32.19 3:32.27 4:32.62 
