svm_type epsilon_svr
kernel_type rbf
gamma 0.25
nr_class 2
total_sv 4
rho -83.4467
SV
1 1:80.91 2:82.75 3:83.8 4:84.43 
-0.6307924985790244 1:82.75 2:83.8 3:84.43 4:85.31 
-0.2615471271533805 1:83.8 2:84.43 3:85.31 4:82.92 
-0.1076603742675951 1:85.31 2:82.92 3:83.01 4:83.3 
