svm_type epsilon_svr
kernel_type rbf
gamma 0.25
nr_class 2
total_sv 5
rho -26.2221
SV
-0.283761131885568 1:23.57 2:23.29 3:23.33 4:23.39 
0.5174058925580644 1:23.29 2:23.33 3:23.39 4:25.94 
0.2430003925310664 1:23.33 2:23.39 3:25.94 4:26.82 
-0.4754909796986927 1:23.39 2:25.94 3:26.82 4:26.57 
-0.001154173504870198 1:25.94 2:26.82 3:26.57 4:25.69 
