svm_type epsilon_svr
kernel_type rbf
gamma 0.25
nr_class 2
total_sv 5
rho -31.2207
SV
1 1:32.33 2:32.19 3:32.07 4:32.17 
1 1:32.19 2:32.07 3:32.17 4:31.92 
-0.3700675182726149 1:32.07 2:32.17 3:31.92 4:32.22 
-1 1:32.17 2:31.92 3:32.22 4:31.44 
-0.6299324817273851 1:31.92 2:32.22 3:31.44 4:31.05 
