svm_type epsilon_svr
kernel_type rbf
gamma 0.25
nr_class 2
total_sv 4
rho -16.1885
SV
-0.5166271964972216 1:16.5 2:16.39 3:16.38 4:16.32 
-0.2200150944863016 1:16.39 2:16.38 3:16.32 4:16.01 
-0.2633577090164768 1:16.32 2:16.01 3:16.05 4:16.18 
1 1:16.01 2:16.05 3:16.18 4:16.11 
