svm_type epsilon_svr
kernel_type rbf
gamma 0.25
nr_class 2
total_sv 4
rho -570.08
SV
-1 1:575.06 2:577.09998 3:576.35999 4:577.35999 
1 1:576.35999 2:577.35999 3:568.27002 4:570.08002 
1 1:577.35999 2:568.27002 3:570.08002 4:575.28003 
-1 1:568.27002 2:570.08002 3:575.28003 4:577.34998 
