svm_type epsilon_svr
kernel_type rbf
gamma 0.25
nr_class 2
total_sv 5
rho -37.1241
SV
-1 1:33.89 2:33.33 3:34.47 4:35.37 
0.285483161414614 1:33.33 2:34.47 3:35.37 4:35.54 
-0.6986997895357285 1:34.47 2:35.37 3:35.54 4:36.79 
0.9445236090131323 1:35.37 2:35.54 3:36.79 4:36.9 
0.4686930191079823 1:35.54 2:36.79 3:36.9 4:38.02 
