svm_type epsilon_svr
kernel_type rbf
gamma 0.25
nr_class 2
total_sv 5
rho -99.9001
SV
-1 1:95.99 2:95.97 3:97.24 4:97.5 
-0.3798545520095127 1:95.97 2:97.24 3:97.5 4:97.98 
0.8149136542158589 1:97.24 2:97.5 3:97.98 4:99.16 
0.04598872638162306 1:97.5 2:97.98 3:99.16 4:100.53 
0.5189521714120308 1:97.98 2:99.16 3:100.53 4:100.57 
