svm_type epsilon_svr
kernel_type rbf
gamma 0.25
nr_class 2
total_sv 5
rho -383.604
SV
-0.8541356603472202 1:377.04001 2:374.41 3:381.20001 4:383.54001 
-1 1:374.41 2:381.20001 3:383.54001 4:382.64999 
1 1:381.20001 2:383.54001 3:382.64999 4:382.35999 
-0.1458643396527798 1:383.54001 2:382.64999 3:382.35999 4:385.10999 
1 1:382.64999 2:382.35999 3:385.10999 4:383.45001 
