svm_type epsilon_svr
kernel_type rbf
gamma 0.25
nr_class 2
total_sv 5
rho -82.7235
SV
-1 1:77.57 2:78.93 3:78.05 4:78.07 
-1 1:78.93 2:78.05 3:78.07 4:79.36 
0.1619144956209289 1:78.05 2:78.07 3:79.36 4:80.91 
0.8380855043790711 1:78.07 2:79.36 3:80.91 4:82.75 
1 1:79.36 2:80.91 3:82.75 4:83.8 
