svm_type epsilon_svr
kernel_type rbf
gamma 0.25
nr_class 2
total_sv 4
rho -32.9582
SV
0.4582398536724182 1:32.94 2:32.86 3:32.81 4:32.82 
-1 1:32.86 2:32.81 3:32.82 4:33.08 
-0.4582398536724182 1:32.81 2:32.82 3:33.08 4:32.81 
1 1:33.08 2:32.81 3:32.85 4:32.9 
