svm_type epsilon_svr
kernel_type rbf
gamma 0.25
nr_class 2
total_sv 4
rho -44.3708
SV
-1 1:42.74 2:43.23 3:43.2 4:43.2 
0.02187891085224795 1:43.23 2:43.2 3:43.2 4:43.52 
0.3745691276547554 1:43.2 2:43.52 3:44.08 4:44.27 
0.6035519614929965 1:43.52 2:44.08 3:44.27 4:44.79 
