svm_type epsilon_svr
kernel_type rbf
gamma 0.25
nr_class 2
total_sv 5
rho -42.4427
SV
-1 1:41.98 2:41.02 3:41.38 4:41.56 
0.7733843851490962 1:41.02 2:41.38 3:41.56 4:41.7 
-1 1:41.38 2:41.56 3:41.7 4:42.5 
1 1:41.56 2:41.7 3:42.5 4:42.29 
0.2266156148509037 1:41.7 2:42.5 3:42.29 4:42.88 
