svm_type epsilon_svr
kernel_type rbf
gamma 0.25
nr_class 2
total_sv 5
rho -75.3411
SV
0.5269231021103499 1:75.86 2:74.11 3:74.99 4:73.88 
-0.8188052633358837 1:74.11 2:74.99 3:73.88 4:75.76 
-0.06581116579984564 1:74.99 2:73.88 3:75.76 4:74.83 
0.7580067613652309 1:73.88 2:75.76 3:74.83 4:75.26 
-0.4003134343398516 1:75.76 2:74.83 3:75.26 4:75.6 
