svm_type epsilon_svr
kernel_type rbf
gamma 0.25
nr_class 2
total_sv 4
rho -33.0127
SV
-1 1:32.86 2:32.81 3:32.82 4:33.08 
-0.8061469723482959 1:32.81 2:32.82 3:33.08 4:32.81 
1 1:33.08 2:32.81 3:32.85 4:32.9 
0.8061469723482959 1:32.81 2:32.85 3:32.9 4:33.36 
