svm_type epsilon_svr
kernel_type rbf
gamma 0.25
nr_class 2
total_sv 3
rho -43.1221
SV
-1 1:43.16 2:42.86 3:43.37 4:43.08 
0.2285186126392829 1:42.86 2:43.37 3:43.08 4:42.74 
0.7714813873607171 1:43.08 2:42.74 3:43.23 4:43.2 
