svm_type epsilon_svr
kernel_type rbf
gamma 0.25
nr_class 2
total_sv 4
rho -380.17
SV
-1 1:377.17001 2:381.82999 3:375.42999 4:373.37 
1 1:381.82999 2:375.42999 3:373.37 4:379 
-1 1:373.37 2:379 3:383.66 4:380.14001 
1 1:379 2:383.66 3:380.14001 4:378.59 
