svm_type epsilon_svr
kernel_type rbf
gamma 0.25
nr_class 2
total_sv 4
rho -81.2675
SV
-1 1:77.55 2:77.57 3:78.93 4:78.05 
-1 1:77.57 2:78.93 3:78.05 4:78.07 
1 1:78.05 2:78.07 3:79.36 4:80.91 
1 1:78.07 2:79.36 3:80.91 4:82.75 
