svm_type epsilon_svr
kernel_type rbf
gamma 0.25
nr_class 2
total_sv 5
rho -41.1242
SV
-1 1:40.01 2:40.34 3:40.94 4:40.79 
-1 1:40.34 2:40.94 3:40.79 4:40.29 
0.6946984895082269 1:40.94 2:40.79 3:40.29 4:40.32 
0.5630836736281487 1:40.79 2:40.29 3:40.32 4:41.21 
0.7422178368636244 1:40.29 2:40.32 3:41.21 4:41.48 
