svm_type epsilon_svr
kernel_type rbf
gamma 0.25
nr_class 2
total_sv 4
rho -77.8531
SV
0.9500292261108394 1:77.35 2:77.3 3:78.24 4:77.86 
-0.1252784776364781 1:77.3 2:78.24 3:77.86 4:78.29 
0.1752492515256386 1:78.24 2:77.86 3:78.29 4:77.56 
-1 1:77.86 2:78.29 3:77.56 4:77.98 
