svm_type epsilon_svr
kernel_type rbf
gamma 0.25
nr_class 2
total_sv 5
rho -321.53
SV
0.1903909568146789 1:323.63 2:328.20999 3:321.92999 4:323.20999 
0.8096090431853211 1:328.20999 2:321.92999 3:323.20999 4:321.82001 
-1 1:321.92999 2:323.20999 3:321.82001 4:322.44 
-1 1:323.20999 2:321.82001 3:322.44 4:317.45999 
1 1:321.82001 2:322.44 3:317.45999 4:318.41 
