svm_type epsilon_svr
kernel_type rbf
gamma 0.25
nr_class 2
total_sv 5
rho -42.815
SV
-1 1:41.72 2:41.76 3:41.65 4:42.26 
-1 1:41.76 2:41.65 3:42.26 4:42.16 
1 1:41.65 2:42.26 3:42.16 4:41.62 
0.1521726156489452 1:42.26 2:42.16 3:41.62 4:42.91 
0.8478273843510549 1:42.16 2:41.62 3:42.91 4:42.64 
