svm_type epsilon_svr
kernel_type rbf
gamma 0.25
nr_class 2
total_sv 4
rho -316.801
SV
-1 1:312.98999 2:307.06 3:313.64999 4:312.32001 
-1 1:307.06 2:313.64999 3:312.32001 4:313.89001 
1 1:312.32001 2:313.89001 3:311.45001 4:316.79999 
1 1:313.89001 2:311.45001 3:316.79999 4:318.32999 
