svm_type epsilon_svr
kernel_type rbf
gamma 0.25
nr_class 2
total_sv 4
rho -73.7531
SV
-0.03644904692430695 1:75.97 2:75.71 3:75.44 4:74.78 
0.03644904692430695 1:75.44 2:74.78 3:73.58 4:73.54 
-1 1:74.78 2:73.58 3:73.54 4:73.54 
1 1:73.58 2:73.54 3:73.54 4:73.34 
