svm_type epsilon_svr
kernel_type rbf
gamma 0.25
nr_class 2
total_sv 3
rho -35.2497
SV
-0.3106283686119569 1:35.88 2:36.14 3:35.52 4:34.53 
-0.2327536900715582 1:36.14 2:35.52 3:34.53 4:34.85 
0.543382058683515 1:34.53 2:34.85 3:34.93 4:35.43 
