svm_type epsilon_svr
kernel_type rbf
gamma 0.25
nr_class 2
total_sv 4
rho -36.3487
SV
-0.3517347519005283 1:34.87 2:34.65 3:34.73 4:34.94 
-0.03497766154743397 1:34.65 2:34.73 3:34.94 4:35.92 
0.01445661296549081 1:34.94 2:35.92 3:36.04 4:36.31 
0.3722558004824715 1:35.92 2:36.04 3:36.31 4:36.63 
