svm_type epsilon_svr
kernel_type rbf
gamma 0.25
nr_class 2
total_sv 5
rho -41.1886
SV
-0.1838654383975594 1:41.46 2:41.21 3:40.97 4:40.96 
-0.8161345616024406 1:41.21 2:40.97 3:40.96 4:40.66 
-1 1:40.97 2:40.96 3:40.66 4:40.72 
1 1:40.96 2:40.66 3:40.72 4:40.29 
1 1:40.66 2:40.72 3:40.29 4:41.55 
