svm_type epsilon_svr
kernel_type rbf
gamma 0.25
nr_class 2
total_sv 4
rho -37.7923
SV
-0.2671318332151034 1:36.47 2:37.38 3:37.83 4:37.5 
0.08884380199573508 1:37.38 2:37.83 3:37.5 4:37.64 
-0.8217119687806317 1:37.83 2:37.5 3:37.64 4:38.01 
1 1:37.64 2:38.01 3:37.71 4:37.79 
