svm_type epsilon_svr
kernel_type rbf
gamma 0.25
nr_class 2
total_sv 5
rho -36.3317
SV
-0.152371761623544 1:37.57 2:37.61 3:37.6 4:36.42 
-0.7778794445527851 1:37.61 2:37.6 3:36.42 4:35.86 
0.8615276377612682 1:37.6 2:36.42 3:35.86 4:35.87 
-0.931276431584939 1:36.42 2:35.86 3:35.87 4:36.56 
1 1:35.86 2:35.87 3:36.56 4:36.38 
