svm_type epsilon_svr
kernel_type rbf
gamma 0.25
nr_class 2
total_sv 4
rho -76.5832
SV
-1 1:75.07 2:75.28 3:75.62 4:75.75 
0.04655809569155567 1:75.28 2:75.62 3:75.75 4:76.07 
1 1:75.62 2:75.75 3:76.07 4:76.65 
-0.04655809569155567 1:76.07 2:76.65 3:77.21 4:77.06 
