svm_type epsilon_svr
kernel_type rbf
gamma 0.25
nr_class 2
total_sv 5
rho -77.2396
SV
-0.6720350855336527 1:75.46 2:74.88 3:75.24 4:76.36 
0.2235794402181621 1:74.88 2:75.24 3:76.36 4:76.52 
-1 1:75.24 2:76.36 3:76.52 4:76.84 
0.7698980602311901 1:76.36 2:76.52 3:76.84 4:76.18 
0.6785575850843005 1:76.52 2:76.84 3:76.18 4:77.73 
