svm_type epsilon_svr
kernel_type rbf
gamma 0.25
nr_class 2
total_sv 4
rho -35.9336
SV
1 1:36.17 2:36.12 3:35.9 4:35.68 
-1 1:35.9 2:35.68 3:36.6 4:35.81 
0.6511115107322029 1:35.68 2:36.6 3:35.81 4:35.62 
-0.6511115107322029 1:36.6 2:35.81 3:35.62 4:36.53 
