svm_type epsilon_svr
kernel_type rbf
gamma 0.25
nr_class 2
total_sv 5
rho -38.0793
SV
-0.1526575948603399 1:41.33 2:40.23 3:37.41 4:38.06 
0.2742728494830534 1:40.23 2:37.41 3:38.06 4:37.84 
1 1:37.41 2:38.06 3:37.84 4:38.33 
-0.1216152546227134 1:38.06 2:37.84 3:38.33 4:38.31 
-1 1:37.84 2:38.33 3:38.31 4:37.88 
