svm_type epsilon_svr
kernel_type rbf
gamma 0.25
nr_class 2
total_sv 5
rho -80.4795
SV
0.01717797423366 1:76.11 2:78.4 3:79.88 4:81.45 
0.1705437518094685 1:78.4 2:79.88 3:81.45 4:80.61 
0.8424332874852135 1:79.88 2:81.45 3:80.61 4:80.77 
-0.03015501352834204 1:81.45 2:80.61 3:80.77 4:80.78 
-1 1:80.61 2:80.77 3:80.78 4:80.02 
