svm_type epsilon_svr
kernel_type rbf
gamma 0.25
nr_class 2
total_sv 5
rho -36.3043
SV
0.2487908425704392 1:38.49 2:36.29 3:37.05 4:36.35 
1 1:36.29 2:37.05 3:36.35 4:36.7 
0.7300681832970581 1:37.05 2:36.35 3:36.7 4:37.1 
-1 1:36.35 2:36.7 3:37.1 4:36.85 
-0.9788590258674974 1:36.7 2:37.1 3:36.85 4:35.13 
