svm_type epsilon_svr
kernel_type rbf
gamma 0.25
nr_class 2
total_sv 5
rho -582.095
SV
-1 1:571 2:569.20001 3:571.59998 4:577.33002 
-0.01499822153346031 1:569.20001 2:571.59998 3:577.33002 4:577.94 
1 1:571.59998 2:577.33002 3:577.94 4:581.97998 
1 1:577.33002 2:577.94 3:581.97998 4:586.08002 
-0.9850017784665397 1:577.94 2:581.97998 3:586.08002 4:589.71997 
