svm_type epsilon_svr
kernel_type rbf
gamma 0.25
nr_class 2
total_sv 5
rho -42.3303
SV
1 1:46.24 2:46.39 3:45.92 4:47.13 
1 1:46.39 2:45.92 3:47.13 4:47.18 
-0.7848074366895601 1:45.92 2:47.13 3:47.18 4:47.01 
-1 1:47.13 2:47.18 3:47.01 4:42.66 
-0.21519256331044 1:47.18 2:47.01 3:42.66 4:41.19 
