svm_type epsilon_svr
kernel_type rbf
gamma 0.25
nr_class 2
total_sv 5
rho -46.898
SV
1 1:46.24 2:46.76 3:46.52 4:46.68 
0.597618186259218 1:46.76 2:46.52 3:46.68 4:47.52 
-1 1:46.52 2:46.68 3:47.52 4:47.06 
0.402381813740782 1:46.68 2:47.52 3:47.06 4:46.56 
-1 1:47.52 2:47.06 3:46.56 4:47.08 
