svm_type epsilon_svr
kernel_type rbf
gamma 0.25
nr_class 2
total_sv 5
rho -77.4506
SV
-1 1:76.59 2:76.35 3:76.39 4:76.45 
-1 1:76.35 2:76.39 3:76.45 4:76.27 
0.8322859060415677 1:76.39 2:76.45 3:76.27 4:76.28 
0.957202217169864 1:76.45 2:76.27 3:76.28 4:77.26 
0.2105118767885684 1:76.27 2:76.28 3:77.26 4:77.7 
