svm_type epsilon_svr
kernel_type rbf
gamma 0.25
nr_class 2
total_sv 4
rho -48.2282
SV
1 1:48.77 2:50.7 3:50.63 4:49.08 
1 1:50.7 2:50.63 3:49.08 4:49.67 
-1 1:49.08 2:49.67 3:49.95 4:48.56 
-1 1:49.67 2:49.95 3:48.56 4:43.78 
