svm_type epsilon_svr
kernel_type rbf
gamma 0.25
nr_class 2
total_sv 5
rho -74.371
SV
-0.6254831053089787 1:73.17 2:73.06 3:73.44 4:72.83 
0.1096103356351496 1:73.06 2:73.44 3:72.83 4:73.77 
-1 1:73.44 2:72.83 3:73.77 4:74.3 
0.5158727696738291 1:72.83 2:73.77 3:74.3 4:73.63 
1 1:73.77 2:74.3 3:73.63 4:74.59 
