svm_type epsilon_svr
kernel_type rbf
gamma 0.25
nr_class 2
total_sv 4
rho -20.9721
SV
-1 1:21.17 2:20.58 3:20.47 4:20.56 
-1 1:20.58 2:20.47 3:20.56 4:20.26 
1 1:20.47 2:20.56 3:20.26 4:20.25 
1 1:20.56 2:20.26 3:20.25 4:21.53 
