svm_type epsilon_svr
kernel_type rbf
gamma 0.25
nr_class 2
total_sv 3
rho -47.8049
SV
-0.5078091888383506 1:48.22 2:48.7 3:47.98 4:47.59 
-0.4921908111616494 1:47.98 2:47.59 3:47.47 4:47.75 
1 1:47.59 2:47.47 3:47.75 4:47.81 
