svm_type epsilon_svr
kernel_type rbf
gamma 0.25
nr_class 2
total_sv 4
rho -41.3774
SV
-0.5718716094550641 1:38.48 2:39.46 3:41.44 4:40.93 
0.9980623411755213 1:39.46 2:41.44 3:40.93 4:40.97 
0.5738092682795428 1:41.44 2:40.93 3:40.97 4:42.05 
-1 1:40.97 2:42.05 3:41.77 4:41.33 
