svm_type epsilon_svr
kernel_type rbf
gamma 0.25
nr_class 2
total_sv 5
rho -311.965
SV
1 1:338.64001 2:326 3:326.31 4:316.5 
0.5649999998886415 1:326 2:326.31 3:316.5 4:316.92999 
-1 1:326.31 2:316.5 3:316.92999 4:312.63 
0.4350000001113585 1:316.5 2:316.92999 3:312.63 4:306.64001 
-1 1:316.92999 2:312.63 3:306.64001 4:312.5 
