svm_type epsilon_svr
kernel_type rbf
gamma 0.25
nr_class 2
total_sv 5
rho -86.5282
SV
1 1:85.71 2:86.19 3:86.65 4:87.28 
-1 1:86.19 2:86.65 3:87.28 4:87.33 
1 1:86.65 2:87.28 3:87.33 4:85.91 
-0.0783855812918514 1:87.28 2:87.33 3:85.91 4:87.29 
-0.9216144187081486 1:87.33 2:85.91 3:87.29 4:86.34 
