svm_type epsilon_svr
kernel_type rbf
gamma 0.25
nr_class 2
total_sv 3
rho -43.97
SV
0.1047587100860102 1:43.53 2:43.5 3:43.86 4:44.15 
0.06828605831246702 1:43.86 2:44.15 3:44.09 4:43.99 
-0.1730447683984772 1:44.15 2:44.09 3:43.99 4:44.06 
