svm_type epsilon_svr
kernel_type rbf
gamma 0.25
nr_class 2
total_sv 4
rho -306.069
SV
1 1:312.63 2:306.64001 3:312.5 4:305.84 
1 1:306.64001 2:312.5 3:305.84 4:307.35999 
-1 1:305.84 2:307.35999 3:307.32001 4:306.07001 
-1 1:307.35999 2:307.32001 3:306.07001 4:295.06 
