svm_type epsilon_svr
kernel_type rbf
gamma 0.25
nr_class 2
total_sv 4
rho -76.826
SV
-1 1:75.24 2:76.36 3:76.52 4:76.84 
1 1:76.36 2:76.52 3:76.84 4:76.18 
1 1:76.52 2:76.84 3:76.18 4:77.73 
-1 1:76.18 2:77.73 3:77.83 4:76.99 
