svm_type epsilon_svr
kernel_type rbf
gamma 0.25
nr_class 2
total_sv 5
rho -34.308
SV
0.5162616458173934 1:36.78 2:36.94 3:34.81 4:34.43 
0.3085481722783799 1:36.94 2:34.81 3:34.43 4:34.94 
0.0661585110722388 1:34.81 2:34.43 3:34.94 4:34.68 
-0.02743777285645996 1:34.43 2:34.94 3:34.68 4:34.05 
-0.8635305563115522 1:34.94 2:34.68 3:34.05 4:33.64 
