svm_type epsilon_svr
kernel_type rbf
gamma 0.25
nr_class 2
total_sv 5
rho -65.4508
SV
-1 1:68.06 2:66.45 3:66.29 4:65.29 
-0.2846933415457736 1:66.45 2:66.29 3:65.29 4:62.76 
-0.4991039013008824 1:66.29 2:65.29 3:62.76 4:64.97 
0.7837972428466562 1:65.29 2:62.76 3:64.97 4:64.87 
1 1:62.76 2:64.97 3:64.87 4:66.34 
