svm_type epsilon_svr
kernel_type rbf
gamma 0.25
nr_class 2
total_sv 5
rho -576.207
SV
-1 1:553.37 2:554.90002 3:556.35999 4:564.95001 
1 1:554.90002 2:556.35999 3:564.95001 4:564.62 
-0.106256640624963 1:556.35999 2:564.95001 3:564.62 4:578.65002 
0.9331083203125559 1:564.95001 2:564.62 3:578.65002 4:576 
-0.8268516796875929 1:564.62 2:578.65002 3:576 4:577.23999 
