svm_type epsilon_svr
kernel_type rbf
gamma 0.25
nr_class 2
total_sv 5
rho -31.671
SV
0.8533574099246735 1:32.77 2:32.26 3:32.07 4:31.77 
0.1466425900753265 1:32.26 2:32.07 3:31.77 4:31.75 
-1 1:32.07 2:31.77 3:31.75 4:31.52 
-1 1:31.77 2:31.75 3:31.52 4:30.5 
1 1:31.75 2:31.52 3:30.5 4:30.51 
