svm_type epsilon_svr
kernel_type rbf
gamma 0.25
nr_class 2
total_sv 5
rho -47.3094
SV
0.4259134545656512 1:48.46 2:48.08 3:48.84 4:48.42 
0.5650613991531654 1:48.08 2:48.84 3:48.42 4:47.7 
-1 1:48.84 2:48.42 3:47.7 4:47.59 
0.2399344602141823 1:48.42 2:47.7 3:47.59 4:46.9 
-0.2309093139329988 1:47.7 2:47.59 3:46.9 4:47.17 
