svm_type epsilon_svr
kernel_type rbf
gamma 0.25
nr_class 2
total_sv 4
rho -78.5291
SV
-1 1:76.18 2:77.73 3:77.83 4:76.99 
-1 1:77.73 2:77.83 3:76.99 4:74.69 
1 1:76.99 2:74.69 3:76.11 4:78.4 
1 1:74.69 2:76.11 3:78.4 4:79.88 
