svm_type epsilon_svr
kernel_type rbf
gamma 0.25
nr_class 2
total_sv 4
rho -377.041
SV
-1 1:370.56 2:374.59 3:372.10001 4:370.26001 
-1 1:372.10001 2:370.26001 3:372.25 4:377.04001 
1 1:370.26001 2:372.25 3:377.04001 4:374.41 
1 1:372.25 2:377.04001 3:374.41 4:381.20001 
