svm_type epsilon_svr
kernel_type rbf
gamma 0.25
nr_class 2
total_sv 5
rho -39.5594
SV
0.398975082255937 1:37.79 2:38.18 3:38.31 4:38.51 
-1 1:38.18 2:38.31 3:38.51 4:39.27 
-0.4204443337591287 1:38.31 2:38.51 3:39.27 4:38.87 
0.02146925150319168 1:38.51 2:39.27 3:38.87 4:39.19 
1 1:39.27 2:38.87 3:39.19 4:39.59 
