svm_type epsilon_svr
kernel_type rbf
gamma 0.25
nr_class 2
total_sv 5
rho -75.2719
SV
-0.1401136660436219 1:75.78 2:76.24 3:78 4:75.91 
0.06016541146307462 1:76.24 2:78 3:75.91 4:74.99 
0.08601001565678763 1:78 2:75.91 3:74.99 4:75.4 
0.9939382389237597 1:75.91 2:74.99 3:75.4 4:75.63 
-1 1:74.99 2:75.4 3:75.63 4:75.61 
