svm_type epsilon_svr
kernel_type rbf
gamma 0.25
nr_class 2
total_sv 4
rho -86.173
SV
-0.9880948048108924 1:83.94 2:82.96 3:84.23 4:85.94 
0.2575297290541142 1:82.96 2:84.23 3:85.94 4:85.16 
0.1762961520183582 1:84.23 2:85.94 3:85.16 4:86.38 
0.55426892373842 1:85.16 2:86.38 3:86.66 4:86.43 
