svm_type epsilon_svr
kernel_type rbf
gamma 0.25
nr_class 2
total_sv 5
rho -48.9011
SV
-0.8886870871382692 1:50.51 2:50.17 3:49.13 4:49.21 
1 1:50.17 2:49.13 3:49.21 4:48.59 
1 1:49.13 2:49.21 3:48.59 4:50.23 
-0.372602459660323 1:49.21 2:48.59 3:50.23 4:49.72 
-0.7387104532014079 1:48.59 2:50.23 3:49.72 4:48.8 
