svm_type epsilon_svr
kernel_type rbf
gamma 0.25
nr_class 2
total_sv 4
rho -128.009
SV
-1 1:126.85 2:126.3 3:126.78 4:126.17 
-0.8947704612285009 1:126.78 2:126.17 3:124.75 4:127.6 
0.8947704612285009 1:126.17 2:124.75 3:127.6 4:126.91 
1 1:124.75 2:127.6 3:126.91 4:128.62 
