svm_type epsilon_svr
kernel_type rbf
gamma 0.25
nr_class 2
total_sv 5
rho -95.3087
SV
-0.5382011919078984 1:96.45 2:95.32 3:94.78 4:93.09 
-1 1:95.32 2:94.78 3:93.09 4:94.43 
-0.4617988080921016 1:94.78 2:93.09 3:94.43 4:93.94 
1 1:93.09 2:94.43 3:93.94 4:94.72 
1 1:94.43 2:93.94 3:94.72 4:97.19 
