svm_type epsilon_svr
kernel_type rbf
gamma 0.25
nr_class 2
total_sv 3
rho -86.6761
SV
-0.3408014834790781 1:85.94 2:85.16 3:86.38 4:86.66 
0.3143431671565747 1:85.16 2:86.38 3:86.66 4:86.43 
0.02645831632250339 1:86.66 2:86.43 3:86.91 4:86.64 
