svm_type epsilon_svr
kernel_type rbf
gamma 0.25
nr_class 2
total_sv 5
rho -51.6255
SV
-1 1:50.01 2:49.89 3:50.08 4:50.47 
-0.7627627942386496 1:49.89 2:50.08 3:50.47 4:50.42 
1 1:50.08 2:50.47 3:50.42 4:50.84 
0.4870453256888002 1:50.47 2:50.42 3:50.84 4:52.87 
0.2757174685498494 1:50.42 2:50.84 3:52.87 4:52.3 
