svm_type epsilon_svr
kernel_type rbf
gamma 0.25
nr_class 2
total_sv 5
rho -76.4657
SV
-1 1:75.34 2:75.07 3:75.28 4:75.62 
-0.6578062309435982 1:75.07 2:75.28 3:75.62 4:75.75 
0.6700802018988196 1:75.28 2:75.62 3:75.75 4:76.07 
1 1:75.62 2:75.75 3:76.07 4:76.65 
-0.01227397095522124 1:75.75 2:76.07 3:76.65 4:77.21 
