svm_type epsilon_svr
kernel_type rbf
gamma 0.25
nr_class 2
total_sv 4
rho -47.7472
SV
-1 1:45.12 2:45.09 3:45.06 4:45.11 
-1 1:45.09 2:45.06 3:45.11 4:45.98 
1 1:45.06 2:45.11 3:45.98 4:46.1 
1 1:45.98 2:46.1 3:48.17 4:48.06 
