svm_type epsilon_svr
kernel_type rbf
gamma 0.25
nr_class 2
total_sv 4
rho -73.2147
SV
-0.4830439112429901 1:73.51 2:72.69 3:72.47 4:73.17 
0.4830439112429901 1:72.69 2:72.47 3:73.17 4:73.06 
-1 1:72.47 2:73.17 3:73.06 4:73.44 
1 1:73.17 2:73.06 3:73.44 4:72.83 
