svm_type epsilon_svr
kernel_type rbf
gamma 0.25
nr_class 2
total_sv 4
rho -39.7915
SV
1 1:39.64 2:39.54 3:39.97 4:40.42 
-1 1:39.54 2:39.97 3:40.42 4:40.24 
0.41067951872494 1:39.97 2:40.42 3:40.24 4:39.6 
-0.41067951872494 1:40.24 2:39.6 3:39.83 4:39.75 
