svm_type epsilon_svr
kernel_type rbf
gamma 0.25
nr_class 2
total_sv 4
rho -325.69
SV
1 1:325.62 2:334.38 3:327 4:324.20001 
-1 1:334.38 2:327 3:324.20001 4:327.23999 
1 1:327 2:324.20001 3:327.23999 4:324.16 
-1 1:327.23999 2:324.16 3:327.44 4:325.69 
