svm_type epsilon_svr
kernel_type rbf
gamma 0.25
nr_class 2
total_sv 4
rho -32.6072
SV
0.2631777538965706 1:32.32 2:32.44 3:32.66 4:32.81 
1 1:32.66 2:32.81 3:32.75 4:32.69 
-1 1:32.81 2:32.75 3:32.69 4:32.71 
-0.2631777538965706 1:32.75 2:32.69 3:32.71 4:32.4 
