svm_type epsilon_svr
kernel_type rbf
gamma 0.25
nr_class 2
total_sv 5
rho -32.3407
SV
-1 1:32.52 2:32.42 3:32.24 4:32.27 
0.3210556143337981 1:32.42 2:32.24 3:32.27 4:31.65 
1 1:32.24 2:32.27 3:31.65 4:32.41 
-0.005479837785372003 1:32.27 2:31.65 3:32.41 4:32.86 
-0.3155757765484261 1:31.65 2:32.41 3:32.86 4:32.2 
