svm_type epsilon_svr
kernel_type rbf
gamma 0.25
nr_class 2
total_sv 3
rho -17.4975
SV
-0.0187614571196598 1:18.02 2:18.3 3:18.01 4:17.75 
-0.9812385428803402 1:17.75 2:17.34 3:17.42 4:17.37 
1 1:17.34 2:17.42 3:17.37 4:17.36 
