svm_type epsilon_svr
kernel_type rbf
gamma 0.25
nr_class 2
total_sv 3
rho -33.1844
SV
-1 1:32.87 2:32.78 3:33.05 4:33.08 
0.4967570748987116 1:33.05 2:33.08 3:33.03 4:33.14 
0.5032429251012884 1:33.08 2:33.03 3:33.14 4:33.31 
