svm_type epsilon_svr
kernel_type rbf
gamma 0.25
nr_class 2
total_sv 5
rho -43.45
SV
0.4076172295690293 1:45.19 2:44.13 3:43.47 4:43.83 
-1 1:44.13 2:43.47 3:43.83 4:43.46 
-0.239557052896235 1:43.47 2:43.83 3:43.46 4:43 
-0.1680601766727944 1:43.83 2:43.46 3:43 4:43.13 
1 1:43.46 2:43 3:43.13 4:43.27 
