svm_type epsilon_svr
kernel_type rbf
gamma 0.25
nr_class 2
total_sv 5
rho -98.3554
SV
-0.8089120747865783 1:94.48 2:94.74 3:95.99 4:95.97 
-0.2883073365594048 1:94.74 2:95.99 3:95.97 4:97.24 
-0.6698742492532692 1:95.99 2:95.97 3:97.24 4:97.5 
0.7670936605992523 1:95.97 2:97.24 3:97.5 4:97.98 
1 1:97.24 2:97.5 3:97.98 4:99.16 
