svm_type epsilon_svr
kernel_type rbf
gamma 0.25
nr_class 2
total_sv 4
rho -518.66
SV
1 1:537.31 2:525.26001 3:526.97998 4:533.37 
1 1:525.26001 2:526.97998 3:533.37 4:526.06 
-1 1:533.37 2:526.06 3:528.34003 4:518.65997 
-1 1:526.06 2:528.34003 3:518.65997 4:513.79999 
