svm_type epsilon_svr
kernel_type rbf
gamma 0.25
nr_class 2
total_sv 5
rho -322.097
SV
-0.06668031367095451 1:331.32001 2:324.5 3:323.63 4:328.20999 
1 1:324.5 2:323.63 3:328.20999 4:321.92999 
-0.1758546096509916 1:323.63 2:328.20999 3:321.92999 4:323.20999 
0.2425349233219461 1:328.20999 2:321.92999 3:323.20999 4:321.82001 
-1 1:321.92999 2:323.20999 3:321.82001 4:322.44 
