svm_type epsilon_svr
kernel_type rbf
gamma 0.25
nr_class 2
total_sv 5
rho -27.7016
SV
0.5266281913291041 1:27.69 2:28.13 3:28.32 4:28.11 
0.4733718086708959 1:28.13 2:28.32 3:28.11 4:27.83 
1 1:28.32 2:28.11 3:27.83 4:27.89 
-1 1:28.11 2:27.83 3:27.89 4:28.06 
-1 1:27.83 2:27.89 3:28.06 4:27.51 
