svm_type epsilon_svr
kernel_type rbf
gamma 0.25
nr_class 2
total_sv 5
rho -33.8906
SV
1 1:34.53 2:34.85 3:34.93 4:35.43 
1 1:34.85 2:34.93 3:35.43 4:35.7 
-1 1:34.93 2:35.43 3:35.7 4:35.61 
-0.6772505720765298 1:35.43 2:35.7 3:35.61 4:33.79 
-0.3227494279234702 1:35.7 2:35.61 3:33.79 4:33.21 
