svm_type epsilon_svr
kernel_type rbf
gamma 0.25
nr_class 2
total_sv 4
rho -48.8615
SV
-1 1:46.05 2:46.34 3:47.08 4:47.46 
1 1:47.08 2:47.46 3:47.93 4:48.55 
-1 1:47.46 2:47.93 3:48.55 4:49.41 
1 1:47.93 2:48.55 3:49.41 4:49.05 
