svm_type epsilon_svr
kernel_type rbf
gamma 0.25
nr_class 2
total_sv 5
rho -82.7685
SV
-1 1:82.44 2:82.32 3:82.28 4:82.17 
0.6712853564504928 1:82.32 2:82.28 3:82.17 4:82.04 
1 1:82.28 2:82.17 3:82.04 4:83.01 
-0.1566075594391182 1:82.17 2:82.04 3:83.01 4:83.52 
-0.5146777970113745 1:82.04 2:83.01 3:83.52 4:82.71 
