svm_type epsilon_svr
kernel_type rbf
gamma 0.25
nr_class 2
total_sv 4
rho -46.7741
SV
0.7357449943497828 1:45.91 2:46.47 3:46.76 4:46.84 
-1 1:46.76 2:46.84 3:47 4:46.7 
0.5287026202603939 1:46.84 2:47 3:46.7 4:46.24 
-0.2644476146101768 1:47 2:46.7 3:46.24 4:46.76 
