svm_type epsilon_svr
kernel_type rbf
gamma 0.25
nr_class 2
total_sv 4
rho -76.9056
SV
0.3327481750852773 1:75.62 2:75.75 3:76.07 4:76.65 
0.00920097147314897 1:75.75 2:76.07 3:76.65 4:77.21 
-0.6607061116101861 1:76.65 2:77.21 3:77.06 4:76.82 
0.3187569650517599 1:77.21 2:77.06 3:76.82 4:76.55 
