svm_type epsilon_svr
kernel_type rbf
gamma 0.25
nr_class 2
total_sv 3
rho -16.199
SV
0.1455149850812116 1:17.45 2:17.64 3:16.5 4:16.39 
0.07877073441916534 1:17.64 2:16.5 3:16.39 4:16.38 
-0.2242857195003769 1:16.5 2:16.39 3:16.38 4:16.32 
