svm_type epsilon_svr
kernel_type rbf
gamma 0.25
nr_class 2
total_sv 5
rho -86.4778
SV
0.467506206195873 1:85.16 2:86.38 3:86.66 4:86.43 
0.532493793804127 1:86.38 2:86.66 3:86.43 4:86.91 
1 1:86.66 2:86.43 3:86.91 4:86.64 
-1 1:86.43 2:86.91 3:86.64 4:86.79 
-1 1:86.91 2:86.64 3:86.79 4:85.88 
