svm_type epsilon_svr
kernel_type rbf
gamma 0.25
nr_class 2
total_sv 3
rho -16.8713
SV
-0.7668036588507733 1:16.78 2:16.64 3:16.91 4:16.81 
-0.2331963411492267 1:16.64 2:16.91 3:16.81 4:16.76 
1 1:16.91 2:16.81 3:16.76 4:16.77 
