svm_type epsilon_svr
kernel_type rbf
gamma 0.25
nr_class 2
total_sv 4
rho -77.2805
SV
1 1:78.54 2:77.22 3:78.79 4:79 
-0.9670954158795779 1:77.22 2:78.79 3:79 4:79.04 
-0.1027048688100106 1:78.79 2:79 3:79.04 4:76.55 
0.06980028468958854 1:79 2:79.04 3:76.55 4:77.08 
