svm_type epsilon_svr
kernel_type rbf
gamma 0.25
nr_class 2
total_sv 4
rho -95.5846
SV
-1 1:96.13 2:95.59 3:95.12 4:94.96 
-1 1:95.59 2:95.12 3:94.96 4:94.48 
1 1:95.12 2:94.96 3:94.48 4:94.74 
1 1:94.48 2:94.74 3:95.99 4:95.97 
