svm_type epsilon_svr
kernel_type rbf
gamma 0.25
nr_class 2
total_sv 5
rho -46.2779
SV
0.3052975200728366 1:45.65 2:46.23 3:47.59 4:47.19 
0.09823214827221301 1:46.23 2:47.59 3:47.19 4:46.6 
0.01443003864033227 1:47.59 2:47.19 3:46.6 4:46.36 
-1 1:47.19 2:46.6 3:46.36 4:45.96 
0.582040293014618 1:46.6 2:46.36 3:45.96 4:45.48 
