svm_type epsilon_svr
kernel_type rbf
gamma 0.25
nr_class 2
total_sv 4
rho -32.9704
SV
-1 1:32.8 2:32.96 3:32.84 4:32.89 
-0.549137692033753 1:32.96 2:32.84 3:32.89 4:32.67 
1 1:32.89 2:32.67 3:32.82 4:32.97 
0.549137692033753 1:32.67 2:32.82 3:32.97 4:33.14 
