svm_type epsilon_svr
kernel_type rbf
gamma 0.25
nr_class 2
total_sv 5
rho -40.2054
SV
-0.09344523504203654 1:42.09 2:40.93 3:38.65 4:39.05 
-1 1:40.93 2:38.65 3:39.05 4:39.88 
0.2738122364399969 1:38.65 2:39.05 3:39.88 4:38.95 
0.1615127151413355 1:39.05 2:39.88 3:38.95 4:40.66 
0.6581202834607042 1:39.88 2:38.95 3:40.66 4:40.52 
