svm_type epsilon_svr
kernel_type rbf
gamma 0.25
nr_class 2
total_sv 5
rho -536.639
SV
-1 1:547.31 2:545.38 3:544.40002 4:536.51001 
0.2507964067822286 1:545.38 2:544.40002 3:536.51001 4:535.03003 
-1 1:544.40002 2:536.51001 3:535.03003 4:536.98999 
0.7492035932177714 1:536.51001 2:535.03003 3:536.98999 4:534.83002 
1 1:535.03003 2:536.98999 3:534.83002 4:537.5 
