svm_type epsilon_svr
kernel_type rbf
gamma 0.25
nr_class 2
total_sv 5
rho -73.0849
SV
-0.07480343737645831 1:77.56 2:76.29 3:77.52 4:75.91 
-0.008203272932561151 1:76.29 2:77.52 3:75.91 4:72.91 
0.4038859440271839 1:77.52 2:75.91 3:72.91 4:72.99 
0.03757300816246665 1:75.91 2:72.91 3:72.99 4:73.59 
-0.358452241880631 1:72.91 2:72.99 3:73.59 4:73.21 
