svm_type epsilon_svr
kernel_type rbf
gamma 0.25
nr_class 2
total_sv 4
rho -524.87
SV
-1 1:518.65997 2:513.79999 3:495.39001 4:504.89001 
-1 1:513.79999 2:495.39001 3:504.89001 4:511.10001 
1 1:504.89001 2:511.10001 3:516.34998 4:524.87 
1 1:511.10001 2:516.34998 3:524.87 4:530.59003 
