svm_type epsilon_svr
kernel_type rbf
gamma 0.25
nr_class 2
total_sv 3
rho -76.3795
SV
-0.4218850232144307 1:76.59 2:76.35 3:76.39 4:76.45 
-0.5781149767855693 1:76.35 2:76.39 3:76.45 4:76.27 
1 1:76.39 2:76.45 3:76.27 4:76.28 
