svm_type epsilon_svr
kernel_type rbf
gamma 0.25
nr_class 2
total_sv 3
rho -16.8334
SV
0.2840535506380801 1:16.26 2:16.12 3:16.3 4:16.84 
-0.6514292741267558 1:16.3 2:16.84 3:16.97 4:16.78 
0.3673757234886757 1:16.84 2:16.97 3:16.78 4:16.64 
