svm_type epsilon_svr
kernel_type rbf
gamma 0.25
nr_class 2
total_sv 4
rho -17.6276
SV
-0.5871197098282995 1:17.42 2:17.78 3:18.04 4:17.77 
0.5871197098282995 1:18.04 2:17.77 3:17.46 4:17.61 
-1 1:17.77 2:17.46 3:17.61 4:17.76 
1 1:17.46 2:17.61 3:17.76 4:17.37 
