svm_type epsilon_svr
kernel_type rbf
gamma 0.25
nr_class 2
total_sv 3
rho -26.7735
SV
-0.3797670795719129 1:27.91 2:27.78 3:27.57 4:26.69 
0.5987747399219119 1:27.57 2:26.69 3:26.54 4:26.78 
-0.2190076603499991 1:26.69 2:26.54 3:26.78 4:27.09 
