svm_type epsilon_svr
kernel_type rbf
gamma 0.25
nr_class 2
total_sv 3
rho -76.4298
SV
0.7630276026785798 1:76.02 2:76.03 3:76.25 4:76.38 
-0.2683293165042408 1:76.03 2:76.25 3:76.38 4:76.59 
-0.4946982861743391 1:76.59 2:76.35 3:76.39 4:76.45 
