svm_type epsilon_svr
kernel_type rbf
gamma 0.25
nr_class 2
total_sv 5
rho -17.7915
SV
0.2092311000264016 1:16.69 2:16.89 3:17.33 4:17.68 
-0.5951188741802144 1:16.89 2:17.33 3:17.68 4:17.71 
-1 1:17.33 2:17.68 3:17.71 4:17.47 
1 1:17.68 2:17.71 3:17.47 4:17.53 
0.3858877741538128 1:17.71 2:17.47 3:17.53 4:18.43 
