svm_type epsilon_svr
kernel_type rbf
gamma 0.25
nr_class 2
total_sv 5
rho -46.8646
SV
-1 1:45.96 2:45.48 3:46.24 4:46.39 
0.8140741565780968 1:45.48 2:46.24 3:46.39 4:45.92 
0.6596096790062979 1:46.24 2:46.39 3:45.92 4:47.13 
0.5263161644156052 1:46.39 2:45.92 3:47.13 4:47.18 
-1 1:45.92 2:47.13 3:47.18 4:47.01 
