svm_type epsilon_svr
kernel_type rbf
gamma 0.25
nr_class 2
total_sv 4
rho -21.2883
SV
0.3264217384850466 1:20.56 2:20.26 3:20.25 4:21.53 
0.0789362339180518 1:20.25 2:21.53 3:21.56 4:21.34 
0.5946420275969018 1:21.53 2:21.56 3:21.34 4:21.36 
-1 1:21.56 2:21.34 3:21.36 4:21.18 
