svm_type epsilon_svr
kernel_type rbf
gamma 0.25
nr_class 2
total_sv 4
rho -43.2539
SV
1 1:50.7 2:50.63 3:49.08 4:49.67 
1 1:50.63 2:49.08 3:49.67 4:49.95 
-1 1:49.67 2:49.95 3:48.56 4:43.78 
-1 1:49.95 2:48.56 3:43.78 4:42.08 
