svm_type epsilon_svr
kernel_type rbf
gamma 0.25
nr_class 2
total_sv 4
rho -373.996
SV
1 1:373.35001 2:371.92001 3:375.14001 4:373.23999 
1 1:371.92001 2:375.14001 3:373.23999 4:378.48999 
-1 1:373.23999 2:378.48999 3:375.10999 4:374.09 
-1 1:378.48999 2:375.10999 3:374.09 4:370.95999 
