svm_type epsilon_svr
kernel_type rbf
gamma 0.25
nr_class 2
total_sv 5
rho -101.137
SV
-0.1745488925249909 1:100.86 2:101.58 3:101.79 4:100.96 
1 1:101.58 2:101.79 3:100.96 4:101.06 
0.4923861697261143 1:101.79 2:100.96 3:101.06 4:102.64 
-1 1:100.96 2:101.06 3:102.64 4:101.75 
-0.3178372772011234 1:101.06 2:102.64 3:101.75 4:97.87 
