svm_type epsilon_svr
kernel_type rbf
gamma 0.25
nr_class 2
total_sv 5
rho -38.1016
SV
-1 1:34.47 2:35.37 3:35.54 4:36.79 
0.4399692897574212 1:35.37 2:35.54 3:36.79 4:36.9 
-0.2795554248491374 1:35.54 2:36.79 3:36.9 4:38.02 
0.2125639779855004 1:36.79 2:36.9 3:38.02 4:38.02 
0.6270221571062158 1:36.9 2:38.02 3:38.02 4:38.74 
