svm_type epsilon_svr
kernel_type rbf
gamma 0.25
nr_class 2
total_sv 5
rho -108.558
SV
-1 1:112.01 2:109.25 3:110.22 4:109.8 
-1 1:109.25 2:110.22 3:109.8 4:106.82 
0.12011302027647 1:110.22 2:109.8 3:106.82 4:105.99 
0.87988697972353 1:109.8 2:106.82 3:105.99 4:108.72 
1 1:106.82 2:105.99 3:108.72 4:109.55 
