svm_type epsilon_svr
kernel_type rbf
gamma 0.25
nr_class 2
total_sv 5
rho -87.7549
SV
1 1:86.31 2:88.6 3:90.47 4:89.35 
1 1:88.6 2:90.47 3:89.35 4:90.02 
-1 1:90.47 2:89.35 3:90.02 4:89.31 
-0.1389660093257654 1:89.35 2:90.02 3:89.31 4:86.61 
-0.8610339906742346 1:90.02 2:89.31 3:86.61 4:87.38 
