svm_type epsilon_svr
kernel_type rbf
gamma 0.25
nr_class 2
total_sv 4
rho -33.9124
SV
-1 1:34.45 2:34.4 3:34.17 4:33.8 
0.3478724091092417 1:34.4 2:34.17 3:33.8 4:33.41 
-0.3478724091092417 1:34.17 2:33.8 3:33.41 4:33.89 
1 1:33.8 2:33.41 3:33.89 4:33.87 
