svm_type epsilon_svr
kernel_type rbf
gamma 0.25
nr_class 2
total_sv 5
rho -537.836
SV
-0.7460340755005745 1:545.38 2:544.40002 3:536.51001 4:535.03003 
-1 1:544.40002 2:536.51001 3:535.03003 4:536.98999 
-0.2539659244994255 1:536.51001 2:535.03003 3:536.98999 4:534.83002 
1 1:535.03003 2:536.98999 3:534.83002 4:537.5 
1 1:536.98999 2:534.83002 3:537.5 4:539.27002 
