svm_type epsilon_svr
kernel_type rbf
gamma 0.25
nr_class 2
total_sv 4
rho -43.7336
SV
0.2066668015457453 1:42.36 2:42.6 3:42.38 4:43.09 
-0.1415885638868365 1:42.6 2:42.38 3:43.09 4:43.87 
-0.5590575937984918 1:43.09 2:43.87 3:43.58 4:43.53 
0.4939793561395832 1:43.87 2:43.58 3:43.53 4:43.5 
