svm_type epsilon_svr
kernel_type rbf
gamma 0.25
nr_class 2
total_sv 5
rho -77.1211
SV
0.3222236758392868 1:79 2:79.04 3:76.55 4:77.08 
0.5864796284682255 1:79.04 2:76.55 3:77.08 4:77.44 
-0.9087033043075123 1:76.55 2:77.08 3:77.44 4:77.56 
1 1:77.08 2:77.44 3:77.56 4:76.29 
-1 1:77.44 2:77.56 3:76.29 4:77.52 
