svm_type epsilon_svr
kernel_type rbf
gamma 0.25
nr_class 2
total_sv 4
rho -17.0964
SV
1 1:17.51 2:17.55 3:17.49 4:17.38 
1 1:17.55 2:17.49 3:17.38 4:17.45 
-1 1:17.49 2:17.38 3:17.45 4:17.64 
-1 1:17.38 2:17.45 3:17.64 4:16.5 
