svm_type epsilon_svr
kernel_type rbf
gamma 0.25
nr_class 2
total_sv 5
rho -371.36
SV
1 1:371.92001 2:375.14001 3:373.23999 4:378.48999 
1 1:375.14001 2:373.23999 3:378.48999 4:375.10999 
-0.3001503382722958 1:373.23999 2:378.48999 3:375.10999 4:374.09 
-1 1:378.48999 2:375.10999 3:374.09 4:370.95999 
-0.6998496617277041 1:375.10999 2:374.09 3:370.95999 4:367.35001 
