svm_type epsilon_svr
kernel_type rbf
gamma 0.25
nr_class 2
total_sv 5
rho -18.3515
SV
1 1:19.2 2:19.5 3:19.8 4:19.82 
1 1:19.5 2:19.8 3:19.82 4:19.87 
-0.4365281500410738 1:19.8 2:19.82 3:19.87 4:20.25 
-1 1:19.82 2:19.87 3:20.25 4:18.88 
-0.5634718499589262 1:19.87 2:20.25 3:18.88 4:18.04 
