svm_type epsilon_svr
kernel_type rbf
gamma 0.25
nr_class 2
total_sv 5
rho -82.7024
SV
-1 1:81.9 2:83.29 3:82.62 4:82.53 
0.6505754256208323 1:83.29 2:82.62 3:82.53 4:81.52 
0.9199600688915792 1:82.62 2:82.53 3:81.52 4:83.24 
0.4294645054875887 1:82.53 2:81.52 3:83.24 4:83.31 
-1 1:81.52 2:83.24 3:83.31 4:83.05 
