svm_type epsilon_svr
kernel_type rbf
gamma 0.25
nr_class 2
total_sv 5
rho -51.2855
SV
0.6785478136061653 1:50.6 2:50.5 3:51.75 4:52.37 
-1 1:50.5 2:51.75 3:52.37 4:51.75 
0.1899971802307162 1:51.75 2:52.37 3:51.75 4:50.58 
-0.5882817056618781 1:52.37 2:51.75 3:50.58 4:51.25 
0.7197367118249965 1:51.75 2:50.58 3:51.25 4:51.04 
