svm_type epsilon_svr
kernel_type rbf
gamma 0.25
nr_class 2
total_sv 5
rho -546.8
SV
-1 1:559.08002 2:555.21997 3:554.10999 4:545.91998 
-1 1:555.21997 2:554.10999 3:545.91998 4:542.03998 
0.589995034938795 1:554.10999 2:545.91998 3:542.03998 4:541.01001 
1 1:545.91998 2:542.03998 3:541.01001 4:547.48999 
0.410004965061205 1:542.03998 2:541.01001 3:547.48999 4:550.28998 
