svm_type epsilon_svr
kernel_type rbf
gamma 0.25
nr_class 2
total_sv 3
rho -32.689
SV
-1 1:31.11 2:31.62 3:31.74 4:32.19 
-5.551115123125783e-17 1:31.62 2:31.74 3:32.19 4:32.27 
1 1:31.74 2:32.19 3:32.27 4:32.62 
