svm_type epsilon_svr
kernel_type rbf
gamma 0.25
nr_class 2
total_sv 5
rho -41.3374
SV
-0.8370649141470696 1:47.01 2:42.66 3:41.19 4:42.01 
-0.1326061121986971 1:42.66 2:41.19 3:42.01 4:40.4 
-0.1261395140890363 1:41.19 2:42.01 3:40.4 4:41.28 
0.0958105404348031 1:42.01 2:40.4 3:41.28 4:41.6 
1 1:40.4 2:41.28 3:41.6 4:41.84 
