svm_type epsilon_svr
kernel_type rbf
gamma 0.25
nr_class 2
total_sv 5
rho -539.675
SV
-1 1:530.03003 2:524.51001 3:511.17001 4:520.84003 
-1 1:524.51001 2:511.17001 3:520.84003 4:526.53998 
1 1:511.17001 2:520.84003 3:526.53998 4:532.71002 
0.005004999999982829 1:520.84003 2:526.53998 3:532.71002 4:543.97998 
0.9949950000000172 1:526.53998 2:532.71002 3:543.97998 4:539.78003 
