svm_type epsilon_svr
kernel_type rbf
gamma 0.25
nr_class 2
total_sv 5
rho -20.2857
SV
0.3204940486005926 1:22.12 2:22.16 3:21.15 4:20.7 
0.2374743561185076 1:22.16 2:21.15 3:20.7 4:20.79 
0.7605807133001937 1:21.15 2:20.7 3:20.79 4:20.74 
-1 1:20.7 2:20.79 3:20.74 4:20.33 
-0.3185491180192939 1:20.79 2:20.74 3:20.33 4:19.72 
