svm_type epsilon_svr
kernel_type rbf
gamma 0.25
nr_class 2
total_sv 4
rho -75.4008
SV
-1 1:77.56 2:77.98 3:75.2 4:73.82 
-0.1063108596067383 1:77.98 2:75.2 3:73.82 4:74.1 
0.4205251580408854 1:75.2 2:73.82 3:74.1 4:75.14 
0.6857857015658528 1:74.1 2:75.14 3:76.02 4:76.03 
