svm_type epsilon_svr
kernel_type rbf
gamma 0.25
nr_class 2
total_sv 5
rho -297.83
SV
-1 1:292.23999 2:302.85999 3:304.64001 4:297.62 
-0.02999987049400153 1:302.85999 2:304.64001 3:297.62 4:295.19 
-0.9700001295059985 1:304.64001 2:297.62 3:295.19 4:297.70001 
1 1:297.62 2:295.19 3:297.70001 4:296.76001 
1 1:295.19 2:297.70001 3:296.76001 4:301.19 
