svm_type epsilon_svr
kernel_type rbf
gamma 0.25
nr_class 2
total_sv 5
rho -19.9272
SV
-0.1222799799842322 1:17.48 2:17.72 3:18.36 4:18.72 
0.1707909232757978 1:17.72 2:18.36 3:18.72 4:19.82 
-0.08293826476171161 1:18.36 2:18.72 3:19.82 4:20.16 
0.5059174209348981 1:18.72 2:19.82 3:20.16 4:20.01 
-0.4714900994647522 1:19.82 2:20.16 3:20.01 4:20.18 
