svm_type epsilon_svr
kernel_type rbf
gamma 0.25
nr_class 2
total_sv 4
rho -71.4471
SV
-1 1:67.17 2:67.66 3:66.41 4:68.42 
-1 1:67.66 2:66.41 3:68.42 4:69.4 
1 1:68.42 2:69.4 3:69.27 4:71.29 
1 1:69.4 2:69.27 3:71.29 4:74.98 
