svm_type epsilon_svr
kernel_type rbf
gamma 0.25
nr_class 2
total_sv 5
rho -46.5021
SV
-1 1:47.57 2:47.35 3:46.75 4:47.59 
-0.1847459129876414 1:47.35 2:46.75 3:47.59 4:45.84 
0.871487193743108 1:46.75 2:47.59 3:45.84 4:46.27 
0.3644710074615449 1:47.59 2:45.84 3:46.27 4:47.07 
-0.05121228821701147 1:45.84 2:46.27 3:47.07 4:46.66 
