svm_type epsilon_svr
kernel_type rbf
gamma 0.25
nr_class 2
total_sv 5
rho -86.0494
SV
-0.1832171436554959 1:86.19 2:86.65 3:87.28 4:87.33 
1 1:86.65 2:87.28 3:87.33 4:85.91 
0.3154439696031677 1:87.28 2:87.33 3:85.91 4:87.29 
-0.3809601227211806 1:87.33 2:85.91 3:87.29 4:86.34 
-0.7512667032264913 1:85.91 2:87.29 3:86.34 4:85.89 
