svm_type epsilon_svr
kernel_type rbf
gamma 0.25
nr_class 2
total_sv 5
rho -373.893
SV
-0.442238098678122 1:369.51001 2:366.37 3:374.23999 4:370.57999 
-1 1:366.37 2:374.23999 3:370.57999 4:373.35001 
0.9952263845260304 1:374.23999 2:370.57999 3:373.35001 4:371.92001 
-0.5529882858479086 1:370.57999 2:373.35001 3:371.92001 4:375.14001 
1 1:373.35001 2:371.92001 3:375.14001 4:373.23999 
