svm_type epsilon_svr
kernel_type rbf
gamma 0.25
nr_class 2
total_sv 5
rho -33.0977
SV
-1 1:32.41 2:32.86 3:32.2 4:32.03 
0.9419250540928397 1:32.86 2:32.2 3:32.03 4:32.56 
-1 1:32.2 2:32.03 3:32.56 4:33.19 
1 1:32.03 2:32.56 3:33.19 4:32.95 
0.05807494590716028 1:32.56 2:33.19 3:32.95 4:33.37 
