svm_type epsilon_svr
kernel_type rbf
gamma 0.25
nr_class 2
total_sv 5
rho -48.2371
SV
-0.5005624455322712 1:48.01 2:47.32 3:46.26 4:47.5 
0.5315172536484857 1:47.32 2:46.26 3:47.5 4:47.95 
-0.03095480811621432 1:46.26 2:47.5 3:47.95 4:48.5 
-1 1:47.5 2:47.95 3:48.5 4:48.03 
1 1:47.95 2:48.5 3:48.03 4:47.82 
