svm_type epsilon_svr
kernel_type rbf
gamma 0.25
nr_class 2
total_sv 5
rho -37.4151
SV
-0.540040457834464 1:37.1 2:36.85 3:35.13 4:35.57 
-0.3669982141886472 1:36.85 2:35.13 3:35.57 4:36.73 
1 1:35.13 2:35.57 3:36.73 4:37.08 
-0.1250854871722804 1:35.57 2:36.73 3:37.08 4:38.43 
0.03212415919539162 1:36.73 2:37.08 3:38.43 4:37.57 
