svm_type epsilon_svr
kernel_type rbf
gamma 0.25
nr_class 2
total_sv 5
rho -110.332
SV
-1 1:110.38 2:109.33 3:106.25 4:106.26 
1 1:109.33 2:106.25 3:106.26 4:107.75 
1 1:106.25 2:106.26 3:107.75 4:111.89 
-0.9895142276575628 1:106.26 2:107.75 3:111.89 4:112.01 
-0.01048577234243723 1:107.75 2:111.89 3:112.01 4:109.25 
