svm_type epsilon_svr
kernel_type rbf
gamma 0.25
nr_class 2
total_sv 4
rho -39.093
SV
-0.4437330308380024 1:36.9 2:38.02 3:38.02 4:38.74 
1 1:38.02 2:38.74 3:38.9 4:39.24 
-1 1:38.74 2:38.9 3:39.24 4:39.52 
0.4437330308380024 1:38.9 2:39.24 3:39.52 4:38.48 
