svm_type epsilon_svr
kernel_type rbf
gamma 0.25
nr_class 2
total_sv 5
rho -98.4959
SV
0.3460639800907197 1:102.13 2:102.25 3:102.5 4:103.3 
-0.2803834020252435 1:102.25 2:102.5 3:103.3 4:98.94 
0.3753616575984225 1:102.5 2:103.3 3:98.94 4:98.12 
-0.03527912318184561 1:103.3 2:98.94 3:98.12 4:98.97 
-0.4057631124820532 1:98.94 2:98.12 3:98.97 4:98.36 
