svm_type epsilon_svr
kernel_type rbf
gamma 0.25
nr_class 2
total_sv 5
rho -340.13
SV
1 1:332.91 2:331.59 3:334.01999 4:341.82999 
-0.01001000488194671 1:331.59 2:334.01999 3:341.82999 4:343.17999 
-0.9899899951180533 1:334.01999 2:341.82999 3:343.17999 4:340.01999 
1 1:341.82999 2:343.17999 3:340.01999 4:339.04001 
-1 1:343.17999 2:340.01999 3:339.04001 4:342.38 
