svm_type epsilon_svr
kernel_type rbf
gamma 0.25
nr_class 2
total_sv 3
rho -118.63
SV
0.170000028986891 1:112.98 2:113.1 3:109.14 4:115.31 
-1 1:113.1 2:109.14 3:115.31 4:118.9 
0.829999971013109 1:118.9 2:117.16 3:118.63 4:118.65 
