svm_type epsilon_svr
kernel_type rbf
gamma 0.25
nr_class 2
total_sv 5
rho -78.6907
SV
0.06250879166617959 1:80.01 2:79.44 3:77.55 4:77.57 
-1 1:79.44 2:77.55 3:77.57 4:78.93 
-1 1:77.55 2:77.57 3:78.93 4:78.05 
0.9374912083338204 1:77.57 2:78.93 3:78.05 4:78.07 
1 1:78.93 2:78.05 3:78.07 4:79.36 
