svm_type epsilon_svr
kernel_type rbf
gamma 0.25
nr_class 2
total_sv 4
rho -30.6805
SV
-1 1:30.45 2:30.35 3:30.28 4:29.78 
-0.2009491847848169 1:30.35 2:30.28 3:29.78 4:29.77 
1 1:30.28 2:29.78 3:29.77 4:30.4 
0.2009491847848168 1:29.78 2:29.77 3:30.4 4:31.02 
