svm_type epsilon_svr
kernel_type rbf
gamma 0.25
nr_class 2
total_sv 4
rho -75.2897
SV
0.3913598147504034 1:74.99 2:73.88 3:75.76 4:74.83 
0.9341546957864139 1:73.88 2:75.76 3:74.83 4:75.26 
-1 1:74.83 2:75.26 3:75.6 4:75 
-0.3255145105368173 1:75.26 2:75.6 3:75 4:74.61 
