svm_type epsilon_svr
kernel_type rbf
gamma 0.25
nr_class 2
total_sv 5
rho -125.74
SV
0.05514562451671082 1:124.95 2:127.04 3:128.47 4:127.5 
1 1:127.04 2:128.47 3:127.5 4:125.9 
0.9448543754832892 1:128.47 2:127.5 3:125.9 4:127.21 
-1 1:127.5 2:125.9 3:127.21 4:126.69 
-1 1:125.9 2:127.21 3:126.69 4:123.38 
