svm_type epsilon_svr
kernel_type rbf
gamma 0.25
nr_class 2
total_sv 4
rho -80.8473
SV
0.1737100957142799 1:82.53 2:82.25 3:80.71 4:80.73 
-0.2630908513633659 1:82.25 2:80.71 3:80.73 4:80.99 
1 1:80.71 2:80.73 3:80.99 4:80.5 
-0.910619244350914 1:80.99 2:80.5 3:81.03 4:80.84 
