svm_type epsilon_svr
kernel_type rbf
gamma 0.25
nr_class 2
total_sv 4
rho -50.6164
SV
-1 1:49.5 2:49.92 3:50.01 4:49.89 
-1 1:50.01 2:49.89 3:50.08 4:50.47 
1 1:49.89 2:50.08 3:50.47 4:50.42 
1 1:50.08 2:50.47 3:50.42 4:50.84 
