svm_type epsilon_svr
kernel_type rbf
gamma 0.25
nr_class 2
total_sv 5
rho -128.786
SV
-0.8637557905033294 1:122.02 2:124.88 3:126.46 4:127.08 
0.1494563011032187 1:124.88 2:126.46 3:127.08 4:127.83 
-0.9744563498641757 1:126.46 2:127.08 3:127.83 4:128.72 
0.6887558392642865 1:127.08 2:127.83 3:128.72 4:128.45 
1 1:127.83 2:128.72 3:128.45 4:129.5 
