svm_type epsilon_svr
kernel_type rbf
gamma 0.25
nr_class 2
total_sv 5
rho -43.5128
SV
0.01322166572816823 1:45.53 2:46.78 3:45.85 4:44.03 
0.1535206556051668 1:46.78 2:45.85 3:44.03 4:43.65 
-0.04202842102058383 1:45.85 2:44.03 3:43.65 4:43.73 
-1 1:44.03 2:43.65 3:43.73 4:43.22 
0.8752860996872487 1:43.65 2:43.73 3:43.22 4:42.74 
