svm_type epsilon_svr
kernel_type rbf
gamma 0.25
nr_class 2
total_sv 4
rho -75.3346
SV
-1 1:74.39 2:73.9 3:74.49 4:74.88 
0.4224326939064233 1:73.9 2:74.49 3:74.88 4:74.96 
0.7222050475482097 1:74.49 2:74.88 3:74.96 4:75.55 
-0.144637741454633 1:74.96 2:75.55 3:75.73 4:75.69 
