svm_type epsilon_svr
kernel_type rbf
gamma 0.25
nr_class 2
total_sv 5
rho -76.6075
SV
-0.6670479800171938 1:74.63 2:73.86 3:74.82 4:76.68 
-0.590469917357449 1:73.86 2:74.82 3:76.68 4:75.83 
0.605114778289054 1:74.82 2:76.68 3:75.83 4:75.95 
1 1:76.68 2:75.83 3:75.95 4:77.26 
-0.3475968809144113 1:75.83 2:75.95 3:77.26 4:77.89 
