svm_type epsilon_svr
kernel_type rbf
gamma 0.25
nr_class 2
total_sv 4
rho -538.94
SV
-1 1:533.09003 2:526.65002 3:519.97998 4:520.63 
-1 1:526.65002 2:519.97998 3:520.63 4:528.85999 
1 1:520.63 2:528.85999 3:529.77002 4:538.94 
1 1:528.85999 2:529.77002 3:538.94 4:545.06 
