svm_type epsilon_svr
kernel_type rbf
gamma 0.25
nr_class 2
total_sv 4
rho -374.174
SV
-0.8458660561075457 1:370.57999 2:373.35001 3:371.92001 4:375.14001 
1 1:373.35001 2:371.92001 3:375.14001 4:373.23999 
0.8458660561075457 1:371.92001 2:375.14001 3:373.23999 4:378.48999 
-1 1:373.23999 2:378.48999 3:375.10999 4:374.09 
