svm_type epsilon_svr
kernel_type rbf
gamma 0.25
nr_class 2
total_sv 5
rho -326.46
SV
0.4404719981928664 1:326.26999 2:327.62 3:325.62 4:334.38 
-1 1:327.62 2:325.62 3:334.38 4:327 
0.6797588935597482 1:325.62 2:334.38 3:327 4:324.20001 
-1 1:334.38 2:327 3:324.20001 4:327.23999 
0.8797691082473854 1:327 2:324.20001 3:327.23999 4:324.16 
