svm_type epsilon_svr
kernel_type rbf
gamma 0.25
nr_class 2
total_sv 5
rho -43.5421
SV
-0.2452931198663534 1:44.05 2:43.55 3:42.94 4:42.57 
-1 1:43.55 2:42.94 3:42.57 4:43.07 
0.786316390212224 1:42.94 2:42.57 3:43.07 4:42.96 
1 1:42.57 2:43.07 3:42.96 4:43.93 
-0.5410232703458705 1:43.07 2:42.96 3:43.93 4:44.42 
