svm_type epsilon_svr
kernel_type rbf
gamma 0.25
nr_class 2
total_sv 5
rho -45.5352
SV
-1 1:42.74 2:43.63 3:44.08 4:44.88 
-0.6320213696424506 1:43.63 2:44.08 3:44.88 4:44.38 
1 1:44.08 2:44.88 3:44.38 4:45.02 
-0.2644620542761261 1:44.88 2:44.38 3:45.02 4:46.13 
0.8964834239185767 1:44.38 2:45.02 3:46.13 4:45.91 
