svm_type epsilon_svr
kernel_type rbf
gamma 0.25
nr_class 2
total_sv 5
rho -76.2285
SV
-1 1:75.02 2:75.96 3:74.63 4:73.86 
0.7203303552467631 1:75.96 2:74.63 3:73.86 4:74.82 
-0.4044451078947199 1:74.63 2:73.86 3:74.82 4:76.68 
-0.3158852473520433 1:73.86 2:74.82 3:76.68 4:75.83 
1 1:74.82 2:76.68 3:75.83 4:75.95 
