svm_type epsilon_svr
kernel_type rbf
gamma 0.25
nr_class 2
total_sv 5
rho -80.8819
SV
1 1:81.32 2:81.89 3:81.35 4:82.53 
-0.5117242814900046 1:81.89 2:81.35 3:82.53 4:82.25 
-0.1526414702880878 1:81.35 2:82.53 3:82.25 4:80.71 
0.1457207873474558 1:82.53 2:82.25 3:80.71 4:80.73 
-0.4813550355693634 1:82.25 2:80.71 3:80.73 4:80.99 
