svm_type epsilon_svr
kernel_type rbf
gamma 0.25
nr_class 2
total_sv 5
rho -313.92
SV
1 1:358.14001 2:358.60999 3:324.01001 4:320.41 
1 1:358.60999 2:324.01001 3:320.41 4:320 
-0.8299999999994441 1:324.01001 2:320.41 3:320 4:322.51001 
-1 1:320.41 2:320 3:322.51001 4:312.98999 
-0.1700000000005559 1:320 2:322.51001 3:312.98999 4:307.06 
