svm_type epsilon_svr
kernel_type rbf
gamma 0.25
nr_class 2
total_sv 5
rho -371.36
SV
1 1:375.14001 2:373.23999 3:378.48999 4:375.10999 
-0.2999883979820846 1:373.23999 2:378.48999 3:375.10999 4:374.09 
-1 1:378.48999 2:375.10999 3:374.09 4:370.95999 
-0.7000116020179155 1:375.10999 2:374.09 3:370.95999 4:367.35001 
1 1:374.09 2:370.95999 3:367.35001 4:370.56 
