svm_type epsilon_svr
kernel_type rbf
gamma 0.25
nr_class 2
total_sv 4
rho -32.5797
SV
-1 1:32.27 2:31.65 3:32.41 4:32.86 
-1 1:31.65 2:32.41 3:32.86 4:32.2 
1 1:32.86 2:32.2 3:32.03 4:32.56 
1 1:32.2 2:32.03 3:32.56 4:33.19 
