svm_type epsilon_svr
kernel_type rbf
gamma 0.25
nr_class 2
total_sv 5
rho -30.8018
SV
0.3149339773327468 1:30.56 2:30.37 3:31.13 4:31.75 
-1 1:30.37 2:31.13 3:31.75 4:31.08 
-0.1292988163251355 1:31.13 2:31.75 3:31.08 4:30.01 
-0.1856351610076113 1:31.75 2:31.08 3:30.01 4:30.36 
1 1:31.08 2:30.01 3:30.36 4:30.88 
