svm_type epsilon_svr
kernel_type rbf
gamma 0.25
nr_class 2
total_sv 4
rho -74.916
SV
-1 1:74.36 2:74.22 3:74.03 4:74.39 
-0.490965561751198 1:74.22 2:74.03 3:74.39 4:73.9 
0.490965561751198 1:74.03 2:74.39 3:73.9 4:74.49 
1 1:73.9 2:74.49 3:74.88 4:74.96 
