svm_type epsilon_svr
kernel_type rbf
gamma 0.25
nr_class 2
total_sv 5
rho -16.4721
SV
1 1:17.55 2:17.49 3:17.38 4:17.45 
-0.631719291512241 1:17.49 2:17.38 3:17.45 4:17.64 
-0.2298739165401776 1:17.38 2:17.45 3:17.64 4:16.5 
-0.03986672251682035 1:17.45 2:17.64 3:16.5 4:16.39 
-0.09854006943076105 1:17.64 2:16.5 3:16.39 4:16.38 
