svm_type epsilon_svr
kernel_type rbf
gamma 0.25
nr_class 2
total_sv 3
rho -46.6825
SV
-0.2134890054210398 1:45.09 2:44.96 3:45.26 4:45.91 
0.7100889313638113 1:45.91 2:46.47 3:46.76 4:46.84 
-0.4965999259427716 1:46.47 2:46.76 3:46.84 4:47 
