svm_type epsilon_svr
kernel_type rbf
gamma 0.25
nr_class 2
total_sv 5
rho -74.4591
SV
0.6265791877098912 1:69.4 2:69.27 3:71.29 4:74.98 
0.3610625550694798 1:69.27 2:71.29 3:74.98 4:75.19 
-0.6555438857819536 1:71.29 2:74.98 3:75.19 4:74.92 
0.6679021430025825 1:74.98 2:75.19 3:74.92 4:73.71 
-1 1:75.19 2:74.92 3:73.71 4:74.68 
