svm_type epsilon_svr
kernel_type rbf
gamma 0.25
nr_class 2
total_sv 5
rho -39.3979
SV
-0.8980642870023623 1:39.6 2:38.38 3:37.97 4:37.82 
-1 1:38.38 2:37.97 3:37.82 4:38.12 
0.2659732021651189 1:37.97 2:37.82 3:38.12 4:38.45 
0.6320910848372433 1:37.82 2:38.12 3:38.45 4:39.28 
1 1:38.12 2:38.45 3:39.28 4:40.18 
