svm_type epsilon_svr
kernel_type rbf
gamma 0.25
nr_class 2
total_sv 4
rho -17.7313
SV
1 1:17.53 2:18.43 3:18.02 4:18.3 
0.2281603348162391 1:18.43 2:18.02 3:18.3 4:18.01 
-1 1:18.02 2:18.3 3:18.01 4:17.75 
-0.2281603348162391 1:18.01 2:17.75 3:17.34 4:17.42 
