svm_type epsilon_svr
kernel_type rbf
gamma 0.25
nr_class 2
total_sv 5
rho -80.3624
SV
-1 1:77.83 2:76.99 3:74.69 4:76.11 
-0.3712667458257493 1:76.99 2:74.69 3:76.11 4:78.4 
0.9927589786923778 1:74.69 2:76.11 3:78.4 4:79.88 
0.07623960982794802 1:76.11 2:78.4 3:79.88 4:81.45 
0.3022681573054234 1:78.4 2:79.88 3:81.45 4:80.61 
