svm_type epsilon_svr
kernel_type rbf
gamma 0.25
nr_class 2
total_sv 5
rho -85.2421
SV
-1 1:82.98 2:83.83 3:83.81 4:83.94 
-0.8557525070107196 1:83.83 2:83.81 3:83.94 4:82.96 
1 1:83.81 2:83.94 3:82.96 4:84.23 
-0.1442474929892804 1:83.94 2:82.96 3:84.23 4:85.94 
1 1:82.96 2:84.23 3:85.94 4:85.16 
