svm_type epsilon_svr
kernel_type rbf
gamma 0.25
nr_class 2
total_sv 4
rho -76.4475
SV
0.7032757675126409 1:76.01 2:76.56 3:77.51 4:76.53 
0.3969137030850282 1:76.56 2:77.51 3:76.53 4:76.74 
-0.1001894705976692 1:77.51 2:76.53 3:76.74 4:76.51 
-1 1:76.53 2:76.74 3:76.51 4:76.1 
