svm_type epsilon_svr
kernel_type rbf
gamma 0.25
nr_class 2
total_sv 4
rho -26.8456
SV
0.8746164948917696 1:27.51 2:27.27 3:26.57 4:26.84 
-0.8746164948917696 1:27.27 2:26.57 3:26.84 4:27.13 
-1 1:26.57 2:26.84 3:27.13 4:26.56 
1 1:27.13 2:26.56 3:25.82 4:26.75 
