svm_type epsilon_svr
kernel_type rbf
gamma 0.25
nr_class 2
total_sv 4
rho -44.0711
SV
-1 1:43.08 2:42.74 3:43.23 4:43.2 
-1 1:42.74 2:43.23 3:43.2 4:43.2 
1 1:43.23 2:43.2 3:43.2 4:43.52 
1 1:43.2 2:43.52 3:44.08 4:44.27 
