svm_type epsilon_svr
kernel_type rbf
gamma 0.25
nr_class 2
total_sv 5
rho -311.09
SV
-1 1:297.70001 2:296.76001 3:301.19 4:305.01001 
1 1:296.76001 2:301.19 3:305.01001 4:304.91 
-0.1699945961393311 1:301.19 2:305.01001 3:304.91 4:312.23999 
-0.8300054038606689 1:305.01001 2:304.91 3:312.23999 4:310.82001 
1 1:304.91 2:312.23999 3:310.82001 4:310.16 
