svm_type epsilon_svr
kernel_type rbf
gamma 0.25
nr_class 2
total_sv 5
rho -322.893
SV
0.6351044691357942 1:324 2:325 3:331.32001 4:324.5 
1 1:325 2:331.32001 3:324.5 4:323.63 
-0.8628268700408807 1:331.32001 2:324.5 3:323.63 4:328.20999 
0.2107958094538948 1:324.5 2:323.63 3:328.20999 4:321.92999 
-0.9830734085488084 1:323.63 2:328.20999 3:321.92999 4:323.20999 
