svm_type epsilon_svr
kernel_type rbf
gamma 0.25
nr_class 2
total_sv 4
rho -73.8777
SV
-0.8790689051999805 1:74.25 2:74.88 3:74.24 4:74.34 
-0.03137734479047045 1:74.24 2:74.34 3:73.33 4:73.6 
-0.0895537500095491 1:74.34 2:73.33 3:73.6 4:73.75 
1 1:73.33 2:73.6 3:73.75 4:74.01 
