svm_type epsilon_svr
kernel_type rbf
gamma 0.25
nr_class 2
total_sv 4
rho -75.6697
SV
-1 1:74.57 2:75.02 3:75.96 4:74.63 
-0.7302158397104939 1:75.02 2:75.96 3:74.63 4:73.86 
1 1:75.96 2:74.63 3:73.86 4:74.82 
0.7302158397104939 1:73.86 2:74.82 3:76.68 4:75.83 
