svm_type epsilon_svr
kernel_type rbf
gamma 0.25
nr_class 2
total_sv 5
rho -36.7016
SV
-1 1:35.06 2:35.55 3:35.73 4:35.37 
-0.5115984324483577 1:35.55 2:35.73 3:35.37 4:35.28 
1 1:35.73 2:35.37 3:35.28 4:36.08 
0.0152062025421841 1:35.37 2:35.28 3:36.08 4:37.38 
0.4963922299061735 1:35.28 2:36.08 3:37.38 4:37.15 
