svm_type epsilon_svr
kernel_type rbf
gamma 0.25
nr_class 2
total_sv 5
rho -118.273
SV
-1 1:113.99 2:115.47 3:114.67 4:116.31 
0.5549756386503172 1:115.47 2:114.67 3:116.31 4:116.47 
-0.6758224757697828 1:114.67 2:116.31 3:116.47 4:118.63 
0.5962205656143094 1:116.31 2:116.47 3:118.63 4:117.6 
0.5246262715051562 1:116.47 2:118.63 3:117.6 4:119 
