svm_type epsilon_svr
kernel_type rbf
gamma 0.25
nr_class 2
total_sv 4
rho -18.0977
SV
0.7804928734899736 1:17.68 2:17.71 3:17.47 4:17.53 
-0.3884639234719358 1:17.71 2:17.47 3:17.53 4:18.43 
0.4734727481831881 1:17.47 2:17.53 3:18.43 4:18.02 
-0.865501698201226 1:18.43 2:18.02 3:18.3 4:18.01 
