svm_type epsilon_svr
kernel_type rbf
gamma 0.25
nr_class 2
total_sv 5
rho -36.8096
SV
0.8974166760735776 1:36.73 2:37.08 3:38.43 4:37.57 
1 1:37.08 2:38.43 3:37.57 4:37.61 
-0.453279804784917 1:38.43 2:37.57 3:37.61 4:37.6 
-1 1:37.57 2:37.61 3:37.6 4:36.42 
-0.4441368712886606 1:37.61 2:37.6 3:36.42 4:35.86 
