svm_type epsilon_svr
kernel_type rbf
gamma 0.25
nr_class 2
total_sv 4
rho -45.4936
SV
-0.8115622425914182 1:40.18 2:42 3:42.6 4:43.5 
0.5272339261270148 1:42 2:42.6 3:43.5 4:44.7 
-0.1829035818668157 1:42.6 2:43.5 3:44.7 4:45.87 
0.4672318983312189 1:44.7 2:45.87 3:45.43 4:45.63 
