svm_type epsilon_svr
kernel_type rbf
gamma 0.25
nr_class 2
total_sv 4
rho -624.01
SV
-1 1:597.50995 2:604.59003 3:604.70996 4:606.30994 
-1 1:604.59003 2:604.70996 3:606.30994 4:607.27002 
1 1:604.70996 2:606.30994 3:607.27002 4:614.13 
1 1:607.27002 2:614.13 3:625.62994 4:624.01001 
