svm_type epsilon_svr
kernel_type rbf
gamma 0.25
nr_class 2
total_sv 5
rho -42.168
SV
-0.6779430605161988 1:42.03 2:41.98 3:41.02 4:41.38 
-0.8274832655385219 1:41.98 2:41.02 3:41.38 4:41.56 
1 1:41.02 2:41.38 3:41.56 4:41.7 
-0.4945736739452793 1:41.38 2:41.56 3:41.7 4:42.5 
1 1:41.56 2:41.7 3:42.5 4:42.29 
