svm_type epsilon_svr
kernel_type rbf
gamma 0.25
nr_class 2
total_sv 5
rho -80.108
SV
0.5394747704448715 1:78.4 2:79.88 3:81.45 4:80.61 
1 1:79.88 2:81.45 3:80.61 4:80.77 
0.4605252295551285 1:81.45 2:80.61 3:80.77 4:80.78 
-1 1:80.61 2:80.77 3:80.78 4:80.02 
-1 1:80.77 2:80.78 3:80.02 4:79.22 
