svm_type epsilon_svr
kernel_type rbf
gamma 0.25
nr_class 2
total_sv 5
rho -21.0947
SV
0.7856238703328411 1:20.63 2:20.41 3:20.64 4:20.26 
-1 1:20.41 2:20.64 3:20.26 4:21.26 
-1 1:20.64 2:20.26 3:21.26 4:20.81 
0.2143761296671589 1:20.26 2:21.26 3:20.81 4:20.48 
1 1:21.26 2:20.81 3:20.48 4:21.24 
