svm_type epsilon_svr
kernel_type rbf
gamma 0.25
nr_class 2
total_sv 5
rho -582.452
SV
0.1177932355776434 1:578.65002 2:576 3:577.23999 4:575.28003 
-0.01638674706819997 1:576 2:577.23999 3:575.28003 4:582.66998 
1 1:577.23999 2:575.28003 3:582.66998 4:582.33502 
-0.1014064885094434 1:575.28003 2:582.66998 3:582.33502 4:584.72998 
-1 1:582.66998 2:582.33502 3:584.72998 4:582.25 
