svm_type epsilon_svr
kernel_type rbf
gamma 0.25
nr_class 2
total_sv 4
rho -38.4903
SV
0.8722197696034631 1:37.05 2:38.05 3:37.65 4:37.75 
-0.8722197696034631 1:38.05 2:37.65 3:37.75 4:38.71 
-1 1:37.65 2:37.75 3:38.71 4:38.16 
1 1:38.71 2:38.16 3:37.93 4:38.59 
