svm_type epsilon_svr
kernel_type rbf
gamma 0.25
nr_class 2
total_sv 4
rho -379
SV
1 1:370.56 2:373 3:375.14001 4:377.17001 
-1 1:373 2:375.14001 3:377.17001 4:381.82999 
-1 1:375.14001 2:377.17001 3:381.82999 4:375.42999 
1 1:381.82999 2:375.42999 3:373.37 4:379 
