svm_type epsilon_svr
kernel_type rbf
gamma 0.25
nr_class 2
total_sv 3
rho -63.4433
SV
0.3079512756565939 1:60.52 2:61.35 3:63.48 4:63.51 
-0.04869531521500366 1:61.35 2:63.48 3:63.51 4:63.83 
-0.2592559604415903 1:63.48 2:63.51 3:63.83 4:63.3 
