svm_type epsilon_svr
kernel_type rbf
gamma 0.25
nr_class 2
total_sv 4
rho -73.9129
SV
-1 1:74.78 2:73.58 3:73.54 4:73.54 
0.3878664141090372 1:73.58 2:73.54 3:73.54 4:73.34 
-0.3878664141090372 1:73.54 2:73.54 3:73.34 4:74.2 
1 1:73.54 2:73.34 3:74.2 4:73.95 
