svm_type epsilon_svr
kernel_type rbf
gamma 0.25
nr_class 2
total_sv 5
rho -44.1387
SV
-1 1:42.98 2:42.68 3:42.5 4:42.95 
-0.04380790110030885 1:42.68 2:42.5 3:42.95 4:42.87 
-0.5088855802229444 1:42.5 2:42.95 3:42.87 4:43.51 
1 1:42.95 2:42.87 3:43.51 4:43.79 
0.5526934813232532 1:42.87 2:43.51 3:43.79 4:44.67 
