svm_type epsilon_svr
kernel_type rbf
gamma 0.25
nr_class 2
total_sv 4
rho -310.16
SV
1 1:304.91 2:312.23999 3:310.82001 4:310.16 
1 1:312.23999 2:310.82001 3:310.16 4:313.78 
-1 1:310.82001 2:310.16 3:313.78 4:312.54999 
-1 1:310.16 2:313.78 3:312.54999 4:308.84 
