svm_type epsilon_svr
kernel_type rbf
gamma 0.25
nr_class 2
total_sv 4
rho -45.3025
SV
1 1:45.17 2:45.63 3:45.18 4:44.77 
1 1:45.18 2:44.77 3:45.53 4:45.73 
-1 1:44.77 2:45.53 3:45.73 4:45.78 
-1 1:45.53 2:45.73 3:45.78 4:44.45 
