svm_type epsilon_svr
kernel_type rbf
gamma 0.25
nr_class 2
total_sv 3
rho -75.1313
SV
0.8224348699569977 1:76.77 2:76.64 3:76.99 4:76.35 
0.1775651300430024 1:76.99 2:76.35 3:75.97 4:75.71 
-1 1:75.97 2:75.71 3:75.44 4:74.78 
