svm_type epsilon_svr
kernel_type rbf
gamma 0.25
nr_class 2
total_sv 5
rho -76.067
SV
0.880946049976606 1:78.18 2:77.74 3:76.72 4:76.45 
-1 1:77.74 2:76.72 3:76.45 4:76.28 
-0.7201794047829668 1:76.72 2:76.45 3:76.28 4:74.05 
0.2019568846076048 1:76.45 2:76.28 3:74.05 4:75.18 
0.6372764701987561 1:76.28 2:74.05 3:75.18 4:76.24 
