svm_type epsilon_svr
kernel_type rbf
gamma 0.25
nr_class 2
total_sv 5
rho -61.6763
SV
-0.8298116608083509 1:57.92 2:58.02 3:59.21 4:58.56 
-1 1:58.02 2:59.21 3:58.56 4:60.49 
-0.1701883391916491 1:59.21 2:58.56 3:60.49 4:60.52 
1 1:58.56 2:60.49 3:60.52 4:61.35 
1 1:60.49 2:60.52 3:61.35 4:63.48 
