svm_type epsilon_svr
kernel_type rbf
gamma 0.25
nr_class 2
total_sv 5
rho -82.4856
SV
-0.1059922499226188 1:81.67 2:81.56 3:82.44 4:82.32 
-0.8940077500773812 1:81.56 2:82.44 3:82.32 4:82.28 
-1 1:82.44 2:82.32 3:82.28 4:82.17 
1 1:82.32 2:82.28 3:82.17 4:82.04 
1 1:82.28 2:82.17 3:82.04 4:83.01 
