svm_type epsilon_svr
kernel_type rbf
gamma 0.25
nr_class 2
total_sv 5
rho -74.7374
SV
-0.2546769871177803 1:74.3 2:73.63 3:74.59 4:75.29 
-0.01090253312882409 1:73.63 2:74.59 3:75.29 4:74.81 
-0.9077469892116418 1:74.59 2:75.29 3:74.81 4:74.57 
0.1733265094582462 1:75.29 2:74.81 3:74.57 4:74.57 
1 1:74.81 2:74.57 3:74.57 4:75.02 
