svm_type epsilon_svr
kernel_type rbf
gamma 0.25
nr_class 2
total_sv 5
rho -41.9844
SV
-0.7237415969987043 1:39.19 2:39.59 3:41.81 4:40.78 
-0.7579814102947245 1:39.59 2:41.81 3:40.78 4:41.14 
0.8440766495007282 1:41.81 2:40.78 3:41.14 4:41.26 
0.2078771869944996 1:40.78 2:41.14 3:41.26 4:42.88 
0.4297691707982012 1:41.14 2:41.26 3:42.88 4:42.55 
