svm_type epsilon_svr
kernel_type rbf
gamma 0.25
nr_class 2
total_sv 4
rho -37.047
SV
-1 1:36.7 2:37.1 3:36.85 4:35.13 
-0.05539627841918239 1:36.85 2:35.13 3:35.57 4:36.73 
1 1:35.13 2:35.57 3:36.73 4:37.08 
0.05539627841918239 1:35.57 2:36.73 3:37.08 4:38.43 
