svm_type epsilon_svr
kernel_type rbf
gamma 0.25
nr_class 2
total_sv 4
rho -513.8
SV
1 1:525.26001 2:526.97998 3:533.37 4:526.06 
1 1:526.97998 2:533.37 3:526.06 4:528.34003 
-1 1:526.06 2:528.34003 3:518.65997 4:513.79999 
-1 1:528.34003 2:518.65997 3:513.79999 4:495.39001 
