svm_type epsilon_svr
kernel_type rbf
gamma 0.25
nr_class 2
total_sv 5
rho -51.926
SV
0.2894964070865092 1:50.47 2:50.42 3:50.84 4:52.87 
0.1445032195365052 1:50.42 2:50.84 3:52.87 4:52.3 
0.1763461361161361 1:50.84 2:52.87 3:52.3 4:52.17 
0.3896542372608494 1:52.87 2:52.3 3:52.17 4:51.94 
-1 1:52.3 2:52.17 3:51.94 4:51.62 
