svm_type epsilon_svr
kernel_type rbf
gamma 0.25
nr_class 2
total_sv 3
rho -33.5664
SV
-0.1870866572578435 1:33.01 2:33.28 3:33.25 4:33.34 
1 1:33.25 2:33.34 3:33.5 4:33.7 
-0.8129133427421564 1:33.34 2:33.5 3:33.7 4:33.71 
