svm_type epsilon_svr
kernel_type rbf
gamma 0.25
nr_class 2
total_sv 4
rho -65.1462
SV
1 1:64.29 2:64.5 3:64.19 4:64.4 
-1 1:64.5 2:64.19 3:64.4 4:65.6 
-1 1:64.19 2:64.4 3:65.6 4:64.34 
1 1:65.6 2:64.34 3:64.5 4:65.37 
