svm_type epsilon_svr
kernel_type rbf
gamma 0.25
nr_class 2
total_sv 4
rho -633
SV
-1 1:606.30994 2:607.27002 3:614.13 4:625.62994 
1 1:607.27002 2:614.13 3:625.62994 4:624.01001 
-1 1:625.62994 2:624.01001 3:635.38 4:633 
1 1:624.01001 2:635.38 3:633 4:628.64996 
