svm_type epsilon_svr
kernel_type rbf
gamma 0.25
nr_class 2
total_sv 4
rho -124.314
SV
-1 1:127.21 2:126.69 3:123.38 4:124.24 
1 1:126.69 2:123.38 3:124.24 4:123.25 
0.01429817133730162 1:123.38 2:124.24 3:123.25 4:126.37 
-0.01429817133730162 1:124.24 2:123.25 3:126.37 4:124.43 
