svm_type epsilon_svr
kernel_type rbf
gamma 0.25
nr_class 2
total_sv 5
rho -46.4571
SV
0.9498717394850773 1:48.45 2:48.14 3:47.88 4:47.45 
-1 1:48.14 2:47.88 3:47.45 4:47.02 
1 1:47.88 2:47.45 3:47.02 4:46.45 
0.05012826051492265 1:47.45 2:47.02 3:46.45 4:46.76 
-1 1:47.02 2:46.45 3:46.76 4:46.33 
