svm_type epsilon_svr
kernel_type rbf
gamma 0.25
nr_class 2
total_sv 5
rho -40.5043
SV
-1 1:38.74 2:38.9 3:39.24 4:39.52 
-0.8677656184943313 1:38.9 2:39.24 3:39.52 4:38.48 
1 1:39.24 2:39.52 3:38.48 4:39.46 
0.406708860374915 1:39.52 2:38.48 3:39.46 4:41.44 
0.4610567581194163 1:38.48 2:39.46 3:41.44 4:40.93 
