svm_type epsilon_svr
kernel_type rbf
gamma 0.25
nr_class 2
total_sv 5
rho -48.5804
SV
-0.8518424007602584 1:48.3 2:47.51 3:46.23 4:46.47 
-0.08987883114729844 1:47.51 2:46.23 3:46.47 4:47.63 
0.2213625876333556 1:46.23 2:46.47 3:47.63 4:48.18 
-0.0756478956266078 1:46.47 2:47.63 3:48.18 4:48.89 
0.7960065399008091 1:47.63 2:48.18 3:48.89 4:48.95 
