svm_type epsilon_svr
kernel_type rbf
gamma 0.25
nr_class 2
total_sv 5
rho -306.81
SV
1 1:322.20001 2:316.98001 3:322.70001 4:315.37 
-0.2599972877911796 1:316.98001 2:322.70001 3:315.37 4:311.39001 
1 1:322.70001 2:315.37 3:311.39001 4:306.45001 
-0.7400027122088204 1:315.37 2:311.39001 3:306.45001 4:308.31 
-1 1:311.39001 2:306.45001 3:308.31 4:305.97 
