svm_type epsilon_svr
kernel_type rbf
gamma 0.25
nr_class 2
total_sv 5
rho -77.1503
SV
-0.3860431310343709 1:76.28 2:74.05 3:75.18 4:76.24 
0.3079263329457054 1:74.05 2:75.18 3:76.24 4:76.74 
0.249688354709184 1:75.18 2:76.24 3:76.74 4:77.65 
0.8284284433794815 1:76.24 2:76.74 3:77.65 4:77.83 
-1 1:76.74 2:77.65 3:77.83 4:77.5 
