svm_type epsilon_svr
kernel_type rbf
gamma 0.25
nr_class 2
total_sv 5
rho -98.7527
SV
1 1:100.89 2:102.13 3:102.25 4:102.5 
-0.2776430301618994 1:102.13 2:102.25 3:102.5 4:103.3 
-0.5508001039201194 1:102.25 2:102.5 3:103.3 4:98.94 
0.1216979592087434 1:102.5 2:103.3 3:98.94 4:98.12 
-0.2932548251267246 1:103.3 2:98.94 3:98.12 4:98.97 
