svm_type epsilon_svr
kernel_type rbf
gamma 0.25
nr_class 2
total_sv 4
rho -45.3475
SV
0.2151596513033462 1:44.15 2:43.67 3:43.61 4:45.17 
-0.6673057211414135 1:43.61 2:45.17 3:45.63 4:45.18 
0.0979400835973043 1:45.17 2:45.63 3:45.18 4:44.77 
0.3542059862407631 1:45.63 2:45.18 3:44.77 4:45.53 
