svm_type epsilon_svr
kernel_type rbf
gamma 0.25
nr_class 2
total_sv 4
rho -35.853
SV
-1 1:32.58 2:32.9 3:33.89 4:33.33 
-0.6483402652698397 1:33.89 2:33.33 3:34.47 4:35.37 
1 1:33.33 2:34.47 3:35.37 4:35.54 
0.6483402652698397 1:34.47 2:35.37 3:35.54 4:36.79 
