svm_type epsilon_svr
kernel_type rbf
gamma 0.25
nr_class 2
total_sv 4
rho -374.41
SV
-1 1:367.35001 2:370.56 3:374.59 4:372.10001 
-1 1:370.56 2:374.59 3:372.10001 4:370.26001 
1 1:374.59 2:372.10001 3:370.26001 4:372.25 
1 1:370.26001 2:372.25 3:377.04001 4:374.41 
