svm_type epsilon_svr
kernel_type rbf
gamma 0.25
nr_class 2
total_sv 4
rho -39.6462
SV
-0.3000153852306435 1:38.02 2:38.02 3:38.74 4:38.9 
0.3000153852306435 1:38.02 2:38.74 3:38.9 4:39.24 
-1 1:38.74 2:38.9 3:39.24 4:39.52 
1 1:39.24 2:39.52 3:38.48 4:39.46 
