svm_type epsilon_svr
kernel_type rbf
gamma 0.25
nr_class 2
total_sv 5
rho -80.369
SV
1 1:80.73 2:80.99 3:80.5 4:81.03 
0.6597474843158484 1:80.99 2:80.5 3:81.03 4:80.84 
-0.6249805163512326 1:80.5 2:81.03 3:80.84 4:80.65 
-0.03476696796461571 1:81.03 2:80.84 3:80.65 4:80.29 
-1 1:80.84 2:80.65 3:80.29 4:80.15 
