svm_type epsilon_svr
kernel_type rbf
gamma 0.25
nr_class 2
total_sv 5
rho -46.2269
SV
0.2975574170047024 1:46.23 2:47.59 3:47.19 4:46.6 
0.005615271970415667 1:47.59 2:47.19 3:46.6 4:46.36 
-1 1:47.19 2:46.6 3:46.36 4:45.96 
0.4085138229121787 1:46.6 2:46.36 3:45.96 4:45.48 
0.2883134881127033 1:46.36 2:45.96 3:45.48 4:46.24 
