svm_type epsilon_svr
kernel_type rbf
gamma 0.25
nr_class 2
total_sv 4
rho -42.5226
SV
-0.7654177597969173 1:41.72 2:41.76 3:41.65 4:42.26 
-1 1:41.76 2:41.65 3:42.26 4:42.16 
1 1:41.65 2:42.26 3:42.16 4:41.62 
0.7654177597969173 1:42.26 2:42.16 3:41.62 4:42.91 
