svm_type epsilon_svr
kernel_type rbf
gamma 0.25
nr_class 2
total_sv 4
rho -51.2837
SV
1 1:52.87 2:52.3 3:52.17 4:51.94 
-1 1:52.3 2:52.17 3:51.94 4:51.62 
1 1:51.94 2:51.62 3:51.2 4:51.3 
-1 1:51.62 2:51.2 3:51.3 4:52.03 
