svm_type epsilon_svr
kernel_type rbf
gamma 0.25
nr_class 2
total_sv 4
rho -19.8271
SV
-1 1:19.62 2:19.27 3:19.21 4:19.2 
0.203223800264104 1:19.27 2:19.21 3:19.2 4:19.5 
-0.203223800264104 1:19.2 2:19.5 3:19.8 4:19.82 
1 1:19.5 2:19.8 3:19.82 4:19.87 
