svm_type epsilon_svr
kernel_type rbf
gamma 0.25
nr_class 2
total_sv 5
rho -74.9307
SV
0.5963400408313128 1:73.77 2:74.3 3:73.63 4:74.59 
-0.2391940162045232 1:74.3 2:73.63 3:74.59 4:75.29 
-0.09234732062580783 1:73.63 2:74.59 3:75.29 4:74.81 
-0.896645418736764 1:74.59 2:75.29 3:74.81 4:74.57 
0.6318467147357821 1:75.29 2:74.81 3:74.57 4:74.57 
