svm_type epsilon_svr
kernel_type rbf
gamma 0.25
nr_class 2
total_sv 5
rho -20.5422
SV
1 1:20.78 2:20.86 3:21.32 4:21.27 
-0.5638655842507228 1:20.86 2:21.32 3:21.27 4:21.17 
-0.03349290839430568 1:21.32 2:21.27 3:21.17 4:20.58 
0.5973584926450285 1:21.27 2:21.17 3:20.58 4:20.47 
-1 1:21.17 2:20.58 3:20.47 4:20.56 
