svm_type epsilon_svr
kernel_type rbf
gamma 0.25
nr_class 2
total_sv 5
rho -43.8632
SV
0.1178805050058652 1:42.96 2:43.93 3:44.42 4:43.53 
1 1:43.93 2:44.42 3:43.53 4:43.65 
0.2741021814395281 1:44.42 2:43.53 3:43.65 4:44.37 
-0.3919826864453934 1:43.53 2:43.65 3:44.37 4:44.11 
-1 1:43.65 2:44.37 3:44.11 4:43.53 
