svm_type epsilon_svr
kernel_type rbf
gamma 0.25
nr_class 2
total_sv 5
rho -79.233
SV
-1 1:76.71 2:79.42 3:79.9 4:78.84 
-0.2113571855847133 1:79.42 2:79.9 3:78.84 4:78.45 
1 1:79.9 2:78.84 3:78.45 4:79.56 
-0.7886428144152867 1:78.84 2:78.45 3:79.56 4:80.41 
1 1:78.45 2:79.56 3:80.41 4:78.97 
