svm_type epsilon_svr
kernel_type rbf
gamma 0.25
nr_class 2
total_sv 3
rho -47.4081
SV
-1 1:40.72 2:41.26 3:48.01 4:47.32 
0.01422335013266491 1:48.01 2:47.32 3:46.26 4:47.5 
0.985776649867335 1:47.32 2:46.26 3:47.5 4:47.95 
