svm_type epsilon_svr
kernel_type rbf
gamma 0.25
nr_class 2
total_sv 3
rho -50.9079
SV
0.6188465193625636 1:48.85 2:50.12 3:50.91 4:50.88 
-1 1:50.12 2:50.91 3:50.88 4:51.15 
0.3811534806374364 1:50.88 2:51.15 3:50.02 4:50.65 
