svm_type epsilon_svr
kernel_type rbf
gamma 0.25
nr_class 2
total_sv 5
rho -582.366
SV
1 1:574.65002 2:573.47998 3:582.15997 4:586.85999 
0.9044999932093016 1:573.47998 2:582.15997 3:586.85999 4:584.48999 
0.09550000679069831 1:582.15997 2:586.85999 3:584.48999 4:583.37 
-1 1:586.85999 2:584.48999 3:583.37 4:582.56 
-1 1:584.48999 2:583.37 3:582.56 4:580.20001 
