svm_type epsilon_svr
kernel_type rbf
gamma 0.25
nr_class 2
total_sv 4
rho -32.3722
SV
1 1:33.13 2:33.1 3:32.67 4:32.79 
0.1687061386444368 1:33.1 2:32.67 3:32.79 4:32.83 
-0.3256370635623179 1:32.79 2:32.83 3:32.59 4:32.33 
-0.8430690750821189 1:32.83 2:32.59 3:32.33 4:32.19 
