svm_type epsilon_svr
kernel_type rbf
gamma 0.25
nr_class 2
total_sv 5
rho -591.98
SV
1 1:590.08997 2:591.47998 3:592.58002 4:600.96002 
0.2499699925123764 1:591.47998 2:592.58002 3:600.96002 4:594.40997 
-1 1:592.58002 2:600.96002 3:594.40997 4:592.32996 
-1 1:600.96002 2:594.40997 3:592.32996 4:587.98999 
0.7500300074876236 1:594.40997 2:592.32996 3:587.98999 4:585.53998 
