svm_type epsilon_svr
kernel_type rbf
gamma 0.25
nr_class 2
total_sv 4
rho -17.3985
SV
-1 1:16.7 2:16.79 3:16.71 4:16.69 
1 1:16.71 2:16.69 3:16.89 4:17.33 
0.06957902004270383 1:16.69 2:16.89 3:17.33 4:17.68 
-0.06957902004270383 1:16.89 2:17.33 3:17.68 4:17.71 
