svm_type epsilon_svr
kernel_type rbf
gamma 0.25
nr_class 2
total_sv 5
rho -41.6726
SV
-0.737084857394338 1:38.87 2:39.19 3:39.59 4:41.81 
-0.3237984001361748 1:39.19 2:39.59 3:41.81 4:40.78 
-0.56038508781137 1:39.59 2:41.81 3:40.78 4:41.14 
1 1:41.81 2:40.78 3:41.14 4:41.26 
0.6212683453418828 1:40.78 2:41.14 3:41.26 4:42.88 
