svm_type epsilon_svr
kernel_type rbf
gamma 0.25
nr_class 2
total_sv 4
rho -39.1459
SV
-0.08847557842486058 1:35.86 2:35.87 3:36.56 4:36.38 
-1 1:35.87 2:36.56 3:36.38 4:38.76 
1 1:36.38 2:38.76 3:37.28 4:39.09 
0.08847557842486058 1:38.76 2:37.28 3:39.09 4:40.17 
