svm_type epsilon_svr
kernel_type rbf
gamma 0.25
nr_class 2
total_sv 3
rho -43.465
SV
0.4601669341031999 1:46.09 2:45.53 3:46.78 4:45.85 
0.173485826011319 1:46.78 2:45.85 3:44.03 4:43.65 
-0.6336527601145189 1:44.03 2:43.65 3:43.73 4:43.22 
