svm_type epsilon_svr
kernel_type rbf
gamma 0.25
nr_class 2
total_sv 5
rho -581.902
SV
-1 1:564.95001 2:564.62 3:578.65002 4:576 
-1 1:564.62 2:578.65002 3:576 4:577.23999 
0.6674801572897113 1:578.65002 2:576 3:577.23999 4:575.28003 
0.3325198427102887 1:576 2:577.23999 3:575.28003 4:582.66998 
1 1:577.23999 2:575.28003 3:582.66998 4:582.33502 
