svm_type epsilon_svr
kernel_type rbf
gamma 0.25
nr_class 2
total_sv 4
rho -83.8754
SV
-0.8106743517464895 1:79.44 2:79.01 3:79.2 4:82.94 
-0.1822649723400109 1:79.01 2:79.2 3:82.94 4:82.96 
-0.007060675913499594 1:79.2 2:82.94 3:82.96 4:83.57 
1 1:82.94 2:82.96 3:83.57 4:83.79 
