svm_type epsilon_svr
kernel_type rbf
gamma 0.25
nr_class 2
total_sv 4
rho -45.0838
SV
0.4846163871394929 1:43.13 2:43.27 3:43.81 4:44.15 
-0.5916509339159123 1:43.27 2:43.81 3:44.15 4:45.33 
0.09341598784364319 1:43.81 2:44.15 3:45.33 4:44.76 
0.01361855893277625 1:44.15 2:45.33 3:44.76 4:45.12 
