svm_type epsilon_svr
kernel_type rbf
gamma 0.25
nr_class 2
total_sv 5
rho -559.352
SV
-1 1:547.32001 2:554.51001 3:550.84003 4:559.5 
0.9081210131494737 1:554.51001 2:550.84003 3:559.5 4:557.98999 
-0.4418689833219157 1:550.84003 2:559.5 3:557.98999 4:560.35999 
1 1:559.5 2:557.98999 3:560.35999 4:558.81 
-0.466252029827558 1:557.98999 2:560.35999 3:558.81 4:570.19 
