svm_type epsilon_svr
kernel_type rbf
gamma 0.25
nr_class 2
total_sv 3
rho -42.6471
SV
-1 1:41.38 2:41.56 3:41.7 4:42.5 
0.847984250450226 1:41.56 2:41.7 3:42.5 4:42.29 
0.1520157495497741 1:41.7 2:42.5 3:42.29 4:42.88 
