svm_type epsilon_svr
kernel_type rbf
gamma 0.25
nr_class 2
total_sv 4
rho -31.5868
SV
0.336791939365395 1:33.39 2:32.85 3:32.77 4:32.26 
0.289280789431255 1:32.77 2:32.26 3:32.07 4:31.77 
0.37392727120335 1:32.26 2:32.07 3:31.77 4:31.75 
-1 1:32.07 2:31.77 3:31.75 4:31.52 
