svm_type epsilon_svr
kernel_type rbf
gamma 0.25
nr_class 2
total_sv 3
rho -32.9101
SV
-0.6514593893355451 1:32.96 2:32.59 3:32.94 4:32.86 
-0.3485406106644549 1:32.59 2:32.94 3:32.86 4:32.81 
1 1:32.94 2:32.86 3:32.81 4:32.82 
