svm_type epsilon_svr
kernel_type rbf
gamma 0.25
nr_class 2
total_sv 5
rho -51.9239
SV
-1 1:49.75 2:51.02 3:49.33 4:50.24 
0.1909214972282015 1:51.02 2:49.33 3:50.24 4:50.7 
-1 1:49.33 2:50.24 3:50.7 4:52 
1 1:50.24 2:50.7 3:52 4:50.61 
0.8090785027717985 1:50.7 2:52 3:50.61 4:52.91 
