svm_type epsilon_svr
kernel_type rbf
gamma 0.25
nr_class 2
total_sv 4
rho -46.6751
SV
-1 1:46.76 2:46.84 3:47 4:46.7 
0.3854996894684427 1:46.84 2:47 3:46.7 4:46.24 
-0.3854996894684427 1:47 2:46.7 3:46.24 4:46.76 
1 1:46.24 2:46.76 3:46.52 4:46.68 
