svm_type epsilon_svr
kernel_type rbf
gamma 0.25
nr_class 2
total_sv 4
rho -20.6739
SV
-0.6995675381134711 1:19.62 2:20.5 3:20.71 4:20.63 
-1 1:20.71 2:20.63 3:20.41 4:20.64 
1 1:20.63 2:20.41 3:20.64 4:20.26 
0.6995675381134711 1:20.41 2:20.64 3:20.26 4:21.26 
