svm_type epsilon_svr
kernel_type rbf
gamma 0.25
nr_class 2
total_sv 4
rho -35.4416
SV
-1 1:33.64 2:33.48 3:33.25 4:33.66 
0.4241412333514986 1:33.48 2:33.25 3:33.66 4:34.25 
-0.0411572134272668 1:33.25 2:33.66 3:34.25 4:35.13 
0.6170159800757682 1:34.25 2:35.13 3:35.35 4:35.88 
