svm_type epsilon_svr
kernel_type rbf
gamma 0.25
nr_class 2
total_sv 5
rho -101.548
SV
0.01284453401282194 1:98.36 2:97.99 3:101 4:101.43 
0.04968471219137337 1:97.99 2:101 3:101.43 4:101.66 
-1 1:101 2:101.43 3:101.66 4:101.63 
0.1632107196791361 1:101.43 2:101.66 3:101.63 4:100.86 
0.7742600341166684 1:101.66 2:101.63 3:100.86 4:101.58 
