svm_type epsilon_svr
kernel_type rbf
gamma 0.25
nr_class 2
total_sv 5
rho -534.323
SV
1 1:534.83002 2:537.5 3:539.27002 4:541.08002 
1 1:537.5 2:539.27002 3:541.08002 4:540.37 
-0.5272110001352956 1:539.27002 2:541.08002 3:540.37 4:541.83002 
-0.4727889998647044 1:541.08002 2:540.37 3:541.83002 4:533.79999 
-1 1:540.37 2:541.83002 3:533.79999 4:533.75 
