svm_type epsilon_svr
kernel_type rbf
gamma 0.25
nr_class 2
total_sv 5
rho -118.835
SV
-1 1:113.1 2:109.14 3:115.31 4:118.9 
-0.1044273388085624 1:109.14 2:115.31 3:118.9 4:117.16 
-0.276200023617347 1:115.31 2:118.9 3:117.16 4:118.63 
0.4130673136404502 1:118.9 2:117.16 3:118.63 4:118.65 
0.9675600487854591 1:117.16 2:118.63 3:118.65 4:119.56 
