svm_type epsilon_svr
kernel_type rbf
gamma 0.25
nr_class 2
total_sv 5
rho -581.78
SV
1 1:577.33002 2:577.94 3:581.97998 4:586.08002 
-0.6699891958574477 1:577.94 2:581.97998 3:586.08002 4:589.71997 
1 1:581.97998 2:586.08002 3:589.71997 4:581.01001 
-0.3300108041425523 1:586.08002 2:589.71997 3:581.01001 4:583.09998 
-1 1:589.71997 2:581.01001 3:583.09998 4:581.34998 
