svm_type epsilon_svr
kernel_type rbf
gamma 0.25
nr_class 2
total_sv 4
rho -112.239
SV
1 1:111.78 2:112.94 3:112.54 4:112.01 
1 1:112.94 2:112.54 3:112.01 4:113.99 
-1 1:112.01 2:113.99 3:113.91 4:112.52 
-1 1:113.99 2:113.91 3:112.52 4:110.38 
