svm_type epsilon_svr
kernel_type rbf
gamma 0.25
nr_class 2
total_sv 4
rho -21.8661
SV
-0.488465202477289 1:21.26 2:20.81 3:20.48 4:21.24 
0.593343089162502 1:20.81 2:20.48 3:21.24 4:21.63 
-0.6166518650424396 1:20.48 2:21.24 3:21.63 4:21.93 
0.5117739783572267 1:21.63 2:21.93 3:21.69 4:21.99 
