svm_type epsilon_svr
kernel_type rbf
gamma 0.25
nr_class 2
total_sv 4
rho -50.7665
SV
0.6008609871927871 1:48.17 2:48.06 3:49.43 4:49.75 
-1 1:48.06 2:49.43 3:49.75 4:51.02 
-0.6008609871927871 1:49.43 2:49.75 3:51.02 4:49.33 
1 1:51.02 2:49.33 3:50.24 4:50.7 
