svm_type epsilon_svr
kernel_type rbf
gamma 0.25
nr_class 2
total_sv 5
rho -43.5392
SV
-0.4800144767602975 1:43.44 2:42.98 3:42.68 4:42.5 
-1 1:42.98 2:42.68 3:42.5 4:42.95 
0.3032614110433203 1:42.68 2:42.5 3:42.95 4:42.87 
0.1767530657169772 1:42.5 2:42.95 3:42.87 4:43.51 
1 1:42.95 2:42.87 3:43.51 4:43.79 
