svm_type epsilon_svr
kernel_type rbf
gamma 0.25
nr_class 2
total_sv 5
rho -116.15
SV
-0.3917327937445191 1:111.25 2:112.82 3:114.18 4:113.99 
-1 1:112.82 2:114.18 3:113.99 4:115.47 
0.09335560162293213 1:114.18 2:113.99 3:115.47 4:114.67 
0.298377192121587 1:113.99 2:115.47 3:114.67 4:116.31 
1 1:115.47 2:114.67 3:116.31 4:116.47 
