svm_type epsilon_svr
kernel_type rbf
gamma 0.25
nr_class 2
total_sv 5
rho -47.6559
SV
-1 1:46.27 2:47.07 3:46.66 4:46.43 
-1 1:47.07 2:46.66 3:46.43 4:46.93 
0.9745117360141502 1:46.66 2:46.43 3:46.93 4:47.2 
1 1:46.43 2:46.93 3:47.2 4:47.93 
0.02548826398584976 1:46.93 2:47.2 3:47.93 4:48.44 
