svm_type epsilon_svr
kernel_type rbf
gamma 0.25
nr_class 2
total_sv 5
rho -74.2984
SV
-1 1:67.66 2:66.41 3:68.42 4:69.4 
-1 1:66.41 2:68.42 3:69.4 4:69.27 
0.7083581672005864 1:68.42 2:69.4 3:69.27 4:71.29 
0.7790768302514274 1:69.4 2:69.27 3:71.29 4:74.98 
0.5125650025479862 1:69.27 2:71.29 3:74.98 4:75.19 
