svm_type epsilon_svr
kernel_type rbf
gamma 0.25
nr_class 2
total_sv 5
rho -85.0652
SV
-0.4922325216932796 1:83.57 2:83.79 3:84.99 4:84.58 
0.3469883539643795 1:83.79 2:84.99 3:84.58 4:84.65 
-0.4790291281260395 1:84.99 2:84.58 3:84.65 4:85.4 
-0.3757267041450603 1:84.58 2:84.65 3:85.4 4:84.95 
1 1:84.65 2:85.4 3:84.95 4:84.98 
