svm_type epsilon_svr
kernel_type rbf
gamma 0.25
nr_class 2
total_sv 4
rho -20.5474
SV
0.2825222312738469 1:20.18 2:19.7 3:19.62 4:20.5 
-0.2825222312738469 1:19.62 2:20.5 3:20.71 4:20.63 
1 1:20.5 2:20.71 3:20.63 4:20.41 
-1 1:20.71 2:20.63 3:20.41 4:20.64 
