svm_type epsilon_svr
kernel_type rbf
gamma 0.25
nr_class 2
total_sv 5
rho -126.176
SV
-0.800258778616042 1:123.25 2:126.37 3:124.43 4:124.25 
1 1:126.37 2:124.43 3:124.25 4:125.32 
-0.0795117653467499 1:124.43 2:124.25 3:125.32 4:127.35 
-0.5247830891561742 1:124.25 2:125.32 3:127.35 4:126.01 
0.4045536331189661 1:125.32 2:127.35 3:126.01 4:125.6 
