svm_type epsilon_svr
kernel_type rbf
gamma 0.25
nr_class 2
total_sv 4
rho -86.6216
SV
-0.495641594275791 1:85.94 2:85.16 3:86.38 4:86.66 
0.5526276192070489 1:85.16 2:86.38 3:86.66 4:86.43 
0.9430139750687423 1:86.66 2:86.43 3:86.91 4:86.64 
-1 1:86.43 2:86.91 3:86.64 4:86.79 
