svm_type epsilon_svr
kernel_type rbf
gamma 0.25
nr_class 2
total_sv 4
rho -592.33
SV
1 1:592.32996 2:590.08997 3:591.47998 4:592.58002 
1 1:590.08997 2:591.47998 3:592.58002 4:600.96002 
-1 1:592.58002 2:600.96002 3:594.40997 4:592.32996 
-1 1:600.96002 2:594.40997 3:592.32996 4:587.98999 
