svm_type epsilon_svr
kernel_type rbf
gamma 0.25
nr_class 2
total_sv 5
rho -46.7778
SV
-1 1:46.45 2:46.76 3:46.33 4:45.65 
1 1:46.76 2:46.33 3:45.65 4:46.23 
0.1430684630622939 1:46.33 2:45.65 3:46.23 4:47.59 
-0.01555376806932844 1:45.65 2:46.23 3:47.59 4:47.19 
-0.1275146949929655 1:46.23 2:47.59 3:47.19 4:46.6 
