svm_type epsilon_svr
kernel_type rbf
gamma 0.25
nr_class 2
total_sv 4
rho -49.2337
SV
0.8896987794609238 1:48.77 2:50.7 3:50.63 4:49.08 
1 1:50.7 2:50.63 3:49.08 4:49.67 
-0.8896987794609238 1:50.63 2:49.08 3:49.67 4:49.95 
-1 1:49.08 2:49.67 3:49.95 4:48.56 
