svm_type epsilon_svr
kernel_type rbf
gamma 0.25
nr_class 2
total_sv 4
rho -74.6851
SV
-0.4753254847276657 1:80.67 2:80.28 3:80.77 4:75.86 
0.2058953769323736 1:80.28 2:80.77 3:75.86 4:74.11 
-0.7059580272354204 1:80.77 2:75.86 3:74.11 4:74.99 
0.9753881350307125 1:75.86 2:74.11 3:74.99 4:73.88 
