svm_type epsilon_svr
kernel_type rbf
gamma 0.25
nr_class 2
total_sv 5
rho -45.2713
SV
0.06622308354678549 1:43.22 2:42.74 3:43.63 4:44.08 
-1 1:42.74 2:43.63 3:44.08 4:44.88 
-0.3175947648703558 1:43.63 2:44.08 3:44.88 4:44.38 
1 1:44.08 2:44.88 3:44.38 4:45.02 
0.2513716813235702 1:44.88 2:44.38 3:45.02 4:46.13 
