svm_type epsilon_svr
kernel_type rbf
gamma 0.25
nr_class 2
total_sv 5
rho -358.898
SV
0.7616582222925747 1:354.44 2:355.89999 3:352.45001 4:358.66 
1 1:355.89999 2:352.45001 3:358.66 4:359.76001 
-0.6583415373369611 1:352.45001 2:358.66 3:359.76001 4:360.84 
-0.1033166849556137 1:358.66 2:359.76001 3:360.84 4:358.14001 
-1 1:359.76001 2:360.84 3:358.14001 4:358.60999 
