svm_type epsilon_svr
kernel_type rbf
gamma 0.25
nr_class 2
total_sv 4
rho -48.0167
SV
1 1:47.81 2:48.62 3:48.46 4:48.08 
1 1:48.62 2:48.46 3:48.08 4:48.84 
-1 1:48.46 2:48.08 3:48.84 4:48.42 
-1 1:48.08 2:48.84 3:48.42 4:47.7 
