svm_type epsilon_svr
kernel_type rbf
gamma 0.25
nr_class 2
total_sv 4
rho -554.065
SV
1 1:540.77002 2:548.90002 3:549.33002 4:550.31 
1 1:548.90002 2:549.33002 3:550.31 4:559.08002 
-1 1:550.31 2:559.08002 3:555.21997 4:554.10999 
-1 1:559.08002 2:555.21997 3:554.10999 4:545.91998 
