svm_type epsilon_svr
kernel_type rbf
gamma 0.25
nr_class 2
total_sv 5
rho -33.0817
SV
1 1:33.72 2:33.63 3:33.77 4:33.61 
-1 1:33.63 2:33.77 3:33.61 4:33.46 
-0.1132648417791766 1:33.77 2:33.61 3:33.46 4:32.79 
1 1:33.61 2:33.46 3:32.79 4:33.03 
-0.8867351582208234 1:33.46 2:32.79 3:33.03 4:33.3 
