svm_type epsilon_svr
kernel_type rbf
gamma 0.25
nr_class 2
total_sv 5
rho -32.7595
SV
-0.6996928114698514 1:39.02 2:38.75 3:31.85 4:30.66 
-0.6094757442239176 1:38.75 2:31.85 3:30.66 4:31.96 
1 1:31.85 2:30.66 3:31.96 4:32.05 
0.3538280243931415 1:30.66 2:31.96 3:32.05 4:33.94 
-0.04465946869937264 1:31.96 2:32.05 3:33.94 4:33.39 
