svm_type epsilon_svr
kernel_type rbf
gamma 0.25
nr_class 2
total_sv 4
rho -19.8155
SV
-1 1:17.72 2:17.48 3:17.72 4:18.36 
0.6376038126500847 1:17.48 2:17.72 3:18.36 4:18.72 
0.160945983293518 1:17.72 2:18.36 3:18.72 4:19.82 
0.2014502040563973 1:18.72 2:19.82 3:20.16 4:20.01 
