svm_type epsilon_svr
kernel_type rbf
gamma 0.25
nr_class 2
total_sv 5
rho -43.3372
SV
-0.3038617045618371 1:42.86 2:43.37 3:43.08 4:42.74 
-0.4975535735496681 1:43.37 2:43.08 3:42.74 4:43.23 
-0.8550512585128787 1:43.08 2:42.74 3:43.23 4:43.2 
0.6564665366243839 1:42.74 2:43.23 3:43.2 4:43.2 
1 1:43.23 2:43.2 3:43.2 4:43.52 
