svm_type epsilon_svr
kernel_type rbf
gamma 0.25
nr_class 2
total_sv 5
rho -38.8081
SV
-0.008898293322363519 1:36.79 2:36.9 3:38.02 4:38.02 
-0.2636240508012549 1:36.9 2:38.02 3:38.02 4:38.74 
0.2725223441236185 1:38.02 2:38.02 3:38.74 4:38.9 
1 1:38.02 2:38.74 3:38.9 4:39.24 
-1 1:38.74 2:38.9 3:39.24 4:39.52 
