svm_type epsilon_svr
kernel_type rbf
gamma 0.25
nr_class 2
total_sv 5
rho -84.5815
SV
-0.7015327348567166 1:79.2 2:82.94 3:82.96 4:83.57 
0.5639552942917732 1:82.94 2:82.96 3:83.57 4:83.79 
-0.3764932592358132 1:82.96 2:83.57 3:83.79 4:84.99 
-0.4859293001992432 1:83.57 2:83.79 3:84.99 4:84.58 
1 1:83.79 2:84.99 3:84.58 4:84.65 
