svm_type epsilon_svr
kernel_type rbf
gamma 0.25
nr_class 2
total_sv 5
rho -334.74
SV
0.7998084906512636 1:324.92999 2:326.54001 3:330.54001 4:332.63 
0.2001915093487364 1:326.54001 2:330.54001 3:332.63 4:335.64001 
-1 1:330.54001 2:332.63 3:335.64001 4:335.04001 
1 1:332.63 2:335.64001 3:335.04001 4:333.57001 
-1 1:335.64001 2:335.04001 3:333.57001 4:338.64001 
