svm_type epsilon_svr
kernel_type rbf
gamma 0.25
nr_class 2
total_sv 4
rho -79.0341
SV
1 1:81.03 2:80.84 3:80.65 4:80.29 
0.3725956853860654 1:80.84 2:80.65 3:80.29 4:80.15 
-1 1:80.29 2:80.15 3:79.74 4:79.24 
-0.3725956853860654 1:80.15 2:79.74 3:79.24 4:77.88 
