svm_type epsilon_svr
kernel_type rbf
gamma 0.25
nr_class 2
total_sv 5
rho -82.8058
SV
1 1:82.28 2:82.17 3:82.04 4:83.01 
-0.3786730247814054 1:82.17 2:82.04 3:83.01 4:83.52 
-0.09549940170368158 1:82.04 2:83.01 3:83.52 4:82.71 
-1 1:83.01 2:83.52 3:82.71 4:82.31 
0.474172426485087 1:83.52 2:82.71 3:82.31 4:80.78 
