svm_type epsilon_svr
kernel_type rbf
gamma 0.25
nr_class 2
total_sv 4
rho -39.8621
SV
-0.0189514850989135 1:40.04 2:41.85 3:40.47 4:40.61 
-0.1899116752240442 1:41.85 2:40.47 3:40.61 4:39.71 
0.7892914634703219 1:40.61 2:39.71 3:39.81 4:40.03 
-0.5804283031473643 1:39.71 2:39.81 3:40.03 4:40.19 
