svm_type epsilon_svr
kernel_type rbf
gamma 0.25
nr_class 2
total_sv 5
rho -44.5147
SV
0.7163108897413097 1:44.08 2:44.53 3:44.69 4:44.84 
1 1:44.53 2:44.69 3:44.84 4:44.83 
-0.7517284589338394 1:44.69 2:44.84 3:44.83 4:44.87 
0.0354175691925296 1:44.84 2:44.83 3:44.87 4:44.4 
-1 1:44.83 2:44.87 3:44.4 4:44.5 
