svm_type epsilon_svr
kernel_type rbf
gamma 0.25
nr_class 2
total_sv 5
rho -43.1235
SV
-0.6740768081331905 1:44.16 2:43.44 3:42.98 4:42.68 
0.03085198564574277 1:43.44 2:42.98 3:42.68 4:42.5 
-1 1:42.98 2:42.68 3:42.5 4:42.95 
0.6432248224874476 1:42.68 2:42.5 3:42.95 4:42.87 
1 1:42.5 2:42.95 3:42.87 4:43.51 
