svm_type epsilon_svr
kernel_type rbf
gamma 0.25
nr_class 2
total_sv 5
rho -86.0846
SV
0.3149892475402987 1:87.28 2:87.33 3:85.91 4:87.29 
-0.14102678456771 1:87.33 2:85.91 3:87.29 4:86.34 
-0.3859308967172918 1:85.91 2:87.29 3:86.34 4:85.89 
-0.2794361174685233 1:87.29 2:86.34 3:85.89 4:85.81 
0.4914045512132263 1:86.34 2:85.89 3:85.81 4:85.96 
