svm_type epsilon_svr
kernel_type rbf
gamma 0.25
nr_class 2
total_sv 4
rho -306.214
SV
-1 1:311.39001 2:306.45001 3:308.31 4:305.97 
-1 1:306.45001 2:308.31 3:305.97 4:302.85999 
1 1:305.97 2:302.85999 3:303.64001 4:306.20999 
1 1:302.85999 2:303.64001 3:306.20999 4:315.32999 
