svm_type epsilon_svr
kernel_type rbf
gamma 0.25
nr_class 2
total_sv 4
rho -571.6
SV
1 1:593.34998 2:589.02002 3:590.59998 4:585.60999 
-1 1:590.59998 2:585.60999 3:587.41998 4:571.59998 
1 1:585.60999 2:587.41998 3:571.59998 4:566.07001 
-1 1:587.41998 2:571.59998 3:566.07001 4:573.15002 
