svm_type epsilon_svr
kernel_type rbf
gamma 0.25
nr_class 2
total_sv 5
rho -76.9539
SV
-0.9537875754411778 1:74.44 2:75.19 3:76.51 4:76.23 
-1 1:75.19 2:76.51 3:76.23 4:75.74 
-0.04621242455882226 1:76.51 2:76.23 3:75.74 4:75.6 
1 1:76.23 2:75.74 3:75.6 4:76.71 
1 1:75.74 2:75.6 3:76.71 4:79.42 
