svm_type epsilon_svr
kernel_type rbf
gamma 0.25
nr_class 2
total_sv 5
rho -82.59
SV
1 1:83.29 2:82.62 3:82.53 4:81.52 
0.6084529894869266 1:82.62 2:82.53 3:81.52 4:83.24 
0.3915470105130734 1:82.53 2:81.52 3:83.24 4:83.31 
-1 1:81.52 2:83.24 3:83.31 4:83.05 
-1 1:83.24 2:83.31 3:83.05 4:81.32 
