svm_type epsilon_svr
kernel_type rbf
gamma 0.25
nr_class 2
total_sv 5
rho -32.3362
SV
-1 1:32.04 2:32.28 3:32.29 4:32.37 
-0.150339955595064 1:32.28 2:32.29 3:32.37 4:32.17 
-0.2539570604693174 1:32.29 2:32.37 3:32.17 4:32.24 
1 1:32.37 2:32.17 3:32.24 4:32.24 
0.4042970160643815 1:32.17 2:32.24 3:32.24 4:32.5 
