svm_type epsilon_svr
kernel_type rbf
gamma 0.25
nr_class 2
total_sv 5
rho -118.251
SV
0.324874120712025 1:115.47 2:114.67 3:116.31 4:116.47 
-0.736145745725983 1:114.67 2:116.31 3:116.47 4:118.63 
0.7338680682062825 1:116.31 2:116.47 3:118.63 4:117.6 
0.6774035568076754 1:116.47 2:118.63 3:117.6 4:119 
-1 1:118.63 2:117.6 3:119 4:118.93 
