svm_type epsilon_svr
kernel_type rbf
gamma 0.25
nr_class 2
total_sv 5
rho -114.829
SV
-0.425450101107081 1:108.83 2:109.7 3:111.25 4:112.82 
-0.8084317965124517 1:109.7 2:111.25 3:112.82 4:114.18 
0.7409875252782312 1:111.25 2:112.82 3:114.18 4:113.99 
-0.5071056276586985 1:112.82 2:114.18 3:113.99 4:115.47 
1 1:114.18 2:113.99 3:115.47 4:114.67 
