svm_type epsilon_svr
kernel_type rbf
gamma 0.25
nr_class 2
total_sv 5
rho -36.4277
SV
-1 1:34.95 2:35.06 3:35.55 4:35.73 
-1 1:35.06 2:35.55 3:35.73 4:35.37 
0.1830005554814125 1:35.55 2:35.73 3:35.37 4:35.28 
1 1:35.73 2:35.37 3:35.28 4:36.08 
0.8169994445185875 1:35.37 2:35.28 3:36.08 4:37.38 
