svm_type epsilon_svr
kernel_type rbf
gamma 0.25
nr_class 2
total_sv 4
rho -78.8583
SV
0.4045026350053706 1:78.62 2:78.01 3:77.96 4:78.69 
0.5717052229053451 1:77.96 2:78.69 3:79.2 4:79.15 
0.02379214208928427 1:78.69 2:79.2 3:79.15 4:79.14 
-1 1:79.2 2:79.15 3:79.14 4:78.74 
