svm_type epsilon_svr
kernel_type rbf
gamma 0.25
nr_class 2
total_sv 5
rho -571.88
SV
1 1:586.85999 2:584.48999 3:583.37 4:582.56 
1 1:584.48999 2:583.37 3:582.56 4:580.20001 
-0.8195958304796704 1:583.37 2:582.56 3:580.20001 4:577.85999 
-1 1:582.56 2:580.20001 3:577.85999 4:571 
-0.1804041695203296 1:580.20001 2:577.85999 3:571 4:569.20001 
