svm_type epsilon_svr
kernel_type rbf
gamma 0.25
nr_class 2
total_sv 5
rho -548.77
SV
1 1:560.35999 2:558.81 3:570.19 4:558.78497 
-0.3299850000941547 1:558.81 2:570.19 3:558.78497 4:555.16998 
1 1:570.19 2:558.78497 3:555.16998 4:548.34003 
-0.6700149999058453 1:558.78497 2:555.16998 3:548.34003 4:552.03003 
-1 1:555.16998 2:548.34003 3:552.03003 4:548 
