svm_type epsilon_svr
kernel_type rbf
gamma 0.25
nr_class 2
total_sv 4
rho -17.5174
SV
-0.6482356053519207 1:17.04 2:16.89 3:17.24 4:17.53 
1 1:17.24 2:17.53 3:17.43 4:17.63 
0.6482356053519207 1:17.53 2:17.43 3:17.63 4:17.87 
-1 1:17.43 2:17.63 3:17.87 4:17.72 
