svm_type epsilon_svr
kernel_type rbf
gamma 0.25
nr_class 2
total_sv 5
rho -57.759
SV
1 1:58.15 2:59.78 3:61.15 4:60.46 
0.4522016598149852 1:59.78 2:61.15 3:60.46 4:61.22 
-0.2623599874300028 1:61.15 2:60.46 3:61.22 4:58.53 
-0.8506029132267993 1:60.46 2:61.22 3:58.53 4:57.39 
-0.3392387591581832 1:61.22 2:58.53 3:57.39 4:56.76 
