svm_type epsilon_svr
kernel_type rbf
gamma 0.25
nr_class 2
total_sv 4
rho -90.755
SV
0.7308208110941827 1:92.08 2:92.18 3:91.86 4:90.91 
-0.9010361177306047 1:92.18 2:91.86 3:90.91 4:90.83 
-0.4083386520028731 1:91.86 2:90.91 3:90.83 4:90.28 
0.5785539586392949 1:90.91 2:90.83 3:90.28 4:90.36 
