svm_type epsilon_svr
kernel_type rbf
gamma 0.25
nr_class 2
total_sv 4
rho -95.104
SV
-0.1640394952920234 1:94.03 2:95.97 3:95.35 4:95.39 
-0.2585181721826387 1:95.97 2:95.35 3:95.39 4:95.04 
1 1:95.35 2:95.39 3:95.04 4:95.22 
-0.5774423325253379 1:95.04 2:95.22 3:96.45 4:95.32 
