svm_type epsilon_svr
kernel_type rbf
gamma 0.25
nr_class 2
total_sv 5
rho -382.037
SV
-1 1:372.10001 2:370.26001 3:372.25 4:377.04001 
-0.7361562742111403 1:370.26001 2:372.25 3:377.04001 4:374.41 
1 1:372.25 2:377.04001 3:374.41 4:381.20001 
0.5130781893731015 1:377.04001 2:374.41 3:381.20001 4:383.54001 
0.2230780848380388 1:374.41 2:381.20001 3:383.54001 4:382.64999 
