svm_type epsilon_svr
kernel_type rbf
gamma 0.25
nr_class 2
total_sv 5
rho -78.6004
SV
-1 1:77.91 2:76.8 3:78.29 4:78.54 
0.4687636560939121 1:76.8 2:78.29 3:78.54 4:77.22 
0.5312363439060879 1:78.29 2:78.54 3:77.22 4:78.79 
1 1:78.54 2:77.22 3:78.79 4:79 
-1 1:77.22 2:78.79 3:79 4:79.04 
