svm_type epsilon_svr
kernel_type rbf
gamma 0.25
nr_class 2
total_sv 4
rho -44.2939
SV
1 1:44.42 2:44.2 3:44.47 4:45.1 
-0.307031425897983 1:44.47 2:45.1 3:44.95 4:44.44 
0.307031425897983 1:45.1 2:44.95 3:44.44 4:44.13 
-1 1:44.95 2:44.44 3:44.13 4:44.15 
