svm_type epsilon_svr
kernel_type rbf
gamma 0.25
nr_class 2
total_sv 4
rho -556.36
SV
-1 1:551.34998 2:551.76001 3:544.28003 4:543.01001 
-1 1:551.76001 2:544.28003 3:543.01001 4:553.37 
1 1:543.01001 2:553.37 3:554.90002 4:556.35999 
1 1:553.37 2:554.90002 3:556.35999 4:564.95001 
