svm_type epsilon_svr
kernel_type rbf
gamma 0.25
nr_class 2
total_sv 3
rho -82.3992
SV
-0.3663363303098033 1:82.59 2:82.88 3:82.07 4:80.69 
-0.6336636696901967 1:82.88 2:82.07 3:80.69 4:81.9 
1 1:82.07 2:80.69 3:81.9 4:81.9 
