svm_type epsilon_svr
kernel_type rbf
gamma 0.25
nr_class 2
total_sv 5
rho -85.8569
SV
-1 1:83.83 2:83.81 3:83.94 4:82.96 
0.6591651788547837 1:83.81 2:83.94 3:82.96 4:84.23 
-0.8416733011839368 1:83.94 2:82.96 3:84.23 4:85.94 
0.5195403508013474 1:82.96 2:84.23 3:85.94 4:85.16 
0.6629677715278057 1:84.23 2:85.94 3:85.16 4:86.38 
