svm_type epsilon_svr
kernel_type rbf
gamma 0.25
nr_class 2
total_sv 4
rho -34.3637
SV
-1 1:34.68 2:34.05 3:33.64 4:33.48 
-0.628929062677663 1:34.05 2:33.64 3:33.48 4:33.25 
1 1:33.48 2:33.25 3:33.66 4:34.25 
0.628929062677663 1:33.25 2:33.66 3:34.25 4:35.13 
