svm_type epsilon_svr
kernel_type rbf
gamma 0.25
nr_class 2
total_sv 5
rho -51.2672
SV
-1 1:48.55 2:49.41 3:49.05 4:50.6 
0.430987499570839 1:49.41 2:49.05 3:50.6 4:50.5 
1 1:49.05 2:50.6 3:50.5 4:51.75 
0.569012500429161 1:50.6 2:50.5 3:51.75 4:52.37 
-1 1:50.5 2:51.75 3:52.37 4:51.75 
