svm_type epsilon_svr
kernel_type rbf
gamma 0.25
nr_class 2
total_sv 5
rho -34.0428
SV
-0.4306231934436611 1:35.7 2:35.61 3:33.79 4:33.21 
-0.433956907144623 1:35.61 2:33.79 3:33.21 4:33.33 
-1 1:33.79 2:33.21 3:33.33 4:33.28 
0.8645801005882841 1:33.21 2:33.33 3:33.28 4:33.6 
1 1:33.33 2:33.28 3:33.6 4:34.71 
