svm_type epsilon_svr
kernel_type rbf
gamma 0.25
nr_class 2
total_sv 5
rho -101.179
SV
-0.5255686051804451 1:97.98 2:99.16 3:100.53 4:100.57 
0.01522399270023169 1:99.16 2:100.53 3:100.57 4:100.58 
0.5103446124802135 1:100.53 2:100.57 3:100.58 4:101.32 
-1 1:100.57 2:100.58 3:101.32 4:101.54 
1 1:100.58 2:101.32 3:101.54 4:100.89 
