svm_type epsilon_svr
kernel_type rbf
gamma 0.25
nr_class 2
total_sv 5
rho -358.887
SV
-1 1:346.20001 2:355.32001 3:354.44 4:355.89999 
-0.1269205987151013 1:355.32001 2:354.44 3:355.89999 4:352.45001 
0.7730895060375987 1:354.44 2:355.89999 3:352.45001 4:358.66 
1 1:355.89999 2:352.45001 3:358.66 4:359.76001 
-0.6461689073224977 1:352.45001 2:358.66 3:359.76001 4:360.84 
