svm_type epsilon_svr
kernel_type rbf
gamma 0.25
nr_class 2
total_sv 5
rho -644.595
SV
-1 1:624.01001 2:635.38 3:633 4:628.64996 
0.125 1:635.38 2:633 3:628.64996 4:637.53998 
1 1:633 2:628.64996 3:637.53998 4:644.82001 
0.875 1:628.64996 2:637.53998 3:644.82001 4:647.34998 
-1 1:637.53998 2:644.82001 3:647.34998 4:645.57001 
