svm_type epsilon_svr
kernel_type rbf
gamma 0.25
nr_class 2
total_sv 5
rho -32.6969
SV
-1 1:31.77 2:31.75 3:31.52 4:30.5 
1 1:31.75 2:31.52 3:30.5 4:30.51 
1 1:31.52 2:30.5 3:30.51 4:33.77 
-0.1748797822005816 1:30.5 2:30.51 3:33.77 4:34 
-0.8251202177994184 1:30.51 2:33.77 3:34 4:32.44 
