svm_type epsilon_svr
kernel_type rbf
gamma 0.25
nr_class 2
total_sv 5
rho -81.9632
SV
1 1:82.53 2:81.52 3:83.24 4:83.31 
-0.8636023863261716 1:81.52 2:83.24 3:83.31 4:83.05 
0.05272668653003214 1:83.24 2:83.31 3:83.05 4:81.32 
-0.787820096171046 1:83.31 2:83.05 3:81.32 4:81.89 
0.5986957959671855 1:83.05 2:81.32 3:81.89 4:81.35 
