svm_type epsilon_svr
kernel_type rbf
gamma 0.25
nr_class 2
total_sv 3
rho -31.367
SV
1 1:32.83 2:32.31 3:31.88 4:31.66 
-0.6293855218406077 1:32.31 2:31.88 3:31.66 4:31.68 
-0.3706144781593923 1:31.88 2:31.66 3:31.68 4:31.19 
