svm_type epsilon_svr
kernel_type rbf
gamma 0.25
nr_class 2
total_sv 5
rho -309.39
SV
-1 1:294.73999 2:293.26999 3:286.95001 4:290.73999 
-1 1:293.26999 2:286.95001 3:290.73999 4:289.44 
0.8300050000002273 1:286.95001 2:290.73999 3:289.44 4:297.25 
1 1:290.73999 2:289.44 3:297.25 4:310.32001 
0.1699949999997727 1:289.44 2:297.25 3:310.32001 4:312.39001 
