svm_type epsilon_svr
kernel_type rbf
gamma 0.25
nr_class 2
total_sv 5
rho -34.1363
SV
-0.05147303088104224 1:36.87 2:36.91 3:36.49 4:34.07 
-0.3253669912613924 1:36.91 2:36.49 3:34.07 4:33.92 
0.2615774501871841 1:36.49 2:34.07 3:33.92 4:33.76 
0.1399217069427951 1:34.07 2:33.92 3:33.76 4:34.45 
-0.0246591349875446 1:33.92 2:33.76 3:34.45 4:34.4 
