svm_type epsilon_svr
kernel_type rbf
gamma 0.25
nr_class 2
total_sv 4
rho -45.0657
SV
-1 1:39.28 2:40.18 3:42 4:42.6 
-0.1660316782424033 1:40.18 2:42 3:42.6 4:43.5 
0.7310693056347304 1:42 2:42.6 3:43.5 4:44.7 
0.4349623726076728 1:43.5 2:44.7 3:45.87 4:45.43 
