svm_type epsilon_svr
kernel_type rbf
gamma 0.25
nr_class 2
total_sv 5
rho -82.5099
SV
0.7692676892110082 1:85.31 2:82.92 3:83.01 4:83.3 
0.002401621652745363 1:82.92 2:83.01 3:83.3 4:83.2 
-0.412402571546907 1:83.01 2:83.3 3:83.2 4:82.22 
-1 1:83.3 2:83.2 3:82.22 4:81.67 
0.6407332606831535 1:83.2 2:82.22 3:81.67 4:81.56 
