svm_type epsilon_svr
kernel_type rbf
gamma 0.25
nr_class 2
total_sv 4
rho -51.7395
SV
0.4695532146694123 1:51.94 2:52.17 3:52.96 4:51.45 
0.2296670419509014 1:52.17 2:52.96 3:51.45 4:51.89 
-1 1:51.45 2:51.89 3:51.74 4:51.58 
0.3007797433796863 1:51.89 2:51.74 3:51.58 4:50.06 
