svm_type epsilon_svr
kernel_type rbf
gamma 0.25
nr_class 2
total_sv 5
rho -309.88
SV
-0.6893764950684907 1:299.89999 2:306.54001 3:306.29001 4:303.03 
1 1:306.54001 2:306.29001 3:303.03 4:309.09 
0.3196750932127361 1:306.29001 2:303.03 3:309.09 4:312.04001 
0.3697014018557546 1:303.03 2:309.09 3:312.04001 4:310.29999 
-1 1:309.09 2:312.04001 3:310.29999 4:310.35001 
