svm_type epsilon_svr
kernel_type rbf
gamma 0.25
nr_class 2
total_sv 5
rho -373.69
SV
0.09961601546743282 1:354.53 2:364.47 3:363.54999 4:364.75 
0.4901919924913898 1:364.47 2:363.54999 3:364.75 4:373.89001 
-1 1:363.54999 2:364.75 3:373.89001 4:374.28 
-0.5898080079588226 1:364.75 2:373.89001 3:374.28 4:370.56 
1 1:373.89001 2:374.28 3:370.56 4:373 
