svm_type epsilon_svr
kernel_type rbf
gamma 0.25
nr_class 2
total_sv 5
rho -311.837
SV
0.3030304517489519 1:296.76001 2:301.19 3:305.01001 4:304.91 
-0.9169495255784448 1:301.19 2:305.01001 3:304.91 4:312.23999 
-1 1:305.01001 2:304.91 3:312.23999 4:310.82001 
1 1:304.91 2:312.23999 3:310.82001 4:310.16 
0.6139190738294928 1:312.23999 2:310.82001 3:310.16 4:313.78 
