svm_type epsilon_svr
kernel_type rbf
gamma 0.25
nr_class 2
total_sv 5
rho -126.976
SV
0.8498112323393753 1:126.56 2:127.1 3:126.85 4:126.3 
-0.9598537427415353 1:127.1 2:126.85 3:126.3 4:126.78 
-1 1:126.85 2:126.3 3:126.78 4:126.17 
0.8834411737823631 1:126.3 2:126.78 3:126.17 4:124.75 
0.226601336619797 1:126.78 2:126.17 3:124.75 4:127.6 
