svm_type epsilon_svr
kernel_type rbf
gamma 0.25
nr_class 2
total_sv 5
rho -63.8996
SV
-0.196847744062658 1:63.3 2:63.08 3:62.87 4:63.34 
-1 1:63.08 2:62.87 3:63.34 4:63.19 
-0.803152255937342 1:62.87 2:63.34 3:63.19 4:62.5 
1 1:63.34 2:63.19 3:62.5 4:62.88 
1 1:63.19 2:62.5 3:62.88 4:65.77 
