svm_type epsilon_svr
kernel_type rbf
gamma 0.25
nr_class 2
total_sv 4
rho -553.9
SV
-1 1:561.67999 2:560.08002 3:559.89001 4:553.92999 
-1 1:560.08002 2:559.89001 3:553.92999 4:544.94 
1 1:553.92999 2:544.94 3:544.65997 4:553.90002 
1 1:544.94 2:544.65997 3:553.90002 4:556.33002 
