svm_type epsilon_svr
kernel_type rbf
gamma 0.25
nr_class 2
total_sv 5
rho -75.9835
SV
-1 1:74.34 2:73.33 3:73.6 4:73.75 
-0.02207607069226503 1:73.33 2:73.6 3:73.75 4:74.01 
1 1:73.6 2:73.75 3:74.01 4:75.63 
1 1:73.75 2:74.01 3:75.63 4:77.62 
-0.977923929307735 1:74.01 2:75.63 3:77.62 4:77.7 
