svm_type epsilon_svr
kernel_type rbf
gamma 0.25
nr_class 2
total_sv 4
rho -32.2908
SV
0.4516979165448761 1:31.91 2:32.85 3:32.95 4:32.75 
0.1599748317016172 1:32.85 2:32.95 3:32.75 4:32.52 
0.3883272517535066 1:32.75 2:32.52 3:32.42 4:32.24 
-1 1:32.52 2:32.42 3:32.24 4:32.27 
