svm_type epsilon_svr
kernel_type rbf
gamma 0.25
nr_class 2
total_sv 4
rho -597.51
SV
-1 1:587.98999 2:585.53998 3:592.83002 4:593.76001 
-1 1:585.53998 2:592.83002 3:593.76001 4:593.87 
1 1:593.76001 2:593.87 3:588.82001 4:597.50995 
1 1:593.87 2:588.82001 3:597.50995 4:604.59003 
