svm_type epsilon_svr
kernel_type rbf
gamma 0.25
nr_class 2
total_sv 5
rho -44.5695
SV
-0.3523572773385791 1:45.04 2:44.72 3:44.42 4:44.2 
1 1:44.72 2:44.42 3:44.2 4:44.47 
0.3847332441628142 1:44.42 2:44.2 3:44.47 4:45.1 
-0.03237596682423513 1:44.2 2:44.47 3:45.1 4:44.95 
-1 1:44.47 2:45.1 3:44.95 4:44.44 
