svm_type epsilon_svr
kernel_type rbf
gamma 0.25
nr_class 2
total_sv 5
rho -567.725
SV
-1 1:566.07001 2:573.15002 3:565.07001 4:566.37402 
0.9449912041228835 1:573.15002 2:565.07001 3:566.37402 4:563.35999 
0.05500879587711648 1:565.07001 2:566.37402 3:563.35999 4:568.77002 
-1 1:566.37402 2:563.35999 3:568.77002 4:567.88 
1 1:563.35999 2:568.77002 3:567.88 4:562.72998 
