svm_type epsilon_svr
kernel_type rbf
gamma 0.25
nr_class 2
total_sv 5
rho -83.9385
SV
-0.9680672452528201 1:84.23 2:83.56 3:82.98 4:83.83 
0.1405268015735153 1:83.56 2:82.98 3:83.83 4:83.81 
-1 1:82.98 2:83.83 3:83.81 4:83.94 
0.8275404436793048 1:83.83 2:83.81 3:83.94 4:82.96 
1 1:83.81 2:83.94 3:82.96 4:84.23 
