svm_type epsilon_svr
kernel_type rbf
gamma 0.25
nr_class 2
total_sv 5
rho -20.4371
SV
0.8390158897193314 1:21.15 2:20.7 3:20.79 4:20.74 
-1 1:20.7 2:20.79 3:20.74 4:20.33 
-1 1:20.79 2:20.74 3:20.33 4:19.72 
0.1609841102806686 1:20.74 2:20.33 3:19.72 4:19.72 
1 1:20.33 2:19.72 3:19.72 4:20.39 
