svm_type epsilon_svr
kernel_type rbf
gamma 0.25
nr_class 2
total_sv 5
rho -73.7504
SV
1 1:74.72 2:74.25 3:74.88 4:74.24 
-1 1:74.25 2:74.88 3:74.24 4:74.34 
-0.4924696166060796 1:74.88 2:74.24 3:74.34 4:73.33 
0.2353217801255861 1:74.24 2:74.34 3:73.33 4:73.6 
0.2571478364804935 1:74.34 2:73.33 3:73.6 4:73.75 
