svm_type epsilon_svr
kernel_type rbf
gamma 0.25
nr_class 2
total_sv 5
rho -84.4136
SV
1 1:86.34 2:85.89 3:85.81 4:85.96 
-1 1:85.89 2:85.81 3:85.96 4:86.29 
-0.07725955209933082 1:85.81 2:85.96 3:86.29 4:83.52 
0.04517142955110747 1:85.96 2:86.29 3:83.52 4:84.3 
0.03208812254822333 1:86.29 2:83.52 3:84.3 4:84.6 
