svm_type epsilon_svr
kernel_type rbf
gamma 0.25
nr_class 2
total_sv 5
rho -36.367
SV
1 1:37.05 2:36.35 3:36.7 4:37.1 
-1 1:36.35 2:36.7 3:37.1 4:36.85 
-0.80956695088273 1:36.7 2:37.1 3:36.85 4:35.13 
0.4222526607384009 1:37.1 2:36.85 3:35.13 4:35.57 
0.3873142901443291 1:36.85 2:35.13 3:35.57 4:36.73 
