svm_type epsilon_svr
kernel_type rbf
gamma 0.25
nr_class 2
total_sv 4
rho -30.8887
SV
-1 1:28.97 2:29.52 3:29.9 4:30.56 
0.3310392733390964 1:29.52 2:29.9 3:30.56 4:30.37 
1 1:29.9 2:30.56 3:30.37 4:31.13 
-0.3310392733390964 1:30.56 2:30.37 3:31.13 4:31.75 
