svm_type epsilon_svr
kernel_type rbf
gamma 0.25
nr_class 2
total_sv 4
rho -19.3475
SV
-0.4468333093075703 1:19.11 2:19.4 3:19.71 4:19.62 
-1 1:19.71 2:19.62 3:19.27 4:19.21 
0.4468333093075703 1:19.62 2:19.27 3:19.21 4:19.2 
1 1:19.27 2:19.21 3:19.2 4:19.5 
