svm_type epsilon_svr
kernel_type rbf
gamma 0.25
nr_class 2
total_sv 5
rho -127.598
SV
-1 1:118.93 2:119.72 3:122.02 4:124.88 
-0.4036718879107603 1:119.72 2:122.02 3:124.88 4:126.46 
0.09155413618748084 1:122.02 2:124.88 3:126.46 4:127.08 
0.8589653817217155 1:124.88 2:126.46 3:127.08 4:127.83 
0.4531523700015639 1:126.46 2:127.08 3:127.83 4:128.72 
