svm_type epsilon_svr
kernel_type rbf
gamma 0.25
nr_class 2
total_sv 4
rho -49.9405
SV
1 1:50.02 2:50.65 3:50.86 4:50.53 
0.6030753436513149 1:50.65 2:50.86 3:50.53 4:51.22 
-1 1:50.53 2:51.22 3:50.51 4:50.17 
-0.6030753436513149 1:51.22 2:50.51 3:50.17 4:49.13 
