svm_type epsilon_svr
kernel_type rbf
gamma 0.25
nr_class 2
total_sv 5
rho -105.71
SV
-0.7727744650616771 1:97.67 2:99.76 3:102.47 4:102.99 
-0.3226774958836062 1:99.76 2:102.47 3:102.99 4:104.83 
-0.9045480390547167 1:102.47 2:102.99 3:104.83 4:105.22 
1 1:102.99 2:104.83 3:105.22 4:105.11 
1 1:104.83 2:105.22 3:105.11 4:106.74 
