svm_type epsilon_svr
kernel_type rbf
gamma 0.25
nr_class 2
total_sv 5
rho -76.819
SV
0.699654041017289 1:76.07 2:76.65 3:77.21 4:77.06 
-1 1:76.65 2:77.21 3:77.06 4:76.82 
0.4968082081536032 1:77.21 2:77.06 3:76.82 4:76.55 
0.8035377508291079 1:77.06 2:76.82 3:76.55 4:76.84 
-1 1:76.82 2:76.55 3:76.84 4:76.86 
