svm_type epsilon_svr
kernel_type rbf
gamma 0.25
nr_class 2
total_sv 5
rho -32.4374
SV
-1 1:39.09 2:39.02 3:38.75 4:31.85 
-0.3770647670695167 1:39.02 2:38.75 3:31.85 4:30.66 
-0.2879141229326989 1:38.75 2:31.85 3:30.66 4:31.96 
1 1:31.85 2:30.66 3:31.96 4:32.05 
0.6649788900022157 1:30.66 2:31.96 3:32.05 4:33.94 
