svm_type epsilon_svr
kernel_type rbf
gamma 0.25
nr_class 2
total_sv 5
rho -45.8864
SV
0.3501206596118797 1:46.04 2:46.41 3:46.44 4:46.36 
-1 1:46.41 2:46.44 3:46.36 4:45.9 
0.7985723865812057 1:46.44 2:46.36 3:45.9 4:45.76 
0.8513069538069146 1:46.36 2:45.9 3:45.76 4:46.09 
-1 1:45.9 2:45.76 3:46.09 4:46.09 
