svm_type epsilon_svr
kernel_type rbf
gamma 0.25
nr_class 2
total_sv 5
rho -58.9009
SV
0.7912449104759899 1:57.39 2:56.76 3:57.24 4:59.83 
0.243411314101243 1:56.76 2:57.24 3:59.83 4:59.83 
-0.8612893743456942 1:57.24 2:59.83 3:59.83 4:59.23 
-1 1:59.83 2:59.83 3:59.23 4:57.92 
0.8266331497684613 1:59.83 2:59.23 3:57.92 4:58.02 
