svm_type epsilon_svr
kernel_type rbf
gamma 0.25
nr_class 2
total_sv 4
rho -98.0098
SV
-0.8522079966911887 1:94.43 2:93.94 3:94.72 4:97.19 
-0.2504870441466551 1:93.94 2:94.72 3:97.19 4:97.03 
0.9473855062313848 1:94.72 2:97.19 3:97.03 4:97.67 
0.1553095346064591 1:97.19 2:97.03 3:97.67 4:99.02 
