svm_type epsilon_svr
kernel_type rbf
gamma 0.25
nr_class 2
total_sv 4
rho -17.5458
SV
-1 1:16.98 2:17.05 3:17.04 4:16.89 
0.2169440368357017 1:17.05 2:17.04 3:16.89 4:17.24 
-0.2169440368357017 1:17.04 2:16.89 3:17.24 4:17.53 
1 1:17.24 2:17.53 3:17.43 4:17.63 
