svm_type epsilon_svr
kernel_type rbf
gamma 0.25
nr_class 2
total_sv 5
rho -49.4408
SV
-1 1:50.4 2:48.49 3:48.58 4:49.99 
-0.7507186590019246 1:48.49 2:48.58 3:49.99 4:48.23 
1 1:48.58 2:49.99 3:48.23 4:48.77 
1 1:49.99 2:48.23 3:48.77 4:50.7 
-0.2492813409980755 1:48.23 2:48.77 3:50.7 4:50.63 
