svm_type epsilon_svr
kernel_type rbf
gamma 0.25
nr_class 2
total_sv 4
rho -63.211
SV
-1 1:59.21 2:58.56 3:60.49 4:60.52 
0.4580866845754022 1:58.56 2:60.49 3:60.52 4:61.35 
0.03665579692300977 1:60.49 2:60.52 3:61.35 4:63.48 
0.5052575185015881 1:60.52 2:61.35 3:63.48 4:63.51 
