svm_type epsilon_svr
kernel_type rbf
gamma 0.25
nr_class 2
total_sv 5
rho -593.025
SV
-0.4049402062955791 1:594.09003 2:592.32996 3:590.08997 4:591.47998 
1 1:592.32996 2:590.08997 3:591.47998 4:592.58002 
1 1:590.08997 2:591.47998 3:592.58002 4:600.96002 
-0.5950597937044209 1:591.47998 2:592.58002 3:600.96002 4:594.40997 
-1 1:592.58002 2:600.96002 3:594.40997 4:592.32996 
