svm_type epsilon_svr
kernel_type rbf
gamma 0.25
nr_class 2
total_sv 5
rho -501.93
SV
-1 1:501.10001 2:502.67999 3:496.17001 4:492.54999 
-0.9600026711718781 1:502.67999 2:496.17001 3:492.54999 4:496.17999 
-0.03999732882812193 1:496.17001 2:492.54999 3:496.17999 4:500.87 
1 1:492.54999 2:496.17999 3:500.87 4:501.79001 
1 1:496.17999 2:500.87 3:501.79001 4:508.07999 
