svm_type epsilon_svr
kernel_type rbf
gamma 0.25
nr_class 2
total_sv 4
rho -511.1
SV
1 1:533.37 2:526.06 3:528.34003 4:518.65997 
-1 1:526.06 2:528.34003 3:518.65997 4:513.79999 
-1 1:528.34003 2:518.65997 3:513.79999 4:495.39001 
1 1:513.79999 2:495.39001 3:504.89001 4:511.10001 
