svm_type epsilon_svr
kernel_type rbf
gamma 0.25
nr_class 2
total_sv 5
rho -82.6506
SV
-1 1:77.7 2:77.81 3:78.77 4:79.44 
-1 1:77.81 2:78.77 3:79.44 4:79.01 
1 1:78.77 2:79.44 3:79.01 4:79.2 
0.1856146172470163 1:79.44 2:79.01 3:79.2 4:82.94 
0.8143853827529837 1:79.01 2:79.2 3:82.94 4:82.96 
