svm_type epsilon_svr
kernel_type rbf
gamma 0.25
nr_class 2
total_sv 4
rho -51.9926
SV
1 1:50.88 2:53 3:51.94 4:52.17 
-0.3912286482120539 1:53 2:51.94 3:52.17 4:52.96 
-0.02665307723790761 1:51.94 2:52.17 3:52.96 4:51.45 
-0.5821182745500386 1:52.17 2:52.96 3:51.45 4:51.89 
