svm_type epsilon_svr
kernel_type rbf
gamma 0.25
nr_class 2
total_sv 5
rho -46.8933
SV
-0.8191679913049255 1:46.7 2:46.24 3:46.76 4:46.52 
1 1:46.24 2:46.76 3:46.52 4:46.68 
0.4790728782291064 1:46.76 2:46.52 3:46.68 4:47.52 
-0.8890724590856736 1:46.52 2:46.68 3:47.52 4:47.06 
0.2291675721614924 1:46.68 2:47.52 3:47.06 4:46.56 
