svm_type epsilon_svr
kernel_type rbf
gamma 0.25
nr_class 2
total_sv 5
rho -46.9525
SV
-1 1:44.76 2:45.12 3:45.09 4:45.06 
0.02920948704001262 1:45.12 2:45.09 3:45.06 4:45.11 
-0.9990125216544102 1:45.09 2:45.06 3:45.11 4:45.98 
1 1:45.06 2:45.11 3:45.98 4:46.1 
0.9698030346143977 1:45.11 2:45.98 3:46.1 4:48.17 
