svm_type epsilon_svr
kernel_type rbf
gamma 0.25
nr_class 2
total_sv 3
rho -33.263
SV
-0.2654202760712236 1:32.43 2:32.49 3:32.61 4:33.25 
1 1:33.25 2:33.09 3:33.29 4:33.27 
-0.7345797239287764 1:33.09 2:33.29 3:33.27 4:33.5 
