svm_type epsilon_svr
kernel_type rbf
gamma 0.25
nr_class 2
total_sv 5
rho -67.6338
SV
0.200417234498388 1:62.76 2:64.97 3:64.87 4:66.34 
-0.4033027077526534 1:64.97 2:64.87 3:66.34 4:67.9 
0.2250243039626772 1:64.87 2:66.34 3:67.9 4:67.17 
-1 1:66.34 2:67.9 3:67.17 4:67.66 
0.9778611692915883 1:67.9 2:67.17 3:67.66 4:66.41 
