svm_type epsilon_svr
kernel_type rbf
gamma 0.25
nr_class 2
total_sv 3
rho -51.5072
SV
-0.730334858443827 1:52.37 2:51.75 3:50.58 4:51.25 
0.3933617532097142 1:51.75 2:50.58 3:51.25 4:51.04 
0.3369731052341127 1:51.25 2:51.04 3:51.83 4:51.72 
