svm_type epsilon_svr
kernel_type rbf
gamma 0.25
nr_class 2
total_sv 5
rho -64.7425
SV
0.9881022425427201 1:63.19 2:62.5 3:62.88 4:65.77 
-0.4498606761961989 1:62.5 2:62.88 3:65.77 4:65.78 
-0.08405845727245358 1:62.88 2:65.77 3:65.78 4:64.29 
-0.4461479962258807 1:65.77 2:65.78 3:64.29 4:64.5 
-0.008035112848186931 1:65.78 2:64.29 3:64.5 4:64.19 
