svm_type epsilon_svr
kernel_type rbf
gamma 0.25
nr_class 2
total_sv 4
rho -526.54
SV
-1 1:533.21002 2:537.94 3:530.03003 4:524.51001 
-1 1:537.94 2:530.03003 3:524.51001 4:511.17001 
1 1:524.51001 2:511.17001 3:520.84003 4:526.53998 
1 1:511.17001 2:520.84003 3:526.53998 4:532.71002 
