svm_type epsilon_svr
kernel_type rbf
gamma 0.25
nr_class 2
total_sv 4
rho -80.7652
SV
0.5891346560063168 1:74.69 2:76.11 3:78.4 4:79.88 
-0.08522332338861301 1:76.11 2:78.4 3:79.88 4:81.45 
0.2570649249302966 1:79.88 2:81.45 3:80.61 4:80.77 
-0.7609762575480004 1:81.45 2:80.61 3:80.77 4:80.78 
