svm_type epsilon_svr
kernel_type rbf
gamma 0.25
nr_class 2
total_sv 5
rho -30.6018
SV
-1 1:30.35 2:30.45 3:30.35 4:30.28 
-1 1:30.45 2:30.35 3:30.28 4:29.78 
0.237129513270376 1:30.35 2:30.28 3:29.78 4:29.77 
1 1:30.28 2:29.78 3:29.77 4:30.4 
0.7628704867296241 1:29.78 2:29.77 3:30.4 4:31.02 
