svm_type epsilon_svr
kernel_type rbf
gamma 0.25
nr_class 2
total_sv 5
rho -77.2645
SV
1 1:80.78 2:80.02 3:79.22 4:78.02 
-0.05564788281450787 1:80.02 2:79.22 3:78.02 4:78.45 
-0.9443521171854922 1:79.22 2:78.02 3:78.45 4:77.19 
-1 1:78.02 2:78.45 3:77.19 4:76.15 
1 1:78.45 2:77.19 3:76.15 4:76.15 
