svm_type epsilon_svr
kernel_type rbf
gamma 0.25
nr_class 2
total_sv 5
rho -34.9859
SV
-1 1:34.05 2:33.64 3:33.48 4:33.25 
-0.5954780956602047 1:33.64 2:33.48 3:33.25 4:33.66 
1 1:33.48 2:33.25 3:33.66 4:34.25 
-0.4045219043397953 1:33.25 2:33.66 3:34.25 4:35.13 
1 1:33.66 2:34.25 3:35.13 4:35.35 
