svm_type epsilon_svr
kernel_type rbf
gamma 0.25
nr_class 2
total_sv 5
rho -115.243
SV
-0.0670482221794603 1:118.63 2:117.6 3:119 4:118.93 
-0.5203663054367657 1:117.6 2:119 3:118.93 4:115.07 
0.5924031607109839 1:119 2:118.93 3:115.07 4:114.63 
0.139817299765794 1:118.93 2:115.07 3:114.63 4:115.93 
-0.1448059328605519 1:115.07 2:114.63 3:115.93 4:115.49 
