svm_type epsilon_svr
kernel_type rbf
gamma 0.25
nr_class 2
total_sv 4
rho -83.6923
SV
0.03060344610980264 1:84.3 2:84.6 3:84.57 4:83.57 
0.1080090437022981 1:84.6 2:84.57 3:83.57 4:83.8 
0.733573632309912 1:84.57 2:83.57 3:83.8 4:83.93 
-0.8721861221220126 1:83.57 2:83.8 3:83.93 4:83.96 
