svm_type epsilon_svr
kernel_type rbf
gamma 0.25
nr_class 2
total_sv 3
rho -75.5387
SV
0.1571186895945673 1:76.83 2:77.01 3:76.61 4:75.69 
-0.2109353662225882 1:77.01 2:76.61 3:75.69 4:75.66 
0.05381667662802087 1:76.61 2:75.69 3:75.66 4:75.39 
