svm_type epsilon_svr
kernel_type rbf
gamma 0.25
nr_class 2
total_sv 5
rho -75.0595
SV
1 1:73.88 2:75.76 3:74.83 4:75.26 
0.8564185005971416 1:75.76 2:74.83 3:75.26 4:75.6 
-1 1:74.83 2:75.26 3:75.6 4:75 
0.1435814994028584 1:75.26 2:75.6 3:75 4:74.61 
-1 1:75.6 2:75 3:74.61 4:74.72 
