svm_type epsilon_svr
kernel_type rbf
gamma 0.25
nr_class 2
total_sv 4
rho -531.32
SV
1 1:541.08002 2:540.37 3:541.83002 4:533.79999 
1 1:541.83002 2:533.79999 3:533.75 4:531.32001 
-1 1:533.79999 2:533.75 3:531.32001 4:537.31 
-1 1:533.75 2:531.32001 3:537.31 4:525.26001 
