svm_type epsilon_svr
kernel_type rbf
gamma 0.25
nr_class 2
total_sv 4
rho -26.6716
SV
1 1:27.51 2:27.27 3:26.57 4:26.84 
-0.150735522760129 1:27.27 2:26.57 3:26.84 4:27.13 
-1 1:26.57 2:26.84 3:27.13 4:26.56 
0.150735522760129 1:26.84 2:27.13 3:26.56 4:25.82 
