svm_type epsilon_svr
kernel_type rbf
gamma 0.25
nr_class 2
total_sv 4
rho -41.2243
SV
1 1:39.46 2:41.44 3:40.93 4:40.97 
1 1:41.44 2:40.93 3:40.97 4:42.05 
-1 1:40.97 2:42.05 3:41.77 4:41.33 
-1 1:42.05 2:41.77 3:41.33 4:40.23 
