svm_type epsilon_svr
kernel_type rbf
gamma 0.25
nr_class 2
total_sv 5
rho -85.4205
SV
0.7029582896935627 1:85.4 2:84.95 3:84.98 4:87.54 
0.8992389982578671 1:84.95 2:84.98 3:87.54 4:86.22 
-0.3711617969664567 1:84.98 2:87.54 3:86.22 4:86.4 
-0.2310354909849731 1:87.54 2:86.22 3:86.4 4:84.94 
-1 1:86.22 2:86.4 3:84.94 4:84.76 
