svm_type epsilon_svr
kernel_type rbf
gamma 0.25
nr_class 2
total_sv 4
rho -76.954
SV
-0.2414401859249318 1:77.22 2:78.79 3:79 4:79.04 
0.3282779805746908 1:79 2:79.04 3:76.55 4:77.08 
0.5765653658043314 1:79.04 2:76.55 3:77.08 4:77.44 
-0.6634031604540903 1:76.55 2:77.08 3:77.44 4:77.56 
