svm_type epsilon_svr
kernel_type rbf
gamma 0.25
nr_class 2
total_sv 5
rho -114.21
SV
-1 1:109.01 2:108.83 3:109.7 4:111.25 
0.1622586298731378 1:108.83 2:109.7 3:111.25 4:112.82 
-0.3289730905894189 1:109.7 2:111.25 3:112.82 4:114.18 
1 1:111.25 2:112.82 3:114.18 4:113.99 
0.1667144607162811 1:112.82 2:114.18 3:113.99 4:115.47 
