svm_type epsilon_svr
kernel_type rbf
gamma 0.25
nr_class 2
total_sv 3
rho -35.0772
SV
-0.8248258331520166 1:35.35 2:35.88 3:36.14 4:35.52 
-0.1162697818438177 1:36.14 2:35.52 3:34.53 4:34.85 
0.9410956149958344 1:34.53 2:34.85 3:34.93 4:35.43 
