svm_type epsilon_svr
kernel_type rbf
gamma 0.25
nr_class 2
total_sv 4
rho -43.1879
SV
-0.8899008090350455 1:42.26 2:42.16 3:41.62 4:42.91 
-0.2173656079575049 1:42.16 2:41.62 3:42.91 4:42.64 
0.1072664169925504 1:41.62 2:42.91 3:42.64 4:42.99 
1 1:42.91 2:42.64 3:42.99 4:43.34 
