svm_type epsilon_svr
kernel_type rbf
gamma 0.25
nr_class 2
total_sv 5
rho -94.3805
SV
-0.568157102168901 1:90.36 2:90.9 3:91.98 4:92.93 
-0.2583768180247497 1:90.9 2:91.98 3:92.93 4:93.52 
-0.7971364733053847 1:91.98 2:92.93 3:93.52 4:93.48 
1 1:92.93 2:93.52 3:93.48 4:94.03 
0.6236703934990353 1:93.52 2:93.48 3:94.03 4:95.97 
