svm_type epsilon_svr
kernel_type rbf
gamma 0.25
nr_class 2
total_sv 5
rho -75.1192
SV
0.2830738020466778 1:76.24 2:78 3:75.91 4:74.99 
0.2840329666266958 1:78 2:75.91 3:74.99 4:75.4 
1 1:75.91 2:74.99 3:75.4 4:75.63 
-0.9476096852211654 1:74.99 2:75.4 3:75.63 4:75.61 
-0.6194970834522081 1:75.4 2:75.63 3:75.61 4:74.47 
