svm_type epsilon_svr
kernel_type rbf
gamma 0.25
nr_class 2
total_sv 5
rho -32.4776
SV
1 1:40.73 2:42.62 3:38.97 4:39.09 
1 1:42.62 2:38.97 3:39.09 4:39.02 
-0.582405832441234 1:38.97 2:39.09 3:39.02 4:38.75 
-1 1:39.09 2:39.02 3:38.75 4:31.85 
-0.4175941675587659 1:39.02 2:38.75 3:31.85 4:30.66 
