svm_type epsilon_svr
kernel_type rbf
gamma 0.25
nr_class 2
total_sv 5
rho -95.0915
SV
0.4093570086748561 1:98.38 2:98.15 3:95.6 4:96.13 
0.01984612840420673 1:98.15 2:95.6 3:96.13 4:95.59 
0.5431757484115626 1:95.6 2:96.13 3:95.59 4:95.12 
-0.9832759244376119 1:96.13 2:95.59 3:95.12 4:94.96 
0.01089703894698637 1:95.59 2:95.12 3:94.96 4:94.48 
