svm_type epsilon_svr
kernel_type rbf
gamma 0.25
nr_class 2
total_sv 5
rho -49.5185
SV
1 1:53.94 2:53.49 3:53.53 4:55.42 
0.3950508419774938 1:53.49 2:53.53 3:55.42 4:55.29 
-0.928894775660557 1:53.53 2:55.42 3:55.29 4:50.4 
-0.8384909007889841 1:55.42 2:55.29 3:50.4 4:48.49 
0.3723348344720474 1:55.29 2:50.4 3:48.49 4:48.58 
