svm_type epsilon_svr
kernel_type rbf
gamma 0.25
nr_class 2
total_sv 3
rho -32.9177
SV
0.9655653673409044 1:33.32 2:33.27 3:33.36 4:33.04 
-0.7431378212362109 1:33.27 2:33.36 3:33.04 4:33.05 
-0.2224275461046935 1:33.36 2:33.04 3:33.05 4:32.8 
