svm_type epsilon_svr
kernel_type rbf
gamma 0.25
nr_class 2
total_sv 5
rho -86.9294
SV
0.3664529012958767 1:89.35 2:90.02 3:89.31 4:86.61 
-0.07114142601299311 1:90.02 2:89.31 3:86.61 4:87.38 
-0.3679327112611623 1:89.31 2:86.61 3:87.38 4:86.77 
-0.9273787640217213 1:86.61 2:87.38 3:86.77 4:86.69 
1 1:87.38 2:86.77 3:86.69 4:86.64 
