svm_type epsilon_svr
kernel_type rbf
gamma 0.25
nr_class 2
total_sv 5
rho -80.0938
SV
0.8527030754615299 1:80.41 2:78.97 3:79.75 4:79.6 
1 1:78.97 2:79.75 3:79.6 4:80.9 
-0.4879066692263139 1:79.75 2:79.6 3:80.9 4:81.21 
-0.3647964062352161 1:79.6 2:80.9 3:81.21 4:80.01 
-1 1:80.9 2:81.21 3:80.01 4:79.44 
