svm_type epsilon_svr
kernel_type rbf
gamma 0.25
nr_class 2
total_sv 4
rho -30.7706
SV
0.3851331322042805 1:32.17 2:31.92 3:32.22 4:31.44 
-0.284805754694176 1:32.22 2:31.44 3:31.05 4:30.79 
-0.08890914955722778 1:31.44 2:31.05 3:30.79 4:30.54 
-0.01141822795287669 1:31.05 2:30.79 3:30.54 4:30.48 
