svm_type epsilon_svr
kernel_type rbf
gamma 0.25
nr_class 2
total_sv 4
rho -41.942
SV
-0.722715853806866 1:41.55 2:41.53 3:41.42 4:41.48 
-1 1:41.42 2:41.48 3:41.72 4:41.76 
1 1:41.48 2:41.72 3:41.76 4:41.65 
0.722715853806866 1:41.72 2:41.76 3:41.65 4:42.26 
