svm_type epsilon_svr
kernel_type rbf
gamma 0.25
nr_class 2
total_sv 3
rho -17.1439
SV
1 1:17.46 2:17.61 3:17.76 4:17.37 
-0.2488916729807193 1:17.76 2:17.37 3:17.79 4:17.18 
-0.7511083270192807 1:17.37 2:17.79 3:17.18 4:17.12 
