svm_type epsilon_svr
kernel_type rbf
gamma 0.25
nr_class 2
total_sv 5
rho -36.9902
SV
-0.9127348139047506 1:35.91 2:35.79 3:35.52 4:36.19 
-1 1:35.79 2:35.52 3:36.19 4:36.36 
1 1:35.52 2:36.19 3:36.36 4:36.47 
1 1:36.19 2:36.36 3:36.47 4:37.38 
-0.0872651860952494 1:36.36 2:36.47 3:37.38 4:37.83 
