svm_type epsilon_svr
kernel_type rbf
gamma 0.25
nr_class 2
total_sv 3
rho -35.2437
SV
-0.4154820701902349 1:33.94 2:34.84 3:35.73 4:35.2 
-0.5845179298097651 1:34.84 2:35.73 3:35.2 4:34.95 
1 1:35.2 2:34.95 3:35.06 4:35.55 
