svm_type epsilon_svr
kernel_type rbf
gamma 0.25
nr_class 2
total_sv 4
rho -83.7184
SV
0.2204788141751241 1:84.94 2:84.76 3:84.12 4:84.23 
-1 1:84.76 2:84.12 3:84.23 4:83.56 
0.4960898340891687 1:84.12 2:84.23 3:83.56 4:82.98 
0.2834313517357072 1:83.56 2:82.98 3:83.83 4:83.81 
