svm_type epsilon_svr
kernel_type rbf
gamma 0.25
nr_class 2
total_sv 5
rho -30.8182
SV
-0.02925822158493712 1:29.52 2:29.9 3:30.56 4:30.37 
1 1:29.9 2:30.56 3:30.37 4:31.13 
0.2230589694630358 1:30.56 2:30.37 3:31.13 4:31.75 
-1 1:30.37 2:31.13 3:31.75 4:31.08 
-0.1938007478780986 1:31.13 2:31.75 3:31.08 4:30.01 
