svm_type epsilon_svr
kernel_type rbf
gamma 0.25
nr_class 2
total_sv 4
rho -32.9307
SV
-1 1:32.92 2:32.8 3:32.62 4:32.43 
-0.8976743955997533 1:32.8 2:32.62 3:32.43 4:32.49 
1 1:32.62 2:32.43 3:32.49 4:32.61 
0.8976743955997533 1:32.49 2:32.61 3:33.25 4:33.09 
