svm_type epsilon_svr
kernel_type rbf
gamma 0.25
nr_class 2
total_sv 3
rho -41.0674
SV
0.767910693808261 1:40.79 2:40.29 3:40.32 4:41.21 
0.2320893061917389 1:41.21 2:41.48 3:41.27 4:41.11 
-1 1:41.48 2:41.27 3:41.11 4:40.86 
