svm_type epsilon_svr
kernel_type rbf
gamma 0.25
nr_class 2
total_sv 5
rho -37.5215
SV
-0.06474689972295761 1:39.07 2:39.42 3:40.1 4:38.92 
-0.7712201055991921 1:39.42 2:40.1 3:38.92 4:37.15 
0.180423376768198 1:40.1 2:38.92 3:37.15 4:36.68 
-0.3444563714460482 1:38.92 2:37.15 3:36.68 4:37.53 
1 1:37.15 2:36.68 3:37.53 4:37.46 
