svm_type epsilon_svr
kernel_type rbf
gamma 0.25
nr_class 2
total_sv 3
rho -21.3742
SV
0.01975525809514649 1:20.47 2:20.56 3:20.26 4:20.25 
0.1301707416453514 1:20.56 2:20.26 3:20.25 4:21.53 
-0.1499259997404979 1:21.53 2:21.56 3:21.34 4:21.36 
