svm_type epsilon_svr
kernel_type rbf
gamma 0.25
nr_class 2
total_sv 5
rho -38.6215
SV
-0.6518284325932585 1:41.1 2:39.6 3:38.38 4:37.97 
-0.07168528293530084 1:39.6 2:38.38 3:37.97 4:37.82 
-1 1:38.38 2:37.97 3:37.82 4:38.12 
0.7235137155285594 1:37.97 2:37.82 3:38.12 4:38.45 
1 1:37.82 2:38.12 3:38.45 4:39.28 
