svm_type epsilon_svr
kernel_type rbf
gamma 0.25
nr_class 2
total_sv 4
rho -50.5279
SV
-0.6311102575973978 1:49.94 2:50.24 3:49.82 4:48.85 
0.6112181570767716 1:50.24 2:49.82 3:48.85 4:50.12 
1 1:48.85 2:50.12 3:50.91 4:50.88 
-0.9801078994793738 1:50.12 2:50.91 3:50.88 4:51.15 
