svm_type epsilon_svr
kernel_type rbf
gamma 0.25
nr_class 2
total_sv 5
rho -65.5277
SV
1 1:67.44 2:67.13 3:67.6 4:67.29 
0.1515359480902695 1:67.13 2:67.6 3:67.29 4:68.06 
0.2485424188998738 1:67.6 2:67.29 3:68.06 4:66.45 
-0.4000783669901433 1:67.29 2:68.06 3:66.45 4:66.29 
-1 1:68.06 2:66.45 3:66.29 4:65.29 
