svm_type epsilon_svr
kernel_type rbf
gamma 0.25
nr_class 2
total_sv 5
rho -79.5024
SV
-0.6910294178001289 1:73.21 2:72.63 3:75.95 4:76.95 
-1 1:72.63 2:75.95 3:76.95 4:78.69 
0.2900984027893745 1:75.95 2:76.95 3:78.69 4:78.37 
0.9169778999419863 1:76.95 2:78.69 3:78.37 4:80.04 
0.483953115068768 1:78.69 2:78.37 3:80.04 4:80.67 
