svm_type epsilon_svr
kernel_type rbf
gamma 0.25
nr_class 2
total_sv 5
rho -75.076
SV
0.3041050371318868 1:78 2:75.91 3:74.99 4:75.4 
1 1:75.91 2:74.99 3:75.4 4:75.63 
-0.895883060323363 1:74.99 2:75.4 3:75.63 4:75.61 
-0.9412387990189165 1:75.4 2:75.63 3:75.61 4:74.47 
0.5330168222103926 1:75.63 2:75.61 3:74.47 4:74.44 
