svm_type epsilon_svr
kernel_type rbf
gamma 0.25
nr_class 2
total_sv 4
rho -42.302
SV
-1 1:41.8 2:41.99 3:41.78 4:41.67 
-0.2370392576770595 1:41.78 2:41.67 3:41.69 4:42.09 
0.2370392576770595 1:41.67 2:41.69 3:42.09 4:42.14 
1 1:41.69 2:42.09 3:42.14 4:42.45 
