svm_type epsilon_svr
kernel_type rbf
gamma 0.25
nr_class 2
total_sv 4
rho -95.1563
SV
-1 1:91.98 2:92.93 3:93.52 4:93.48 
1 1:92.93 2:93.52 3:93.48 4:94.03 
0.07979026255057699 1:93.48 2:94.03 3:95.97 4:95.35 
-0.07979026255057699 1:94.03 2:95.97 3:95.35 4:95.39 
