svm_type epsilon_svr
kernel_type rbf
gamma 0.25
nr_class 2
total_sv 5
rho -82.2975
SV
0.3415378566917845 1:83.96 2:83.37 3:82.58 4:83.57 
1 1:83.37 2:82.58 3:83.57 4:82.59 
-0.3100563876863702 1:82.58 2:83.57 3:82.59 4:82.88 
-1 1:83.57 2:82.59 3:82.88 4:82.07 
-0.03148146900541441 1:82.59 2:82.88 3:82.07 4:80.69 
