svm_type epsilon_svr
kernel_type rbf
gamma 0.25
nr_class 2
total_sv 4
rho -76.0843
SV
0.2816803261378201 1:77.51 2:76.53 3:76.74 4:76.51 
-0.2816803261378201 1:76.53 2:76.74 3:76.51 4:76.1 
-1 1:76.74 2:76.51 3:76.1 4:75.77 
1 1:76.51 2:76.1 3:75.77 4:75.81 
