svm_type epsilon_svr
kernel_type rbf
gamma 0.25
nr_class 2
total_sv 5
rho -84.9811
SV
0.2799934290797194 1:82.94 2:82.96 3:83.57 4:83.79 
-0.4714108448749834 1:82.96 2:83.57 3:83.79 4:84.99 
-0.6363178831469423 1:83.57 2:83.79 3:84.99 4:84.58 
0.9640369442197504 1:83.79 2:84.99 3:84.58 4:84.65 
-0.1363016452775442 1:84.99 2:84.58 3:84.65 4:85.4 
