svm_type epsilon_svr
kernel_type rbf
gamma 0.25
nr_class 2
total_sv 4
rho -33.0877
SV
0.7822913087794068 1:31.85 2:30.66 3:31.96 4:32.05 
0.1136552124349493 1:30.66 2:31.96 3:32.05 4:33.94 
-0.1624756332723601 1:31.96 2:32.05 3:33.94 4:33.39 
-0.7334708879419959 1:33.94 2:33.39 3:32.85 4:32.77 
