svm_type epsilon_svr
kernel_type rbf
gamma 0.25
nr_class 2
total_sv 4
rho -590.601
SV
1 1:573.72998 2:595.08002 3:589.46997 4:594.73999 
1 1:595.08002 2:589.46997 3:594.73999 4:595.97998 
-1 1:589.46997 2:594.73999 3:595.97998 4:593.34998 
-1 1:595.97998 2:593.34998 3:589.02002 4:590.59998 
