svm_type epsilon_svr
kernel_type rbf
gamma 0.25
nr_class 2
total_sv 5
rho -73.9562
SV
-1 1:72.47 2:73.17 3:73.06 4:73.44 
-0.1571695699916563 1:73.17 2:73.06 3:73.44 4:72.83 
1 1:73.06 2:73.44 3:72.83 4:73.77 
-0.8428304300083437 1:73.44 2:72.83 3:73.77 4:74.3 
1 1:72.83 2:73.77 3:74.3 4:73.63 
