svm_type epsilon_svr
kernel_type rbf
gamma 0.25
nr_class 2
total_sv 4
rho -75.6381
SV
0.5812737677240596 1:77.21 2:77.01 3:76.62 4:76.16 
-0.505839550654413 1:77.01 2:76.62 3:76.16 4:75.73 
-1 1:76.16 2:75.73 3:75.28 4:75.34 
0.9245657829303534 1:75.73 2:75.28 3:75.34 4:74.99 
