svm_type epsilon_svr
kernel_type rbf
gamma 0.25
nr_class 2
total_sv 3
rho -28.0753
SV
0.6595923424612913 1:27.03 2:27.74 3:27.69 4:28.13 
0.01760038186652979 1:27.74 2:27.69 3:28.13 4:28.32 
-0.6771927243278211 1:27.69 2:28.13 3:28.32 4:28.11 
