svm_type epsilon_svr
kernel_type rbf
gamma 0.25
nr_class 2
total_sv 4
rho -76.1444
SV
1 1:76.86 2:76.61 3:77.09 4:76.77 
1 1:76.61 2:77.09 3:76.77 4:76.64 
-1 1:76.77 2:76.64 3:76.99 4:76.35 
-1 1:76.64 2:76.99 3:76.35 4:75.97 
