svm_type epsilon_svr
kernel_type rbf
gamma 0.25
nr_class 2
total_sv 5
rho -117.551
SV
-1 1:114.18 2:113.99 3:115.47 4:114.67 
-0.9823629532999875 1:113.99 2:115.47 3:114.67 4:116.31 
1 1:115.47 2:114.67 3:116.31 4:116.47 
-0.01763704670001256 1:114.67 2:116.31 3:116.47 4:118.63 
1 1:116.31 2:116.47 3:118.63 4:117.6 
