svm_type epsilon_svr
kernel_type rbf
gamma 0.25
nr_class 2
total_sv 5
rho -76.4411
SV
-1 1:75.85 2:75.9 3:75.5 4:75.75 
0.1965927874462959 1:75.9 2:75.5 3:75.75 4:76.01 
1 1:75.5 2:75.75 3:76.01 4:76.56 
-0.3677956692266092 1:75.75 2:76.01 3:76.56 4:77.51 
0.1712028817803133 1:76.01 2:76.56 3:77.51 4:76.53 
