svm_type epsilon_svr
kernel_type rbf
gamma 0.25
nr_class 2
total_sv 5
rho -96.6232
SV
-1 1:95.59 2:95.12 3:94.96 4:94.48 
0.3611679576901872 1:95.12 2:94.96 3:94.48 4:94.74 
-1 1:94.96 2:94.48 3:94.74 4:95.99 
1 1:94.48 2:94.74 3:95.99 4:95.97 
0.6388320423098129 1:94.74 2:95.99 3:95.97 4:97.24 
