svm_type epsilon_svr
kernel_type rbf
gamma 0.25
nr_class 2
total_sv 5
rho -50.0425
SV
0.9578801345485558 1:50.28 2:50.41 3:50.99 4:49.62 
-1 1:50.41 2:50.99 3:49.62 4:50.51 
-0.4316595280580172 1:50.99 2:49.62 3:50.51 4:49.21 
0.6340511846822102 1:49.62 2:50.51 3:49.21 4:49.94 
-0.1602717911727488 1:50.51 2:49.21 3:49.94 4:50.24 
