svm_type epsilon_svr
kernel_type rbf
gamma 0.25
nr_class 2
total_sv 3
rho -41.6844
SV
-0.2794850144851331 1:40.29 2:41.55 3:41.53 4:41.42 
-0.7205149855148669 1:41.42 2:41.48 3:41.72 4:41.76 
1 1:41.48 2:41.72 3:41.76 4:41.65 
