svm_type epsilon_svr
kernel_type rbf
gamma 0.25
nr_class 2
total_sv 5
rho -39.4198
SV
-0.6308890813077451 1:42.71 2:42.59 3:42.09 4:40.93 
-0.23821563542679 1:42.59 2:42.09 3:40.93 4:38.65 
0.4915351566376106 1:42.09 2:40.93 3:38.65 4:39.05 
-0.6224304399030753 1:40.93 2:38.65 3:39.05 4:39.88 
1 1:38.65 2:39.05 3:39.88 4:38.95 
