svm_type epsilon_svr
kernel_type rbf
gamma 0.25
nr_class 2
total_sv 4
rho -100.494
SV
-1 1:95.97 2:97.24 3:97.5 4:97.98 
0.3800870836439692 1:97.24 2:97.5 3:97.98 4:99.16 
-0.1876333403687946 1:97.98 2:99.16 3:100.53 4:100.57 
0.8075462567248254 1:99.16 2:100.53 3:100.57 4:100.58 
