svm_type epsilon_svr
kernel_type rbf
gamma 0.25
nr_class 2
total_sv 5
rho -79.0278
SV
-1 1:76.51 2:76.23 3:75.74 4:75.6 
0.8900923165632578 1:76.23 2:75.74 3:75.6 4:76.71 
0.7049833699282004 1:75.74 2:75.6 3:76.71 4:79.42 
-0.1273545580434891 1:75.6 2:76.71 3:79.42 4:79.9 
-0.4677211284479693 1:76.71 2:79.42 3:79.9 4:78.84 
