svm_type epsilon_svr
kernel_type rbf
gamma 0.25
nr_class 2
total_sv 5
rho -321.781
SV
-1 1:323.20999 2:321.82001 3:322.44 4:317.45999 
0.8594902341806948 1:321.82001 2:322.44 3:317.45999 4:318.41 
0.3195265352484674 1:322.44 2:317.45999 3:318.41 4:322.73999 
-1 1:317.45999 2:318.41 3:322.73999 4:322.20001 
0.8209832305708377 1:318.41 2:322.73999 3:322.20001 4:316.98001 
