svm_type epsilon_svr
kernel_type rbf
gamma 0.25
nr_class 2
total_sv 3
rho -36.8249
SV
0.2342738990802638 1:39.06 2:38.79 3:38.49 4:36.29 
-0.4604952447754901 1:38.79 2:38.49 3:36.29 4:37.05 
0.2262213456952263 1:36.29 2:37.05 3:36.35 4:36.7 
