svm_type epsilon_svr
kernel_type rbf
gamma 0.25
nr_class 2
total_sv 5
rho -40.4417
SV
-1 1:40.35 2:40.1 3:40.12 4:40.19 
-0.1955040111016892 1:40.1 2:40.12 3:40.19 4:40.01 
1 1:40.12 2:40.19 3:40.01 4:40.34 
1 1:40.19 2:40.01 3:40.34 4:40.94 
-0.8044959888983108 1:40.01 2:40.34 3:40.94 4:40.79 
