svm_type epsilon_svr
kernel_type rbf
gamma 0.25
nr_class 2
total_sv 4
rho -75.9907
SV
-0.7050569092080589 1:77.7 2:75.1 3:75.46 4:74.88 
0.09022555719409031 1:75.1 2:75.46 3:74.88 4:75.24 
1 1:74.88 2:75.24 3:76.36 4:76.52 
-0.3851686479860313 1:75.24 2:76.36 3:76.52 4:76.84 
