svm_type epsilon_svr
kernel_type rbf
gamma 0.25
nr_class 2
total_sv 5
rho -32.1427
SV
1 1:32.62 2:33.28 3:33.15 4:33.05 
1 1:33.28 2:33.15 3:33.05 4:33.27 
-1 1:33.15 2:33.05 3:33.27 4:33 
-0.3186361366690843 1:33.05 2:33.27 3:33 4:31.78 
-0.6813638633309157 1:33.27 2:33 3:31.78 4:31.8 
