svm_type epsilon_svr
kernel_type rbf
gamma 0.25
nr_class 2
total_sv 4
rho -32.9772
SV
1 1:33.61 2:33.46 3:32.79 4:33.03 
-0.3749733240053208 1:33.46 2:32.79 3:33.03 4:33.3 
-1 1:33.03 2:33.3 3:32.86 4:32.87 
0.3749733240053208 1:33.3 2:32.86 3:32.87 4:32.78 
