svm_type epsilon_svr
kernel_type rbf
gamma 0.25
nr_class 2
total_sv 4
rho -46.0267
SV
-1 1:45.33 2:44.76 3:45.12 4:45.09 
-1 1:44.76 2:45.12 3:45.09 4:45.06 
1 1:45.12 2:45.09 3:45.06 4:45.11 
1 1:45.06 2:45.11 3:45.98 4:46.1 
