svm_type epsilon_svr
kernel_type rbf
gamma 0.25
nr_class 2
total_sv 4
rho -44.0092
SV
0.4531151401972966 1:44.69 2:44.84 3:44.83 4:44.87 
1 1:44.84 2:44.83 3:44.87 4:44.4 
-0.6710986859059536 1:44.83 2:44.87 3:44.4 4:44.5 
-0.782016454291343 1:44.4 2:44.5 3:43.97 4:43.89 
