svm_type epsilon_svr
kernel_type rbf
gamma 0.25
nr_class 2
total_sv 4
rho -614.13
SV
-1 1:588.82001 2:597.50995 3:604.59003 4:604.70996 
-1 1:597.50995 2:604.59003 3:604.70996 4:606.30994 
1 1:604.70996 2:606.30994 3:607.27002 4:614.13 
1 1:606.30994 2:607.27002 3:614.13 4:625.62994 
