svm_type epsilon_svr
kernel_type rbf
gamma 0.25
nr_class 2
total_sv 4
rho -109.519
SV
-1 1:114.12 2:111.95 3:111.62 4:109.73 
-1 1:111.95 2:111.62 3:109.73 4:108.23 
1 1:109.73 2:108.23 3:106.75 4:109.41 
1 1:108.23 2:106.75 3:109.41 4:112.65 
