svm_type epsilon_svr
kernel_type rbf
gamma 0.25
nr_class 2
total_sv 4
rho -38.1815
SV
0.1375169733048279 1:40.93 2:41.08 3:41.1 4:39.6 
-0.07061395898317294 1:41.08 2:41.1 3:39.6 4:38.38 
-0.2550587508309708 1:41.1 2:39.6 3:38.38 4:37.97 
0.1881557365093159 1:38.38 2:37.97 3:37.82 4:38.12 
