svm_type epsilon_svr
kernel_type rbf
gamma 0.25
nr_class 2
total_sv 5
rho -77.0507
SV
0.7850094677717581 1:75.95 2:77.26 3:77.89 4:76.67 
1 1:77.26 2:77.89 3:76.67 4:77.43 
0.2149905322282419 1:77.89 2:76.67 3:77.43 4:77.92 
-1 1:76.67 2:77.43 3:77.92 4:77.48 
-1 1:77.43 2:77.92 3:77.48 4:74.58 
