svm_type epsilon_svr
kernel_type rbf
gamma 0.25
nr_class 2
total_sv 4
rho -34.3606
SV
0.4925707538199429 1:36.78 2:36.94 3:34.81 4:34.43 
0.1657413977329979 1:36.94 2:34.81 3:34.43 4:34.94 
0.1735160736190853 1:34.81 2:34.43 3:34.94 4:34.68 
-0.8318282251720261 1:34.43 2:34.94 3:34.68 4:34.05 
