svm_type epsilon_svr
kernel_type rbf
gamma 0.25
nr_class 2
total_sv 5
rho -18.5372
SV
-1 1:17.43 2:17.63 3:17.87 4:17.72 
-1 1:17.63 2:17.87 3:17.72 4:17.48 
0.7868409260085329 1:17.87 2:17.72 3:17.48 4:17.72 
0.2131590739914671 1:17.72 2:17.48 3:17.72 4:18.36 
1 1:17.48 2:17.72 3:18.36 4:18.72 
