svm_type epsilon_svr
kernel_type rbf
gamma 0.25
nr_class 2
total_sv 4
rho -566.374
SV
-1 1:587.41998 2:571.59998 3:566.07001 4:573.15002 
-1 1:566.07001 2:573.15002 3:565.07001 4:566.37402 
1 1:573.15002 2:565.07001 3:566.37402 4:563.35999 
1 1:565.07001 2:566.37402 3:563.35999 4:568.77002 
