svm_type epsilon_svr
kernel_type rbf
gamma 0.25
nr_class 2
total_sv 4
rho -49.8859
SV
-1 1:48.49 2:48.58 3:49.99 4:48.23 
0.9398278692386997 1:48.58 2:49.99 3:48.23 4:48.77 
0.7457260667098556 1:49.99 2:48.23 3:48.77 4:50.7 
-0.6855539359485553 1:48.23 2:48.77 3:50.7 4:50.63 
