svm_type epsilon_svr
kernel_type rbf
gamma 0.25
nr_class 2
total_sv 3
rho -77.5776
SV
-0.1653717738505394 1:76.08 2:76.47 3:76.12 4:76.23 
-0.8346282261494606 1:76.12 2:76.23 3:77.32 4:77.35 
1 1:76.23 2:77.32 3:77.35 4:77.3 
