svm_type epsilon_svr
kernel_type rbf
gamma 0.25
nr_class 2
total_sv 5
rho -37.5744
SV
-0.7378038213109788 1:37.6 2:36.42 3:35.86 4:35.87 
-1 1:36.42 2:35.86 3:35.87 4:36.56 
1 1:35.86 2:35.87 3:36.56 4:36.38 
-0.2621961786890212 1:35.87 2:36.56 3:36.38 4:38.76 
1 1:36.56 2:36.38 3:38.76 4:37.28 
