svm_type epsilon_svr
kernel_type rbf
gamma 0.25
nr_class 2
total_sv 4
rho -72.8599
SV
-0.1847081888820613 1:74.68 2:72.65 3:72.36 4:73.51 
-1 1:72.65 2:72.36 3:73.51 4:72.69 
0.1847081888820613 1:72.36 2:73.51 3:72.69 4:72.47 
1 1:72.69 2:72.47 3:73.17 4:73.06 
