svm_type epsilon_svr
kernel_type rbf
gamma 0.25
nr_class 2
total_sv 5
rho -577.33
SV
1 1:584.77002 2:589.27002 3:596.08002 4:587.37 
1 1:589.27002 2:596.08002 3:587.37 4:581.13 
-1 1:596.08002 2:587.37 3:581.13 4:587.98999 
-0.1300050000000397 1:587.37 2:581.13 3:587.98999 4:575.06 
-0.8699949999999603 1:581.13 2:587.98999 3:575.06 4:577.09998 
