svm_type epsilon_svr
kernel_type rbf
gamma 0.25
nr_class 2
total_sv 5
rho -93.97
SV
1 1:628.64996 2:637.53998 3:644.82001 4:647.34998 
-0.1693750000000023 1:637.53998 2:644.82001 3:647.34998 4:645.57001 
0.1796875 1:644.82001 2:647.34998 3:645.57001 4:93.7 
-0.01031249999999773 1:647.34998 2:645.57001 3:93.7 4:94.25 
-1 1:645.57001 2:93.7 3:94.25 4:93.86 
