svm_type epsilon_svr
kernel_type rbf
gamma 0.25
nr_class 2
total_sv 5
rho -27.6788
SV
0.05798221247247709 1:26.56 2:25.82 3:26.75 4:28.11 
0.07829963030383578 1:25.82 2:26.75 3:28.11 4:27.85 
0.3346761180317755 1:26.75 2:28.11 3:27.85 4:27.91 
0.5290420391919116 1:28.11 2:27.85 3:27.91 4:27.78 
-1 1:27.85 2:27.91 3:27.78 4:27.57 
