svm_type epsilon_svr
kernel_type rbf
gamma 0.25
nr_class 2
total_sv 4
rho -576
SV
-1 1:543.01001 2:553.37 3:554.90002 4:556.35999 
-1 1:553.37 2:554.90002 3:556.35999 4:564.95001 
1 1:554.90002 2:556.35999 3:564.95001 4:564.62 
1 1:564.95001 2:564.62 3:578.65002 4:576 
