svm_type epsilon_svr
kernel_type rbf
gamma 0.25
nr_class 2
total_sv 4
rho -32.9089
SV
-0.4376653851914724 1:32.96 2:32.59 3:32.94 4:32.86 
-0.1812551648664926 1:32.59 2:32.94 3:32.86 4:32.81 
1 1:32.94 2:32.86 3:32.81 4:32.82 
-0.3810794499420351 1:32.86 2:32.81 3:32.82 4:33.08 
