svm_type epsilon_svr
kernel_type rbf
gamma 0.25
nr_class 2
total_sv 5
rho -374.109
SV
0.07108227497994335 1:364.47 2:363.54999 3:364.75 4:373.89001 
-1 1:363.54999 2:364.75 3:373.89001 4:374.28 
-1 1:364.75 2:373.89001 3:374.28 4:370.56 
0.9289177250200567 1:373.89001 2:374.28 3:370.56 4:373 
1 1:374.28 2:370.56 3:373 4:375.14001 
