svm_type epsilon_svr
kernel_type rbf
gamma 0.25
nr_class 2
total_sv 5
rho -20.5667
SV
-1 1:19.82 2:20.16 3:20.01 4:20.18 
-1 1:20.16 2:20.01 3:20.18 4:19.7 
0.930011326565892 1:20.01 2:20.18 3:19.7 4:19.62 
0.5830937454118593 1:20.18 2:19.7 3:19.62 4:20.5 
0.4868949280222488 1:19.7 2:19.62 3:20.5 4:20.71 
