svm_type epsilon_svr
kernel_type rbf
gamma 0.25
nr_class 2
total_sv 4
rho -67.5338
SV
-0.3096962269713626 1:64.5 2:65.37 3:65.72 4:67.44 
0.1364728162995463 1:65.37 2:65.72 3:67.44 4:67.13 
-0.4076251042788714 1:65.72 2:67.44 3:67.13 4:67.6 
0.5808485149506878 1:67.44 2:67.13 3:67.6 4:67.29 
