svm_type epsilon_svr
kernel_type rbf
gamma 0.25
nr_class 2
total_sv 4
rho -293.27
SV
1 1:302.19 2:295.29001 3:298.42001 4:300.45999 
-1 1:295.29001 2:298.42001 3:300.45999 4:296.92999 
1 1:298.42001 2:300.45999 3:296.92999 4:291.41 
-1 1:296.92999 2:291.41 3:294.73999 4:293.26999 
