svm_type epsilon_svr
kernel_type rbf
gamma 0.25
nr_class 2
total_sv 4
rho -20.4972
SV
-1 1:20.16 2:20.01 3:20.18 4:19.7 
0.3843755472199438 1:20.01 2:20.18 3:19.7 4:19.62 
0.4862491974053664 1:20.18 2:19.7 3:19.62 4:20.5 
0.1293752553746897 1:19.7 2:19.62 3:20.5 4:20.71 
