svm_type epsilon_svr
kernel_type rbf
gamma 0.25
nr_class 2
total_sv 4
rho -33.0095
SV
1 1:32.56 2:33.19 3:32.95 4:33.37 
1 1:33.19 2:32.95 3:33.37 4:33.35 
-1 1:32.95 2:33.37 3:33.35 4:33.5 
-1 1:33.37 2:33.35 3:33.5 4:32.83 
