svm_type epsilon_svr
kernel_type rbf
gamma 0.25
nr_class 2
total_sv 5
rho -537.055
SV
-1 1:529.23999 2:522.76001 3:527.58002 4:531 
-0.01498499981926235 1:522.76001 2:527.58002 3:531 4:527.83002 
-0.9850150001807376 1:527.58002 2:531 3:527.83002 4:536.94 
1 1:531 2:527.83002 3:536.94 4:535.96997 
1 1:527.83002 2:536.94 3:535.96997 4:542.92999 
