svm_type epsilon_svr
kernel_type rbf
gamma 0.25
nr_class 2
total_sv 4
rho -75.257
SV
-1 1:75.68 2:75.79 3:75.97 4:75.62 
0.7336572085304711 1:75.79 2:75.97 3:75.62 4:74.91 
-0.5918361122688562 1:75.97 2:75.62 3:74.91 4:75.34 
0.8581789037383851 1:74.91 2:75.34 3:75.07 4:75.28 
