svm_type epsilon_svr
kernel_type rbf
gamma 0.25
nr_class 2
total_sv 4
rho -45.0494
SV
0.8608140185566789 1:45.11 2:45.33 3:44.95 4:45.22 
1 1:45.33 2:44.95 3:45.22 4:45.15 
-1 1:45.22 2:45.15 3:45.17 4:45.01 
-0.8608140185566789 1:45.15 2:45.17 3:45.01 4:44.87 
