svm_type epsilon_svr
kernel_type rbf
gamma 0.25
nr_class 2
total_sv 5
rho -40.8873
SV
-1 1:40.37 2:40.84 3:40.31 4:39.59 
1 1:40.84 2:40.31 3:39.59 4:39.59 
-0.7767705396196659 1:40.31 2:39.59 3:39.59 4:42.54 
0.9768137572622888 1:39.59 2:39.59 3:42.54 4:40.04 
-0.2000432176426228 1:39.59 2:42.54 3:40.04 4:41.85 
