svm_type epsilon_svr
kernel_type rbf
gamma 0.25
nr_class 2
total_sv 5
rho -73.9366
SV
0.6648471510332602 1:74.61 2:74.72 3:74.25 4:74.88 
1 1:74.72 2:74.25 3:74.88 4:74.24 
-1 1:74.25 2:74.88 3:74.24 4:74.34 
-0.7552045361621446 1:74.88 2:74.24 3:74.34 4:73.33 
0.0903573851288843 1:74.24 2:74.34 3:73.33 4:73.6 
