svm_type epsilon_svr
kernel_type rbf
gamma 0.25
nr_class 2
total_sv 5
rho -44.2457
SV
-1 1:43.65 2:44.37 3:44.11 4:43.53 
0.7477010425354662 1:44.37 2:44.11 3:43.53 4:43.38 
0.02483690347732677 1:44.11 2:43.53 3:43.38 4:44.43 
0.1003296915605675 1:43.53 2:43.38 3:44.43 4:44.45 
0.1271323624266395 1:43.38 2:44.43 3:44.45 4:44.28 
