svm_type epsilon_svr
kernel_type rbf
gamma 0.25
nr_class 2
total_sv 5
rho -39.3544
SV
1 1:42.55 2:42.71 3:42.59 4:42.09 
-1 1:42.71 2:42.59 3:42.09 4:40.93 
-0.1343312159880511 1:42.59 2:42.09 3:40.93 4:38.65 
0.5183109525731598 1:42.09 2:40.93 3:38.65 4:39.05 
-0.3839797365851088 1:40.93 2:38.65 3:39.05 4:39.88 
