svm_type epsilon_svr
kernel_type rbf
gamma 0.25
nr_class 2
total_sv 4
rho -30.9677
SV
0.6053679505585918 1:29.78 2:29.77 3:30.4 4:31.02 
-1 1:29.77 2:30.4 3:31.02 4:31.09 
0.6627315759660021 1:30.4 2:31.02 3:31.09 4:30.72 
-0.2680995265245936 1:31.02 2:31.09 3:30.72 4:31.03 
