svm_type epsilon_svr
kernel_type rbf
gamma 0.25
nr_class 2
total_sv 3
rho -75.5963
SV
0.9586356452934792 1:77.09 2:76.77 3:76.64 4:76.99 
0.04136435470652075 1:76.99 2:76.35 3:75.97 4:75.71 
-1 1:76.35 2:75.97 3:75.71 4:75.44 
