svm_type epsilon_svr
kernel_type rbf
gamma 0.25
nr_class 2
total_sv 4
rho -334.132
SV
-1 1:333.63 2:334.53 3:335.13 4:335.78 
-1 1:334.53 2:335.13 3:335.78 4:332.91 
1 1:335.78 2:332.91 3:331.59 4:334.01999 
1 1:332.91 2:331.59 3:334.01999 4:341.82999 
