svm_type epsilon_svr
kernel_type rbf
gamma 0.25
nr_class 2
total_sv 5
rho -31.9563
SV
-1 1:31.28 2:31.5 3:31.61 4:31.58 
-1 1:31.5 2:31.61 3:31.58 4:31.53 
0.934003526936971 1:31.61 2:31.58 3:31.53 4:31.32 
0.06599647306302903 1:31.58 2:31.53 3:31.32 4:31.95 
1 1:31.53 2:31.32 3:31.95 4:31.99 
