svm_type epsilon_svr
kernel_type rbf
gamma 0.25
nr_class 2
total_sv 5
rho -384.484
SV
-1 1:380.14001 2:378.59 3:385.37 4:384.79999 
0.9741009855002435 1:378.59 2:385.37 3:384.79999 4:380.16 
0.02589901449975652 1:385.37 2:384.79999 3:380.16 4:385.66 
-1 1:384.79999 2:380.16 3:385.66 4:384.60999 
1 1:380.16 2:385.66 3:384.60999 4:382.72 
