svm_type epsilon_svr
kernel_type rbf
gamma 0.25
nr_class 2
total_sv 4
rho -48.1617
SV
1 1:49.13 2:49.21 3:48.59 4:50.23 
0.2661741157724331 1:49.21 2:48.59 3:50.23 4:49.72 
-0.2661741157724331 1:50.23 2:49.72 3:48.8 4:48.3 
-1 1:49.72 2:48.8 3:48.3 4:47.51 
