svm_type epsilon_svr
kernel_type rbf
gamma 0.25
nr_class 2
total_sv 4
rho -99.8994
SV
-1 1:100.73 2:99.81 3:98.75 4:97.54 
-1 1:99.81 2:98.75 3:97.54 4:96.26 
1 1:97.54 2:96.26 3:97.67 4:99.76 
1 1:96.26 2:97.67 3:99.76 4:102.47 
