svm_type epsilon_svr
kernel_type rbf
gamma 0.25
nr_class 2
total_sv 4
rho -79.0871
SV
-0.0938993120782943 1:75.6 2:76.71 3:79.42 4:79.9 
-0.5149333488500654 1:76.71 2:79.42 3:79.9 4:78.84 
1 1:79.9 2:78.84 3:78.45 4:79.56 
-0.3911673390716405 1:78.84 2:78.45 3:79.56 4:80.41 
