svm_type epsilon_svr
kernel_type rbf
gamma 0.25
nr_class 2
total_sv 4
rho -589.47
SV
-1 1:571.09998 2:579.17999 3:584.87 4:584.78003 
-1 1:579.17999 2:584.87 3:584.78003 4:582.65997 
1 1:584.87 2:584.78003 3:582.65997 4:573.72998 
1 1:582.65997 2:573.72998 3:595.08002 4:589.46997 
