svm_type epsilon_svr
kernel_type rbf
gamma 0.25
nr_class 2
total_sv 5
rho -39.687
SV
-1 1:40.1 2:38.92 3:37.15 4:36.68 
-1 1:38.92 2:37.15 3:36.68 4:37.53 
0.2146433436658509 1:37.15 2:36.68 3:37.53 4:37.46 
0.7853566563341491 1:36.68 2:37.53 3:37.46 4:39.79 
1 1:37.53 2:37.46 3:39.79 4:40.72 
