svm_type epsilon_svr
kernel_type rbf
gamma 0.25
nr_class 2
total_sv 5
rho -81.8512
SV
-0.5049266685923124 1:81.52 2:83.24 3:83.31 4:83.05 
0.1623464432243283 1:83.24 2:83.31 3:83.05 4:81.32 
-0.8133614179121421 1:83.31 2:83.05 3:81.32 4:81.89 
0.7880638569279669 1:83.05 2:81.32 3:81.89 4:81.35 
0.3678777863521592 1:81.32 2:81.89 3:81.35 4:82.53 
