svm_type epsilon_svr
kernel_type rbf
gamma 0.25
nr_class 2
total_sv 4
rho -332.629
SV
-1 1:316.48001 2:327.82001 3:323.04999 4:324.92999 
-1 1:327.82001 2:323.04999 3:324.92999 4:326.54001 
1 1:324.92999 2:326.54001 3:330.54001 4:332.63 
1 1:326.54001 2:330.54001 3:332.63 4:335.64001 
