svm_type epsilon_svr
kernel_type rbf
gamma 0.25
nr_class 2
total_sv 4
rho -44.7006
SV
-0.632895042687314 1:43.23 2:43.2 3:43.2 4:43.52 
-0.3274870858410539 1:43.2 2:43.2 3:43.52 4:44.08 
0.4561659034093319 1:43.2 2:43.52 3:44.08 4:44.27 
0.5042162251190361 1:44.08 2:44.27 3:44.79 4:45.11 
