svm_type epsilon_svr
kernel_type rbf
gamma 0.25
nr_class 2
total_sv 5
rho -51.265
SV
1 1:50.7 2:52 3:50.61 4:52.91 
0.7999700534715729 1:52 2:50.61 3:52.91 4:52.64 
-1 1:50.61 2:52.91 3:52.64 4:52.11 
-0.2739645996993975 1:52.91 2:52.64 3:52.11 4:49.38 
-0.5260054537721754 1:52.64 2:52.11 3:49.38 4:50.83 
