svm_type epsilon_svr
kernel_type rbf
gamma 0.25
nr_class 2
total_sv 4
rho -95.2182
SV
0.09240379733145261 1:93.48 2:94.03 3:95.97 4:95.35 
-0.4718077256698464 1:94.03 2:95.97 3:95.35 4:95.39 
-0.6205960716616062 1:95.97 2:95.35 3:95.39 4:95.04 
1 1:95.35 2:95.39 3:95.04 4:95.22 
