svm_type epsilon_svr
kernel_type rbf
gamma 0.25
nr_class 2
total_sv 4
rho -51.8304
SV
0.306528047035208 1:50.42 2:50.84 3:52.87 4:52.3 
0.2289321419917444 1:50.84 2:52.87 3:52.3 4:52.17 
0.4645398109730476 1:52.87 2:52.3 3:52.17 4:51.94 
-1 1:52.3 2:52.17 3:51.94 4:51.62 
