svm_type epsilon_svr
kernel_type rbf
gamma 0.25
nr_class 2
total_sv 5
rho -31.4353
SV
0.3143984190455693 1:33.35 2:33.5 3:32.83 4:32.31 
-0.3065842477084656 1:33.5 2:32.83 3:32.31 4:31.88 
1 1:32.83 2:32.31 3:31.88 4:31.66 
-0.5287989974901418 1:32.31 2:31.88 3:31.66 4:31.68 
-0.4790151738469621 1:31.88 2:31.66 3:31.68 4:31.19 
