svm_type epsilon_svr
kernel_type rbf
gamma 0.25
nr_class 2
total_sv 4
rho -333.551
SV
1 1:326.54001 2:330.54001 3:332.63 4:335.64001 
1 1:332.63 2:335.64001 3:335.04001 4:333.57001 
-1 1:335.64001 2:335.04001 3:333.57001 4:338.64001 
-1 1:335.04001 2:333.57001 3:338.64001 4:326 
