svm_type epsilon_svr
kernel_type rbf
gamma 0.25
nr_class 2
total_sv 5
rho -583.507
SV
-1 1:562.72998 2:574.78003 3:574.65002 4:573.47998 
1 1:574.78003 2:574.65002 3:573.47998 4:582.15997 
0.8830402343627013 1:574.65002 2:573.47998 3:582.15997 4:586.85999 
-0.03694976561877571 1:573.47998 2:582.15997 3:586.85999 4:584.48999 
-0.8460904687439256 1:582.15997 2:586.85999 3:584.48999 4:583.37 
