svm_type epsilon_svr
kernel_type rbf
gamma 0.25
nr_class 2
total_sv 3
rho -80.6701
SV
-0.707271055975864 1:76.99 2:74.69 3:76.11 4:78.4 
0.6970521666990721 1:74.69 2:76.11 3:78.4 4:79.88 
0.01021888927679188 1:79.88 2:81.45 3:80.61 4:80.77 
