svm_type epsilon_svr
kernel_type rbf
gamma 0.25
nr_class 2
total_sv 5
rho -50.4462
SV
-0.04442637885115002 1:51.93 2:51.74 3:50.1 4:50.67 
0.1127600978292872 1:51.74 2:50.1 3:50.67 4:50.28 
1 1:50.1 2:50.67 3:50.28 4:50.41 
-1 1:50.67 2:50.28 3:50.41 4:50.99 
-0.06833371897813723 1:50.28 2:50.41 3:50.99 4:49.62 
