svm_type epsilon_svr
kernel_type rbf
gamma 0.25
nr_class 2
total_sv 4
rho -560.88
SV
1 1:568.27002 2:570.08002 3:575.28003 4:577.34998 
1 1:570.08002 2:575.28003 3:577.34998 4:563.73999 
-1 1:577.34998 2:563.73999 3:572.5 4:560.88 
-1 1:563.73999 2:572.5 3:560.88 4:544.48999 
