svm_type epsilon_svr
kernel_type rbf
gamma 0.25
nr_class 2
total_sv 4
rho -74.5197
SV
0.1040470519507251 1:75.29 2:74.81 3:74.57 4:74.57 
1 1:74.81 2:74.57 3:74.57 4:75.02 
-0.1040470519507251 1:74.57 2:74.57 3:75.02 4:75.96 
-1 1:74.57 2:75.02 3:75.96 4:74.63 
