svm_type epsilon_svr
kernel_type rbf
gamma 0.25
nr_class 2
total_sv 4
rho -82.5967
SV
0.6887520716541616 1:84.43 2:85.31 3:82.92 4:83.01 
0.5890911882517349 1:85.31 2:82.92 3:83.01 4:83.3 
-0.5427850905185131 1:83.01 2:83.3 3:83.2 4:82.22 
-0.7350581693873834 1:83.3 2:83.2 3:82.22 4:81.67 
