svm_type epsilon_svr
kernel_type rbf
gamma 0.25
nr_class 2
total_sv 4
rho -82.5435
SV
-0.4777605070781998 1:83.8 2:83.93 3:83.96 4:83.37 
1 1:83.93 2:83.96 3:83.37 4:82.58 
0.3638792314731785 1:83.37 2:82.58 3:83.57 4:82.59 
-0.8861187243949789 1:82.58 2:83.57 3:82.59 4:82.88 
