svm_type epsilon_svr
kernel_type rbf
gamma 0.25
nr_class 2
total_sv 4
rho -16.2134
SV
0.07089208951962621 1:17.38 2:17.45 3:17.64 4:16.5 
0.09004877611610512 1:17.45 2:17.64 3:16.5 4:16.39 
0.07242176345683587 1:17.64 2:16.5 3:16.39 4:16.38 
-0.2333626290925672 1:16.5 2:16.39 3:16.38 4:16.32 
