svm_type epsilon_svr
kernel_type rbf
gamma 0.25
nr_class 2
total_sv 5
rho -116.877
SV
-1 1:112.82 2:114.18 3:113.99 4:115.47 
-0.339210284712065 1:114.18 2:113.99 3:115.47 4:114.67 
-0.1665553617286943 1:113.99 2:115.47 3:114.67 4:116.31 
1 1:115.47 2:114.67 3:116.31 4:116.47 
0.5057656464407593 1:114.67 2:116.31 3:116.47 4:118.63 
