svm_type epsilon_svr
kernel_type rbf
gamma 0.25
nr_class 2
total_sv 5
rho -27.2818
SV
-0.3865020538522674 1:27.11 2:27.3 3:26.6 4:28.02 
-0.3361660194790109 1:27.3 2:26.6 3:28.02 4:27.37 
-0.6226876923240141 1:26.6 2:28.02 3:27.37 4:27.26 
0.3453557656552923 1:28.02 2:27.37 3:27.26 4:27.03 
1 1:27.37 2:27.26 3:27.03 4:27.74 
