svm_type epsilon_svr
kernel_type rbf
gamma 0.25
nr_class 2
total_sv 5
rho -46.0349
SV
-1 1:43.63 2:44.08 3:44.88 4:44.38 
0.7201717391093475 1:44.08 2:44.88 3:44.38 4:45.02 
-0.5079905973892913 1:44.88 2:44.38 3:45.02 4:46.13 
0.4740276910437587 1:44.38 2:45.02 3:46.13 4:45.91 
0.3137911672361849 1:45.02 2:46.13 3:45.91 4:46.49 
