svm_type epsilon_svr
kernel_type rbf
gamma 0.25
nr_class 2
total_sv 5
rho -100.889
SV
-0.1030249486398158 1:97.5 2:97.98 3:99.16 4:100.53 
-0.337482247952767 1:97.98 2:99.16 3:100.53 4:100.57 
0.3010883183313995 1:99.16 2:100.53 3:100.57 4:100.58 
1 1:100.53 2:100.57 3:100.58 4:101.32 
-0.8605811217388167 1:100.57 2:100.58 3:101.32 4:101.54 
