svm_type epsilon_svr
kernel_type rbf
gamma 0.25
nr_class 2
total_sv 4
rho -75.6452
SV
-1 1:75.4 2:75.63 3:75.61 4:74.47 
-0.318558469623588 1:75.63 2:75.61 3:74.47 4:74.44 
1 1:75.61 2:74.47 3:74.44 4:75.19 
0.318558469623588 1:74.47 2:74.44 3:75.19 4:76.51 
