svm_type epsilon_svr
kernel_type rbf
gamma 0.25
nr_class 2
total_sv 4
rho -76.4154
SV
0.7395225824721717 1:76.01 2:76.56 3:77.51 4:76.53 
0.4687066950088343 1:76.56 2:77.51 3:76.53 4:76.74 
-1 1:76.53 2:76.74 3:76.51 4:76.1 
-0.2082292774810061 1:76.74 2:76.51 3:76.1 4:75.77 
