svm_type epsilon_svr
kernel_type rbf
gamma 0.25
nr_class 2
total_sv 4
rho -76.3627
SV
-0.5530497833789001 1:74.91 2:75.34 3:75.07 4:75.28 
-1 1:75.34 2:75.07 3:75.28 4:75.62 
0.5530497833789001 1:75.28 2:75.62 3:75.75 4:76.07 
1 1:75.62 2:75.75 3:76.07 4:76.65 
