svm_type epsilon_svr
kernel_type rbf
gamma 0.25
nr_class 2
total_sv 5
rho -576.14
SV
-0.9803026562501032 1:596.08002 2:587.37 3:581.13 4:587.98999 
0.8606153125000446 1:587.37 2:581.13 3:587.98999 4:575.06 
0.1196873437500585 1:581.13 2:587.98999 3:575.06 4:577.09998 
1 1:587.98999 2:575.06 3:577.09998 4:576.35999 
-1 1:575.06 2:577.09998 3:576.35999 4:577.35999 
