svm_type epsilon_svr
kernel_type rbf
gamma 0.25
nr_class 2
total_sv 5
rho -67.8575
SV
-0.5860602279812439 1:64.97 2:64.87 3:66.34 4:67.9 
0.01733808144381233 1:64.87 2:66.34 3:67.9 4:67.17 
-1 1:66.34 2:67.9 3:67.17 4:67.66 
0.5687221465374316 1:67.9 2:67.17 3:67.66 4:66.41 
1 1:67.17 2:67.66 3:66.41 4:68.42 
