svm_type epsilon_svr
kernel_type rbf
gamma 0.25
nr_class 2
total_sv 5
rho -87.9021
SV
0.2107243100311829 1:86.77 2:86.69 3:86.64 4:88.3 
0.8827530198778797 1:86.69 2:86.64 3:88.3 4:88.51 
-0.4357986014405132 1:86.64 2:88.3 3:88.51 4:88.63 
-1 1:88.3 2:88.51 3:88.63 4:87.53 
0.3423212715314506 1:88.51 2:88.63 3:87.53 4:86.82 
