svm_type epsilon_svr
kernel_type rbf
gamma 0.25
nr_class 2
total_sv 4
rho -322.51
SV
1 1:358.66 2:359.76001 3:360.84 4:358.14001 
1 1:359.76001 2:360.84 3:358.14001 4:358.60999 
-1 1:360.84 2:358.14001 3:358.60999 4:324.01001 
-1 1:358.14001 2:358.60999 3:324.01001 4:320.41 
