svm_type epsilon_svr
kernel_type rbf
gamma 0.25
nr_class 2
total_sv 5
rho -75.3559
SV
0.09659443854398404 1:75.79 2:75.97 3:75.62 4:74.91 
-0.8657179356102678 1:75.97 2:75.62 3:74.91 4:75.34 
-0.3622707428888518 1:75.62 2:74.91 3:75.34 4:75.07 
0.1313942399551356 1:74.91 2:75.34 3:75.07 4:75.28 
1 1:75.34 2:75.07 3:75.28 4:75.62 
