svm_type epsilon_svr
kernel_type rbf
gamma 0.25
nr_class 2
total_sv 5
rho -51.8136
SV
0.3363005523206642 1:50.84 2:52.87 3:52.3 4:52.17 
0.6547098851717325 1:52.87 2:52.3 3:52.17 4:51.94 
-1 1:52.3 2:52.17 3:51.94 4:51.62 
-0.9910104374923966 1:52.17 2:51.94 3:51.62 4:51.2 
1 1:51.94 2:51.62 3:51.2 4:51.3 
