svm_type epsilon_svr
kernel_type rbf
gamma 0.25
nr_class 2
total_sv 5
rho -333.823
SV
-1 1:311.45001 2:316.79999 3:318.32999 4:319.32001 
-0.5135222838979276 1:316.79999 2:318.32999 3:319.32001 4:326.28 
-0.09296543030678449 1:318.32999 2:319.32001 3:326.28 4:333.20999 
0.6064877142047121 1:319.32001 2:326.28 3:333.20999 4:333.63 
1 1:326.28 2:333.20999 3:333.63 4:334.53 
