svm_type epsilon_svr
kernel_type rbf
gamma 0.25
nr_class 2
total_sv 5
rho -42.1468
SV
-1 1:41.42 2:41.48 3:41.72 4:41.76 
0.7154774273553038 1:41.48 2:41.72 3:41.76 4:41.65 
0.2845225726446962 1:41.72 2:41.76 3:41.65 4:42.26 
-1 1:41.76 2:41.65 3:42.26 4:42.16 
1 1:41.65 2:42.26 3:42.16 4:41.62 
