svm_type epsilon_svr
kernel_type rbf
gamma 0.25
nr_class 2
total_sv 4
rho -45.1376
SV
-1 1:45.15 2:45.17 3:45.01 4:44.87 
1 1:45.17 2:45.01 3:44.87 4:44.88 
-0.5841606277154764 1:44.87 2:44.88 3:45.43 4:45.09 
0.5841606277154764 1:44.88 2:45.43 3:45.09 4:44.96 
