svm_type epsilon_svr
kernel_type rbf
gamma 0.25
nr_class 2
total_sv 4
rho -329.67
SV
-1 1:307.19 2:306.78 3:323.57001 4:329.67001 
1 1:306.78 2:323.57001 3:329.67001 4:327.5 
1 1:323.57001 2:329.67001 3:327.5 4:332.41 
-1 1:329.67001 2:327.5 3:332.41 4:335.20001 
