svm_type epsilon_svr
kernel_type rbf
gamma 0.25
nr_class 2
total_sv 4
rho -65.0428
SV
1 1:67.6 2:67.29 3:68.06 4:66.45 
0.05890369035928179 1:67.29 2:68.06 3:66.45 4:66.29 
-1 1:68.06 2:66.45 3:66.29 4:65.29 
-0.05890369035928179 1:66.29 2:65.29 3:62.76 4:64.97 
