svm_type epsilon_svr
kernel_type rbf
gamma 0.25
nr_class 2
total_sv 5
rho -78.1138
SV
0.6096506618201416 1:78.01 2:77.96 3:78.69 4:79.2 
0.4032265265089306 1:77.96 2:78.69 3:79.2 4:79.15 
0.9836299464886206 1:78.69 2:79.2 3:79.15 4:79.14 
-1 1:79.2 2:79.15 3:79.14 4:78.74 
-0.9965071348176929 1:79.15 2:79.14 3:78.74 4:76.83 
