svm_type epsilon_svr
kernel_type rbf
gamma 0.25
nr_class 2
total_sv 5
rho -75.6938
SV
0.05385096909615308 1:74.88 2:74.96 3:75.55 4:75.73 
-0.5601872751280889 1:74.96 2:75.55 3:75.73 4:75.69 
0.5063363060319358 1:75.55 2:75.73 3:75.69 4:75.52 
1 1:75.73 2:75.69 3:75.52 4:75.85 
-1 1:75.69 2:75.52 3:75.85 4:75.9 
