svm_type epsilon_svr
kernel_type rbf
gamma 0.25
nr_class 2
total_sv 4
rho -107.732
SV
1 1:113.99 2:113.91 3:112.52 4:110.38 
-1 1:113.91 2:112.52 3:110.38 4:109.33 
-1 1:112.52 2:110.38 3:109.33 4:106.25 
1 1:109.33 2:106.25 3:106.26 4:107.75 
