svm_type epsilon_svr
kernel_type rbf
gamma 0.25
nr_class 2
total_sv 5
rho -77.5866
SV
1 1:77.96 2:78.69 3:79.2 4:79.15 
1 1:78.69 2:79.2 3:79.15 4:79.14 
-1 1:79.2 2:79.15 3:79.14 4:78.74 
-0.181742739588551 1:79.15 2:79.14 3:78.74 4:76.83 
-0.818257260411449 1:79.14 2:78.74 3:76.83 4:77.01 
