svm_type epsilon_svr
kernel_type rbf
gamma 0.25
nr_class 2
total_sv 5
rho -48.0043
SV
1 1:48.7 2:49.11 3:48.47 4:48.69 
1 1:49.11 2:48.47 3:48.69 4:48.55 
-0.646415456298338 1:48.47 2:48.69 3:48.55 4:49.41 
-0.353584543701662 1:48.69 2:48.55 3:49.41 4:48.08 
-1 1:48.55 2:49.41 3:48.08 4:48.15 
