svm_type epsilon_svr
kernel_type rbf
gamma 0.25
nr_class 2
total_sv 5
rho -99.2371
SV
-1 1:94.74 2:95.99 3:95.97 4:97.24 
-1 1:95.99 2:95.97 3:97.24 4:97.5 
0.2199691828624919 1:95.97 2:97.24 3:97.5 4:97.98 
0.9307848660957407 1:97.24 2:97.5 3:97.98 4:99.16 
0.8492459510417674 1:97.5 2:97.98 3:99.16 4:100.53 
