svm_type epsilon_svr
kernel_type rbf
gamma 0.25
nr_class 2
total_sv 5
rho -312.485
SV
-1 1:320.41 2:320 3:322.51001 4:312.98999 
1 1:320 2:322.51001 3:312.98999 4:307.06 
-0.06499499974580658 1:322.51001 2:312.98999 3:307.06 4:313.64999 
1 1:312.98999 2:307.06 3:313.64999 4:312.32001 
-0.9350050002541934 1:307.06 2:313.64999 3:312.32001 4:313.89001 
