svm_type epsilon_svr
kernel_type rbf
gamma 0.25
nr_class 2
total_sv 3
rho -76.3885
SV
-0.116219758404085 1:74.1 2:75.14 3:76.02 4:76.03 
0.9003399503997356 1:76.02 2:76.03 3:76.25 4:76.38 
-0.7841201919956506 1:76.03 2:76.25 3:76.38 4:76.59 
