svm_type epsilon_svr
kernel_type rbf
gamma 0.25
nr_class 2
total_sv 3
rho -76.2908
SV
-0.1957292635463787 1:73.82 2:74.1 3:75.14 4:76.02 
0.9297213740151772 1:76.02 2:76.03 3:76.25 4:76.38 
-0.7339921104687985 1:76.03 2:76.25 3:76.38 4:76.59 
