svm_type epsilon_svr
kernel_type rbf
gamma 0.25
nr_class 2
total_sv 3
rho -44.9903
SV
-0.0864879965414594 1:45.22 2:45.15 3:45.17 4:45.01 
-0.9135120034585406 1:45.15 2:45.17 3:45.01 4:44.87 
1 1:45.17 2:45.01 3:44.87 4:44.88 
