svm_type epsilon_svr
kernel_type rbf
gamma 0.25
nr_class 2
total_sv 4
rho -126.736
SV
0.1776983431380746 1:127.35 2:126.01 3:125.6 4:126.56 
0.3976594819663443 1:126.01 2:125.6 3:126.56 4:127.1 
-0.8231546879118838 1:125.6 2:126.56 3:127.1 4:126.85 
0.2477968628074649 1:126.56 2:127.1 3:126.85 4:126.3 
