svm_type epsilon_svr
kernel_type rbf
gamma 0.25
nr_class 2
total_sv 5
rho -97.7152
SV
1 1:94.72 2:97.19 3:97.03 4:97.67 
0.4059496503006066 1:97.19 2:97.03 3:97.67 4:99.02 
0.5940503496993934 1:97.03 2:97.67 3:99.02 4:98.38 
-1 1:97.67 2:99.02 3:98.38 4:98.15 
-1 1:99.02 2:98.38 3:98.15 4:95.6 
