svm_type epsilon_svr
kernel_type rbf
gamma 0.25
nr_class 2
total_sv 4
rho -305.11
SV
-1 1:305.45999 2:305.72 3:302.81 4:296.51999 
-1 1:305.72 2:302.81 3:296.51999 4:296.64001 
1 1:296.51999 2:296.64001 3:299.85999 4:305.10999 
1 1:296.64001 2:299.85999 3:305.10999 4:312.01001 
