svm_type epsilon_svr
kernel_type rbf
gamma 0.25
nr_class 2
total_sv 5
rho -559.352
SV
0.9081210132192004 1:554.51001 2:550.84003 3:559.5 4:557.98999 
-0.4418689834615597 1:550.84003 2:559.5 3:557.98999 4:560.35999 
1 1:559.5 2:557.98999 3:560.35999 4:558.81 
-0.4662520297576406 1:557.98999 2:560.35999 3:558.81 4:570.19 
-1 1:560.35999 2:558.81 3:570.19 4:558.78497 
