svm_type epsilon_svr
kernel_type rbf
gamma 0.25
nr_class 2
total_sv 4
rho -294.74
SV
1 1:308.51999 2:302.19 3:295.29001 4:298.42001 
1 1:302.19 2:295.29001 3:298.42001 4:300.45999 
-1 1:295.29001 2:298.42001 3:300.45999 4:296.92999 
-1 1:300.45999 2:296.92999 3:291.41 4:294.73999 
