svm_type epsilon_svr
kernel_type rbf
gamma 0.25
nr_class 2
total_sv 5
rho -49.679
SV
1 1:49.99 2:48.23 3:48.77 4:50.7 
-0.5305849156748915 1:48.23 2:48.77 3:50.7 4:50.63 
0.003784923709598127 1:48.77 2:50.7 3:50.63 4:49.08 
0.5267999919652935 1:50.7 2:50.63 3:49.08 4:49.67 
-1 1:50.63 2:49.08 3:49.67 4:49.95 
