svm_type epsilon_svr
kernel_type rbf
gamma 0.25
nr_class 2
total_sv 4
rho -389.75
SV
-1 1:382.35999 2:385.10999 3:383.45001 4:386.04001 
-0.1399899999999548 1:385.10999 2:383.45001 3:386.04001 4:375.56 
1 1:383.45001 2:386.04001 3:375.56 4:389.51001 
0.1399899999999548 1:375.56 2:389.51001 3:391.17999 4:389.79999 
