svm_type epsilon_svr
kernel_type rbf
gamma 0.25
nr_class 2
total_sv 4
rho -76.3183
SV
-1 1:75.66 2:75.39 3:75.61 4:75.59 
-0.5889144797204462 1:75.39 2:75.61 3:75.59 4:75.53 
1 1:75.61 2:75.59 3:75.53 4:75.98 
0.5889144797204462 1:75.59 2:75.53 3:75.98 4:76.77 
