svm_type epsilon_svr
kernel_type rbf
gamma 0.25
nr_class 2
total_sv 5
rho -74.9238
SV
-0.9441036913867595 1:80.77 2:75.86 3:74.11 4:74.99 
0.7407942973110129 1:75.86 2:74.11 3:74.99 4:73.88 
-0.6544286343677914 1:74.11 2:74.99 3:73.88 4:75.76 
-0.06337753219970918 1:74.99 2:73.88 3:75.76 4:74.83 
0.9211155606432472 1:73.88 2:75.76 3:74.83 4:75.26 
