svm_type epsilon_svr
kernel_type rbf
gamma 0.25
nr_class 2
total_sv 4
rho -76.224
SV
0.1095236604342655 1:75.61 2:74.47 3:74.44 4:75.19 
-0.08083962765792363 1:74.44 2:75.19 3:76.51 4:76.23 
-1 1:75.19 2:76.51 3:76.23 4:75.74 
0.971315967223658 1:76.51 2:76.23 3:75.74 4:75.6 
