svm_type epsilon_svr
kernel_type rbf
gamma 0.25
nr_class 2
total_sv 5
rho -47.9815
SV
-0.8211049921430892 1:48.22 2:48.7 3:47.98 4:47.59 
0.1709964207878055 1:48.7 2:47.98 3:47.59 4:47.47 
-1 1:47.98 2:47.59 3:47.47 4:47.75 
1 1:47.59 2:47.47 3:47.75 4:47.81 
0.6501085713552837 1:47.47 2:47.75 3:47.81 4:48.62 
