svm_type epsilon_svr
kernel_type rbf
gamma 0.25
nr_class 2
total_sv 5
rho -553.315
SV
1 1:552.70001 2:565.95001 3:561.67999 4:560.08002 
0.5149853808437115 1:565.95001 2:561.67999 3:560.08002 4:559.89001 
-1 1:561.67999 2:560.08002 3:559.89001 4:553.92999 
-1 1:560.08002 2:559.89001 3:553.92999 4:544.94 
0.4850146191562885 1:559.89001 2:553.92999 3:544.94 4:544.65997 
