svm_type epsilon_svr
kernel_type rbf
gamma 0.25
nr_class 2
total_sv 5
rho -537.493
SV
-1 1:548.34003 2:552.03003 3:548 4:542.56 
-0.6275049991171764 1:552.03003 2:548 3:542.56 4:535.53003 
-0.3724950008828237 1:548 2:542.56 3:535.53003 4:536.76501 
1 1:542.56 2:535.53003 3:536.76501 4:537.02002 
1 1:535.53003 2:536.76501 3:537.02002 4:541.60999 
