svm_type epsilon_svr
kernel_type rbf
gamma 0.25
nr_class 2
total_sv 4
rho -44.1446
SV
-1 1:43.83 2:43.46 3:43 4:43.13 
-0.1225716222307226 1:43 2:43.13 3:43.27 4:43.81 
1 1:43.13 2:43.27 3:43.81 4:44.15 
0.1225716222307227 1:43.27 2:43.81 3:44.15 4:45.33 
