svm_type epsilon_svr
kernel_type rbf
gamma 0.25
nr_class 2
total_sv 5
rho -103.373
SV
-1 1:98.75 2:97.54 3:96.26 4:97.67 
-0.7021889902589966 1:97.54 2:96.26 3:97.67 4:99.76 
-0.2978110097410033 1:96.26 2:97.67 3:99.76 4:102.47 
1 1:97.67 2:99.76 3:102.47 4:102.99 
1 1:99.76 2:102.47 3:102.99 4:104.83 
