svm_type epsilon_svr
kernel_type rbf
gamma 0.25
nr_class 2
total_sv 3
rho -32.973
SV
0.7382897896085113 1:32.89 2:32.67 3:32.82 4:32.97 
0.2617102103914887 1:32.67 2:32.82 3:32.97 4:33.14 
-1 1:32.97 2:33.14 3:33.11 4:32.96 
