svm_type epsilon_svr
kernel_type rbf
gamma 0.25
nr_class 2
total_sv 5
rho -73.9988
SV
-0.2735596387281337 1:77.52 2:75.91 3:72.91 4:72.99 
-0.7264403612718663 1:75.91 2:72.91 3:72.99 4:73.59 
-1 1:72.91 2:72.99 3:73.59 4:73.21 
1 1:72.99 2:73.59 3:73.21 4:72.63 
1 1:73.59 2:73.21 3:72.63 4:75.95 
