svm_type epsilon_svr
kernel_type rbf
gamma 0.25
nr_class 2
total_sv 4
rho -82.8158
SV
0.1600511058425299 1:83.8 2:84.43 3:85.31 4:82.92 
0.4688373400158521 1:84.43 2:85.31 3:82.92 4:83.01 
0.371111554141618 1:85.31 2:82.92 3:83.01 4:83.3 
-1 1:83.01 2:83.3 3:83.2 4:82.22 
