svm_type epsilon_svr
kernel_type rbf
gamma 0.25
nr_class 2
total_sv 3
rho -31.6923
SV
0.1233777680745582 1:33.05 2:33.27 3:33 4:31.78 
-0.2454999996838686 1:33.27 2:33 3:31.78 4:31.8 
0.1221222316093104 1:33 2:31.78 3:31.8 4:31.51 
