svm_type epsilon_svr
kernel_type rbf
gamma 0.25
nr_class 2
total_sv 5
rho -109.758
SV
1 1:106.25 2:106.26 3:107.75 4:111.89 
-0.416043352337721 1:106.26 2:107.75 3:111.89 4:112.01 
0.362797384863114 1:107.75 2:111.89 3:112.01 4:109.25 
0.05324596747460694 1:111.89 2:112.01 3:109.25 4:110.22 
-1 1:112.01 2:109.25 3:110.22 4:109.8 
