svm_type epsilon_svr
kernel_type rbf
gamma 0.25
nr_class 2
total_sv 5
rho -83.6773
SV
-1 1:78.93 2:78.05 3:78.07 4:79.36 
-0.537903918485959 1:78.05 2:78.07 3:79.36 4:80.91 
0.05228763505765693 1:78.07 2:79.36 3:80.91 4:82.75 
0.485616283428302 1:79.36 2:80.91 3:82.75 4:83.8 
1 1:80.91 2:82.75 3:83.8 4:84.43 
