svm_type epsilon_svr
kernel_type rbf
gamma 0.25
nr_class 2
total_sv 5
rho -31.1672
SV
-0.2951382988367386 1:30.91 2:31.05 3:31.27 4:30.8 
-1 1:31.05 2:31.27 3:30.8 4:31.05 
-0.7048617011632614 1:31.27 2:30.8 3:31.05 4:31 
1 1:30.8 2:31.05 3:31 4:31.03 
1 1:31.05 2:31 3:31.03 4:31.44 
