svm_type epsilon_svr
kernel_type rbf
gamma 0.25
nr_class 2
total_sv 3
rho -35.7414
SV
-0.09315261619206043 1:35.9 2:35.68 3:36.6 4:35.81 
1 1:35.68 2:36.6 3:35.81 4:35.62 
-0.9068473838079396 1:35.62 2:36.53 3:35.7 4:35.79 
