svm_type epsilon_svr
kernel_type rbf
gamma 0.25
nr_class 2
total_sv 5
rho -98.057
SV
-0.4426161813850288 1:93.94 2:94.72 3:97.19 4:97.03 
0.9153908600209305 1:94.72 2:97.19 3:97.03 4:97.67 
0.2008877981560664 1:97.19 2:97.03 3:97.67 4:99.02 
0.3263375232080318 1:97.03 2:97.67 3:99.02 4:98.38 
-1 1:97.67 2:99.02 3:98.38 4:98.15 
