svm_type epsilon_svr
kernel_type rbf
gamma 0.25
nr_class 2
total_sv 5
rho -84.6177
SV
-0.6282069306485483 1:83.56 2:82.98 3:83.83 4:83.81 
-1 1:82.98 2:83.83 3:83.81 4:83.94 
0.02105340369505014 1:83.83 2:83.81 3:83.94 4:82.96 
1 1:83.81 2:83.94 3:82.96 4:84.23 
0.6071535269534981 1:83.94 2:82.96 3:84.23 4:85.94 
