svm_type epsilon_svr
kernel_type rbf
gamma 0.25
nr_class 2
total_sv 4
rho -117.16
SV
-1 1:109.55 2:112.4 3:112.98 4:113.1 
-1 1:112.4 2:112.98 3:113.1 4:109.14 
1 1:112.98 2:113.1 3:109.14 4:115.31 
1 1:109.14 2:115.31 3:118.9 4:117.16 
