svm_type epsilon_svr
kernel_type rbf
gamma 0.25
nr_class 2
total_sv 5
rho -41.8032
SV
-0.05140326470342022 1:41.53 2:41.42 3:41.48 4:41.72 
-1 1:41.42 2:41.48 3:41.72 4:41.76 
1 1:41.48 2:41.72 3:41.76 4:41.65 
1 1:41.72 2:41.76 3:41.65 4:42.26 
-0.9485967352965798 1:41.76 2:41.65 3:42.26 4:42.16 
