svm_type epsilon_svr
kernel_type rbf
gamma 0.25
nr_class 2
total_sv 4
rho -297.38
SV
1 1:296.57999 2:300.38 3:304.13 4:307.89001 
1 1:300.38 2:304.13 3:307.89001 4:308.01001 
-1 1:307.89001 2:308.01001 3:310.04999 4:297.38 
-1 1:308.01001 2:310.04999 3:297.38 4:292.70999 
