svm_type epsilon_svr
kernel_type rbf
gamma 0.25
nr_class 2
total_sv 3
rho -38.4776
SV
-0.8934274421450926 1:37.64 2:38.01 3:37.71 4:37.79 
-0.1065725578549074 1:38.01 2:37.71 3:37.79 4:38.18 
1 1:37.79 2:38.18 3:38.31 4:38.51 
