svm_type epsilon_svr
kernel_type rbf
gamma 0.25
nr_class 2
total_sv 4
rho -30.8279
SV
1 1:29.9 2:30.56 3:30.37 4:31.13 
0.2048021573156438 1:30.56 2:30.37 3:31.13 4:31.75 
-1 1:30.37 2:31.13 3:31.75 4:31.08 
-0.2048021573156438 1:31.13 2:31.75 3:31.08 4:30.01 
