svm_type epsilon_svr
kernel_type rbf
gamma 0.25
nr_class 2
total_sv 4
rho -17.9482
SV
1 1:19.8 2:19.82 3:19.87 4:20.25 
-0.3458043892951418 1:19.82 2:19.87 3:20.25 4:18.88 
-0.3465753511502844 1:20.25 2:18.88 3:18.04 4:17.69 
-0.3076202595545738 1:18.88 2:18.04 3:17.69 4:17.36 
