svm_type epsilon_svr
kernel_type rbf
gamma 0.25
nr_class 2
total_sv 4
rho -299.07
SV
-1 1:312.97 2:313.17999 3:287.06 4:289.97 
-1 1:313.17999 2:287.06 3:289.97 4:295.59 
1 1:289.97 2:295.59 3:294.12 4:299.07001 
1 1:295.59 2:294.12 3:299.07001 4:305.45999 
