svm_type epsilon_svr
kernel_type rbf
gamma 0.25
nr_class 2
total_sv 5
rho -112.96
SV
-1 1:108.86 2:108.7 3:109.01 4:108.83 
-0.8773496430165758 1:108.7 2:109.01 3:108.83 4:109.7 
0.1055761702033028 1:109.01 2:108.83 3:109.7 4:111.25 
0.9949007376828821 1:108.83 2:109.7 3:111.25 4:112.82 
0.7768727351303907 1:109.7 2:111.25 3:112.82 4:114.18 
