svm_type epsilon_svr
kernel_type rbf
gamma 0.25
nr_class 2
total_sv 5
rho -78.7513
SV
1 1:79.75 2:79.6 3:80.9 4:81.21 
0.5966340591889631 1:79.6 2:80.9 3:81.21 4:80.01 
-1 1:80.9 2:81.21 3:80.01 4:79.44 
-0.9566137261823145 1:81.21 2:80.01 3:79.44 4:77.55 
0.3599796669933517 1:80.01 2:79.44 3:77.55 4:77.57 
