svm_type epsilon_svr
kernel_type rbf
gamma 0.25
nr_class 2
total_sv 4
rho -108.591
SV
-0.8302247587663028 1:105.11 2:106.74 3:107.34 4:106.98 
1 1:106.74 2:107.34 3:106.98 4:108 
-0.3174692293314577 1:107.34 2:106.98 3:108 4:109.4 
0.1476939880977605 1:106.98 2:108 3:109.4 4:108.6 
