svm_type epsilon_svr
kernel_type rbf
gamma 0.25
nr_class 2
total_sv 5
rho -76.305
SV
0.2166904196606234 1:79.2 2:79.15 3:79.14 4:78.74 
0.5117068077732866 1:79.15 2:79.14 3:78.74 4:76.83 
0.2114923217655621 1:79.14 2:78.74 3:76.83 4:77.01 
-0.5326766144052472 1:78.74 2:76.83 3:77.01 4:76.61 
-0.4072129347942249 1:76.83 2:77.01 3:76.61 4:75.69 
