svm_type epsilon_svr
kernel_type rbf
gamma 0.25
nr_class 2
total_sv 5
rho -43.1232
SV
0.2976163941788409 1:44.69 2:44.7 3:44.05 4:43.55 
-1 1:44.7 2:44.05 3:43.55 4:42.94 
0.7023836058211591 1:44.05 2:43.55 3:42.94 4:42.57 
-1 1:43.55 2:42.94 3:42.57 4:43.07 
1 1:42.94 2:42.57 3:43.07 4:42.96 
