svm_type epsilon_svr
kernel_type rbf
gamma 0.25
nr_class 2
total_sv 5
rho -545.492
SV
1 1:545.91998 2:542.03998 3:541.01001 4:547.48999 
1 1:542.03998 2:541.01001 3:547.48999 4:550.28998 
-0.01238090282095636 1:541.01001 2:547.48999 3:550.28998 4:547.31 
-0.9876190971790436 1:547.48999 2:550.28998 3:547.31 4:545.38 
-1 1:550.28998 2:547.31 3:545.38 4:544.40002 
