svm_type epsilon_svr
kernel_type rbf
gamma 0.25
nr_class 2
total_sv 5
rho -52.2643
SV
-0.1468634697415593 1:51.02 2:49.33 3:50.24 4:50.7 
-1 1:49.33 2:50.24 3:50.7 4:52 
0.8711949383706832 1:50.24 2:50.7 3:52 4:50.61 
0.4452143967667826 1:50.7 2:52 3:50.61 4:52.91 
-0.1695458653959064 1:52 2:50.61 3:52.91 4:52.64 
