svm_type epsilon_svr
kernel_type rbf
gamma 0.25
nr_class 2
total_sv 4
rho -115.532
SV
1 1:116.47 2:118.63 3:117.6 4:119 
-0.4986805457601241 1:118.63 2:117.6 3:119 4:118.93 
-0.8103173771843204 1:117.6 2:119 3:118.93 4:115.07 
0.3089979229444447 1:119 2:118.93 3:115.07 4:114.63 
