svm_type epsilon_svr
kernel_type rbf
gamma 0.25
nr_class 2
total_sv 4
rho -40.4477
SV
-0.879076852909663 1:39.68 2:40.35 3:40.1 4:40.12 
-1 1:40.35 2:40.1 3:40.12 4:40.19 
1 1:40.12 2:40.19 3:40.01 4:40.34 
0.879076852909663 1:40.19 2:40.01 3:40.34 4:40.94 
