svm_type epsilon_svr
kernel_type rbf
gamma 0.25
nr_class 2
total_sv 4
rho -75.5422
SV
-1 1:74.99 2:75.4 3:75.63 4:75.61 
-0.9387501880698843 1:75.4 2:75.63 3:75.61 4:74.47 
1 1:75.61 2:74.47 3:74.44 4:75.19 
0.9387501880698843 1:74.47 2:74.44 3:75.19 4:76.51 
