svm_type epsilon_svr
kernel_type rbf
gamma 0.25
nr_class 2
total_sv 5
rho -124.679
SV
-1 1:127.21 2:126.69 3:123.38 4:124.24 
1 1:126.69 2:123.38 3:124.24 4:123.25 
-0.1850662329250711 1:123.38 2:124.24 3:123.25 4:126.37 
-0.3896608649661082 1:124.24 2:123.25 3:126.37 4:124.43 
0.5747270978911793 1:123.25 2:126.37 3:124.43 4:124.25 
