svm_type epsilon_svr
kernel_type rbf
gamma 0.25
nr_class 2
total_sv 3
rho -48.0658
SV
-1 1:48.8 2:48.3 3:47.51 4:46.23 
0.4256880891664264 1:46.23 2:46.47 3:47.63 4:48.18 
0.5743119108335736 1:46.47 2:47.63 3:48.18 4:48.89 
