svm_type epsilon_svr
kernel_type rbf
gamma 0.25
nr_class 2
total_sv 4
rho -33.1365
SV
0.05155609632465442 1:31.74 2:32.19 3:32.27 4:32.62 
-0.1682527070169726 1:32.27 2:32.62 3:33.28 4:33.15 
0.4265849114036519 1:32.62 2:33.28 3:33.15 4:33.05 
-0.3098883007113337 1:33.28 2:33.15 3:33.05 4:33.27 
