svm_type epsilon_svr
kernel_type rbf
gamma 0.25
nr_class 2
total_sv 4
rho -51.4829
SV
-0.1057445596156071 1:51.75 2:52.37 3:51.75 4:50.58 
-0.6690149518338984 1:52.37 2:51.75 3:50.58 4:51.25 
0.390716843114141 1:51.75 2:50.58 3:51.25 4:51.04 
0.3840426683353645 1:51.25 2:51.04 3:51.83 4:51.72 
