svm_type epsilon_svr
kernel_type rbf
gamma 0.25
nr_class 2
total_sv 4
rho -127.129
SV
-1 1:119.94 2:118.93 3:119.72 4:122.02 
-0.5462165368940359 1:118.93 2:119.72 3:122.02 4:124.88 
0.5462165368940359 1:122.02 2:124.88 3:126.46 4:127.08 
1 1:124.88 2:126.46 3:127.08 4:127.83 
