svm_type epsilon_svr
kernel_type rbf
gamma 0.25
nr_class 2
total_sv 4
rho -34.7812
SV
-0.04394759274862368 1:35.02 2:35.12 3:34.78 4:34.9 
0.04394759274862368 1:35.12 2:34.78 3:34.9 4:34.65 
-1 1:34.78 2:34.9 3:34.65 4:34.87 
1 1:34.65 2:34.87 3:34.65 4:34.73 
