svm_type epsilon_svr
kernel_type rbf
gamma 0.25
nr_class 2
total_sv 4
rho -101.52
SV
-1 1:101.63 2:100.86 3:101.58 4:101.79 
-0.6707901386082128 1:100.86 2:101.58 3:101.79 4:100.96 
1 1:101.58 2:101.79 3:100.96 4:101.06 
0.6707901386082128 1:101.79 2:100.96 3:101.06 4:102.64 
