svm_type epsilon_svr
kernel_type rbf
gamma 0.25
nr_class 2
total_sv 5
rho -77.8473
SV
-0.7043173796075692 1:77.48 2:74.58 3:76.08 4:76.43 
0.2457786562875346 1:74.58 2:76.08 3:76.43 4:77 
-1 1:76.08 2:76.43 3:77 4:77.91 
0.6131971301266614 1:76.43 2:77 3:77.91 4:76.8 
0.8453415931933731 1:77 2:77.91 3:76.8 4:78.29 
