svm_type epsilon_svr
kernel_type rbf
gamma 0.25
nr_class 2
total_sv 5
rho -27.4589
SV
1 1:28.13 2:28.32 3:28.11 4:27.83 
1 1:28.32 2:28.11 3:27.83 4:27.89 
-0.2300179016628595 1:28.11 2:27.83 3:27.89 4:28.06 
-0.7699820983371405 1:27.83 2:27.89 3:28.06 4:27.51 
-1 1:27.89 2:28.06 3:27.51 4:27.27 
