svm_type epsilon_svr
kernel_type rbf
gamma 0.25
nr_class 2
total_sv 5
rho -291.675
SV
-0.1649953332590997 1:295.29001 2:298.42001 3:300.45999 4:296.92999 
1 1:298.42001 2:300.45999 3:296.92999 4:291.41 
1 1:300.45999 2:296.92999 3:291.41 4:294.73999 
-1 1:296.92999 2:291.41 3:294.73999 4:293.26999 
-0.8350046667409003 1:291.41 2:294.73999 3:293.26999 4:286.95001 
