svm_type epsilon_svr
kernel_type rbf
gamma 0.25
nr_class 2
total_sv 5
rho -86.8722
SV
-0.2016226543085581 1:90.47 2:89.35 3:90.02 4:89.31 
0.4325269136184102 1:89.35 2:90.02 3:89.31 4:86.61 
-0.03510408937668628 1:90.02 2:89.31 3:86.61 4:87.38 
-0.07111311711872872 1:89.31 2:86.61 3:87.38 4:86.77 
-0.1246870528144371 1:86.61 2:87.38 3:86.77 4:86.69 
