svm_type epsilon_svr
kernel_type rbf
gamma 0.25
nr_class 2
total_sv 5
rho -37.3002
SV
-1 1:35.79 2:35.52 3:36.19 4:36.36 
0.2369931176596945 1:35.52 2:36.19 3:36.36 4:36.47 
1 1:36.19 2:36.36 3:36.47 4:37.38 
-0.3236047351554389 1:36.36 2:36.47 3:37.38 4:37.83 
0.08661161749574434 1:36.47 2:37.38 3:37.83 4:37.5 
