svm_type epsilon_svr
kernel_type rbf
gamma 0.25
nr_class 2
total_sv 5
rho -78.2716
SV
1 1:79.6 2:80.9 3:81.21 4:80.01 
-0.9001873420667321 1:80.9 2:81.21 3:80.01 4:79.44 
-0.6212140180051301 1:81.21 2:80.01 3:79.44 4:77.55 
0.8189915326186025 1:80.01 2:79.44 3:77.55 4:77.57 
-0.2975901725467402 1:79.44 2:77.55 3:77.57 4:78.93 
