svm_type epsilon_svr
kernel_type rbf
gamma 0.25
nr_class 2
total_sv 3
rho -35.7844
SV
-0.005982976087311752 1:36.6 2:35.81 3:35.62 4:36.53 
-0.07573472168338172 1:35.62 2:36.53 3:35.7 4:35.79 
0.08171769777069347 1:36.53 2:35.7 3:35.79 4:35.66 
