svm_type epsilon_svr
kernel_type rbf
gamma 0.25
nr_class 2
total_sv 5
rho -36.5551
SV
-1 1:36.35 2:36.7 3:37.1 4:36.85 
-0.8036115362724505 1:36.7 2:37.1 3:36.85 4:35.13 
0.4499785821888727 1:37.1 2:36.85 3:35.13 4:35.57 
0.3536329540835779 1:36.85 2:35.13 3:35.57 4:36.73 
1 1:35.13 2:35.57 3:36.73 4:37.08 
