svm_type epsilon_svr
kernel_type rbf
gamma 0.25
nr_class 2
total_sv 5
rho -578.235
SV
-1 1:580.20001 2:577.85999 3:571 4:569.20001 
-0.8049768163127956 1:577.85999 2:571 3:569.20001 4:571.59998 
-0.1950231836872044 1:571 2:569.20001 3:571.59998 4:577.33002 
1 1:569.20001 2:571.59998 3:577.33002 4:577.94 
1 1:571.59998 2:577.33002 3:577.94 4:581.97998 
