svm_type epsilon_svr
kernel_type rbf
gamma 0.25
nr_class 2
total_sv 5
rho -533.4
SV
-0.7702596296077751 1:540.78003 2:540.01001 3:539.16998 4:530.39001 
0.299700372203457 1:540.01001 2:539.16998 3:530.39001 4:532.53003 
-1 1:539.16998 2:530.39001 3:532.53003 4:533.79999 
1 1:530.39001 2:532.53003 3:533.79999 4:524.04999 
0.470559257404318 1:532.53003 2:533.79999 3:524.04999 4:535.38 
