svm_type epsilon_svr
kernel_type rbf
gamma 0.25
nr_class 2
total_sv 4
rho -302.81
SV
1 1:289.97 2:295.59 3:294.12 4:299.07001 
1 1:295.59 2:294.12 3:299.07001 4:305.45999 
-1 1:299.07001 2:305.45999 3:305.72 4:302.81 
-1 1:305.45999 2:305.72 3:302.81 4:296.51999 
