svm_type epsilon_svr
kernel_type rbf
gamma 0.25
nr_class 2
total_sv 5
rho -77.4578
SV
-0.1450766228401169 1:74.82 2:76.68 3:75.83 4:75.95 
0.7491233891816323 1:76.68 2:75.83 3:75.95 4:77.26 
-1 1:75.83 2:75.95 3:77.26 4:77.89 
0.04131728801839307 1:75.95 2:77.26 3:77.89 4:76.67 
0.3546359456400914 1:77.26 2:77.89 3:76.67 4:77.43 
