svm_type epsilon_svr
kernel_type rbf
gamma 0.25
nr_class 2
total_sv 5
rho -539.794
SV
-1 1:552.03003 2:548 3:542.56 4:535.53003 
-1 1:548 2:542.56 3:535.53003 4:536.76501 
1 1:542.56 2:535.53003 3:536.76501 4:537.02002 
0.886136904087387 1:535.53003 2:536.76501 3:537.02002 4:541.60999 
0.113863095912613 1:536.76501 2:537.02002 3:541.60999 4:540.78003 
