svm_type epsilon_svr
kernel_type rbf
gamma 0.25
nr_class 2
total_sv 4
rho -33.3501
SV
1 1:33.67 2:33.48 3:33.72 4:33.63 
0.6728756033646631 1:33.48 2:33.72 3:33.63 4:33.77 
-1 1:33.63 2:33.77 3:33.61 4:33.46 
-0.6728756033646631 1:33.77 2:33.61 3:33.46 4:32.79 
