svm_type epsilon_svr
kernel_type rbf
gamma 0.25
nr_class 2
total_sv 5
rho -27.1041
SV
-1 1:26.06 2:26.1 3:27.11 4:27.3 
1 1:26.1 2:27.11 3:27.3 4:26.6 
0.5528053323238916 1:27.11 2:27.3 3:26.6 4:28.02 
0.1558674669450121 1:27.3 2:26.6 3:28.02 4:27.37 
-0.7086727992689037 1:26.6 2:28.02 3:27.37 4:27.26 
