svm_type epsilon_svr
kernel_type rbf
gamma 0.25
nr_class 2
total_sv 5
rho -44.4498
SV
1 1:44.72 2:44.42 3:44.2 4:44.47 
0.7710210909294751 1:44.42 2:44.2 3:44.47 4:45.1 
-0.4671877827776074 1:44.2 2:44.47 3:45.1 4:44.95 
-0.3038333081518679 1:44.47 2:45.1 3:44.95 4:44.44 
-1 1:45.1 2:44.95 3:44.44 4:44.13 
