svm_type epsilon_svr
kernel_type rbf
gamma 0.25
nr_class 2
total_sv 3
rho -20.9731
SV
1 1:22.15 2:21.96 3:21.95 4:22.12 
-0.8957942748302178 1:21.95 2:22.12 3:22.16 4:21.15 
-0.1042057251697823 1:22.16 2:21.15 3:20.7 4:20.79 
