svm_type epsilon_svr
kernel_type rbf
gamma 0.25
nr_class 2
total_sv 5
rho -95.0855
SV
0.1301549462440731 1:98.15 2:95.6 3:96.13 4:95.59 
0.4790729262656531 1:95.6 2:96.13 3:95.59 4:95.12 
-1 1:96.13 2:95.59 3:95.12 4:94.96 
-0.6092278725097262 1:95.59 2:95.12 3:94.96 4:94.48 
1 1:95.12 2:94.96 3:94.48 4:94.74 
