svm_type epsilon_svr
kernel_type rbf
gamma 0.25
nr_class 2
total_sv 4
rho -67.1128
SV
-1 1:65.6 2:64.34 3:64.5 4:65.37 
0.7957068853186949 1:64.34 2:64.5 3:65.37 4:65.72 
-0.2045113939544126 1:64.5 2:65.37 3:65.72 4:67.44 
0.4088045086357177 1:65.37 2:65.72 3:67.44 4:67.13 
