svm_type epsilon_svr
kernel_type rbf
gamma 0.25
nr_class 2
total_sv 4
rho -17.6959
SV
0.1777153841453479 1:16.69 2:16.89 3:17.33 4:17.68 
-0.2829410033580294 1:16.89 2:17.33 3:17.68 4:17.71 
-0.8947743807873186 1:17.33 2:17.68 3:17.71 4:17.47 
1 1:17.68 2:17.71 3:17.47 4:17.53 
