svm_type epsilon_svr
kernel_type rbf
gamma 0.25
nr_class 2
total_sv 5
rho -76.558
SV
1 1:78.69 2:79.2 3:79.15 4:79.14 
-0.6871735232899594 1:79.2 2:79.15 3:79.14 4:78.74 
0.4381177956656445 1:79.15 2:79.14 3:78.74 4:76.83 
0.1055819066547841 1:79.14 2:78.74 3:76.83 4:77.01 
-0.8565261790304691 1:78.74 2:76.83 3:77.01 4:76.61 
