svm_type epsilon_svr
kernel_type rbf
gamma 0.25
nr_class 2
total_sv 5
rho -108.349
SV
-1 1:105.22 2:105.11 3:106.74 4:107.34 
-0.1524513838900934 1:105.11 2:106.74 3:107.34 4:106.98 
1 1:106.74 2:107.34 3:106.98 4:108 
-0.1403209608796614 1:107.34 2:106.98 3:108 4:109.4 
0.2927723447697548 1:106.98 2:108 3:109.4 4:108.6 
