svm_type epsilon_svr
kernel_type rbf
gamma 0.25
nr_class 2
total_sv 4
rho -87.0217
SV
-0.3452696983273455 1:87.72 2:84.98 3:85.71 4:86.19 
0.933555535044113 1:85.71 2:86.19 3:86.65 4:87.28 
-1 1:86.19 2:86.65 3:87.28 4:87.33 
0.4117141632832322 1:86.65 2:87.28 3:87.33 4:85.91 
