svm_type epsilon_svr
kernel_type rbf
gamma 0.25
nr_class 2
total_sv 4
rho -83.5968
SV
-0.5436285364156627 1:78.77 2:79.44 3:79.01 4:79.2 
-0.5231465190128881 1:79.44 2:79.01 3:79.2 4:82.94 
0.06677505542855075 1:79.2 2:82.94 3:82.96 4:83.57 
1 1:82.94 2:82.96 3:83.57 4:83.79 
