svm_type epsilon_svr
kernel_type rbf
gamma 0.25
nr_class 2
total_sv 5
rho -60.2341
SV
-0.6353275691401404 1:59.83 2:59.23 3:57.92 4:58.02 
-1 1:59.23 2:57.92 3:58.02 4:59.21 
0.4797283070613034 1:57.92 2:58.02 3:59.21 4:58.56 
0.155599262078837 1:58.02 2:59.21 3:58.56 4:60.49 
1 1:59.21 2:58.56 3:60.49 4:60.52 
