svm_type epsilon_svr
kernel_type rbf
gamma 0.25
nr_class 2
total_sv 5
rho -34.7123
SV
-1 1:32.82 2:33.14 3:32.96 4:33.01 
0.7909709322999887 1:33.14 2:32.96 3:33.01 4:33.35 
-1 1:32.96 2:33.01 3:33.35 4:34.31 
0.2090290677000113 1:33.01 2:33.35 3:34.31 4:33.94 
1 1:33.35 2:34.31 3:33.94 4:34.84 
