svm_type epsilon_svr
kernel_type rbf
gamma 0.25
nr_class 2
total_sv 4
rho -82.5404
SV
0.2610469558594683 1:82.32 2:82.28 3:82.17 4:82.04 
1 1:82.28 2:82.17 3:82.04 4:83.01 
-0.2610469558594683 1:82.17 2:82.04 3:83.01 4:83.52 
-1 1:83.01 2:83.52 3:82.71 4:82.31 
