svm_type epsilon_svr
kernel_type rbf
gamma 0.25
nr_class 2
total_sv 5
rho -126.409
SV
-0.8086742379941657 1:124.25 2:125.32 3:127.35 4:126.01 
0.09090861333877891 1:125.32 2:127.35 3:126.01 4:125.6 
0.4220892127535821 1:127.35 2:126.01 3:125.6 4:126.56 
0.5181222334416112 1:126.01 2:125.6 3:126.56 4:127.1 
-0.2224458215398065 1:125.6 2:126.56 3:127.1 4:126.85 
