svm_type epsilon_svr
kernel_type rbf
gamma 0.25
nr_class 2
total_sv 5
rho -21.3264
SV
-1 1:20.41 2:20.64 3:20.26 4:21.26 
-1 1:20.64 2:20.26 3:21.26 4:20.81 
0.1538127222491767 1:20.26 2:21.26 3:20.81 4:20.48 
0.8461872777508233 1:21.26 2:20.81 3:20.48 4:21.24 
1 1:20.81 2:20.48 3:21.24 4:21.63 
