svm_type epsilon_svr
kernel_type rbf
gamma 0.25
nr_class 2
total_sv 3
rho -30.871
SV
-0.2689623218595413 1:29.77 2:30.4 3:31.02 4:31.09 
0.2911981590114872 1:30.4 2:31.02 3:31.09 4:30.72 
-0.02223583715194588 1:31.02 2:31.09 3:30.72 4:31.03 
