svm_type epsilon_svr
kernel_type rbf
gamma 0.25
nr_class 2
total_sv 5
rho -307.073
SV
-0.3330401953124351 1:326.31 2:316.5 3:316.92999 4:312.63 
1 1:316.5 2:316.92999 3:312.63 4:306.64001 
-1 1:316.92999 2:312.63 3:306.64001 4:312.5 
0.1860803906249784 1:312.63 2:306.64001 3:312.5 4:305.84 
0.1469598046874568 1:306.64001 2:312.5 3:305.84 4:307.35999 
