svm_type epsilon_svr
kernel_type rbf
gamma 0.25
nr_class 2
total_sv 4
rho -32.9325
SV
-0.7643933406062394 1:32.46 2:32.8 3:33.07 4:32.98 
-0.9712751629948292 1:32.8 2:33.07 3:32.98 4:32.75 
1 1:33.07 2:32.98 3:32.75 4:32.82 
0.7356685036010688 1:32.75 2:32.82 3:33.14 4:32.96 
