svm_type epsilon_svr
kernel_type rbf
gamma 0.25
nr_class 2
total_sv 5
rho -129.485
SV
1 1:128.72 2:128.45 3:129.5 4:133 
-0.6260348741538854 1:128.45 2:129.5 3:133 4:132.17 
0.8370815824223179 1:129.5 2:133 3:132.17 4:128.78999 
-0.923596191051606 1:133 2:132.17 3:128.78999 4:130.42 
-0.2874505172168266 1:132.17 2:128.78999 3:130.42 4:128.46001 
