svm_type epsilon_svr
kernel_type rbf
gamma 0.25
nr_class 2
total_sv 5
rho -52.3265
SV
0.6051449093903545 1:49.38 2:50.83 3:50.7 4:50.88 
-0.382071554786805 1:50.83 2:50.7 3:50.88 4:53 
-0.1115678420491539 1:50.7 2:50.88 3:53 4:51.94 
0.7577145274569408 1:50.88 2:53 3:51.94 4:52.17 
-0.8692200400113365 1:53 2:51.94 3:52.17 4:52.96 
