svm_type epsilon_svr
kernel_type rbf
gamma 0.25
nr_class 2
total_sv 4
rho -74.9024
SV
0.8584655259398315 1:80.04 2:80.67 3:80.28 4:80.77 
-0.6937265711378809 1:80.67 2:80.28 3:80.77 4:75.86 
-0.922457143041706 1:80.77 2:75.86 3:74.11 4:74.99 
0.7577181882397555 1:75.86 2:74.11 3:74.99 4:73.88 
