svm_type epsilon_svr
kernel_type rbf
gamma 0.25
nr_class 2
total_sv 5
rho -32.435
SV
0.6021313158525675 1:32.24 2:32.27 3:31.65 4:32.41 
-0.9869533938610067 1:32.27 2:31.65 3:32.41 4:32.86 
-0.4799666765249591 1:31.65 2:32.41 3:32.86 4:32.2 
-0.1352112454666017 1:32.41 2:32.86 3:32.2 4:32.03 
1 1:32.86 2:32.2 3:32.03 4:32.56 
