svm_type epsilon_svr
kernel_type rbf
gamma 0.25
nr_class 2
total_sv 5
rho -359.093
SV
-0.3325047850161455 1:355.32001 2:354.44 3:355.89999 4:352.45001 
0.5675053206149188 1:354.44 2:355.89999 3:352.45001 4:358.66 
1 1:355.89999 2:352.45001 3:358.66 4:359.76001 
-0.8524925352901386 1:352.45001 2:358.66 3:359.76001 4:360.84 
-0.3825080003086347 1:358.66 2:359.76001 3:360.84 4:358.14001 
