svm_type epsilon_svr
kernel_type rbf
gamma 0.25
nr_class 2
total_sv 4
rho -27.9951
SV
1 1:27.74 2:27.69 3:28.13 4:28.32 
-0.6703796203191446 1:27.69 2:28.13 3:28.32 4:28.11 
0.6703796203191446 1:28.32 2:28.11 3:27.83 4:27.89 
-1 1:28.11 2:27.83 3:27.89 4:28.06 
