svm_type epsilon_svr
kernel_type rbf
gamma 0.25
nr_class 2
total_sv 4
rho -74.8415
SV
0.04909561317354227 1:80.28 2:80.77 3:75.86 4:74.11 
-0.8618388923051929 1:80.77 2:75.86 3:74.11 4:74.99 
0.8197458761357806 1:75.86 2:74.11 3:74.99 4:73.88 
-0.007002597004129974 1:74.11 2:74.99 3:73.88 4:75.76 
