svm_type epsilon_svr
kernel_type rbf
gamma 0.25
nr_class 2
total_sv 5
rho -101.243
SV
-1 1:98.94 2:98.12 3:98.97 4:98.36 
0.2623812285301603 1:98.12 2:98.97 3:98.36 4:97.99 
0.1734936970998232 1:98.97 2:98.36 3:97.99 4:101 
0.3062434248040422 1:98.36 2:97.99 3:101 4:101.43 
0.2578816495659743 1:97.99 2:101 3:101.43 4:101.66 
