svm_type epsilon_svr
kernel_type rbf
gamma 0.25
nr_class 2
total_sv 5
rho -44.3537
SV
-1 1:41.67 2:41.69 3:42.09 4:42.14 
0.4887554114108403 1:41.69 2:42.09 3:42.14 4:42.45 
0.1356566023989899 1:42.09 2:42.14 3:42.45 4:44.08 
0.0124476371833066 1:42.14 2:42.45 3:44.08 4:44.53 
0.3631403490068632 1:42.45 2:44.08 3:44.53 4:44.69 
