svm_type epsilon_svr
kernel_type rbf
gamma 0.25
nr_class 2
total_sv 5
rho -126.732
SV
1 1:130.42 2:128.46001 3:129.09 4:129.36 
-0.4932904029087256 1:128.46001 2:129.09 3:129.36 4:128.53999 
-0.08485452014949697 1:129.09 2:129.36 3:128.53999 4:126.41 
0.5781449230582224 1:129.36 2:128.53999 3:126.41 4:126.6 
-1 1:128.53999 2:126.41 3:126.6 4:127.14 
