svm_type epsilon_svr
kernel_type rbf
gamma 0.25
nr_class 2
total_sv 5
rho -43.6177
SV
0.1021779246905082 1:46.78 2:45.85 3:44.03 4:43.65 
-0.1786533763888797 1:45.85 2:44.03 3:43.65 4:43.73 
-1 1:44.03 2:43.65 3:43.73 4:43.22 
0.07647545169837144 1:43.65 2:43.73 3:43.22 4:42.74 
1 1:43.73 2:43.22 3:42.74 4:43.63 
