svm_type epsilon_svr
kernel_type rbf
gamma 0.25
nr_class 2
total_sv 4
rho -37.555
SV
1 1:39.09 2:40.17 3:39.37 4:39.65 
-1 1:40.17 2:39.37 3:39.65 4:39.85 
-0.1879394301480942 1:39.37 2:39.65 3:39.85 4:36.93 
0.1879394301480942 1:39.85 2:36.93 3:37.31 4:37.57 
