svm_type epsilon_svr
kernel_type rbf
gamma 0.25
nr_class 2
total_sv 5
rho -44.4627
SV
1 1:48.89 2:48.95 3:49.44 4:47.99 
-0.9267735827231722 1:48.95 2:49.44 3:47.99 4:46.46 
-0.3353749526280095 1:49.44 2:47.99 3:46.46 4:43.73 
0.1345236950211477 1:47.99 2:46.46 3:43.73 4:43.99 
0.1276248403300339 1:46.46 2:43.73 3:43.99 4:44.69 
