svm_type epsilon_svr
kernel_type rbf
gamma 0.25
nr_class 2
total_sv 5
rho -119.043
SV
-0.3125571604392306 1:109.14 2:115.31 3:118.9 4:117.16 
-0.4843074896753402 1:115.31 2:118.9 3:117.16 4:118.63 
0.3731613521667152 1:118.9 2:117.16 3:118.63 4:118.65 
1 1:117.16 2:118.63 3:118.65 4:119.56 
-0.5762967020521444 1:118.63 2:118.65 3:119.56 4:119.94 
