svm_type epsilon_svr
kernel_type rbf
gamma 0.25
nr_class 2
total_sv 4
rho -86.0674
SV
1 1:86.65 2:87.28 3:87.33 4:85.91 
0.2647638342196541 1:87.28 2:87.33 3:85.91 4:87.29 
-0.4588685128022749 1:87.33 2:85.91 3:87.29 4:86.34 
-0.8058953214173793 1:85.91 2:87.29 3:86.34 4:85.89 
