svm_type epsilon_svr
kernel_type rbf
gamma 0.25
nr_class 2
total_sv 5
rho -306.398
SV
-0.4574820141470409 1:316.92999 2:312.63 3:306.64001 4:312.5 
0.862606359290357 1:312.63 2:306.64001 3:312.5 4:305.84 
0.8229680683003333 1:306.64001 2:312.5 3:305.84 4:307.35999 
-0.2280924134436494 1:312.5 2:305.84 3:307.35999 4:307.32001 
-1 1:305.84 2:307.35999 3:307.32001 4:306.07001 
