svm_type epsilon_svr
kernel_type rbf
gamma 0.25
nr_class 2
total_sv 5
rho -46.7425
SV
1 1:46.76 2:46.33 3:45.65 4:46.23 
0.1756591550643354 1:46.33 2:45.65 3:46.23 4:47.59 
-0.1280919180439686 1:45.65 2:46.23 3:47.59 4:47.19 
-0.04756723702036672 1:46.23 2:47.59 3:47.19 4:46.6 
-1 1:47.59 2:47.19 3:46.6 4:46.36 
