svm_type epsilon_svr
kernel_type rbf
gamma 0.25
nr_class 2
total_sv 4
rho -26.8946
SV
1 1:27.83 2:27.89 3:28.06 4:27.51 
-1 1:27.89 2:28.06 3:27.51 4:27.27 
1 1:27.51 2:27.27 3:26.57 4:26.84 
-1 1:27.27 2:26.57 3:26.84 4:27.13 
