svm_type epsilon_svr
kernel_type rbf
gamma 0.25
nr_class 2
total_sv 5
rho -44.0847
SV
0.7885989781320546 1:44.2 2:44.47 3:45.1 4:44.95 
-0.4130098651103613 1:44.47 2:45.1 3:44.95 4:44.44 
1 1:45.1 2:44.95 3:44.44 4:44.13 
-1 1:44.95 2:44.44 3:44.13 4:44.15 
-0.3755891130216931 1:44.44 2:44.13 3:44.15 4:43.67 
