svm_type epsilon_svr
kernel_type rbf
gamma 0.25
nr_class 2
total_sv 5
rho -47.9099
SV
-0.1402406710636824 1:49.61 2:49.58 3:49.46 4:48.74 
1 1:49.58 2:49.46 3:48.74 4:48.22 
-0.06277799273981105 1:49.46 2:48.74 3:48.22 4:48.7 
-0.355188413282537 1:48.74 2:48.22 3:48.7 4:47.98 
-0.4417929229139695 1:48.22 2:48.7 3:47.98 4:47.59 
