svm_type epsilon_svr
kernel_type rbf
gamma 0.25
nr_class 2
total_sv 5
rho -48.3193
SV
0.02758820776083298 1:47.47 2:47.75 3:47.81 4:48.62 
-0.3046845988634836 1:47.75 2:47.81 3:48.62 4:48.46 
1 1:47.81 2:48.62 3:48.46 4:48.08 
0.2770963911026506 1:48.62 2:48.46 3:48.08 4:48.84 
-1 1:48.46 2:48.08 3:48.84 4:48.42 
