svm_type epsilon_svr
kernel_type rbf
gamma 0.25
nr_class 2
total_sv 5
rho -83.6306
SV
-0.8010757543217242 1:78.05 2:78.07 3:79.36 4:80.91 
0.1312770702915478 1:78.07 2:79.36 3:80.91 4:82.75 
0.5245636782233837 1:79.36 2:80.91 3:82.75 4:83.8 
1 1:80.91 2:82.75 3:83.8 4:84.43 
-0.8547649941932072 1:82.75 2:83.8 3:84.43 4:85.31 
