svm_type epsilon_svr
kernel_type rbf
gamma 0.25
nr_class 2
total_sv 4
rho -51.161
SV
-0.04307087059008276 1:52.17 2:51.94 3:51.62 4:51.2 
1 1:51.94 2:51.62 3:51.2 4:51.3 
-1 1:51.62 2:51.2 3:51.3 4:52.03 
0.04307087059008276 1:51.2 2:51.3 3:52.03 4:50.66 
