svm_type epsilon_svr
kernel_type rbf
gamma 0.25
nr_class 2
total_sv 5
rho -77.295
SV
-0.03608835614743557 1:74.88 2:75.24 3:76.36 4:76.52 
-1 1:75.24 2:76.36 3:76.52 4:76.84 
0.8169797155285742 1:76.36 2:76.52 3:76.84 4:76.18 
0.8569846500807674 1:76.52 2:76.84 3:76.18 4:77.73 
-0.637876009461906 1:76.84 2:76.18 3:77.73 4:77.83 
