svm_type epsilon_svr
kernel_type rbf
gamma 0.25
nr_class 2
total_sv 5
rho -64.9145
SV
0.6867550687556163 1:63.34 2:63.19 3:62.5 4:62.88 
0.7602815453998288 1:63.19 2:62.5 3:62.88 4:65.77 
-0.5913174499286591 1:62.5 2:62.88 3:65.77 4:65.78 
-0.2393527706743833 1:62.88 2:65.77 3:65.78 4:64.29 
-0.6163663935524026 1:65.77 2:65.78 3:64.29 4:64.5 
