svm_type epsilon_svr
kernel_type rbf
gamma 0.25
nr_class 2
total_sv 5
rho -48.2065
SV
-0.682486959290014 1:46.62 2:46.05 3:46.95 4:47.44 
-0.5685308070010505 1:46.05 2:46.95 3:47.44 4:47.57 
1 1:46.95 2:47.44 3:47.57 4:47.86 
-0.01624740584348168 1:47.44 2:47.57 3:47.86 4:48.7 
0.2672651721345462 1:47.57 2:47.86 3:48.7 4:48.68 
