svm_type epsilon_svr
kernel_type rbf
gamma 0.25
nr_class 2
total_sv 4
rho -52.0362
SV
-1 1:49.89 2:50.08 3:50.47 4:50.42 
1 1:50.08 2:50.47 3:50.42 4:50.84 
0.03118876604735044 1:50.47 2:50.42 3:50.84 4:52.87 
-0.03118876604735044 1:50.84 2:52.87 3:52.3 4:52.17 
