svm_type epsilon_svr
kernel_type rbf
gamma 0.25
nr_class 2
total_sv 4
rho -49.9247
SV
1 1:51.85 2:53.94 3:53.49 4:53.53 
1 1:53.94 2:53.49 3:53.53 4:55.42 
-1 1:53.53 2:55.42 3:55.29 4:50.4 
-1 1:55.42 2:55.29 3:50.4 4:48.49 
