svm_type epsilon_svr
kernel_type rbf
gamma 0.25
nr_class 2
total_sv 5
rho -99.9655
SV
-0.3844573824643835 1:100.11 2:100.75 3:99.18 4:99.9 
-0.6155426175356165 1:100.75 2:99.18 3:99.9 4:99.62 
-1 1:99.18 2:99.9 3:99.62 4:99.62 
1 1:99.9 2:99.62 3:99.62 4:98.75 
1 1:99.62 2:99.62 3:98.75 4:100.8 
