svm_type epsilon_svr
kernel_type rbf
gamma 0.25
nr_class 2
total_sv 5
rho -604.05
SV
-1 1:585.53998 2:592.83002 3:593.76001 4:593.87 
-1 1:592.83002 2:593.76001 3:593.87 4:588.82001 
0.4400350000057074 1:593.76001 2:593.87 3:588.82001 4:597.50995 
0.5599649999942926 1:593.87 2:588.82001 3:597.50995 4:604.59003 
1 1:588.82001 2:597.50995 3:604.59003 4:604.70996 
