svm_type epsilon_svr
kernel_type rbf
gamma 0.25
nr_class 2
total_sv 4
rho -17.4548
SV
-0.9644385580259727 1:16.79 2:16.71 3:16.69 4:16.89 
1 1:16.71 2:16.69 3:16.89 4:17.33 
0.1178247090719588 1:16.69 2:16.89 3:17.33 4:17.68 
-0.1533861510459861 1:16.89 2:17.33 3:17.68 4:17.71 
