svm_type epsilon_svr
kernel_type rbf
gamma 0.25
nr_class 2
total_sv 4
rho -78.408
SV
-0.3597090574744085 1:80.29 2:80.15 3:79.74 4:79.24 
-0.368184604832044 1:79.74 2:79.24 3:77.88 4:78.14 
-0.1682710069832857 1:79.24 2:77.88 3:78.14 4:78.03 
0.8961646692897383 1:77.88 2:78.14 3:78.03 4:78.43 
