svm_type epsilon_svr
kernel_type rbf
gamma 0.25
nr_class 2
total_sv 5
rho -76.9415
SV
-0.9776282176376659 1:73.86 2:74.82 3:76.68 4:75.83 
0.2886095333438365 1:74.82 2:76.68 3:75.83 4:75.95 
1 1:76.68 2:75.83 3:75.95 4:77.26 
-0.8341272784238427 1:75.83 2:75.95 3:77.26 4:77.89 
0.5231459627176722 1:75.95 2:77.26 3:77.89 4:76.67 
