svm_type epsilon_svr
kernel_type rbf
gamma 0.25
nr_class 2
total_sv 4
rho -42.0331
SV
-1 1:41.9 2:41.8 3:41.99 4:41.78 
-1 1:41.8 2:41.99 3:41.78 4:41.67 
1 1:41.99 2:41.78 3:41.67 4:41.69 
1 1:41.67 2:41.69 3:42.09 4:42.14 
