svm_type epsilon_svr
kernel_type rbf
gamma 0.25
nr_class 2
total_sv 5
rho -58.7724
SV
-1 1:60.46 2:61.22 3:58.53 4:57.39 
-1 1:61.22 2:58.53 3:57.39 4:56.76 
0.9684911401229249 1:58.53 2:57.39 3:56.76 4:57.24 
0.8115004573472561 1:57.39 2:56.76 3:57.24 4:59.83 
0.220008402529819 1:56.76 2:57.24 3:59.83 4:59.83 
