svm_type epsilon_svr
kernel_type rbf
gamma 0.25
nr_class 2
total_sv 4
rho -41.8648
SV
1 1:41.99 2:41.75 3:42.03 4:41.72 
-0.5467682781356106 1:41.75 2:42.03 3:41.72 4:42.25 
-0.03338153272952571 1:42.03 2:41.72 3:42.25 4:41.7 
-0.4198501891348637 1:42.25 2:41.7 3:41.87 4:41.9 
