svm_type epsilon_svr
kernel_type rbf
gamma 0.25
nr_class 2
total_sv 5
rho -126.748
SV
-0.3872963330306362 1:125.6 2:126.56 3:127.1 4:126.85 
1 1:126.56 2:127.1 3:126.85 4:126.3 
-0.6127036669693637 1:127.1 2:126.85 3:126.3 4:126.78 
-1 1:126.85 2:126.3 3:126.78 4:126.17 
1 1:126.3 2:126.78 3:126.17 4:124.75 
