svm_type epsilon_svr
kernel_type rbf
gamma 0.25
nr_class 2
total_sv 4
rho -51.5737
SV
-0.137820770601349 1:53 2:51.94 3:52.17 4:52.96 
0.7008011834840242 1:51.94 2:52.17 3:52.96 4:51.45 
0.4370195871173248 1:52.17 2:52.96 3:51.45 4:51.89 
-1 1:51.45 2:51.89 3:51.74 4:51.58 
