svm_type epsilon_svr
kernel_type rbf
gamma 0.25
nr_class 2
total_sv 5
rho -27.2884
SV
-0.9166121670775047 1:27.3 2:26.6 3:28.02 4:27.37 
-0.7627085076906042 1:26.6 2:28.02 3:27.37 4:27.26 
0.4630566698712237 1:28.02 2:27.37 3:27.26 4:27.03 
0.2162640048968851 1:27.37 2:27.26 3:27.03 4:27.74 
1 1:27.26 2:27.03 3:27.74 4:27.69 
