svm_type epsilon_svr
kernel_type rbf
gamma 0.25
nr_class 2
total_sv 4
rho -48.6312
SV
0.01327787854250301 1:47.82 2:48.7 3:49.11 4:48.47 
-0.01327787854250301 1:48.7 2:49.11 3:48.47 4:48.69 
1 1:49.11 2:48.47 3:48.69 4:48.55 
-1 1:48.47 2:48.69 3:48.55 4:49.41 
