svm_type epsilon_svr
kernel_type rbf
gamma 0.25
nr_class 2
total_sv 4
rho -18.9913
SV
-1 1:18.95 2:18.83 3:18.86 4:18.97 
-1 1:18.83 2:18.86 3:18.97 4:18.87 
1 1:18.97 2:18.87 3:18.83 4:18.9 
1 1:18.87 2:18.83 3:18.9 4:19.11 
