svm_type epsilon_svr
kernel_type rbf
gamma 0.25
nr_class 2
total_sv 4
rho -46.6029
SV
-0.108630849595456 1:45.26 2:45.91 3:46.47 4:46.76 
1 1:45.91 2:46.47 3:46.76 4:46.84 
0.108630849595456 1:46.47 2:46.76 3:46.84 4:47 
-1 1:46.76 2:46.84 3:47 4:46.7 
