svm_type epsilon_svr
kernel_type rbf
gamma 0.25
nr_class 2
total_sv 4
rho -75.7029
SV
0.02756278394531143 1:74.99 2:75.7 3:75.87 4:75.68 
1 1:75.7 2:75.87 3:75.68 4:75.79 
-0.02756278394531143 1:75.87 2:75.68 3:75.79 4:75.97 
-1 1:75.68 2:75.79 3:75.97 4:75.62 
