svm_type epsilon_svr
kernel_type rbf
gamma 0.25
nr_class 2
total_sv 5
rho -82.8994
SV
-0.1008959457685839 1:80.69 2:81.9 3:81.9 4:83.29 
-0.07726836314517965 1:81.9 2:81.9 3:83.29 4:82.62 
-1 1:81.9 2:83.29 3:82.62 4:82.53 
0.4656635333203052 1:83.29 2:82.62 3:82.53 4:81.52 
0.7125007755934585 1:82.62 2:82.53 3:81.52 4:83.24 
