svm_type epsilon_svr
kernel_type rbf
gamma 0.25
nr_class 2
total_sv 5
rho -20.428
SV
0.5061320799864411 1:22.16 2:21.15 3:20.7 4:20.79 
0.529381498856741 1:21.15 2:20.7 3:20.79 4:20.74 
-1 1:20.7 2:20.79 3:20.74 4:20.33 
-1 1:20.79 2:20.74 3:20.33 4:19.72 
0.9644864211568178 1:20.74 2:20.33 3:19.72 4:19.72 
