svm_type epsilon_svr
kernel_type rbf
gamma 0.25
nr_class 2
total_sv 3
rho -32.7111
SV
-0.3204458165615229 1:33.47 2:33.47 3:33.13 4:32.84 
0.8910810351151148 1:33.13 2:32.84 3:32.61 4:32.75 
-0.570635218553592 1:32.61 2:32.75 3:32.92 4:32.8 
