svm_type epsilon_svr
kernel_type rbf
gamma 0.25
nr_class 2
total_sv 5
rho -43.9987
SV
-0.2658177388183432 1:42.94 2:42.57 3:43.07 4:42.96 
1 1:42.57 2:43.07 3:42.96 4:43.93 
-0.9465048259163747 1:43.07 2:42.96 3:43.93 4:44.42 
-0.3957922905914062 1:42.96 2:43.93 3:44.42 4:43.53 
0.6081148553261242 1:43.93 2:44.42 3:43.53 4:43.65 
