svm_type epsilon_svr
kernel_type rbf
gamma 0.25
nr_class 2
total_sv 5
rho -30.3536
SV
0.5441702153362995 1:30.68 2:30.35 3:30.45 4:30.35 
-1 1:30.35 2:30.45 3:30.35 4:30.28 
-1 1:30.45 2:30.35 3:30.28 4:29.78 
0.4558297846637006 1:30.35 2:30.28 3:29.78 4:29.77 
1 1:30.28 2:29.78 3:29.77 4:30.4 
