svm_type epsilon_svr
kernel_type rbf
gamma 0.25
nr_class 2
total_sv 5
rho -109.044
SV
-0.6129481251341951 1:108 2:109.4 3:108.6 4:108.86 
-0.3870518748658049 1:109.4 2:108.6 3:108.86 4:108.7 
-1 1:108.6 2:108.86 3:108.7 4:109.01 
1 1:108.86 2:108.7 3:109.01 4:108.83 
1 1:108.7 2:109.01 3:108.83 4:109.7 
