svm_type epsilon_svr
kernel_type rbf
gamma 0.25
nr_class 2
total_sv 5
rho -124.073
SV
-0.5923393873836887 1:127.5 2:125.9 3:127.21 4:126.69 
0.10039878989213 1:125.9 2:127.21 3:126.69 4:123.38 
-0.7630266870188877 1:127.21 2:126.69 3:123.38 4:124.24 
1 1:126.69 2:123.38 3:124.24 4:123.25 
0.2549672845104465 1:123.38 2:124.24 3:123.25 4:126.37 
