svm_type epsilon_svr
kernel_type rbf
gamma 0.25
nr_class 2
total_sv 4
rho -48.4039
SV
1 1:47.82 2:48.7 3:49.11 4:48.47 
1 1:49.11 2:48.47 3:48.69 4:48.55 
-1 1:48.47 2:48.69 3:48.55 4:49.41 
-1 1:48.69 2:48.55 3:49.41 4:48.08 
