svm_type epsilon_svr
kernel_type rbf
gamma 0.25
nr_class 2
total_sv 5
rho -46.3193
SV
-0.4695523621139445 1:44.88 2:44.38 3:45.02 4:46.13 
0.2478759846734131 1:44.38 2:45.02 3:46.13 4:45.91 
0.2216763774405315 1:45.02 2:46.13 3:45.91 4:46.49 
-1 1:46.13 2:45.91 3:46.49 4:46.62 
1 1:45.91 2:46.49 3:46.62 4:46.05 
