svm_type epsilon_svr
kernel_type rbf
gamma 0.25
nr_class 2
total_sv 5
rho -77.0671
SV
-1 1:78.02 2:78.45 3:77.19 4:76.15 
1 1:78.45 2:77.19 3:76.15 4:76.15 
0.5543496382910807 1:77.19 2:76.15 3:76.15 4:78.18 
-0.3222959075367544 1:76.15 2:76.15 3:78.18 4:77.74 
-0.2320537307543264 1:76.15 2:78.18 3:77.74 4:76.72 
