svm_type epsilon_svr
kernel_type rbf
gamma 0.25
nr_class 2
total_sv 3
rho -32.2748
SV
0.6360492937262519 1:32.05 2:33.94 3:33.39 4:32.85 
0.01971591739330501 1:33.94 2:33.39 3:32.85 4:32.77 
-0.6557652111195568 1:32.85 2:32.77 3:32.26 4:32.07 
