svm_type epsilon_svr
kernel_type rbf
gamma 0.25
nr_class 2
total_sv 5
rho -49.3148
SV
-1 1:48.7 2:48.68 3:48.89 4:48.87 
1 1:48.68 2:48.89 3:48.87 4:48.78 
0.5318279784347841 1:48.89 2:48.87 3:48.78 4:49.61 
0.4681720215652158 1:48.87 2:48.78 3:49.61 4:49.58 
-1 1:48.78 2:49.61 3:49.58 4:49.46 
