svm_type epsilon_svr
kernel_type rbf
gamma 0.25
nr_class 2
total_sv 4
rho -23.2497
SV
-0.5973407145321813 1:21.91 2:22.17 3:22.6 4:23.37 
0.336944479195136 1:22.17 2:22.6 3:23.37 4:23.06 
0.6778974283701431 1:22.6 2:23.37 3:23.06 4:23.46 
-0.4175011930330977 1:23.06 2:23.46 3:23.57 4:23.29 
