svm_type epsilon_svr
kernel_type rbf
gamma 0.25
nr_class 2
total_sv 4
rho -50.8883
SV
0.6497986129665322 1:48.85 2:50.12 3:50.91 4:50.88 
-1 1:50.12 2:50.91 3:50.88 4:51.15 
0.4726742437066715 1:50.88 2:51.15 3:50.02 4:50.65 
-0.1224728566732038 1:51.15 2:50.02 3:50.65 4:50.86 
