svm_type epsilon_svr
kernel_type rbf
gamma 0.25
nr_class 2
total_sv 4
rho -74.1603
SV
-0.1968596750739442 1:75.6 2:75 3:74.61 4:74.72 
1 1:75 2:74.61 3:74.72 4:74.25 
0.1968596750739442 1:74.61 2:74.72 3:74.25 4:74.88 
-1 1:74.25 2:74.88 3:74.24 4:74.34 
