svm_type epsilon_svr
kernel_type rbf
gamma 0.25
nr_class 2
total_sv 5
rho -74.4204
SV
-1 1:66.41 2:68.42 3:69.4 4:69.27 
0.5562124236626278 1:68.42 2:69.4 3:69.27 4:71.29 
0.6598149926364482 1:69.4 2:69.27 3:71.29 4:74.98 
0.399065738469501 1:69.27 2:71.29 3:74.98 4:75.19 
-0.615093154768577 1:71.29 2:74.98 3:75.19 4:74.92 
