svm_type epsilon_svr
kernel_type rbf
gamma 0.25
nr_class 2
total_sv 5
rho -18.1474
SV
-1 1:17.33 2:17.68 3:17.71 4:17.47 
1 1:17.68 2:17.71 3:17.47 4:17.53 
-0.3722310375043916 1:17.71 2:17.47 3:17.53 4:18.43 
0.5404386068605991 1:17.47 2:17.53 3:18.43 4:18.02 
-0.1682075693562075 1:17.53 2:18.43 3:18.02 4:18.3 
