svm_type epsilon_svr
kernel_type rbf
gamma 0.25
nr_class 2
total_sv 4
rho -36.5449
SV
1 1:37.08 2:38.43 3:37.57 4:37.61 
-0.9408113367533348 1:37.57 2:37.61 3:37.6 4:36.42 
-0.5314819865979109 1:37.61 2:37.6 3:36.42 4:35.86 
0.4722933233512457 1:37.6 2:36.42 3:35.86 4:35.87 
