svm_type epsilon_svr
kernel_type rbf
gamma 0.25
nr_class 2
total_sv 5
rho -309.89
SV
-1 1:295.19 2:297.70001 3:296.76001 4:301.19 
-1 1:297.70001 2:296.76001 3:301.19 4:305.01001 
1 1:296.76001 2:301.19 3:305.01001 4:304.91 
0.830005007455763 1:301.19 2:305.01001 3:304.91 4:312.23999 
0.169994992544237 1:305.01001 2:304.91 3:312.23999 4:310.82001 
