svm_type epsilon_svr
kernel_type rbf
gamma 0.25
nr_class 2
total_sv 5
rho -28.1037
SV
-1 1:26.69 2:26.54 3:26.78 4:27.09 
-1 1:26.54 2:26.78 3:27.09 4:26.78 
0.5026494382833506 1:26.78 2:27.09 3:26.78 4:27.26 
1 1:27.09 2:26.78 3:27.26 4:27.85 
0.4973505617166493 1:26.78 2:27.26 3:27.85 4:29.35 
