svm_type epsilon_svr
kernel_type rbf
gamma 0.25
nr_class 2
total_sv 4
rho -37.8575
SV
1 1:37.57 2:37.83 3:39.07 4:39.42 
0.8005801400863791 1:37.83 2:39.07 3:39.42 4:40.1 
-0.9098289824875506 1:39.07 2:39.42 3:40.1 4:38.92 
-0.8907511575988285 1:39.42 2:40.1 3:38.92 4:37.15 
