svm_type epsilon_svr
kernel_type rbf
gamma 0.25
nr_class 2
total_sv 5
rho -44.2457
SV
-0.1722386571524937 1:49.44 2:47.99 3:46.46 4:43.73 
0.3279450227763293 1:47.99 2:46.46 3:43.73 4:43.99 
0.4083719165433582 1:46.46 2:43.73 3:43.99 4:44.69 
0.4147134088275478 1:43.73 2:43.99 3:44.69 4:44.7 
-0.9787916909947415 1:43.99 2:44.69 3:44.7 4:44.05 
