svm_type epsilon_svr
kernel_type rbf
gamma 0.25
nr_class 2
total_sv 3
rho -20.4206
SV
0.04246494008354948 1:20.86 2:21.32 3:21.27 4:21.17 
0.5122043221103363 1:21.27 2:21.17 3:20.58 4:20.47 
-0.5546692621938858 1:21.17 2:20.58 3:20.47 4:20.56 
