svm_type epsilon_svr
kernel_type rbf
gamma 0.25
nr_class 2
total_sv 4
rho -99.9485
SV
0.07195716786858607 1:102.64 2:101.75 3:97.87 4:100.75 
0.7074373233526471 1:101.75 2:97.87 3:100.75 4:100.11 
-0.64379156728998 1:97.87 2:100.75 3:100.11 4:100.75 
-0.1356029239312531 1:100.11 2:100.75 3:99.18 4:99.9 
