svm_type epsilon_svr
kernel_type rbf
gamma 0.25
nr_class 2
total_sv 4
rho -27.4251
SV
0.05049014423852593 1:25.69 2:26.06 3:26.1 4:27.11 
-1 1:26.06 2:26.1 3:27.11 4:27.3 
1 1:26.1 2:27.11 3:27.3 4:26.6 
-0.05049014423852593 1:27.3 2:26.6 3:28.02 4:27.37 
