svm_type epsilon_svr
kernel_type rbf
gamma 0.25
nr_class 2
total_sv 5
rho -313.253
SV
0.2966050354162917 1:320 2:322.51001 3:312.98999 4:307.06 
-0.8325051550955891 1:322.51001 2:312.98999 3:307.06 4:313.64999 
0.5359001196792974 1:312.98999 2:307.06 3:313.64999 4:312.32001 
-1 1:307.06 2:313.64999 3:312.32001 4:313.89001 
1 1:313.64999 2:312.32001 3:313.89001 4:311.45001 
