svm_type epsilon_svr
kernel_type rbf
gamma 0.25
nr_class 2
total_sv 5
rho -551.61
SV
-0.3300199999999904 1:575.33002 2:567.685 3:568.84998 4:555.01001 
1 1:567.685 2:568.84998 3:555.01001 4:551.17999 
-1 1:568.84998 2:555.01001 3:551.17999 4:555.51001 
1 1:555.01001 2:551.17999 3:555.51001 4:547.32001 
-0.6699800000000096 1:551.17999 2:555.51001 3:547.32001 4:554.51001 
