svm_type epsilon_svr
kernel_type rbf
gamma 0.25
nr_class 2
total_sv 5
rho -124.099
SV
0.3634456389007564 1:128.53999 2:126.41 3:126.6 4:127.14 
-1 1:126.41 2:126.6 3:127.14 4:124.51 
0.3010268453490343 1:126.6 2:127.14 3:124.51 4:122.24 
-0.4209907475236443 1:127.14 2:124.51 3:122.24 4:124.45 
0.7565182632738536 1:124.51 2:122.24 3:124.45 4:123.59 
