svm_type epsilon_svr
kernel_type rbf
gamma 0.25
nr_class 2
total_sv 3
rho -32.937
SV
-0.9177365349167993 1:33.03 2:33.3 3:32.86 4:32.87 
0.1934088546749935 1:33.3 2:32.86 3:32.87 4:32.78 
0.7243276802418057 1:32.86 2:32.87 3:32.78 4:33.05 
