svm_type epsilon_svr
kernel_type rbf
gamma 0.25
nr_class 2
total_sv 4
rho -47.6245
SV
-1 1:45.87 2:45.43 3:45.63 4:46.05 
0.1521940814751605 1:45.43 2:45.63 3:46.05 4:46.34 
-0.1521940814751605 1:46.05 2:46.34 3:47.08 4:47.46 
1 1:46.34 2:47.08 3:47.46 4:47.93 
