svm_type epsilon_svr
kernel_type rbf
gamma 0.25
nr_class 2
total_sv 5
rho -16.5532
SV
1 1:17.51 2:17.55 3:17.49 4:17.38 
1 1:17.55 2:17.49 3:17.38 4:17.45 
-1 1:17.49 2:17.38 3:17.45 4:17.64 
-0.8001153996839943 1:17.38 2:17.45 3:17.64 4:16.5 
-0.1998846003160057 1:17.45 2:17.64 3:16.5 4:16.39 
