svm_type epsilon_svr
kernel_type rbf
gamma 0.25
nr_class 2
total_sv 5
rho -74.4277
SV
0.7693859783408006 1:75.26 2:75.6 3:75 4:74.61 
-1 1:75.6 2:75 3:74.61 4:74.72 
1 1:75 2:74.61 3:74.72 4:74.25 
-0.286393893323317 1:74.61 2:74.72 3:74.25 4:74.88 
-0.4829920850174836 1:74.72 2:74.25 3:74.88 4:74.24 
