svm_type epsilon_svr
kernel_type rbf
gamma 0.25
nr_class 2
total_sv 3
rho -37.6063
SV
-0.7138221509829147 1:36.85 2:35.13 3:35.57 4:36.73 
1 1:35.13 2:35.57 3:36.73 4:37.08 
-0.2861778490170853 1:35.57 2:36.73 3:37.08 4:38.43 
