svm_type epsilon_svr
kernel_type rbf
gamma 0.25
nr_class 2
total_sv 4
rho -87.4666
SV
1 1:86.69 2:86.64 3:88.3 4:88.51 
-1 1:88.3 2:88.51 3:88.63 4:87.53 
1 1:88.51 2:88.63 3:87.53 4:86.82 
-1 1:88.63 2:87.53 3:86.82 4:87.72 
