svm_type epsilon_svr
kernel_type rbf
gamma 0.25
nr_class 2
total_sv 4
rho -74.1899
SV
-1 1:73.54 2:73.54 3:73.34 4:74.2 
1 1:73.54 2:73.34 3:74.2 4:73.95 
0.5789509038014092 1:73.34 2:74.2 3:73.95 4:74.67 
-0.5789509038014092 1:73.95 2:74.67 3:74.36 4:74.22 
