svm_type epsilon_svr
kernel_type rbf
gamma 0.25
nr_class 2
total_sv 4
rho -75.7134
SV
-0.03727134505352575 1:73.9 2:74.49 3:74.88 4:74.96 
0.162875411491166 1:74.49 2:74.88 3:74.96 4:75.55 
-0.8455469758322917 1:74.96 2:75.55 3:75.73 4:75.69 
0.7199429093946514 1:75.55 2:75.73 3:75.69 4:75.52 
