svm_type epsilon_svr
kernel_type rbf
gamma 0.25
nr_class 2
total_sv 5
rho -47.3959
SV
0.9654417551904118 1:46.47 2:47.63 3:48.18 4:48.89 
1 1:47.63 2:48.18 3:48.89 4:48.95 
0.03455824480958822 1:48.18 2:48.89 3:48.95 4:49.44 
-1 1:48.89 2:48.95 3:49.44 4:47.99 
-1 1:48.95 2:49.44 3:47.99 4:46.46 
