svm_type epsilon_svr
kernel_type rbf
gamma 0.25
nr_class 2
total_sv 5
rho -27.1243
SV
-1 1:26.82 2:26.57 3:25.69 4:26.06 
0.4246449658586006 1:26.57 2:25.69 3:26.06 4:26.1 
0.5753550341413994 1:25.69 2:26.06 3:26.1 4:27.11 
-1 1:26.06 2:26.1 3:27.11 4:27.3 
1 1:26.1 2:27.11 3:27.3 4:26.6 
