svm_type epsilon_svr
kernel_type rbf
gamma 0.25
nr_class 2
total_sv 5
rho -89.5507
SV
-1 1:85.88 2:85.9 3:85.65 4:86.31 
1 1:85.9 2:85.65 3:86.31 4:88.6 
-0.2280711292919698 1:85.65 2:86.31 3:88.6 4:90.47 
0.3975354607594052 1:86.31 2:88.6 3:90.47 4:89.35 
-0.1694643314674354 1:88.6 2:90.47 3:89.35 4:90.02 
