svm_type epsilon_svr
kernel_type rbf
gamma 0.25
nr_class 2
total_sv 5
rho -32.1117
SV
-1 1:31.8 2:31.62 3:31.48 4:31.57 
-1 1:31.62 2:31.48 3:31.57 4:31.59 
0.5951296959096023 1:31.48 2:31.57 3:31.59 4:31.33 
1 1:31.57 2:31.59 3:31.33 4:32.04 
0.4048703040903977 1:31.59 2:31.33 3:32.04 4:32.28 
