svm_type epsilon_svr
kernel_type rbf
gamma 0.25
nr_class 2
total_sv 5
rho -79.2843
SV
-0.823898962105842 1:76.28 2:77.26 3:77.7 4:77.81 
1 1:77.26 2:77.7 3:77.81 4:78.77 
-0.7753416824318067 1:77.7 2:77.81 3:78.77 4:79.44 
-0.4007593554623514 1:77.81 2:78.77 3:79.44 4:79.01 
1 1:78.77 2:79.44 3:79.01 4:79.2 
