svm_type epsilon_svr
kernel_type rbf
gamma 0.25
nr_class 2
total_sv 5
rho -106.175
SV
-0.7971140240539977 1:99.76 2:102.47 3:102.99 4:104.83 
-1 1:102.47 2:102.99 3:104.83 4:105.22 
0.6650756848986467 1:102.99 2:104.83 3:105.22 4:105.11 
0.8237210017518573 1:104.83 2:105.22 3:105.11 4:106.74 
0.3083173374034937 1:105.22 2:105.11 3:106.74 4:107.34 
