svm_type epsilon_svr
kernel_type rbf
gamma 0.25
nr_class 2
total_sv 4
rho -91.218
SV
1 1:92.29 2:91.28 3:92.2 4:92.08 
1 1:91.28 2:92.2 3:92.08 4:92.18 
-1 1:92.2 2:92.08 3:92.18 4:91.86 
-1 1:92.18 2:91.86 3:90.91 4:90.83 
