svm_type epsilon_svr
kernel_type rbf
gamma 0.25
nr_class 2
total_sv 5
rho -29.31
SV
-1 1:26.78 2:27.09 3:26.78 4:27.26 
1 1:27.09 2:26.78 3:27.26 4:27.85 
-0.5818952986004994 1:26.78 2:27.26 3:27.85 4:29.35 
0.01428375891074232 1:27.26 2:27.85 3:29.35 4:28.97 
0.5676115396897571 1:27.85 2:29.35 3:28.97 4:29.52 
