svm_type epsilon_svr
kernel_type rbf
gamma 0.25
nr_class 2
total_sv 4
rho -39.3332
SV
-1 1:35.87 2:36.56 3:36.38 4:38.76 
-0.08151277510597169 1:36.56 2:36.38 3:38.76 4:37.28 
0.9509479740451154 1:36.38 2:38.76 3:37.28 4:39.09 
0.1305648010608563 1:37.28 2:39.09 3:40.17 4:39.37 
