svm_type epsilon_svr
kernel_type rbf
gamma 0.25
nr_class 2
total_sv 5
rho -31.6429
SV
-0.2049675775919453 1:30.8 2:31.05 3:31 4:31.03 
-1 1:31.05 2:31 3:31.03 4:31.44 
1 1:31 2:31.03 3:31.44 4:31.47 
0.1340237580707313 1:31.03 2:31.44 3:31.47 4:31.83 
0.07094381952121402 1:31.44 2:31.47 3:31.83 4:31.84 
