svm_type epsilon_svr
kernel_type rbf
gamma 0.25
nr_class 2
total_sv 3
rho -95.4622
SV
0.5776320817762108 1:99.02 2:98.38 3:98.15 4:95.6 
-0.207621416268087 1:98.15 2:95.6 3:96.13 4:95.59 
-0.3700106655081238 1:95.6 2:96.13 3:95.59 4:95.12 
