svm_type epsilon_svr
kernel_type rbf
gamma 0.25
nr_class 2
total_sv 4
rho -309.09
SV
-1 1:298.88 2:297.73001 3:299.89999 4:306.54001 
-1 1:297.73001 2:299.89999 3:306.54001 4:306.29001 
1 1:306.54001 2:306.29001 3:303.03 4:309.09 
1 1:306.29001 2:303.03 3:309.09 4:312.04001 
