svm_type epsilon_svr
kernel_type rbf
gamma 0.25
nr_class 2
total_sv 5
rho -322.647
SV
1 1:325 2:331.32001 3:324.5 4:323.63 
-0.617446562449574 1:331.32001 2:324.5 3:323.63 4:328.20999 
0.4625551613093602 1:324.5 2:323.63 3:328.20999 4:321.92999 
-0.7376562720040474 1:323.63 2:328.20999 3:321.92999 4:323.20999 
-0.1074523268557389 1:328.20999 2:321.92999 3:323.20999 4:321.82001 
