svm_type epsilon_svr
kernel_type rbf
gamma 0.25
nr_class 2
total_sv 4
rho -32.0999
SV
-0.5906598214663336 1:31.09 2:31.45 3:31.07 4:31.11 
-0.6945104181419697 1:31.45 2:31.07 3:31.11 4:31.62 
0.608057179233599 1:31.07 2:31.11 3:31.62 4:31.74 
0.6771130603747042 1:31.62 2:31.74 3:32.19 4:32.27 
