svm_type epsilon_svr
kernel_type rbf
gamma 0.25
nr_class 2
total_sv 4
rho -32.9484
SV
0.1273224307983416 1:32.55 2:32.47 3:32.46 4:32.8 
-0.4331423738175555 1:32.46 2:32.8 3:33.07 4:32.98 
-0.6941800569807861 1:32.8 2:33.07 3:32.98 4:32.75 
1 1:33.07 2:32.98 3:32.75 4:32.82 
