svm_type epsilon_svr
kernel_type rbf
gamma 0.25
nr_class 2
total_sv 4
rho -44.1915
SV
0.4984544684909387 1:45.53 2:45.73 3:45.78 4:44.45 
0.2316041236529434 1:45.73 2:45.78 3:44.45 4:44.66 
-0.1563340546587953 1:45.78 2:44.45 3:44.66 4:44.49 
-0.5737245374850868 1:44.45 2:44.66 3:44.49 4:43.98 
