svm_type epsilon_svr
kernel_type rbf
gamma 0.25
nr_class 2
total_sv 4
rho -43.4232
SV
0.3624492027344778 1:46.3 2:45.19 3:44.13 4:43.47 
0.00237468195966069 1:45.19 2:44.13 3:43.47 4:43.83 
-0.4235567127276997 1:44.13 2:43.47 3:43.83 4:43.46 
0.05873282803356129 1:43.83 2:43.46 3:43 4:43.13 
