svm_type epsilon_svr
kernel_type rbf
gamma 0.25
nr_class 2
total_sv 5
rho -75.9659
SV
0.3796987564538116 1:76.15 2:78.18 3:77.74 4:76.72 
0.8764334759825313 1:78.18 2:77.74 3:76.72 4:76.45 
-1 1:77.74 2:76.72 3:76.45 4:76.28 
-0.6411440828606852 1:76.72 2:76.45 3:76.28 4:74.05 
0.3850118504243423 1:76.45 2:76.28 3:74.05 4:75.18 
