svm_type epsilon_svr
kernel_type rbf
gamma 0.25
nr_class 2
total_sv 5
rho -119.305
SV
-0.7294974052677151 1:115.31 2:118.9 3:117.16 4:118.63 
0.162447623229077 1:118.9 2:117.16 3:118.63 4:118.65 
0.916459092164684 1:117.16 2:118.63 3:118.65 4:119.56 
-1 1:118.63 2:118.65 3:119.56 4:119.94 
0.6505906898739541 1:118.65 2:119.56 3:119.94 4:118.93 
