svm_type epsilon_svr
kernel_type rbf
gamma 0.25
nr_class 2
total_sv 4
rho -19.2779
SV
-1 1:18.97 2:18.87 3:18.83 4:18.9 
1 1:18.83 2:18.9 3:19.11 4:19.4 
1 1:18.9 2:19.11 3:19.4 4:19.71 
-1 1:19.11 2:19.4 3:19.71 4:19.62 
