svm_type epsilon_svr
kernel_type rbf
gamma 0.25
nr_class 2
total_sv 4
rho -126.505
SV
0.7252753468974823 1:126.37 2:124.43 3:124.25 4:125.32 
-0.3579682322115236 1:124.43 2:124.25 3:125.32 4:127.35 
-0.7734138165799446 1:124.25 2:125.32 3:127.35 4:126.01 
0.4061067018939858 1:127.35 2:126.01 3:125.6 4:126.56 
