svm_type epsilon_svr
kernel_type rbf
gamma 0.25
nr_class 2
total_sv 4
rho -34.7136
SV
-0.2800439770201231 1:32.44 2:31.75 3:32.58 4:32.9 
-1 1:31.75 2:32.58 3:32.9 4:33.89 
0.8024075927882968 1:32.9 2:33.89 3:33.33 4:34.47 
0.4776363842318264 1:33.89 2:33.33 3:34.47 4:35.37 
