svm_type epsilon_svr
kernel_type rbf
gamma 0.25
nr_class 2
total_sv 3
rho -48.1178
SV
-0.9580326489629991 1:45.43 2:45.63 3:46.05 4:46.34 
-0.04196735103700085 1:46.34 2:47.08 3:47.46 4:47.93 
1 1:47.08 2:47.46 3:47.93 4:48.55 
