svm_type epsilon_svr
kernel_type rbf
gamma 0.25
nr_class 2
total_sv 3
rho -42.2634
SV
-0.4594239574490024 1:42.01 2:40.4 3:41.28 4:41.6 
0.183876189280988 1:40.4 2:41.28 3:41.6 4:41.84 
0.2755477681680144 1:41.84 2:42.45 3:42.41 4:42.36 
