svm_type epsilon_svr
kernel_type rbf
gamma 0.25
nr_class 2
total_sv 3
rho -35.0988
SV
-0.7140056248865954 1:33.01 2:33.35 3:34.31 4:33.94 
1 1:33.35 2:34.31 3:33.94 4:34.84 
-0.2859943751134046 1:33.94 2:34.84 3:35.73 4:35.2 
