svm_type epsilon_svr
kernel_type rbf
gamma 0.25
nr_class 2
total_sv 3
rho -18.1211
SV
-1 1:17.75 2:17.34 3:17.42 4:17.37 
0.8769058563159713 1:17.37 2:17.36 3:17.94 4:18.07 
0.1230941436840287 1:17.36 2:17.94 3:18.07 4:18.41 
