svm_type epsilon_svr
kernel_type rbf
gamma 0.25
nr_class 2
total_sv 4
rho -593.35
SV
-1 1:584.78003 2:582.65997 3:573.72998 4:595.08002 
1 1:582.65997 2:573.72998 3:595.08002 4:589.46997 
1 1:573.72998 2:595.08002 3:589.46997 4:594.73999 
-1 1:589.46997 2:594.73999 3:595.97998 4:593.34998 
