svm_type epsilon_svr
kernel_type rbf
gamma 0.25
nr_class 2
total_sv 5
rho -50.0239
SV
0.6328767719703249 1:48.58 2:49.99 3:48.23 4:48.77 
0.6264058512510063 1:49.99 2:48.23 3:48.77 4:50.7 
-0.9456991805216034 1:48.23 2:48.77 3:50.7 4:50.63 
-0.1883458064091754 1:48.77 2:50.7 3:50.63 4:49.08 
-0.1252376362905524 1:50.7 2:50.63 3:49.08 4:49.67 
