svm_type epsilon_svr
kernel_type rbf
gamma 0.25
nr_class 2
total_sv 4
rho -32.3937
SV
-1 1:32.28 2:32.29 3:32.37 4:32.17 
-1 1:32.29 2:32.37 3:32.17 4:32.24 
1 1:32.37 2:32.17 3:32.24 4:32.24 
1 1:32.24 2:32.24 3:32.5 4:32.43 
