svm_type epsilon_svr
kernel_type rbf
gamma 0.25
nr_class 2
total_sv 5
rho -48.102
SV
-0.1778099978434426 1:48.7 2:47.98 3:47.59 4:47.47 
-1 1:47.98 2:47.59 3:47.47 4:47.75 
1 1:47.59 2:47.47 3:47.75 4:47.81 
0.6709089985212018 1:47.47 2:47.75 3:47.81 4:48.62 
-0.4930990006777592 1:47.75 2:47.81 3:48.62 4:48.46 
