svm_type epsilon_svr
kernel_type rbf
gamma 0.25
nr_class 2
total_sv 5
rho -78.6443
SV
1 1:81.45 2:80.61 3:80.77 4:80.78 
0.4295059656337407 1:80.61 2:80.77 3:80.78 4:80.02 
-1 1:80.77 2:80.78 3:80.02 4:79.22 
0.5704940343662593 1:80.78 2:80.02 3:79.22 4:78.02 
-1 1:80.02 2:79.22 3:78.02 4:78.45 
