svm_type epsilon_svr
kernel_type rbf
gamma 0.25
nr_class 2
total_sv 5
rho -86.055
SV
1 1:86.38 2:86.66 3:86.43 4:86.91 
1 1:86.66 2:86.43 3:86.91 4:86.64 
-1 1:86.43 2:86.91 3:86.64 4:86.79 
-0.2122022342994296 1:86.91 2:86.64 3:86.79 4:85.88 
-0.7877977657005704 1:86.64 2:86.79 3:85.88 4:85.9 
