svm_type epsilon_svr
kernel_type rbf
gamma 0.25
nr_class 2
total_sv 5
rho -528.715
SV
-1 1:518.72998 2:529.91998 3:533.09003 4:526.65002 
-1 1:529.91998 2:533.09003 3:526.65002 4:519.97998 
0.04498500001716366 1:533.09003 2:526.65002 3:519.97998 4:520.63 
0.9550149999828363 1:526.65002 2:519.97998 3:520.63 4:528.85999 
1 1:519.97998 2:520.63 3:528.85999 4:529.77002 
