svm_type epsilon_svr
kernel_type rbf
gamma 0.25
nr_class 2
total_sv 4
rho -26.437
SV
-0.09952014279938431 1:27.89 2:28.06 3:27.51 4:27.27 
0.09952014279938431 1:28.06 2:27.51 3:27.27 4:26.57 
1 1:27.51 2:27.27 3:26.57 4:26.84 
-1 1:26.57 2:26.84 3:27.13 4:26.56 
