svm_type epsilon_svr
kernel_type rbf
gamma 0.25
nr_class 2
total_sv 3
rho -43.0469
SV
0.5421830908353836 1:44.11 2:42.62 3:43.99 4:44.16 
-1 1:44.16 2:43.44 3:42.98 4:42.68 
0.4578169091646164 1:43.44 2:42.98 3:42.68 4:42.5 
