svm_type epsilon_svr
kernel_type rbf
gamma 0.25
nr_class 2
total_sv 5
rho -331.525
SV
1 1:339.04001 2:342.38 3:339 4:345.95001 
1 1:342.38 2:339 3:345.95001 4:346.38 
-1 1:339 2:345.95001 3:346.38 4:342.34 
-0.09499999999999886 1:345.95001 2:346.38 3:342.34 4:329.75 
-0.9050000000000011 1:346.38 2:342.34 3:329.75 4:331.32999 
