svm_type epsilon_svr
kernel_type rbf
gamma 0.25
nr_class 2
total_sv 3
rho -38.8316
SV
0.112526285073317 1:40.19 2:39.76 3:41.13 4:41.74 
0.1383508975865012 1:41.13 2:41.74 3:39.04 4:38.91 
-0.2508771826598183 1:39.04 2:38.91 3:39.06 4:38.79 
