svm_type epsilon_svr
kernel_type rbf
gamma 0.25
nr_class 2
total_sv 5
rho -80.6592
SV
-0.232913995127984 1:82.25 2:80.71 3:80.73 4:80.99 
1 1:80.71 2:80.73 3:80.99 4:80.5 
0.477241022246813 1:80.73 2:80.99 3:80.5 4:81.03 
-0.244327027118829 1:80.99 2:80.5 3:81.03 4:80.84 
-1 1:80.5 2:81.03 3:80.84 4:80.65 
