svm_type epsilon_svr
kernel_type rbf
gamma 0.25
nr_class 2
total_sv 3
rho -45.2137
SV
0.7108709882224766 1:44.08 2:44.27 3:44.79 4:45.11 
-1 1:44.27 2:44.79 3:45.11 4:45.33 
0.2891290117775234 1:44.79 2:45.11 3:45.33 4:44.95 
