svm_type epsilon_svr
kernel_type rbf
gamma 0.25
nr_class 2
total_sv 4
rho -35.2499
SV
-1 1:34.78 2:34.9 3:34.65 4:34.87 
-1 1:34.9 2:34.65 3:34.87 4:34.65 
1 1:34.87 2:34.65 3:34.73 4:34.94 
1 1:34.65 2:34.73 3:34.94 4:35.92 
