svm_type epsilon_svr
kernel_type rbf
gamma 0.25
nr_class 2
total_sv 4
rho -84.9107
SV
-0.2531333337573695 1:82.96 2:83.57 3:83.79 4:84.99 
-0.5878043289781347 1:83.57 2:83.79 3:84.99 4:84.58 
0.9438071846510485 1:83.79 2:84.99 3:84.58 4:84.65 
-0.1028695219155442 1:84.99 2:84.58 3:84.65 4:85.4 
