svm_type epsilon_svr
kernel_type rbf
gamma 0.25
nr_class 2
total_sv 5
rho -332.82
SV
-1 1:313.89001 2:311.45001 3:316.79999 4:318.32999 
-1 1:311.45001 2:316.79999 3:318.32999 4:319.32001 
0.2899950009455791 1:316.79999 2:318.32999 3:319.32001 4:326.28 
0.7100049990544208 1:318.32999 2:319.32001 3:326.28 4:333.20999 
1 1:319.32001 2:326.28 3:333.20999 4:333.63 
