svm_type epsilon_svr
kernel_type rbf
gamma 0.25
nr_class 2
total_sv 4
rho -45.1084
SV
-1 1:44.44 2:44.13 3:44.15 4:43.67 
0.5777206730805948 1:44.13 2:44.15 3:43.67 4:43.61 
0.6627674515584315 1:44.15 2:43.67 3:43.61 4:45.17 
-0.2404881246390263 1:43.61 2:45.17 3:45.63 4:45.18 
