svm_type epsilon_svr
kernel_type rbf
gamma 0.25
nr_class 2
total_sv 3
rho -19.6426
SV
-1 1:19.71 2:19.62 3:19.27 4:19.21 
0.6180227762006605 1:19.27 2:19.21 3:19.2 4:19.5 
0.3819772237993395 1:19.2 2:19.5 3:19.8 4:19.82 
