svm_type epsilon_svr
kernel_type rbf
gamma 0.25
nr_class 2
total_sv 4
rho -584.77
SV
-1 1:581.01001 2:583.09998 3:581.34998 4:575.62 
-1 1:583.09998 2:581.34998 3:575.62 4:573.09998 
1 1:575.62 2:573.09998 3:579.95001 4:584.77002 
1 1:573.09998 2:579.95001 3:584.77002 4:589.27002 
