svm_type epsilon_svr
kernel_type rbf
gamma 0.25
nr_class 2
total_sv 5
rho -104.256
SV
-1 1:97.54 2:96.26 3:97.67 4:99.76 
-1 1:96.26 2:97.67 3:99.76 4:102.47 
0.4871560148271998 1:97.67 2:99.76 3:102.47 4:102.99 
0.8094672079562878 1:99.76 2:102.47 3:102.99 4:104.83 
0.7033767772165123 1:102.47 2:102.99 3:104.83 4:105.22 
