svm_type epsilon_svr
kernel_type rbf
gamma 0.25
nr_class 2
total_sv 4
rho -31.142
SV
0.7293864570038813 1:32.77 2:32.26 3:32.07 4:31.77 
1 1:32.26 2:32.07 3:31.77 4:31.75 
-1 1:32.07 2:31.77 3:31.75 4:31.52 
-0.7293864570038814 1:31.77 2:31.75 3:31.52 4:30.5 
