svm_type epsilon_svr
kernel_type rbf
gamma 0.25
nr_class 2
total_sv 3
rho -77.5132
SV
0.6778074015907611 1:76.68 2:75.83 3:75.95 4:77.26 
-1 1:75.83 2:75.95 3:77.26 4:77.89 
0.3221925984092389 1:77.26 2:77.89 3:76.67 4:77.43 
