svm_type epsilon_svr
kernel_type rbf
gamma 0.25
nr_class 2
total_sv 4
rho -555.17
SV
1 1:559.5 2:557.98999 3:560.35999 4:558.81 
1 1:557.98999 2:560.35999 3:558.81 4:570.19 
-1 1:558.81 2:570.19 3:558.78497 4:555.16998 
-1 1:570.19 2:558.78497 3:555.16998 4:548.34003 
