svm_type epsilon_svr
kernel_type rbf
gamma 0.25
nr_class 2
total_sv 5
rho -43.1599
SV
0.6182351212326074 1:43.99 2:44.69 3:44.7 4:44.05 
-0.001012724687606892 1:44.69 2:44.7 3:44.05 4:43.55 
-1 1:44.7 2:44.05 3:43.55 4:42.94 
0.6192602698886407 1:44.05 2:43.55 3:42.94 4:42.57 
-0.2364826664336412 1:43.55 2:42.94 3:42.57 4:43.07 
