svm_type epsilon_svr
kernel_type rbf
gamma 0.25
nr_class 2
total_sv 5
rho -77.0932
SV
0.3477692011381611 1:80.02 2:79.22 3:78.02 4:78.45 
-0.7958055192277403 1:79.22 2:78.02 3:78.45 4:77.19 
-1 1:78.02 2:78.45 3:77.19 4:76.15 
1 1:78.45 2:77.19 3:76.15 4:76.15 
0.4480363180895792 1:77.19 2:76.15 3:76.15 4:78.18 
