svm_type epsilon_svr
kernel_type rbf
gamma 0.25
nr_class 2
total_sv 5
rho -46.498
SV
1 1:48.08 2:48.15 3:47.71 4:47.57 
-0.5108930489612027 1:48.15 2:47.71 3:47.57 4:47.35 
1 1:47.71 2:47.57 3:47.35 4:46.75 
-1 1:47.57 2:47.35 3:46.75 4:47.59 
-0.4891069510387973 1:47.35 2:46.75 3:47.59 4:45.84 
