svm_type epsilon_svr
kernel_type rbf
gamma 0.25
nr_class 2
total_sv 4
rho -37.404
SV
-0.4149503779553964 1:38.33 2:38.31 3:37.88 4:37.43 
-0.8366106871743726 1:38.31 2:37.88 3:37.43 4:36.87 
1 1:37.88 2:37.43 3:36.87 4:37.05 
0.251561065129769 1:36.87 2:37.05 3:38.05 4:37.65 
