svm_type epsilon_svr
kernel_type rbf
gamma 0.25
nr_class 2
total_sv 5
rho -83.2699
SV
-0.5449851363027671 1:82.04 2:83.01 3:83.52 4:82.71 
-1 1:83.01 2:83.52 3:82.71 4:82.31 
0.1510546824851799 1:83.52 2:82.71 3:82.31 4:80.78 
0.3939304538175872 1:82.71 2:82.31 3:80.78 4:83.09 
1 1:82.31 2:80.78 3:83.09 4:83.62 
