svm_type epsilon_svr
kernel_type rbf
gamma 0.25
nr_class 2
total_sv 5
rho -44.2967
SV
-1 1:37.75 2:38.71 3:38.16 4:37.93 
1 1:38.71 2:38.16 3:37.93 4:38.59 
0.7928123457204206 1:38.16 2:37.93 3:38.59 4:46.3 
-0.06640620576072731 1:37.93 2:38.59 3:46.3 4:45.19 
-0.7264061399596933 1:38.59 2:46.3 3:45.19 4:44.13 
