svm_type epsilon_svr
kernel_type rbf
gamma 0.25
nr_class 2
total_sv 5
rho -27.5639
SV
-1 1:26.57 2:26.84 3:27.13 4:26.56 
-0.6732769737336991 1:26.84 2:27.13 3:26.56 4:25.82 
1 1:27.13 2:26.56 3:25.82 4:26.75 
0.01363986891471297 1:26.56 2:25.82 3:26.75 4:28.11 
0.6596371048189862 1:25.82 2:26.75 3:28.11 4:27.85 
