svm_type epsilon_svr
kernel_type rbf
gamma 0.25
nr_class 2
total_sv 4
rho -40.5841
SV
0.3594576257618107 1:42.08 2:41.8 3:41.47 4:40.21 
-0.3594576257618107 1:41.8 2:41.47 3:40.21 4:40.9 
1 1:41.47 2:40.21 3:40.9 4:40.37 
-1 1:40.9 2:40.37 3:40.84 4:40.31 
