svm_type epsilon_svr
kernel_type rbf
gamma 0.25
nr_class 2
total_sv 4
rho -532.71
SV
-1 1:537.94 2:530.03003 3:524.51001 4:511.17001 
-1 1:530.03003 2:524.51001 3:511.17001 4:520.84003 
1 1:511.17001 2:520.84003 3:526.53998 4:532.71002 
1 1:520.84003 2:526.53998 3:532.71002 4:543.97998 
