svm_type epsilon_svr
kernel_type rbf
gamma 0.25
nr_class 2
total_sv 5
rho -38.7081
SV
-1 1:38.01 2:37.71 3:37.79 4:38.18 
-0.2438780392591037 1:37.71 2:37.79 3:38.18 4:38.31 
1 1:37.79 2:38.18 3:38.31 4:38.51 
-0.001661239423646526 1:38.18 2:38.31 3:38.51 4:39.27 
0.2455392786827502 1:38.31 2:38.51 3:39.27 4:38.87 
