svm_type epsilon_svr
kernel_type rbf
gamma 0.25
nr_class 2
total_sv 3
rho -44.6947
SV
-0.06819408757261367 1:42.95 2:42.87 3:43.51 4:43.79 
0.4555963693649476 1:43.51 2:43.79 3:44.67 4:44.98 
-0.3874022817923339 1:44.67 2:44.98 3:45.04 4:44.72 
