svm_type epsilon_svr
kernel_type rbf
gamma 0.25
nr_class 2
total_sv 5
rho -97.313
SV
-1 1:94.78 2:93.09 3:94.43 4:93.94 
0.04604290225770331 1:93.09 2:94.43 3:93.94 4:94.72 
-0.1711767612040403 1:94.43 2:93.94 3:94.72 4:97.19 
0.125133858946337 1:93.94 2:94.72 3:97.19 4:97.03 
1 1:94.72 2:97.19 3:97.03 4:97.67 
