svm_type epsilon_svr
kernel_type rbf
gamma 0.25
nr_class 2
total_sv 4
rho -309.66
SV
1 1:290.73999 2:289.44 3:297.25 4:310.32001 
-1 1:297.25 2:310.32001 3:312.39001 4:309.66 
-1 1:310.32001 2:312.39001 3:309.66 4:306.75 
1 1:312.39001 2:309.66 3:306.75 4:303.91 
