svm_type epsilon_svr
kernel_type rbf
gamma 0.25
nr_class 2
total_sv 4
rho -92.3627
SV
1 1:647.34998 2:645.57001 3:93.7 4:94.25 
-1 1:93.7 2:94.25 3:93.86 4:92.29 
0.1643967294830289 1:94.25 2:93.86 3:92.29 4:91.28 
-0.1643967294830289 1:93.86 2:92.29 3:91.28 4:92.2 
