svm_type epsilon_svr
kernel_type rbf
gamma 0.25
nr_class 2
total_sv 5
rho -83.6912
SV
0.478967055514756 1:79.36 2:80.91 3:82.75 4:83.8 
1 1:80.91 2:82.75 3:83.8 4:84.43 
-0.8462708420342104 1:82.75 2:83.8 3:84.43 4:85.31 
-0.4540084963453603 1:83.8 2:84.43 3:85.31 4:82.92 
-0.1786877171351854 1:84.43 2:85.31 3:82.92 4:83.01 
