svm_type epsilon_svr
kernel_type rbf
gamma 0.25
nr_class 2
total_sv 5
rho -58.5054
SV
1 1:56.14 2:58.15 3:59.78 4:61.15 
1 1:58.15 2:59.78 3:61.15 4:60.46 
-0.04181400178141411 1:59.78 2:61.15 3:60.46 4:61.22 
-0.9581859982185859 1:61.15 2:60.46 3:61.22 4:58.53 
-1 1:60.46 2:61.22 3:58.53 4:57.39 
