svm_type epsilon_svr
kernel_type rbf
gamma 0.25
nr_class 2
total_sv 4
rho -33.0515
SV
0.8787480791466029 1:33.34 2:33.5 3:33.7 4:33.71 
1 1:33.5 2:33.7 3:33.71 4:33.47 
-0.8787480791466029 1:33.71 2:33.47 3:33.47 4:33.13 
-1 1:33.47 2:33.47 3:33.13 4:32.84 
