svm_type epsilon_svr
kernel_type rbf
gamma 0.25
nr_class 2
total_sv 4
rho -35.1866
SV
1 1:35.13 2:35.35 3:35.88 4:36.14 
-1 1:35.35 2:35.88 3:36.14 4:35.52 
-0.2958661608491807 1:36.14 2:35.52 3:34.53 4:34.85 
0.2958661608491807 1:35.52 2:34.53 3:34.85 4:34.93 
