svm_type epsilon_svr
kernel_type rbf
gamma 0.25
nr_class 2
total_sv 4
rho -46.1716
SV
-0.4685672628772008 1:44.88 2:44.38 3:45.02 4:46.13 
0.2499409966721465 1:44.38 2:45.02 3:46.13 4:45.91 
0.6704390337174875 1:45.02 2:46.13 3:45.91 4:46.49 
-0.4518127675124333 1:46.13 2:45.91 3:46.49 4:46.62 
