svm_type epsilon_svr
kernel_type rbf
gamma 0.25
nr_class 2
total_sv 5
rho -87.1208
SV
1 1:88.6 2:90.47 3:89.35 4:90.02 
-0.6644646640400705 1:90.47 2:89.35 3:90.02 4:89.31 
0.2085331088302046 1:89.35 2:90.02 3:89.31 4:86.61 
-0.2374278918344697 1:90.02 2:89.31 3:86.61 4:87.38 
-0.3066405529556643 1:89.31 2:86.61 3:87.38 4:86.77 
