svm_type epsilon_svr
kernel_type rbf
gamma 0.25
nr_class 2
total_sv 5
rho -49.8084
SV
-1 1:46.34 2:47.08 3:47.46 4:47.93 
0.5509111424272637 1:47.08 2:47.46 3:47.93 4:48.55 
-1 1:47.46 2:47.93 3:48.55 4:49.41 
1 1:47.93 2:48.55 3:49.41 4:49.05 
0.4490888575727363 1:48.55 2:49.41 3:49.05 4:50.6 
