svm_type epsilon_svr
kernel_type rbf
gamma 0.25
nr_class 2
total_sv 5
rho -43.1202
SV
-1 1:41.84 2:42.45 3:42.41 4:42.36 
-1 1:42.45 2:42.41 3:42.36 4:42.6 
0.7768686280490661 1:42.41 2:42.36 3:42.6 4:42.38 
1 1:42.36 2:42.6 3:42.38 4:43.09 
0.223131371950934 1:42.6 2:42.38 3:43.09 4:43.87 
