svm_type epsilon_svr
kernel_type rbf
gamma 0.25
nr_class 2
total_sv 5
rho -51.2173
SV
-1 1:50.5 2:51.75 3:52.37 4:51.75 
0.1491183966118724 1:51.75 2:52.37 3:51.75 4:50.58 
-0.6896351347286931 1:52.37 2:51.75 3:50.58 4:51.25 
0.7098386663777194 1:51.75 2:50.58 3:51.25 4:51.04 
0.8306780717391014 1:50.58 2:51.25 3:51.04 4:51.83 
