svm_type epsilon_svr
kernel_type rbf
gamma 0.25
nr_class 2
total_sv 5
rho -91.8163
SV
0.3970463131469276 1:93.86 2:92.29 3:91.28 4:92.2 
1 1:92.29 2:91.28 3:92.2 4:92.08 
0.6029536868530724 1:91.28 2:92.2 3:92.08 4:92.18 
-1 1:92.2 2:92.08 3:92.18 4:91.86 
-1 1:92.08 2:92.18 3:91.86 4:90.91 
