svm_type epsilon_svr
kernel_type rbf
gamma 0.25
nr_class 2
total_sv 5
rho -37.0755
SV
0.1065632083997491 1:35.57 2:36.73 3:37.08 4:38.43 
0.6491939107677726 1:36.73 2:37.08 3:38.43 4:37.57 
1 1:37.08 2:38.43 3:37.57 4:37.61 
-0.7557571191675218 1:38.43 2:37.57 3:37.61 4:37.6 
-1 1:37.57 2:37.61 3:37.6 4:36.42 
