svm_type epsilon_svr
kernel_type rbf
gamma 0.25
nr_class 2
total_sv 5
rho -50.6675
SV
0.4506530090460459 1:50.88 2:51.15 3:50.02 4:50.65 
0.01548915409467668 1:51.15 2:50.02 3:50.65 4:50.86 
1 1:50.02 2:50.65 3:50.86 4:50.53 
-0.4661421631407226 1:50.65 2:50.86 3:50.53 4:51.22 
-1 1:50.86 2:50.53 3:51.22 4:50.51 
