svm_type epsilon_svr
kernel_type rbf
gamma 0.25
nr_class 2
total_sv 5
rho -75.3065
SV
1 1:75.7 2:75.87 3:75.68 4:75.79 
0.7496125152073688 1:75.87 2:75.68 3:75.79 4:75.97 
-1 1:75.68 2:75.79 3:75.97 4:75.62 
0.08743649034315683 1:75.79 2:75.97 3:75.62 4:74.91 
-0.8370490055505257 1:75.97 2:75.62 3:74.91 4:75.34 
