svm_type epsilon_svr
kernel_type rbf
gamma 0.25
nr_class 2
total_sv 5
rho -32.7145
SV
-0.9766564054335817 1:30.51 2:33.77 3:34 4:32.44 
-0.1101415555790926 1:33.77 2:34 3:32.44 4:31.75 
-0.07984720056536047 1:34 2:32.44 3:31.75 4:32.58 
1 1:32.44 2:31.75 3:32.58 4:32.9 
0.1666451615780348 1:31.75 2:32.58 3:32.9 4:33.89 
