svm_type epsilon_svr
kernel_type rbf
gamma 0.25
nr_class 2
total_sv 4
rho -577.861
SV
1 1:582.15997 2:586.85999 3:584.48999 4:583.37 
1 1:586.85999 2:584.48999 3:583.37 4:582.56 
-1 1:583.37 2:582.56 3:580.20001 4:577.85999 
-1 1:582.56 2:580.20001 3:577.85999 4:571 
