svm_type epsilon_svr
kernel_type rbf
gamma 0.25
nr_class 2
total_sv 5
rho -82.5984
SV
1 1:83.93 2:83.96 3:83.37 4:82.58 
-0.01003524073142794 1:83.96 2:83.37 3:82.58 4:83.57 
0.8955205841204112 1:83.37 2:82.58 3:83.57 4:82.59 
-0.8854853433889833 1:82.58 2:83.57 3:82.59 4:82.88 
-1 1:83.57 2:82.59 3:82.88 4:82.07 
