svm_type epsilon_svr
kernel_type rbf
gamma 0.25
nr_class 2
total_sv 5
rho -73.891
SV
1 1:75 2:74.61 3:74.72 4:74.25 
0.2824965081401062 1:74.61 2:74.72 3:74.25 4:74.88 
0.6892577804037557 1:74.72 2:74.25 3:74.88 4:74.24 
-1 1:74.25 2:74.88 3:74.24 4:74.34 
-0.9717542885438619 1:74.88 2:74.24 3:74.34 4:73.33 
