svm_type epsilon_svr
kernel_type rbf
gamma 0.25
nr_class 2
total_sv 4
rho -43.1619
SV
1 1:44.28 2:44.11 3:42.62 4:43.99 
0.3159966989216262 1:44.11 2:42.62 3:43.99 4:44.16 
-0.3803614971888132 1:43.99 2:44.16 3:43.44 4:42.98 
-0.9356352017328129 1:44.16 2:43.44 3:42.98 4:42.68 
