svm_type epsilon_svr
kernel_type rbf
gamma 0.25
nr_class 2
total_sv 4
rho -34.213
SV
0.3151445040555767 1:36.49 2:34.07 3:33.92 4:33.76 
1 1:34.07 2:33.92 3:33.76 4:34.45 
-0.3151445040555767 1:33.76 2:34.45 3:34.4 4:34.17 
-1 1:34.45 2:34.4 3:34.17 4:33.8 
