svm_type epsilon_svr
kernel_type rbf
gamma 0.25
nr_class 2
total_sv 5
rho -41.6548
SV
1 1:41.7 2:42.5 3:42.29 4:42.88 
1 1:42.5 2:42.29 3:42.88 4:42.86 
-1 1:42.29 2:42.88 3:42.86 4:42.9 
-0.324253784595645 1:42.88 2:42.86 3:42.9 4:41.46 
-0.675746215404355 1:42.86 2:42.9 3:41.46 4:41.21 
