svm_type epsilon_svr
kernel_type rbf
gamma 0.25
nr_class 2
total_sv 5
rho -126.612
SV
0.8637184781240317 1:123.59 2:124.95 3:127.04 4:128.47 
-0.6755052703523559 1:124.95 2:127.04 3:128.47 4:127.5 
0.6864864903530195 1:127.04 2:128.47 3:127.5 4:125.9 
0.1253003018753047 1:128.47 2:127.5 3:125.9 4:127.21 
-1 1:127.5 2:125.9 3:127.21 4:126.69 
