svm_type epsilon_svr
kernel_type rbf
gamma 0.25
nr_class 2
total_sv 5
rho -326.713
SV
0.8062500004017307 1:332.41 2:335.20001 3:325.91 4:326.26999 
-0.9931249997379175 1:335.20001 2:325.91 3:326.26999 4:327.62 
1 1:325.91 2:326.26999 3:327.62 4:325.62 
0.1868749993361868 1:326.26999 2:327.62 3:325.62 4:334.38 
-1 1:327.62 2:325.62 3:334.38 4:327 
