svm_type epsilon_svr
kernel_type rbf
gamma 0.25
nr_class 2
total_sv 4
rho -311.781
SV
-1 1:297.25 2:310.32001 3:312.39001 4:309.66 
-1 1:310.32001 2:312.39001 3:309.66 4:306.75 
1 1:309.66 2:306.75 3:303.91 4:311.78 
1 1:306.75 2:303.91 3:311.78 4:354.53 
