svm_type epsilon_svr
kernel_type rbf
gamma 0.25
nr_class 2
total_sv 5
rho -93.225
SV
0.375 1:637.53998 2:644.82001 3:647.34998 4:645.57001 
0.9249999999999972 1:644.82001 2:647.34998 3:645.57001 4:93.7 
0.5350000000000037 1:647.34998 2:645.57001 3:93.7 4:94.25 
-0.8350000000000009 1:645.57001 2:93.7 3:94.25 4:93.86 
-1 1:93.7 2:94.25 3:93.86 4:92.29 
