svm_type epsilon_svr
kernel_type rbf
gamma 0.25
nr_class 2
total_sv 3
rho -32.8714
SV
-0.6312567135721663 1:32.52 2:32.55 3:32.47 4:32.46 
1 1:32.55 2:32.47 3:32.46 4:32.8 
-0.3687432864278337 1:32.46 2:32.8 3:33.07 4:32.98 
