svm_type epsilon_svr
kernel_type rbf
gamma 0.25
nr_class 2
total_sv 4
rho -35.3466
SV
-0.162928993243593 1:33.25 2:33.66 3:34.25 4:35.13 
1 1:34.25 2:35.13 3:35.35 4:35.88 
0.162928993243593 1:35.13 2:35.35 3:35.88 4:36.14 
-1 1:35.35 2:35.88 3:36.14 4:35.52 
