svm_type epsilon_svr
kernel_type rbf
gamma 0.25
nr_class 2
total_sv 3
rho -42.4643
SV
-0.2145948827360823 1:41.6 2:41.84 3:42.45 4:42.41 
0.3466362452589345 1:41.84 2:42.45 3:42.41 4:42.36 
-0.1320413625228522 1:42.45 2:42.41 3:42.36 4:42.6 
