svm_type epsilon_svr
kernel_type rbf
gamma 0.25
nr_class 2
total_sv 4
rho -75.4759
SV
0.3571588361508394 1:77.5 2:75.78 3:76.24 4:78 
-0.4174351908156567 1:75.78 2:76.24 3:78 4:75.91 
0.01096976505868843 1:78 2:75.91 3:74.99 4:75.4 
0.04930658960612885 1:75.91 2:74.99 3:75.4 4:75.63 
