svm_type epsilon_svr
kernel_type rbf
gamma 0.25
nr_class 2
total_sv 5
rho -44.0926
SV
0.9514470064016247 1:42.57 2:43.07 3:42.96 4:43.93 
-1 1:43.07 2:42.96 3:43.93 4:44.42 
-0.4879608897764547 1:42.96 2:43.93 3:44.42 4:43.53 
0.5297643825163444 1:43.93 2:44.42 3:43.53 4:43.65 
0.006749500858485595 1:44.42 2:43.53 3:43.65 4:44.37 
