svm_type epsilon_svr
kernel_type rbf
gamma 0.25
nr_class 2
total_sv 4
rho -47.3867
SV
0.5237485630205772 1:37.46 2:39.79 3:40.72 4:41.26 
-1 1:40.72 2:41.26 3:48.01 4:47.32 
0.0131280794908581 1:41.26 2:48.01 3:47.32 4:46.26 
0.4631233574885647 1:48.01 2:47.32 3:46.26 4:47.5 
