svm_type epsilon_svr
kernel_type rbf
gamma 0.25
nr_class 2
total_sv 5
rho -51.3582
SV
-0.3796393291422129 1:52.91 2:52.64 3:52.11 4:49.38 
-0.5350960599221918 1:52.64 2:52.11 3:49.38 4:50.83 
-0.4558205728718742 1:52.11 2:49.38 3:50.83 4:50.7 
1 1:49.38 2:50.83 3:50.7 4:50.88 
0.3705559619362788 1:50.83 2:50.7 3:50.88 4:53 
