svm_type epsilon_svr
kernel_type rbf
gamma 0.25
nr_class 2
total_sv 5
rho -48.9826
SV
0.8859480433013248 1:48.89 2:48.87 3:48.78 4:49.61 
1 1:48.87 2:48.78 3:49.61 4:49.58 
-0.9053243497398298 1:48.78 2:49.61 3:49.58 4:49.46 
-1 1:49.61 2:49.58 3:49.46 4:48.74 
0.01937630643850503 1:49.58 2:49.46 3:48.74 4:48.22 
