svm_type epsilon_svr
kernel_type rbf
gamma 0.25
nr_class 2
total_sv 4
rho -374.24
SV
1 1:385.66 2:384.60999 3:382.72 4:387.82999 
1 1:384.60999 2:382.72 3:387.82999 4:380.09 
-1 1:382.72 2:387.82999 3:380.09 4:378.56 
-1 1:387.82999 2:380.09 3:378.56 4:369.51001 
