svm_type epsilon_svr
kernel_type rbf
gamma 0.25
nr_class 2
total_sv 4
rho -75.8177
SV
-1 1:75.62 2:74.91 3:75.34 4:75.07 
-0.0183566865622966 1:74.91 2:75.34 3:75.07 4:75.28 
0.0183566865622966 1:75.07 2:75.28 3:75.62 4:75.75 
1 1:75.28 2:75.62 3:75.75 4:76.07 
