svm_type epsilon_svr
kernel_type rbf
gamma 0.25
nr_class 2
total_sv 4
rho -329.97
SV
1 1:324.57001 2:324.78 3:332.39001 4:332.85001 
1 1:324.78 2:332.39001 3:332.85001 4:337.48999 
-1 1:332.39001 2:332.85001 3:337.48999 4:333.54999 
-1 1:337.48999 2:333.54999 3:323.81 4:329.97 
