svm_type epsilon_svr
kernel_type rbf
gamma 0.25
nr_class 2
total_sv 4
rho -32.6829
SV
-1 1:32.81 2:32.75 3:32.69 4:32.71 
-0.8357888332528006 1:32.75 2:32.69 3:32.71 4:32.4 
0.8357888332528006 1:32.71 2:32.4 3:32.48 4:32.68 
1 1:32.4 2:32.48 3:32.68 4:32.83 
