svm_type epsilon_svr
kernel_type rbf
gamma 0.25
nr_class 2
total_sv 5
rho -51.8503
SV
1 1:50.24 2:50.7 3:52 4:50.61 
0.8292225014876382 1:50.7 2:52 3:50.61 4:52.91 
0.1049024979316325 1:52 2:50.61 3:52.91 4:52.64 
-1 1:50.61 2:52.91 3:52.64 4:52.11 
-0.9341249994192707 1:52.91 2:52.64 3:52.11 4:49.38 
