svm_type epsilon_svr
kernel_type rbf
gamma 0.25
nr_class 2
total_sv 5
rho -41.9097
SV
0.2861292952238499 1:41.68 2:41.65 3:41.51 4:41.68 
-0.6777435210811568 1:41.65 2:41.51 3:41.68 4:41.99 
0.3916142258573069 1:41.51 2:41.68 3:41.99 4:41.75 
-1 1:41.68 2:41.99 3:41.75 4:42.03 
1 1:41.99 2:41.75 3:42.03 4:41.72 
