svm_type epsilon_svr
kernel_type rbf
gamma 0.25
nr_class 2
total_sv 4
rho -17.7319
SV
-1 1:18.01 2:17.75 3:17.34 4:17.42 
-1 1:17.75 2:17.34 3:17.42 4:17.37 
1 1:17.34 2:17.42 3:17.37 4:17.36 
1 1:17.42 2:17.37 3:17.36 4:17.94 
