svm_type epsilon_svr
kernel_type rbf
gamma 0.25
nr_class 2
total_sv 4
rho -86.5562
SV
-0.3090444912345119 1:86.82 2:87.72 3:84.98 4:85.71 
0.3090444912345119 1:84.98 2:85.71 3:86.19 4:86.65 
1 1:85.71 2:86.19 3:86.65 4:87.28 
-1 1:86.19 2:86.65 3:87.28 4:87.33 
