svm_type epsilon_svr
kernel_type rbf
gamma 0.25
nr_class 2
total_sv 5
rho -66.1117
SV
-0.9979192983585392 1:66.45 2:66.29 3:65.29 4:62.76 
-1 1:66.29 2:65.29 3:62.76 4:64.97 
0.1320682276131333 1:65.29 2:62.76 3:64.97 4:64.87 
1 1:62.76 2:64.97 3:64.87 4:66.34 
0.8658510707454059 1:64.97 2:64.87 3:66.34 4:67.9 
