svm_type epsilon_svr
kernel_type rbf
gamma 0.25
nr_class 2
total_sv 3
rho -30.4956
SV
0.03468638226448799 1:32.22 2:31.44 3:31.05 4:30.79 
-0.8204514515364064 1:30.79 2:30.54 3:30.48 4:30.49 
0.7857650692719185 1:30.54 2:30.48 3:30.49 4:30.36 
