svm_type epsilon_svr
kernel_type rbf
gamma 0.25
nr_class 2
total_sv 5
rho -26.1586
SV
-1 1:23.46 2:23.57 3:23.29 4:23.33 
0.5413836075642257 1:23.57 2:23.29 3:23.33 4:23.39 
0.5921362568257004 1:23.29 2:23.33 3:23.39 4:25.94 
0.2853023226483043 1:23.33 2:23.39 3:25.94 4:26.82 
-0.4188221870382303 1:23.39 2:25.94 3:26.82 4:26.57 
