svm_type epsilon_svr
kernel_type rbf
gamma 0.25
nr_class 2
total_sv 4
rho -114.252
SV
1 1:118.93 2:115.07 3:114.63 4:115.93 
1 1:115.07 2:114.63 3:115.93 4:115.49 
-1 1:114.63 2:115.93 3:115.49 4:115 
-1 1:115.49 2:115 3:112.4 4:114.12 
