svm_type epsilon_svr
kernel_type rbf
gamma 0.25
nr_class 2
total_sv 5
rho -87.1702
SV
-0.7613775635856479 1:86.91 2:86.64 3:86.79 4:85.88 
-1 1:86.64 2:86.79 3:85.88 4:85.9 
-0.2386224364143521 1:86.79 2:85.88 3:85.9 4:85.65 
1 1:85.88 2:85.9 3:85.65 4:86.31 
1 1:85.9 2:85.65 3:86.31 4:88.6 
