svm_type epsilon_svr
kernel_type rbf
gamma 0.25
nr_class 2
total_sv 4
rho -531
SV
-1 1:534.52002 2:528.47998 3:529.23999 4:522.76001 
-1 1:529.23999 2:522.76001 3:527.58002 4:531 
1 1:522.76001 2:527.58002 3:531 4:527.83002 
1 1:527.58002 2:531 3:527.83002 4:536.94 
