svm_type epsilon_svr
kernel_type rbf
gamma 0.25
nr_class 2
total_sv 5
rho -100.927
SV
-0.2759063617170963 1:97.24 2:97.5 3:97.98 4:99.16 
-0.005406966879536619 1:97.5 2:97.98 3:99.16 4:100.53 
-0.3738266852894127 1:97.98 2:99.16 3:100.53 4:100.57 
0.2257722133807686 1:99.16 2:100.53 3:100.57 4:100.58 
0.429367800505277 1:100.53 2:100.57 3:100.58 4:101.32 
