svm_type epsilon_svr
kernel_type rbf
gamma 0.25
nr_class 2
total_sv 5
rho -111.149
SV
1 1:115.93 2:115.49 3:115 4:112.4 
0.6283717969426073 1:115.49 2:115 3:112.4 4:114.12 
0.3716282030573928 1:115 2:112.4 3:114.12 4:111.95 
-1 1:112.4 2:114.12 3:111.95 4:111.62 
-1 1:114.12 2:111.95 3:111.62 4:109.73 
