svm_type epsilon_svr
kernel_type rbf
gamma 0.25
nr_class 2
total_sv 4
rho -375.138
SV
-1 1:363.54999 2:364.75 3:373.89001 4:374.28 
-1 1:364.75 2:373.89001 3:374.28 4:370.56 
1 1:374.28 2:370.56 3:373 4:375.14001 
1 1:370.56 2:373 3:375.14001 4:377.17001 
