svm_type epsilon_svr
kernel_type rbf
gamma 0.25
nr_class 2
total_sv 5
rho -77.0804
SV
0.3261251552312712 1:74.05 2:75.18 3:76.24 4:76.74 
0.2102731002713651 1:75.18 2:76.24 3:76.74 4:77.65 
0.9957211098674026 1:76.24 2:76.74 3:77.65 4:77.83 
-1 1:76.74 2:77.65 3:77.83 4:77.5 
-0.5321193653700388 1:77.65 2:77.83 3:77.5 4:75.78 
