svm_type epsilon_svr
kernel_type rbf
gamma 0.25
nr_class 2
total_sv 5
rho -43.7246
SV
0.9528921971412591 1:44.45 2:44.28 3:44.11 4:42.62 
0.8684943728036811 1:44.28 2:44.11 3:42.62 4:43.99 
-0.1891661001289372 1:44.11 2:42.62 3:43.99 4:44.16 
-0.632220469816003 1:42.62 2:43.99 3:44.16 4:43.44 
-1 1:43.99 2:44.16 3:43.44 4:42.98 
