svm_type epsilon_svr
kernel_type rbf
gamma 0.25
nr_class 2
total_sv 4
rho -21.9305
SV
0.07540598152568317 1:20.81 2:20.48 3:21.24 4:21.63 
-0.4321764010467759 1:20.48 2:21.24 3:21.63 4:21.93 
0.4059324413017141 1:21.63 2:21.93 3:21.69 4:21.99 
-0.04916202178062142 1:21.93 2:21.69 3:21.99 4:22.15 
