svm_type epsilon_svr
kernel_type rbf
gamma 0.25
nr_class 2
total_sv 5
rho -538.988
SV
1 1:535.53003 2:536.76501 3:537.02002 4:541.60999 
0.9185521922310491 1:536.76501 2:537.02002 3:541.60999 4:540.78003 
0.08144780776895089 1:537.02002 2:541.60999 3:540.78003 4:540.01001 
-1 1:541.60999 2:540.78003 3:540.01001 4:539.16998 
-1 1:540.78003 2:540.01001 3:539.16998 4:530.39001 
