svm_type epsilon_svr
kernel_type rbf
gamma 0.25
nr_class 2
total_sv 4
rho -77.0718
SV
0.3466150879146588 1:80.77 2:80.78 3:80.02 4:79.22 
1 1:80.78 2:80.02 3:79.22 4:78.02 
-0.778614430389633 1:79.22 2:78.02 3:78.45 4:77.19 
-0.568000657525026 1:78.02 2:78.45 3:77.19 4:76.15 
