svm_type epsilon_svr
kernel_type rbf
gamma 0.25
nr_class 2
total_sv 4
rho -33.5409
SV
-0.2229779904697943 1:35.43 2:35.7 3:35.61 4:33.79 
-0.08376514864444266 1:35.61 2:33.79 3:33.21 4:33.33 
-0.6932568608857631 1:33.79 2:33.21 3:33.33 4:33.28 
1 1:33.21 2:33.33 3:33.28 4:33.6 
