svm_type epsilon_svr
kernel_type rbf
gamma 0.25
nr_class 2
total_sv 4
rho -82.2812
SV
0.3719251959680205 1:83.2 2:82.22 3:81.67 4:81.56 
0.007933818563827071 1:82.22 2:81.67 3:81.56 4:82.44 
0.1308817518452922 1:81.67 2:81.56 3:82.44 4:82.32 
-0.5107407663771397 1:82.44 2:82.32 3:82.28 4:82.17 
