svm_type epsilon_svr
kernel_type rbf
gamma 0.25
nr_class 2
total_sv 3
rho -32.9576
SV
-0.4957248928725075 1:33.63 2:33.77 3:33.61 4:33.46 
1 1:33.61 2:33.46 3:32.79 4:33.03 
-0.5042751071274925 1:33.46 2:32.79 3:33.03 4:33.3 
