svm_type epsilon_svr
kernel_type rbf
gamma 0.25
nr_class 2
total_sv 4
rho -576.08
SV
1 1:575.28003 2:582.66998 3:582.33502 4:584.72998 
-1 1:582.66998 2:582.33502 3:584.72998 4:582.25 
-1 1:584.72998 2:582.25 3:571.09003 4:576.08002 
1 1:582.25 2:571.09003 3:576.08002 4:571.09998 
