svm_type epsilon_svr
kernel_type rbf
gamma 0.25
nr_class 2
total_sv 5
rho -542.255
SV
1 1:527.83002 2:536.94 3:535.96997 4:542.92999 
0.4850149999754194 1:536.94 2:535.96997 3:542.92999 4:549.01001 
-1 1:535.96997 2:542.92999 3:549.01001 4:542.84003 
0.5149850000245806 1:542.92999 2:549.01001 3:542.84003 4:539.70001 
-1 1:549.01001 2:542.84003 3:539.70001 4:542.87 
