svm_type epsilon_svr
kernel_type rbf
gamma 0.25
nr_class 2
total_sv 4
rho -302.81
SV
-1 1:313.17999 2:287.06 3:289.97 4:295.59 
-1 1:287.06 2:289.97 3:295.59 4:294.12 
1 1:289.97 2:295.59 3:294.12 4:299.07001 
1 1:295.59 2:294.12 3:299.07001 4:305.45999 
