svm_type epsilon_svr
kernel_type rbf
gamma 0.25
nr_class 2
total_sv 4
rho -37.7389
SV
-0.6839538240818194 1:40.17 2:39.37 3:39.65 4:39.85 
-0.2698446519112039 1:39.37 2:39.65 3:39.85 4:36.93 
-0.04620152400697675 1:39.65 2:39.85 3:36.93 4:37.31 
1 1:36.93 2:37.31 3:37.57 4:37.83 
