svm_type epsilon_svr
kernel_type rbf
gamma 0.25
nr_class 2
total_sv 5
rho -74.8528
SV
0.3566279808094513 1:77.86 2:78.29 3:77.56 4:77.98 
-0.9292469265744303 1:78.29 2:77.56 3:77.98 4:75.2 
-0.6000227135517369 1:77.56 2:77.98 3:75.2 4:73.82 
0.172641659316716 1:77.98 2:75.2 3:73.82 4:74.1 
1 1:75.2 2:73.82 3:74.1 4:75.14 
