svm_type epsilon_svr
kernel_type rbf
gamma 0.25
nr_class 2
total_sv 5
rho -49.5199
SV
-0.7757425451948361 1:50.41 2:50.99 3:49.62 4:50.51 
0.4552073502476113 1:50.99 2:49.62 3:50.51 4:49.21 
1 1:49.62 2:50.51 3:49.21 4:49.94 
0.3205351949472249 1:50.51 2:49.21 3:49.94 4:50.24 
-1 1:49.21 2:49.94 3:50.24 4:49.82 
