svm_type epsilon_svr
kernel_type rbf
gamma 0.25
nr_class 2
total_sv 5
rho -46.0594
SV
0.2604545097228274 1:47.59 2:47.19 3:46.6 4:46.36 
-1 1:47.19 2:46.6 3:46.36 4:45.96 
0.452300872601058 1:46.6 2:46.36 3:45.96 4:45.48 
0.8266602692107636 1:46.36 2:45.96 3:45.48 4:46.24 
-0.5394156515346491 1:45.96 2:45.48 3:46.24 4:46.39 
