svm_type epsilon_svr
kernel_type rbf
gamma 0.25
nr_class 2
total_sv 5
rho -20.6015
SV
-0.9123932469197118 1:20.74 2:20.33 3:19.72 4:19.72 
1 1:20.33 2:19.72 3:19.72 4:20.39 
-0.5065715047771784 1:19.72 2:19.72 3:20.39 4:21.14 
0.03353870934584954 1:19.72 2:20.39 3:21.14 4:20.58 
0.3854260423510407 1:20.39 2:21.14 3:20.58 4:20.78 
