svm_type epsilon_svr
kernel_type rbf
gamma 0.25
nr_class 2
total_sv 5
rho -50.7772
SV
-0.4168529299682743 1:50.91 2:50.88 3:51.15 4:50.02 
0.4671135430866495 1:50.88 2:51.15 3:50.02 4:50.65 
-0.05026061311837517 1:51.15 2:50.02 3:50.65 4:50.86 
1 1:50.02 2:50.65 3:50.86 4:50.53 
-1 1:50.65 2:50.86 3:50.53 4:51.22 
