svm_type epsilon_svr
kernel_type rbf
gamma 0.25
nr_class 2
total_sv 5
rho -50.5219
SV
-0.4325851005267076 1:51.83 2:51.72 3:51.93 4:51.74 
0.3231343648077814 1:51.72 2:51.93 3:51.74 4:50.1 
-0.2442532218054322 1:51.93 2:51.74 3:50.1 4:50.67 
-0.1416033216251373 1:51.74 2:50.1 3:50.67 4:50.28 
0.4953072791494957 1:50.1 2:50.67 3:50.28 4:50.41 
