svm_type epsilon_svr
kernel_type rbf
gamma 0.25
nr_class 2
total_sv 4
rho -109.75
SV
1 1:115.49 2:115 3:112.4 4:114.12 
1 1:115 2:112.4 3:114.12 4:111.95 
-1 1:114.12 2:111.95 3:111.62 4:109.73 
-1 1:111.95 2:111.62 3:109.73 4:108.23 
