svm_type epsilon_svr
kernel_type rbf
gamma 0.25
nr_class 2
total_sv 3
rho -44.9448
SV
-0.1980280562440798 1:43.27 2:43.81 3:44.15 4:45.33 
0.1806925940275176 1:43.81 2:44.15 3:45.33 4:44.76 
0.01733546221656222 1:44.15 2:45.33 3:44.76 4:45.12 
