svm_type epsilon_svr
kernel_type rbf
gamma 0.25
nr_class 2
total_sv 5
rho -571.9
SV
-0.7999897965822811 1:583.37 2:582.56 3:580.20001 4:577.85999 
-1 1:582.56 2:580.20001 3:577.85999 4:571 
-0.2000102034177189 1:580.20001 2:577.85999 3:571 4:569.20001 
1 1:577.85999 2:571 3:569.20001 4:571.59998 
1 1:571 2:569.20001 3:571.59998 4:577.33002 
