svm_type epsilon_svr
kernel_type rbf
gamma 0.25
nr_class 2
total_sv 3
rho -32.7607
SV
0.5541620503976391 1:30.66 2:31.96 3:32.05 4:33.94 
0.1104760536837417 1:32.05 2:33.94 3:33.39 4:32.85 
-0.6646381040813807 1:33.39 2:32.85 3:32.77 4:32.26 
