svm_type epsilon_svr
kernel_type rbf
gamma 0.25
nr_class 2
total_sv 5
rho -37.801
SV
-1 1:38.31 2:37.88 3:37.43 4:36.87 
1 1:37.88 2:37.43 3:36.87 4:37.05 
-0.6930783941103037 1:37.43 2:36.87 3:37.05 4:38.05 
-0.3069216058896962 1:36.87 2:37.05 3:38.05 4:37.65 
1 1:37.05 2:38.05 3:37.65 4:37.75 
