svm_type epsilon_svr
kernel_type rbf
gamma 0.25
nr_class 2
total_sv 5
rho -126.747
SV
-1 1:124.51 2:122.24 3:124.45 4:123.59 
0.1825648805886259 1:122.24 2:124.45 3:123.59 4:124.95 
1 1:124.45 2:123.59 3:124.95 4:127.04 
0.6291462990441817 1:123.59 2:124.95 3:127.04 4:128.47 
-0.8117111796328076 1:124.95 2:127.04 3:128.47 4:127.5 
