svm_type epsilon_svr
kernel_type rbf
gamma 0.25
nr_class 2
total_sv 4
rho -76.2032
SV
-0.0145034530841649 1:76.1 2:75.77 3:75.81 4:76.32 
1 1:75.81 2:76.32 3:76.24 4:76.22 
0.0145034530841649 1:76.32 2:76.24 3:76.22 4:76.84 
-1 1:76.24 2:76.22 3:76.84 4:76.31 
