svm_type epsilon_svr
kernel_type rbf
gamma 0.25
nr_class 2
total_sv 5
rho -33.4698
SV
-1 1:32.98 2:32.75 3:32.82 4:33.14 
-1 1:32.75 2:32.82 3:33.14 4:32.96 
0.3446699239012172 1:32.82 2:33.14 3:32.96 4:33.01 
1 1:33.14 2:32.96 3:33.01 4:33.35 
0.6553300760987828 1:32.96 2:33.01 3:33.35 4:34.31 
