svm_type epsilon_svr
kernel_type rbf
gamma 0.25
nr_class 2
total_sv 5
rho -46.5698
SV
0.1198961104408864 1:48.15 2:47.71 3:47.57 4:47.35 
1 1:47.71 2:47.57 3:47.35 4:46.75 
-1 1:47.57 2:47.35 3:46.75 4:47.59 
-0.7707725974014484 1:47.35 2:46.75 3:47.59 4:45.84 
0.6508764869605621 1:46.75 2:47.59 3:45.84 4:46.27 
