svm_type epsilon_svr
kernel_type rbf
gamma 0.25
nr_class 2
total_sv 4
rho -518.63
SV
1 1:506.89999 2:518.03998 3:534.39001 4:539.95001 
-1 1:534.39001 2:539.95001 3:535.21002 4:518.63 
-1 1:539.95001 2:535.21002 3:518.63 4:510 
1 1:535.21002 2:518.63 3:510 4:510.66 
