svm_type epsilon_svr
kernel_type rbf
gamma 0.25
nr_class 2
total_sv 4
rho -51.6159
SV
-0.114423290073659 1:50.58 2:51.25 3:51.04 4:51.83 
1 1:51.25 2:51.04 3:51.83 4:51.72 
0.114423290073659 1:51.04 2:51.83 3:51.72 4:51.93 
-1 1:51.83 2:51.72 3:51.93 4:51.74 
