svm_type epsilon_svr
kernel_type rbf
gamma 0.25
nr_class 2
total_sv 4
rho -41.7974
SV
1 1:43.28 2:43.06 3:43.11 4:42.36 
0.03662028048757158 1:43.06 2:43.11 3:42.36 4:42.85 
-1 1:42.36 2:42.85 3:42.03 4:41.98 
-0.03662028048757158 1:42.85 2:42.03 3:41.98 4:41.02 
