svm_type epsilon_svr
kernel_type rbf
gamma 0.25
nr_class 2
total_sv 5
rho -74.5436
SV
-1 1:73.44 2:72.83 3:73.77 4:74.3 
0.07340613357798752 1:72.83 2:73.77 3:74.3 4:73.63 
1 1:73.77 2:74.3 3:73.63 4:74.59 
0.1776883498049325 1:74.3 2:73.63 3:74.59 4:75.29 
-0.25109448338292 1:73.63 2:74.59 3:75.29 4:74.81 
