svm_type epsilon_svr
kernel_type rbf
gamma 0.25
nr_class 2
total_sv 4
rho -46.702
SV
-1 1:47.02 2:46.45 3:46.76 4:46.33 
-0.5171981623497278 1:46.45 2:46.76 3:46.33 4:45.65 
1 1:46.76 2:46.33 3:45.65 4:46.23 
0.5171981623497278 1:46.33 2:45.65 3:46.23 4:47.59 
