svm_type epsilon_svr
kernel_type rbf
gamma 0.25
nr_class 2
total_sv 3
rho -41.7809
SV
1 1:41.7 2:41.87 3:41.9 4:41.8 
-0.9072606028273419 1:41.9 2:41.8 3:41.99 4:41.78 
-0.09273939717265814 1:41.8 2:41.99 3:41.78 4:41.67 
