svm_type epsilon_svr
kernel_type rbf
gamma 0.25
nr_class 2
total_sv 5
rho -43.9087
SV
0.7815589208656342 1:43.38 2:44.43 3:44.45 4:44.28 
-1 1:44.43 2:44.45 3:44.28 4:44.11 
0.2258517156946362 1:44.45 2:44.28 3:44.11 4:42.62 
0.4546433529109006 1:44.28 2:44.11 3:42.62 4:43.99 
-0.4620539894711709 1:44.11 2:42.62 3:43.99 4:44.16 
