svm_type epsilon_svr
kernel_type rbf
gamma 0.25
nr_class 2
total_sv 4
rho -33.1771
SV
0.5768487476095282 1:33.08 2:33.03 3:33.14 4:33.31 
1 1:33.14 2:33.31 3:33.32 4:33.27 
-1 1:33.31 2:33.32 3:33.27 4:33.36 
-0.5768487476095282 1:33.32 2:33.27 3:33.36 4:33.04 
