svm_type epsilon_svr
kernel_type rbf
gamma 0.25
nr_class 2
total_sv 4
rho -35.8193
SV
1 1:35.92 2:36.04 3:36.31 4:36.63 
1 1:36.04 2:36.31 3:36.63 4:36.78 
-1 1:36.31 2:36.63 3:36.78 4:36.94 
-1 1:36.63 2:36.78 3:36.94 4:34.81 
