svm_type epsilon_svr
kernel_type rbf
gamma 0.25
nr_class 2
total_sv 5
rho -75.8864
SV
1 1:73.6 2:73.75 3:74.01 4:75.63 
1 1:73.75 2:74.01 3:75.63 4:77.62 
-0.8715850917740106 1:74.01 2:75.63 3:77.62 4:77.7 
-0.2376102981415554 1:75.63 2:77.62 3:77.7 4:75.1 
-0.8908046100844341 1:77.62 2:77.7 3:75.1 4:75.46 
