svm_type epsilon_svr
kernel_type rbf
gamma 0.25
nr_class 2
total_sv 5
rho -83.6922
SV
0.3087510069741006 1:84.6 2:84.57 3:83.57 4:83.8 
0.7799920442691292 1:84.57 2:83.57 3:83.8 4:83.93 
-0.1465447301334377 1:83.57 2:83.8 3:83.93 4:83.96 
-1 1:83.8 2:83.93 3:83.96 4:83.37 
0.05780167889020781 1:83.93 2:83.96 3:83.37 4:82.58 
