svm_type epsilon_svr
kernel_type rbf
gamma 0.25
nr_class 2
total_sv 5
rho -33.2521
SV
-0.6433308165465389 1:33.77 2:34 3:32.44 4:31.75 
-0.3485742819528471 1:34 2:32.44 3:31.75 4:32.58 
0.743581956888121 1:32.44 2:31.75 3:32.58 4:32.9 
-0.751676858388735 1:31.75 2:32.58 3:32.9 4:33.89 
1 1:32.58 2:32.9 3:33.89 4:33.33 
