svm_type epsilon_svr
kernel_type rbf
gamma 0.25
nr_class 2
total_sv 4
rho -76.7962
SV
-1 1:76.82 2:76.55 3:76.84 4:76.86 
1 1:76.55 2:76.84 3:76.86 4:76.61 
-0.201253596007806 1:76.86 2:76.61 3:77.09 4:76.77 
0.201253596007806 1:76.61 2:77.09 3:76.77 4:76.64 
