svm_type epsilon_svr
kernel_type rbf
gamma 0.25
nr_class 2
total_sv 3
rho -46.1278
SV
0.7368719533423288 1:47.08 2:46.04 3:46.41 4:46.44 
-1 1:46.41 2:46.44 3:46.36 4:45.9 
0.2631280466576712 1:46.44 2:46.36 3:45.9 4:45.76 
