svm_type epsilon_svr
kernel_type rbf
gamma 0.25
nr_class 2
total_sv 4
rho -76.9516
SV
-0.567587317261585 1:75.53 2:75.98 3:76.77 4:76.76 
0.2014411486922024 1:75.98 2:76.77 3:76.76 4:76.71 
0.8394735483347385 1:76.77 2:76.76 3:76.71 4:77.13 
-0.4733273797653558 1:76.71 2:77.13 3:77.32 4:77.21 
