svm_type epsilon_svr
kernel_type rbf
gamma 0.25
nr_class 2
total_sv 4
rho -33.9854
SV
0.6524799011520586 1:36.94 2:34.81 3:34.43 4:34.94 
0.1394504043547 1:34.81 2:34.43 3:34.94 4:34.68 
-0.03754346210266057 1:34.43 2:34.94 3:34.68 4:34.05 
-0.7543868434040979 1:34.68 2:34.05 3:33.64 4:33.48 
