svm_type epsilon_svr
kernel_type rbf
gamma 0.25
nr_class 2
total_sv 4
rho -117.4
SV
1 1:116.31 2:116.47 3:118.63 4:117.6 
1 1:116.47 2:118.63 3:117.6 4:119 
-1 1:118.63 2:117.6 3:119 4:118.93 
-1 1:117.6 2:119 3:118.93 4:115.07 
