svm_type epsilon_svr
kernel_type rbf
gamma 0.25
nr_class 2
total_sv 4
rho -102.076
SV
-0.2600987185993692 1:100.58 2:101.32 3:101.54 4:100.89 
0.2600987185993692 1:101.54 2:100.89 3:102.13 4:102.25 
1 1:100.89 2:102.13 3:102.25 4:102.5 
-1 1:102.13 2:102.25 3:102.5 4:103.3 
