svm_type epsilon_svr
kernel_type rbf
gamma 0.25
nr_class 2
total_sv 4
rho -518.04
SV
-1 1:492.54999 2:496.17999 3:500.87 4:501.79001 
-1 1:496.17999 2:500.87 3:501.79001 4:508.07999 
1 1:501.79001 2:508.07999 3:506.89999 4:518.03998 
1 1:508.07999 2:506.89999 3:518.03998 4:534.39001 
