svm_type epsilon_svr
kernel_type rbf
gamma 0.25
nr_class 2
total_sv 5
rho -49.1787
SV
-0.6674437405113525 1:45.06 2:45.11 3:45.98 4:46.1 
-0.9532749062505341 1:45.11 2:45.98 3:46.1 4:48.17 
0.3794804183190582 1:45.98 2:46.1 3:48.17 4:48.06 
0.2412382284428284 1:46.1 2:48.17 3:48.06 4:49.43 
1 1:48.17 2:48.06 3:49.43 4:49.75 
