svm_type epsilon_svr
kernel_type rbf
gamma 0.25
nr_class 2
total_sv 5
rho -78.831
SV
1 1:78.97 2:79.75 3:79.6 4:80.9 
0.4750175063513351 1:79.75 2:79.6 3:80.9 4:81.21 
0.4712481230377907 1:79.6 2:80.9 3:81.21 4:80.01 
-1 1:80.9 2:81.21 3:80.01 4:79.44 
-0.9462656293891257 1:81.21 2:80.01 3:79.44 4:77.55 
