svm_type epsilon_svr
kernel_type rbf
gamma 0.25
nr_class 2
total_sv 4
rho -51.5141
SV
0.02622586155680664 1:51.2 2:51.3 3:52.03 4:50.66 
0.7945766852954623 1:52.03 2:50.66 3:51.4 4:51.32 
0.1791974531477311 1:50.66 2:51.4 3:51.32 4:51.73 
-1 1:51.4 2:51.32 3:51.73 4:51.41 
