svm_type epsilon_svr
kernel_type rbf
gamma 0.25
nr_class 2
total_sv 5
rho -576.907
SV
1 1:589.27002 2:596.08002 3:587.37 4:581.13 
-1 1:596.08002 2:587.37 3:581.13 4:587.98999 
0.09296210937492333 1:587.37 2:581.13 3:587.98999 4:575.06 
-0.4464810546874673 1:581.13 2:587.98999 3:575.06 4:577.09998 
0.353518945312544 1:587.98999 2:575.06 3:577.09998 4:576.35999 
