svm_type epsilon_svr
kernel_type rbf
gamma 0.25
nr_class 2
total_sv 4
rho -558.84
SV
-1 1:553.92999 2:544.94 3:544.65997 4:553.90002 
1 1:544.94 2:544.65997 3:553.90002 4:556.33002 
1 1:544.65997 2:553.90002 3:556.33002 4:562.12 
-1 1:556.33002 2:562.12 3:560.54999 4:558.84003 
