svm_type epsilon_svr
kernel_type rbf
gamma 0.25
nr_class 2
total_sv 4
rho -46.8856
SV
-0.9044585915483869 1:44.7 2:45.87 3:45.43 4:45.63 
-1 1:45.87 2:45.43 3:45.63 4:46.05 
1 1:45.43 2:45.63 3:46.05 4:46.34 
0.9044585915483869 1:46.05 2:46.34 3:47.08 4:47.46 
