svm_type epsilon_svr
kernel_type rbf
gamma 0.25
nr_class 2
total_sv 4
rho -36.2929
SV
0.2830127067036601 1:38.43 2:37.57 3:37.61 4:37.6 
-0.2814813996728122 1:37.57 2:37.61 3:37.6 4:36.42 
-0.6251110760528779 1:37.61 2:37.6 3:36.42 4:35.86 
0.6235797690220298 1:37.6 2:36.42 3:35.86 4:35.87 
