svm_type epsilon_svr
kernel_type rbf
gamma 0.25
nr_class 2
total_sv 5
rho -32.5899
SV
0.1457261423593881 1:32.27 2:32.62 3:33.28 4:33.15 
1 1:32.62 2:33.28 3:33.15 4:33.05 
0.8542738576406119 1:33.28 2:33.15 3:33.05 4:33.27 
-1 1:33.15 2:33.05 3:33.27 4:33 
-1 1:33.05 2:33.27 3:33 4:31.78 
