svm_type epsilon_svr
kernel_type rbf
gamma 0.25
nr_class 2
total_sv 4
rho -36.771
SV
1 1:39.04 2:38.91 3:39.06 4:38.79 
-1 1:38.91 2:39.06 3:38.79 4:38.49 
0.360532197165205 1:39.06 2:38.79 3:38.49 4:36.29 
-0.360532197165205 1:38.79 2:38.49 3:36.29 4:37.05 
