svm_type epsilon_svr
kernel_type rbf
gamma 0.25
nr_class 2
total_sv 4
rho -583.33
SV
-1 1:567.88 2:562.72998 3:574.78003 4:574.65002 
-1 1:562.72998 2:574.78003 3:574.65002 4:573.47998 
1 1:574.78003 2:574.65002 3:573.47998 4:582.15997 
1 1:574.65002 2:573.47998 3:582.15997 4:586.85999 
