svm_type epsilon_svr
kernel_type rbf
gamma 0.25
nr_class 2
total_sv 5
rho -363.41
SV
-1 1:312.39001 2:309.66 3:306.75 4:303.91 
-1 1:309.66 2:306.75 3:303.91 4:311.78 
0.9600050000000238 1:306.75 2:303.91 3:311.78 4:354.53 
0.03999499999997624 1:303.91 2:311.78 3:354.53 4:364.47 
1 1:311.78 2:354.53 3:364.47 4:363.54999 
