svm_type epsilon_svr
kernel_type rbf
gamma 0.25
nr_class 2
total_sv 4
rho -47.4121
SV
1 1:47.52 2:47.66 3:47.98 4:48.45 
0.02553489729139845 1:47.66 2:47.98 3:48.45 4:48.14 
-0.02553489729139845 1:48.45 2:48.14 3:47.88 4:47.45 
-1 1:48.14 2:47.88 3:47.45 4:47.02 
