svm_type epsilon_svr
kernel_type rbf
gamma 0.25
nr_class 2
total_sv 4
rho -125.278
SV
0.7916003996274481 1:126.69 2:123.38 3:124.24 4:123.25 
-0.7916003996274481 1:123.38 2:124.24 3:123.25 4:126.37 
-1 1:124.24 2:123.25 3:126.37 4:124.43 
1 1:126.37 2:124.43 3:124.25 4:125.32 
