svm_type epsilon_svr
kernel_type rbf
gamma 0.25
nr_class 2
total_sv 5
rho -50.4801
SV
-1 1:48.06 2:49.43 3:49.75 4:51.02 
-0.2667164092175448 1:49.43 2:49.75 3:51.02 4:49.33 
0.1140477536981683 1:49.75 2:51.02 3:49.33 4:50.24 
1 1:51.02 2:49.33 3:50.24 4:50.7 
0.1526686555193765 1:49.33 2:50.24 3:50.7 4:52 
