svm_type epsilon_svr
kernel_type rbf
gamma 0.25
nr_class 2
total_sv 5
rho -537.348
SV
1 1:541.01001 2:547.48999 3:550.28998 4:547.31 
1 1:547.48999 2:550.28998 3:547.31 4:545.38 
-0.7423608346925334 1:550.28998 2:547.31 3:545.38 4:544.40002 
-1 1:547.31 2:545.38 3:544.40002 4:536.51001 
-0.2576391653074666 1:545.38 2:544.40002 3:536.51001 4:535.03003 
