svm_type epsilon_svr
kernel_type rbf
gamma 0.25
nr_class 2
total_sv 5
rho -529.807
SV
-0.9364593935534344 1:511.10001 2:516.34998 3:524.87 4:530.59003 
1 1:516.34998 2:524.87 3:530.59003 4:528.77002 
0.4235648456801158 1:524.87 2:530.59003 3:528.77002 4:534.03003 
0.5128945478733187 1:530.59003 2:528.77002 3:534.03003 4:530.33002 
-1 1:528.77002 2:534.03003 3:530.33002 4:530.41998 
