svm_type epsilon_svr
kernel_type rbf
gamma 0.25
nr_class 2
total_sv 5
rho -31.7907
SV
0.7909963145764968 1:33.37 2:33.35 3:33.5 4:32.83 
-0.2789283424169264 1:33.35 2:33.5 3:32.83 4:32.31 
-0.5084346936280033 1:33.5 2:32.83 3:32.31 4:31.88 
0.996366721468433 1:32.83 2:32.31 3:31.88 4:31.66 
-1 1:32.31 2:31.88 3:31.66 4:31.68 
