svm_type epsilon_svr
kernel_type rbf
gamma 0.25
nr_class 2
total_sv 5
rho -46.4216
SV
0.4732672673305719 1:48.42 2:47.7 3:47.59 4:46.9 
0.9090497821174559 1:47.7 2:47.59 3:46.9 4:47.17 
0.07019017159049773 1:47.59 2:46.9 3:47.17 4:46.95 
-1 1:46.9 2:47.17 3:46.95 4:46.67 
-0.4525072210385256 1:47.17 2:46.95 3:46.67 4:45.16 
