svm_type epsilon_svr
kernel_type rbf
gamma 0.25
nr_class 2
total_sv 3
rho -17.9817
SV
0.8687203805058817 1:17.47 2:17.53 3:18.43 4:18.02 
0.1312796194941183 1:17.53 2:18.43 3:18.02 4:18.3 
-1 1:18.02 2:18.3 3:18.01 4:17.75 
