svm_type epsilon_svr
kernel_type rbf
gamma 0.25
nr_class 2
total_sv 5
rho -40.2284
SV
-0.2057683218684399 1:39.75 2:39.68 3:40.35 4:40.1 
-0.08601732022970492 1:39.68 2:40.35 3:40.1 4:40.12 
-1 1:40.35 2:40.1 3:40.12 4:40.19 
0.2917856420981448 1:40.1 2:40.12 3:40.19 4:40.01 
1 1:40.12 2:40.19 3:40.01 4:40.34 
