svm_type epsilon_svr
kernel_type rbf
gamma 0.25
nr_class 2
total_sv 3
rho -39.754
SV
-0.5255116208008788 1:39.54 2:39.97 3:40.42 4:40.24 
-0.4744883791991212 1:40.24 2:39.6 3:39.83 4:39.75 
1 1:39.6 2:39.83 3:39.75 4:39.68 
