svm_type epsilon_svr
kernel_type rbf
gamma 0.25
nr_class 2
total_sv 5
rho -32.9668
SV
-0.8167304883100536 1:38.75 2:31.85 3:30.66 4:31.96 
0.8604686751279698 1:31.85 2:30.66 3:31.96 4:32.05 
0.2115653345778349 1:30.66 2:31.96 3:32.05 4:33.94 
-0.1632869034303951 1:31.96 2:32.05 3:33.94 4:33.39 
-0.09201661796535605 1:32.05 2:33.94 3:33.39 4:32.85 
