svm_type epsilon_svr
kernel_type rbf
gamma 0.25
nr_class 2
total_sv 5
rho -101.458
SV
0.1444669567351944 1:97.99 2:101 3:101.43 4:101.66 
-1 1:101 2:101.43 3:101.66 4:101.63 
0.5596144936129889 1:101.43 2:101.66 3:101.63 4:100.86 
1 1:101.66 2:101.63 3:100.86 4:101.58 
-0.7040814503481834 1:101.63 2:100.86 3:101.58 4:101.79 
