svm_type epsilon_svr
kernel_type rbf
gamma 0.25
nr_class 2
total_sv 4
rho -295.59
SV
1 1:302.85999 2:303.64001 3:306.20999 4:315.32999 
1 1:303.64001 2:306.20999 3:315.32999 4:312.97 
-1 1:306.20999 2:315.32999 3:312.97 4:313.17999 
-1 1:315.32999 2:312.97 3:313.17999 4:287.06 
