svm_type epsilon_svr
kernel_type rbf
gamma 0.25
nr_class 2
total_sv 4
rho -382.72
SV
1 1:385.37 2:384.79999 3:380.16 4:385.66 
1 1:380.16 2:385.66 3:384.60999 4:382.72 
-1 1:385.66 2:384.60999 3:382.72 4:387.82999 
-1 1:384.60999 2:382.72 3:387.82999 4:380.09 
