svm_type epsilon_svr
kernel_type rbf
gamma 0.25
nr_class 2
total_sv 3
rho -99.4657
SV
0.517555273536213 1:100.75 2:100.11 3:100.75 4:99.18 
0.482444726463787 1:100.11 2:100.75 3:99.18 4:99.9 
-1 1:99.18 2:99.9 3:99.62 4:99.62 
