svm_type epsilon_svr
kernel_type rbf
gamma 0.25
nr_class 2
total_sv 5
rho -75.6165
SV
-0.03621053295776159 1:75.63 2:77.62 3:77.7 4:75.1 
-0.6202437952280047 1:77.62 2:77.7 3:75.1 4:75.46 
-0.3328448130728546 1:77.7 2:75.1 3:75.46 4:74.88 
0.2963624340387271 1:75.1 2:75.46 3:74.88 4:75.24 
0.6929367072198935 1:75.46 2:74.88 3:75.24 4:76.36 
