svm_type epsilon_svr
kernel_type rbf
gamma 0.25
nr_class 2
total_sv 5
rho -27.3863
SV
0.2842582582739626 1:25.82 2:26.75 3:28.11 4:27.85 
0.7157417417260374 1:26.75 2:28.11 3:27.85 4:27.91 
1 1:28.11 2:27.85 3:27.91 4:27.78 
-1 1:27.85 2:27.91 3:27.78 4:27.57 
-1 1:27.91 2:27.78 3:27.57 4:26.69 
