svm_type epsilon_svr
kernel_type rbf
gamma 0.25
nr_class 2
total_sv 4
rho -51.6383
SV
-0.04796581215704007 1:49.41 2:49.05 3:50.6 4:50.5 
0.7127111456332189 1:49.05 2:50.6 3:50.5 4:51.75 
0.3352546665238213 1:50.6 2:50.5 3:51.75 4:52.37 
-1 1:50.5 2:51.75 3:52.37 4:51.75 
